<?xml version="1.0"?>
<MethodSetup Method="BDT::BDTG">
  <GeneralInfo>
    <Info name="TMVA Release" value="4.2.1 [262657]"/>
    <Info name="ROOT Release" value="6.06/01 [394753]"/>
    <Info name="Creator" value="peruzzi"/>
    <Info name="Date" value="Wed Jan 25 18:45:26 2017"/>
    <Info name="Host" value="Linux vocms0301.cern.ch 2.6.32-642.11.1.el6.x86_64 #1 SMP Wed Nov 16 09:40:09 CET 2016 x86_64 x86_64 x86_64 GNU/Linux"/>
    <Info name="Dir" value="/data1/peruzzi/finalMVA_training_80X_M17"/>
    <Info name="Training events" value="127614"/>
    <Info name="TrainingTime" value="5.00197721e+01"/>
    <Info name="AnalysisType" value="Classification"/>
  </GeneralInfo>
  <Options>
    <Option name="V" modified="Yes">False</Option>
    <Option name="VerbosityLevel" modified="No">Default</Option>
    <Option name="VarTransform" modified="No">None</Option>
    <Option name="H" modified="Yes">False</Option>
    <Option name="CreateMVAPdfs" modified="Yes">True</Option>
    <Option name="IgnoreNegWeightsInTraining" modified="No">False</Option>
    <Option name="NTrees" modified="Yes">200</Option>
    <Option name="MaxDepth" modified="Yes">2</Option>
    <Option name="MinNodeSize" modified="No">0.0783613.2</Option>
    <Option name="nCuts" modified="Yes">200</Option>
    <Option name="BoostType" modified="Yes">Grad</Option>
    <Option name="AdaBoostR2Loss" modified="No">quadratic</Option>
    <Option name="UseBaggedBoost" modified="No">False</Option>
    <Option name="Shrinkage" modified="Yes">1.000000e-01</Option>
    <Option name="AdaBoostBeta" modified="No">5.000000e-01</Option>
    <Option name="UseRandomisedTrees" modified="No">False</Option>
    <Option name="UseNvars" modified="No">3</Option>
    <Option name="UsePoissonNvars" modified="No">True</Option>
    <Option name="BaggedSampleFraction" modified="No">6.000000e-01</Option>
    <Option name="UseYesNoLeaf" modified="No">True</Option>
    <Option name="NegWeightTreatment" modified="Yes">pairnegweightsglobal</Option>
    <Option name="Css" modified="No">1.000000e+00</Option>
    <Option name="Cts_sb" modified="No">1.000000e+00</Option>
    <Option name="Ctb_ss" modified="No">1.000000e+00</Option>
    <Option name="Cbb" modified="No">1.000000e+00</Option>
    <Option name="NodePurityLimit" modified="No">5.000000e-01</Option>
    <Option name="SeparationType" modified="No">giniindex</Option>
    <Option name="DoBoostMonitor" modified="No">False</Option>
    <Option name="UseFisherCuts" modified="No">False</Option>
    <Option name="MinLinCorrForFisher" modified="No">8.000000e-01</Option>
    <Option name="UseExclusiveVars" modified="No">False</Option>
    <Option name="DoPreselection" modified="No">False</Option>
    <Option name="SigToBkgFraction" modified="No">1.000000e+00</Option>
    <Option name="PruneMethod" modified="No">nopruning</Option>
    <Option name="PruneStrength" modified="No">0.000000e+00</Option>
    <Option name="PruningValFraction" modified="No">5.000000e-01</Option>
    <Option name="nEventsMin" modified="Yes">100</Option>
    <Option name="UseBaggedGrad" modified="Yes">False</Option>
    <Option name="GradBaggingFraction" modified="No">6.000000e-01</Option>
    <Option name="UseNTrainEvents" modified="No">0</Option>
    <Option name="NNodesMax" modified="Yes">5</Option>
  </Options>
  <Variables NVar="7">
    <Variable VarIndex="0" Expression="max(abs(LepGood_eta[iLepFO_Recl[0]]),abs(LepGood_eta[iLepFO_Recl[1]]))" Label="max_Lep_eta" Title="max_Lep_eta" Unit="" Internal="max_Lep_eta" Type="F" Min="5.35641145e-03" Max="2.49971628e+00"/>
    <Variable VarIndex="1" Expression="nJetSel_Recl" Label="numJets_float" Title="numJets_float" Unit="" Internal="numJets_float" Type="F" Min="4.00000000e+00" Max="1.30000000e+01"/>
    <Variable VarIndex="2" Expression="mindr_lep1_jet" Label="mindr_lep1_jet" Title="mindr_lep1_jet" Unit="" Internal="mindr_lep1_jet" Type="F" Min="2.75008976e-01" Max="4.02955008e+00"/>
    <Variable VarIndex="3" Expression="mindr_lep2_jet" Label="mindr_lep2_jet" Title="mindr_lep2_jet" Unit="" Internal="mindr_lep2_jet" Type="F" Min="2.57320493e-01" Max="4.32878304e+00"/>
    <Variable VarIndex="4" Expression="MT_met_lep1" Label="MT_met_lep1" Title="MT_met_lep1" Unit="" Internal="MT_met_lep1" Type="F" Min="1.84370170e-03" Max="1.22149890e+03"/>
    <Variable VarIndex="5" Expression="min(met_pt,400)" Label="met" Title="met" Unit="" Internal="met" Type="F" Min="1.10692069e-01" Max="4.00000000e+02"/>
    <Variable VarIndex="6" Expression="avg_dr_jet" Label="avg_dr_jet" Title="avg_dr_jet" Unit="" Internal="avg_dr_jet" Type="F" Min="6.99545324e-01" Max="4.01493692e+00"/>
  </Variables>
  <Spectators NSpec="3">
    <Spectator SpecIndex="0" Expression="iLepFO_Recl[0]" Label="iF0" Title="F" Unit="" Internal="iF0" Type="F" Min="0.00000000e+00" Max="3.00000000e+00"/>
    <Spectator SpecIndex="1" Expression="iLepFO_Recl[1]" Label="iF1" Title="F" Unit="" Internal="iF1" Type="F" Min="0.00000000e+00" Max="4.00000000e+00"/>
    <Spectator SpecIndex="2" Expression="iLepFO_Recl[2]" Label="iF2" Title="F" Unit="" Internal="iF2" Type="F" Min="0.00000000e+00" Max="4.00000000e+00"/>
  </Spectators>
  <Classes NClass="2">
    <Class Name="Signal" Index="0"/>
    <Class Name="Background" Index="1"/>
  </Classes>
  <Transformations NTransformations="0"/>
  <MVAPdfs>
    <PDF Name="BDTG_PDFSig" MinNSmooth="0" MaxNSmooth="0" InterpolMethod="2" KDE_type="1" KDE_iter="1" KDE_border="1" KDE_finefactor="1.0000000000000000e+00">
      <Histogram Name="BDT_tr_S_original" NBins="2552" XMin="-9.0419322252273560e-01" XMax="9.0201169252395630e-01" HasEquidistantBins="1">
        0.00000000e+00 0.00000000e+00 0.00000000e+00 0.00000000e+00 0.00000000e+00 0.00000000e+00 0.00000000e+00 0.00000000e+00 0.00000000e+00 0.00000000e+00 0.00000000e+00 0.00000000e+00 0.00000000e+00 0.00000000e+00 0.00000000e+00 0.00000000e+00 0.00000000e+00 0.00000000e+00 0.00000000e+00 0.00000000e+00 0.00000000e+00 0.00000000e+00 0.00000000e+00 0.00000000e+00 0.00000000e+00 0.00000000e+00 0.00000000e+00 0.00000000e+00 0.00000000e+00 0.00000000e+00 0.00000000e+00 0.00000000e+00 0.00000000e+00 0.00000000e+00 0.00000000e+00 0.00000000e+00 0.00000000e+00 0.00000000e+00 0.00000000e+00 0.00000000e+00 0.00000000e+00 0.00000000e+00 0.00000000e+00 0.00000000e+00 0.00000000e+00 0.00000000e+00 0.00000000e+00 0.00000000e+00 0.00000000e+00 0.00000000e+00 0.00000000e+00 0.00000000e+00 0.00000000e+00 0.00000000e+00 0.00000000e+00 0.00000000e+00 0.00000000e+00 0.00000000e+00 0.00000000e+00 0.00000000e+00 0.00000000e+00 0.00000000e+00 0.00000000e+00 0.00000000e+00 0.00000000e+00 0.00000000e+00 0.00000000e+00 0.00000000e+00 0.00000000e+00 0.00000000e+00 0.00000000e+00 0.00000000e+00 0.00000000e+00 0.00000000e+00 0.00000000e+00 0.00000000e+00 0.00000000e+00 0.00000000e+00 0.00000000e+00 0.00000000e+00 0.00000000e+00 0.00000000e+00 0.00000000e+00 0.00000000e+00 0.00000000e+00 0.00000000e+00 0.00000000e+00 0.00000000e+00 0.00000000e+00 0.00000000e+00 0.00000000e+00 0.00000000e+00 0.00000000e+00 0.00000000e+00 0.00000000e+00 0.00000000e+00 0.00000000e+00 0.00000000e+00 0.00000000e+00 0.00000000e+00 3.24314199e-02 0.00000000e+00 0.00000000e+00 0.00000000e+00 0.00000000e+00 0.00000000e+00 0.00000000e+00 0.00000000e+00 0.00000000e+00 0.00000000e+00 0.00000000e+00 0.00000000e+00 0.00000000e+00 0.00000000e+00 0.00000000e+00 0.00000000e+00 0.00000000e+00 0.00000000e+00 0.00000000e+00 0.00000000e+00 0.00000000e+00 0.00000000e+00 0.00000000e+00 0.00000000e+00 0.00000000e+00 3.24314199e-02 0.00000000e+00 0.00000000e+00 3.24314199e-02 0.00000000e+00 0.00000000e+00 3.24314199e-02 0.00000000e+00 0.00000000e+00 0.00000000e+00 0.00000000e+00 0.00000000e+00 0.00000000e+00 3.24314199e-02 0.00000000e+00 3.24314199e-02 6.48628398e-02 6.48628398e-02 0.00000000e+00 0.00000000e+00 0.00000000e+00 0.00000000e+00 0.00000000e+00 0.00000000e+00 0.00000000e+00 3.24314199e-02 0.00000000e+00 0.00000000e+00 0.00000000e+00 0.00000000e+00 0.00000000e+00 0.00000000e+00 0.00000000e+00 0.00000000e+00 0.00000000e+00 3.24314199e-02 0.00000000e+00 3.24314199e-02 0.00000000e+00 0.00000000e+00 0.00000000e+00 0.00000000e+00 0.00000000e+00 0.00000000e+00 0.00000000e+00 0.00000000e+00 3.24314199e-02 3.24314199e-02 0.00000000e+00 0.00000000e+00 0.00000000e+00 0.00000000e+00 0.00000000e+00 0.00000000e+00 0.00000000e+00 0.00000000e+00 3.24314199e-02 0.00000000e+00 0.00000000e+00 0.00000000e+00 0.00000000e+00 0.00000000e+00 3.24314199e-02 0.00000000e+00 0.00000000e+00 3.24314199e-02 0.00000000e+00 0.00000000e+00 3.24314199e-02 0.00000000e+00 3.24314199e-02 0.00000000e+00 0.00000000e+00 0.00000000e+00 6.48628398e-02 0.00000000e+00 3.24314199e-02 6.48628398e-02 3.24314199e-02 0.00000000e+00 0.00000000e+00 0.00000000e+00 3.24314199e-02 3.24314199e-02 0.00000000e+00 6.48628398e-02 3.24314199e-02 3.24314199e-02 6.48628398e-02 0.00000000e+00 3.24314199e-02 6.48628398e-02 3.24314199e-02 3.24314199e-02 3.24314199e-02 3.24314199e-02 0.00000000e+00 0.00000000e+00 3.24314199e-02 0.00000000e+00 0.00000000e+00 0.00000000e+00 6.48628398e-02 3.24314199e-02 0.00000000e+00 6.48628398e-02 3.24314199e-02 0.00000000e+00 0.00000000e+00 0.00000000e+00 3.24314199e-02 3.24314199e-02 0.00000000e+00 9.72942597e-02 3.24314199e-02 0.00000000e+00 6.48628398e-02 6.48628398e-02 3.24314199e-02 3.24314199e-02 0.00000000e+00 0.00000000e+00 0.00000000e+00 3.24314199e-02 0.00000000e+00 6.48628398e-02 0.00000000e+00 3.24314199e-02 6.48628398e-02 0.00000000e+00 0.00000000e+00 0.00000000e+00 9.72942597e-02 3.24314199e-02 3.24314199e-02 3.24314199e-02 9.72942597e-02 6.48628398e-02 9.72942597e-02 -3.24314199e-02 6.48628398e-02 3.24314199e-02 3.24314199e-02 6.48628398e-02 3.24314199e-02 6.48628398e-02 6.48628398e-02 0.00000000e+00 3.24314199e-02 6.48628398e-02 6.48628398e-02 3.24314199e-02 9.72942597e-02 6.48628398e-02 6.48628398e-02 0.00000000e+00 3.24314199e-02 3.24314199e-02 3.24314199e-02 3.24314199e-02 6.48628398e-02 3.24314199e-02 3.24314199e-02 3.24314199e-02 9.72942597e-02 1.29725680e-01 3.24314199e-02 1.29725680e-01 0.00000000e+00 6.48628398e-02 3.24314199e-02 3.24314199e-02 1.94588519e-01 3.24314199e-02 9.72942597e-02 0.00000000e+00 9.72942597e-02 6.48628398e-02 6.48628398e-02 6.48628398e-02 6.48628398e-02 9.72942597e-02 1.29725680e-01 1.62157099e-01 6.48628398e-02 1.29725680e-01 9.72942597e-02 3.24314199e-02 0.00000000e+00 1.29725680e-01 6.48628398e-02 3.24314199e-02 1.29725680e-01 3.24314199e-02 9.72942597e-02 9.72942597e-02 1.62157099e-01 3.24314199e-02 9.72942597e-02 3.24314199e-02 3.24314199e-02 3.24314199e-02 1.29725680e-01 6.48628398e-02 9.72942597e-02 3.24314199e-02 1.94588519e-01 9.72942597e-02 9.72942597e-02 9.72942597e-02 9.72942597e-02 6.48628398e-02 9.72942597e-02 3.24314199e-02 9.72942597e-02 3.24314199e-02 1.62157099e-01 3.24314199e-02 3.24314199e-02 9.72942597e-02 1.62157099e-01 1.94588519e-01 6.48628398e-02 9.72942597e-02 9.72942597e-02 1.29725680e-01 1.62157099e-01 9.72942597e-02 6.48628398e-02 1.29725680e-01 9.72942597e-02 3.24314199e-02 3.24314199e-02 9.72942597e-02 6.48628398e-02 9.72942597e-02 6.48628398e-02 6.48628398e-02 1.62157099e-01 1.62157099e-01 1.29725680e-01 1.29725680e-01 6.48628398e-02 6.48628398e-02 2.27019939e-01 2.27019939e-01 0.00000000e+00 6.48628398e-02 2.59451359e-01 2.27019939e-01 1.62157099e-01 9.72942597e-02 9.72942597e-02 9.72942597e-02 9.72942597e-02 0.00000000e+00 6.48628398e-02 1.62157099e-01 9.72942597e-02 1.62157099e-01 6.48628398e-02 3.24314199e-02 1.94588519e-01 1.62157099e-01 1.94588519e-01 1.94588519e-01 6.48628398e-02 6.48628398e-02 1.29725680e-01 2.91882779e-01 1.62157099e-01 1.29725680e-01 1.29725680e-01 6.48628398e-02 1.29725680e-01 1.94588519e-01 6.48628398e-02 1.62157099e-01 9.72942597e-02 1.62157099e-01 1.94588519e-01 6.48628398e-02 1.94588519e-01 2.59451359e-01 2.27019939e-01 1.62157099e-01 1.29725680e-01 2.91882779e-01 2.91882779e-01 1.94588519e-01 1.94588519e-01 2.27019939e-01 2.59451359e-01 0.00000000e+00 1.94588519e-01 1.94588519e-01 9.72942597e-02 2.91882779e-01 3.24314199e-02 2.27019939e-01 1.94588519e-01 9.72942597e-02 2.27019939e-01 1.62157099e-01 1.29725680e-01 1.94588519e-01 1.94588519e-01 2.59451359e-01 1.62157099e-01 3.24314199e-01 1.29725680e-01 2.27019939e-01 1.94588519e-01 2.27019939e-01 1.62157099e-01 2.27019939e-01 9.72942597e-02 1.62157099e-01 2.91882779e-01 2.59451359e-01 1.62157099e-01 0.00000000e+00 1.62157099e-01 1.29725680e-01 6.48628398e-02 2.59451359e-01 2.91882779e-01 3.24314199e-02 9.72942597e-02 9.72942597e-02 2.59451359e-01 4.21608459e-01 2.27019939e-01 2.27019939e-01 9.72942597e-02 2.27019939e-01 3.24314199e-01 1.94588519e-01 1.62157099e-01 6.48628398e-02 2.59451359e-01 1.94588519e-01 4.54039879e-01 3.24314199e-01 1.29725680e-01 1.62157099e-01 3.24314199e-01 1.62157099e-01 1.94588519e-01 1.62157099e-01 1.94588519e-01 1.62157099e-01 1.29725680e-01 2.27019939e-01 2.59451359e-01 2.59451359e-01 2.91882779e-01 1.94588519e-01 1.94588519e-01 3.24314199e-01 1.94588519e-01 1.94588519e-01 2.91882779e-01 3.56745619e-01 2.59451359e-01 2.27019939e-01 2.59451359e-01 6.48628398e-02 1.94588519e-01 9.72942597e-02 1.29725680e-01 1.29725680e-01 3.24314199e-01 1.62157099e-01 2.27019939e-01 2.27019939e-01 1.94588519e-01 3.56745619e-01 2.91882779e-01 1.94588519e-01 1.29725680e-01 2.59451359e-01 1.94588519e-01 4.54039879e-01 1.62157099e-01 2.91882779e-01 6.48628398e-02 3.56745619e-01 2.27019939e-01 1.94588519e-01 2.27019939e-01 3.56745619e-01 3.56745619e-01 2.59451359e-01 1.94588519e-01 4.21608459e-01 4.21608459e-01 3.56745619e-01 2.59451359e-01 1.94588519e-01 3.24314199e-01 2.91882779e-01 2.91882779e-01 2.91882779e-01 2.27019939e-01 2.59451359e-01 2.27019939e-01 3.56745619e-01 2.59451359e-01 1.94588519e-01 2.91882779e-01 1.29725680e-01 1.62157099e-01 3.56745619e-01 2.27019939e-01 1.94588519e-01 4.86471298e-01 3.56745619e-01 2.91882779e-01 1.62157099e-01 4.54039879e-01 2.27019939e-01 2.27019939e-01 2.91882779e-01 2.91882779e-01 1.62157099e-01 1.94588519e-01 2.91882779e-01 2.91882779e-01 3.24314199e-01 2.27019939e-01 1.62157099e-01 2.59451359e-01 1.62157099e-01 9.72942597e-02 3.89177039e-01 4.21608459e-01 1.62157099e-01 1.94588519e-01 3.56745619e-01 2.91882779e-01 1.62157099e-01 2.27019939e-01 2.59451359e-01 2.59451359e-01 1.94588519e-01 3.56745619e-01 2.91882779e-01 2.59451359e-01 1.62157099e-01 4.21608459e-01 2.59451359e-01 3.24314199e-01 2.59451359e-01 2.91882779e-01 4.21608459e-01 2.59451359e-01 3.89177039e-01 3.24314199e-01 4.54039879e-01 3.24314199e-01 2.59451359e-01 4.86471298e-01 2.91882779e-01 5.18902718e-01 4.54039879e-01 3.24314199e-01 2.27019939e-01 2.27019939e-01 3.56745619e-01 4.86471298e-01 5.83765558e-01 4.21608459e-01 4.21608459e-01 2.27019939e-01 2.91882779e-01 3.89177039e-01 1.62157099e-01 3.56745619e-01 3.56745619e-01 4.86471298e-01 4.54039879e-01 3.89177039e-01 2.27019939e-01 3.56745619e-01 2.59451359e-01 4.21608459e-01 3.24314199e-01 3.56745619e-01 4.86471298e-01 4.21608459e-01 2.91882779e-01 3.89177039e-01 3.56745619e-01 2.91882779e-01 3.24314199e-01 4.54039879e-01 2.27019939e-01 3.24314199e-01 3.24314199e-01 4.54039879e-01 3.89177039e-01 1.94588519e-01 3.89177039e-01 2.27019939e-01 4.21608459e-01 2.91882779e-01 4.21608459e-01 1.29725680e-01 3.24314199e-01 2.27019939e-01 2.59451359e-01 3.56745619e-01 3.89177039e-01 4.21608459e-01 3.56745619e-01 4.21608459e-01 4.54039879e-01 4.54039879e-01 2.59451359e-01 3.24314199e-01 3.24314199e-01 3.89177039e-01 3.89177039e-01 5.18902718e-01 2.91882779e-01 4.21608459e-01 3.56745619e-01 4.21608459e-01 3.24314199e-01 1.62157099e-01 2.59451359e-01 3.56745619e-01 3.56745619e-01 3.56745619e-01 3.89177039e-01 6.81059818e-01 1.94588519e-01 6.48628398e-01 4.86471298e-01 5.51334138e-01 2.59451359e-01 4.21608459e-01 4.21608459e-01 4.21608459e-01 4.54039879e-01 5.83765558e-01 4.21608459e-01 4.21608459e-01 3.24314199e-01 3.56745619e-01 4.21608459e-01 2.91882779e-01 2.91882779e-01 2.91882779e-01 3.24314199e-01 2.59451359e-01 4.54039879e-01 3.89177039e-01 4.21608459e-01 2.27019939e-01 3.24314199e-01 1.62157099e-01 3.89177039e-01 6.48628398e-01 3.89177039e-01 2.91882779e-01 4.21608459e-01 3.56745619e-01 2.91882779e-01 3.56745619e-01 4.21608459e-01 5.51334138e-01 7.13491238e-01 5.51334138e-01 7.78354078e-01 3.56745619e-01 4.21608459e-01 3.56745619e-01 3.56745619e-01 4.86471298e-01 3.89177039e-01 5.18902718e-01 3.56745619e-01 2.59451359e-01 4.21608459e-01 3.56745619e-01 4.86471298e-01 3.24314199e-01 5.83765558e-01 7.45922658e-01 5.83765558e-01 6.16196978e-01 3.89177039e-01 4.21608459e-01 3.24314199e-01 6.16196978e-01 3.56745619e-01 3.56745619e-01 5.18902718e-01 3.24314199e-01 5.51334138e-01 4.86471298e-01 3.24314199e-01 4.86471298e-01 2.59451359e-01 3.89177039e-01 5.83765558e-01 7.78354078e-01 4.21608459e-01 5.18902718e-01 6.48628398e-01 5.51334138e-01 4.54039879e-01 3.89177039e-01 3.89177039e-01 5.51334138e-01 6.81059818e-01 4.86471298e-01 3.24314199e-01 4.54039879e-01 5.51334138e-01 3.89177039e-01 4.54039879e-01 6.48628398e-01 4.54039879e-01 3.89177039e-01 4.21608459e-01 5.83765558e-01 4.86471298e-01 3.24314199e-01 4.54039879e-01 4.86471298e-01 3.89177039e-01 5.51334138e-01 2.91882779e-01 4.86471298e-01 4.86471298e-01 6.81059818e-01 4.21608459e-01 3.24314199e-01 3.89177039e-01 3.24314199e-01 5.18902718e-01 3.56745619e-01 2.59451359e-01 3.56745619e-01 4.86471298e-01 7.45922658e-01 4.86471298e-01 5.83765558e-01 3.89177039e-01 4.86471298e-01 4.54039879e-01 3.24314199e-01 7.13491238e-01 4.21608459e-01 5.18902718e-01 5.18902718e-01 3.56745619e-01 7.78354078e-01 5.83765558e-01 4.86471298e-01 7.13491238e-01 7.45922658e-01 5.51334138e-01 3.56745619e-01 5.18902718e-01 5.51334138e-01 2.59451359e-01 5.51334138e-01 6.48628398e-01 3.56745619e-01 3.56745619e-01 3.89177039e-01 4.21608459e-01 5.83765558e-01 3.89177039e-01 3.89177039e-01 3.89177039e-01 6.16196978e-01 3.24314199e-01 2.27019939e-01 7.78354078e-01 5.51334138e-01 9.40511177e-01 3.56745619e-01 5.83765558e-01 6.16196978e-01 1.13509970e+00 7.45922658e-01 6.81059818e-01 7.13491238e-01 6.16196978e-01 1.94588519e-01 5.18902718e-01 6.16196978e-01 5.51334138e-01 4.21608459e-01 4.86471298e-01 3.56745619e-01 3.56745619e-01 4.54039879e-01 5.83765558e-01 5.51334138e-01 6.16196978e-01 4.54039879e-01 4.86471298e-01 5.83765558e-01 6.81059818e-01 3.89177039e-01 6.81059818e-01 3.56745619e-01 5.51334138e-01 7.78354078e-01 5.18902718e-01 5.18902718e-01 4.86471298e-01 5.51334138e-01 7.45922658e-01 3.89177039e-01 5.18902718e-01 5.18902718e-01 3.89177039e-01 4.21608459e-01 3.56745619e-01 5.18902718e-01 4.86471298e-01 7.13491238e-01 7.45922658e-01 5.83765558e-01 5.83765558e-01 6.48628398e-01 4.86471298e-01 5.18902718e-01 6.16196978e-01 5.51334138e-01 4.54039879e-01 6.48628398e-01 3.56745619e-01 3.89177039e-01 6.48628398e-01 6.16196978e-01 3.24314199e-01 5.83765558e-01 8.75648337e-01 4.86471298e-01 4.86471298e-01 6.81059818e-01 9.72942597e-01 5.51334138e-01 8.43216917e-01 5.51334138e-01 6.48628398e-01 7.45922658e-01 5.51334138e-01 5.83765558e-01 3.89177039e-01 3.89177039e-01 6.48628398e-01 6.48628398e-01 4.86471298e-01 6.16196978e-01 9.08079757e-01 5.83765558e-01 7.45922658e-01 6.48628398e-01 5.51334138e-01 7.45922658e-01 5.83765558e-01 5.51334138e-01 4.86471298e-01 5.83765558e-01 8.10785497e-01 5.18902718e-01 3.89177039e-01 4.54039879e-01 6.16196978e-01 4.54039879e-01 5.18902718e-01 7.13491238e-01 3.89177039e-01 8.75648337e-01 8.75648337e-01 5.18902718e-01 6.48628398e-01 5.83765558e-01 5.51334138e-01 7.13491238e-01 6.81059818e-01 7.13491238e-01 7.45922658e-01 7.13491238e-01 5.51334138e-01 7.78354078e-01 8.43216917e-01 4.54039879e-01 6.81059818e-01 7.45922658e-01 7.78354078e-01 7.78354078e-01 6.81059818e-01 6.81059818e-01 7.13491238e-01 6.16196978e-01 1.26482538e+00 5.18902718e-01 6.48628398e-01 5.51334138e-01 1.00537402e+00 6.48628398e-01 5.83765558e-01 6.48628398e-01 8.10785497e-01 5.83765558e-01 4.86471298e-01 7.45922658e-01 6.48628398e-01 8.43216917e-01 8.75648337e-01 4.21608459e-01 6.81059818e-01 5.83765558e-01 8.10785497e-01 3.24314199e-01 7.13491238e-01 6.48628398e-01 8.43216917e-01 6.16196978e-01 6.81059818e-01 7.13491238e-01 6.16196978e-01 5.83765558e-01 6.81059818e-01 6.81059818e-01 7.78354078e-01 5.18902718e-01 3.89177039e-01 9.40511177e-01 5.51334138e-01 7.13491238e-01 5.51334138e-01 9.40511177e-01 6.16196978e-01 7.78354078e-01 5.83765558e-01 8.43216917e-01 5.51334138e-01 6.48628398e-01 8.10785497e-01 3.24314199e-01 5.83765558e-01 6.48628398e-01 6.48628398e-01 6.16196978e-01 7.45922658e-01 9.08079757e-01 5.51334138e-01 4.86471298e-01 5.83765558e-01 6.16196978e-01 7.45922658e-01 6.16196978e-01 6.16196978e-01 7.13491238e-01 8.10785497e-01 5.83765558e-01 7.78354078e-01 6.16196978e-01 8.75648337e-01 7.78354078e-01 6.48628398e-01 7.78354078e-01 1.00537402e+00 6.48628398e-01 7.45922658e-01 8.10785497e-01 7.45922658e-01 6.81059818e-01 8.75648337e-01 5.18902718e-01 6.48628398e-01 6.48628398e-01 7.45922658e-01 8.75648337e-01 7.78354078e-01 8.10785497e-01 6.81059818e-01 8.10785497e-01 6.48628398e-01 1.00537402e+00 9.08079757e-01 6.48628398e-01 5.83765558e-01 5.51334138e-01 8.43216917e-01 8.10785497e-01 6.81059818e-01 7.45922658e-01 8.75648337e-01 6.16196978e-01 7.45922658e-01 8.75648337e-01 8.10785497e-01 4.86471298e-01 7.45922658e-01 5.51334138e-01 6.81059818e-01 8.10785497e-01 6.48628398e-01 8.75648337e-01 8.10785497e-01 5.51334138e-01 7.13491238e-01 8.10785497e-01 8.10785497e-01 6.16196978e-01 7.45922658e-01 2.59451359e-01 5.51334138e-01 6.81059818e-01 8.43216917e-01 7.45922658e-01 8.10785497e-01 5.51334138e-01 8.10785497e-01 7.45922658e-01 8.75648337e-01 6.48628398e-01 5.51334138e-01 8.10785497e-01 9.72942597e-01 6.48628398e-01 5.83765558e-01 9.08079757e-01 6.81059818e-01 1.03780544e+00 7.13491238e-01 8.75648337e-01 4.54039879e-01 7.78354078e-01 4.54039879e-01 5.51334138e-01 6.48628398e-01 7.45922658e-01 6.48628398e-01 5.83765558e-01 6.16196978e-01 9.72942597e-01 7.13491238e-01 7.45922658e-01 7.78354078e-01 9.40511177e-01 7.13491238e-01 6.81059818e-01 4.86471298e-01 9.08079757e-01 7.45922658e-01 5.83765558e-01 8.10785497e-01 9.08079757e-01 6.81059818e-01 6.16196978e-01 6.81059818e-01 7.45922658e-01 5.83765558e-01 5.83765558e-01 6.16196978e-01 9.08079757e-01 9.72942597e-01 6.16196978e-01 9.40511177e-01 6.16196978e-01 5.83765558e-01 7.45922658e-01 1.13509970e+00 5.83765558e-01 7.13491238e-01 8.43216917e-01 7.45922658e-01 9.40511177e-01 6.81059818e-01 7.78354078e-01 4.86471298e-01 8.43216917e-01 7.45922658e-01 8.10785497e-01 9.08079757e-01 1.07023686e+00 6.48628398e-01 6.81059818e-01 9.40511177e-01 5.83765558e-01 9.08079757e-01 7.78354078e-01 6.81059818e-01 8.75648337e-01 7.78354078e-01 6.48628398e-01 8.10785497e-01 7.78354078e-01 7.13491238e-01 8.10785497e-01 5.51334138e-01 7.45922658e-01 7.78354078e-01 5.51334138e-01 6.81059818e-01 5.18902718e-01 6.48628398e-01 8.10785497e-01 5.83765558e-01 1.13509970e+00 1.00537402e+00 1.13509970e+00 9.72942597e-01 6.48628398e-01 6.81059818e-01 1.19996254e+00 9.08079757e-01 8.43216917e-01 9.08079757e-01 8.75648337e-01 7.13491238e-01 8.43216917e-01 9.08079757e-01 1.03780544e+00 7.13491238e-01 5.51334138e-01 8.43216917e-01 7.13491238e-01 8.10785497e-01 1.07023686e+00 6.16196978e-01 8.43216917e-01 7.45922658e-01 8.43216917e-01 6.81059818e-01 9.72942597e-01 6.81059818e-01 7.45922658e-01 9.72942597e-01 7.13491238e-01 8.75648337e-01 8.43216917e-01 9.40511177e-01 6.81059818e-01 6.48628398e-01 7.45922658e-01 9.08079757e-01 7.13491238e-01 8.10785497e-01 9.08079757e-01 4.21608459e-01 8.75648337e-01 8.10785497e-01 7.45922658e-01 4.54039879e-01 7.78354078e-01 9.40511177e-01 7.45922658e-01 7.13491238e-01 7.13491238e-01 7.13491238e-01 9.08079757e-01 9.08079757e-01 8.43216917e-01 7.78354078e-01 8.75648337e-01 7.45922658e-01 8.43216917e-01 8.43216917e-01 9.08079757e-01 7.78354078e-01 8.75648337e-01 7.78354078e-01 9.40511177e-01 6.48628398e-01 8.75648337e-01 9.72942597e-01 9.40511177e-01 9.40511177e-01 1.07023686e+00 7.45922658e-01 7.13491238e-01 6.16196978e-01 5.83765558e-01 9.08079757e-01 1.00537402e+00 5.18902718e-01 1.10266828e+00 6.16196978e-01 8.43216917e-01 6.48628398e-01 8.75648337e-01 1.16753112e+00 9.72942597e-01 5.51334138e-01 6.48628398e-01 6.16196978e-01 8.75648337e-01 8.10785497e-01 8.75648337e-01 1.19996254e+00 8.75648337e-01 7.78354078e-01 6.16196978e-01 8.10785497e-01 9.08079757e-01 1.00537402e+00 9.08079757e-01 9.72942597e-01 7.45922658e-01 8.43216917e-01 1.03780544e+00 5.51334138e-01 7.13491238e-01 8.10785497e-01 6.48628398e-01 1.00537402e+00 8.10785497e-01 9.40511177e-01 9.08079757e-01 6.48628398e-01 7.13491238e-01 8.10785497e-01 6.81059818e-01 8.43216917e-01 4.86471298e-01 8.10785497e-01 6.81059818e-01 6.81059818e-01 8.10785497e-01 9.72942597e-01 7.78354078e-01 1.00537402e+00 9.40511177e-01 1.10266828e+00 7.78354078e-01 6.48628398e-01 8.75648337e-01 8.75648337e-01 5.51334138e-01 9.72942597e-01 7.13491238e-01 1.07023686e+00 9.08079757e-01 8.43216917e-01 6.48628398e-01 1.26482538e+00 1.10266828e+00 1.10266828e+00 1.00537402e+00 9.40511177e-01 8.10785497e-01 5.18902718e-01 8.43216917e-01 1.13509970e+00 7.13491238e-01 9.40511177e-01 7.45922658e-01 9.40511177e-01 8.75648337e-01 6.16196978e-01 7.13491238e-01 7.45922658e-01 7.78354078e-01 1.03780544e+00 1.00537402e+00 8.10785497e-01 7.78354078e-01 5.51334138e-01 8.75648337e-01 1.29725680e+00 9.40511177e-01 1.23239396e+00 1.16753112e+00 8.10785497e-01 9.72942597e-01 7.13491238e-01 9.08079757e-01 6.48628398e-01 1.03780544e+00 1.07023686e+00 7.13491238e-01 6.81059818e-01 8.75648337e-01 6.81059818e-01 9.08079757e-01 1.00537402e+00 8.43216917e-01 8.75648337e-01 9.72942597e-01 7.78354078e-01 7.78354078e-01 9.40511177e-01 9.72942597e-01 6.81059818e-01 7.78354078e-01 8.75648337e-01 7.45922658e-01 8.75648337e-01 8.43216917e-01 8.75648337e-01 9.08079757e-01 9.72942597e-01 9.08079757e-01 1.13509970e+00 8.43216917e-01 8.43216917e-01 8.10785497e-01 8.43216917e-01 1.29725680e+00 9.72942597e-01 8.10785497e-01 9.40511177e-01 8.75648337e-01 8.43216917e-01 7.78354078e-01 9.40511177e-01 1.23239396e+00 9.08079757e-01 9.40511177e-01 9.72942597e-01 8.10785497e-01 4.54039879e-01 1.00537402e+00 8.75648337e-01 8.10785497e-01 8.10785497e-01 5.83765558e-01 9.40511177e-01 7.45922658e-01 7.78354078e-01 8.75648337e-01 1.13509970e+00 9.40511177e-01 9.08079757e-01 7.45922658e-01 1.13509970e+00 9.40511177e-01 7.78354078e-01 1.03780544e+00 9.08079757e-01 8.75648337e-01 1.07023686e+00 7.13491238e-01 8.10785497e-01 7.45922658e-01 7.13491238e-01 7.78354078e-01 1.03780544e+00 7.78354078e-01 9.08079757e-01 6.48628398e-01 7.13491238e-01 8.75648337e-01 7.45922658e-01 7.13491238e-01 1.07023686e+00 5.83765558e-01 1.13509970e+00 9.40511177e-01 7.13491238e-01 8.43216917e-01 1.00537402e+00 8.10785497e-01 9.72942597e-01 1.23239396e+00 6.16196978e-01 9.40511177e-01 1.10266828e+00 9.40511177e-01 7.45922658e-01 1.10266828e+00 8.10785497e-01 9.40511177e-01 8.43216917e-01 1.00537402e+00 9.40511177e-01 8.75648337e-01 3.89177039e-01 1.03780544e+00 1.13509970e+00 8.75648337e-01 7.78354078e-01 9.08079757e-01 7.45922658e-01 8.10785497e-01 1.16753112e+00 1.07023686e+00 1.36211964e+00 7.45922658e-01 8.75648337e-01 9.08079757e-01 7.78354078e-01 8.75648337e-01 8.10785497e-01 6.81059818e-01 1.13509970e+00 7.78354078e-01 7.45922658e-01 1.23239396e+00 7.45922658e-01 8.43216917e-01 7.78354078e-01 8.10785497e-01 7.78354078e-01 1.03780544e+00 1.26482538e+00 1.00537402e+00 7.13491238e-01 7.78354078e-01 1.10266828e+00 1.10266828e+00 9.72942597e-01 7.78354078e-01 9.40511177e-01 9.72942597e-01 9.40511177e-01 7.13491238e-01 1.03780544e+00 1.10266828e+00 1.10266828e+00 8.10785497e-01 1.03780544e+00 9.08079757e-01 8.10785497e-01 8.43216917e-01 8.75648337e-01 9.08079757e-01 9.08079757e-01 7.78354078e-01 8.75648337e-01 9.40511177e-01 7.13491238e-01 8.43216917e-01 9.72942597e-01 1.26482538e+00 7.13491238e-01 9.40511177e-01 1.19996254e+00 5.18902718e-01 9.40511177e-01 1.16753112e+00 1.19996254e+00 8.43216917e-01 9.08079757e-01 8.10785497e-01 1.13509970e+00 6.48628398e-01 7.78354078e-01 8.43216917e-01 1.03780544e+00 9.08079757e-01 1.00537402e+00 7.13491238e-01 9.40511177e-01 6.48628398e-01 7.45922658e-01 1.16753112e+00 9.40511177e-01 1.03780544e+00 1.23239396e+00 7.13491238e-01 7.13491238e-01 7.78354078e-01 1.07023686e+00 1.10266828e+00 8.10785497e-01 1.03780544e+00 9.40511177e-01 1.00537402e+00 1.29725680e+00 5.83765558e-01 9.08079757e-01 1.19996254e+00 1.13509970e+00 1.19996254e+00 9.72942597e-01 7.78354078e-01 1.03780544e+00 7.78354078e-01 1.23239396e+00 9.08079757e-01 1.07023686e+00 8.75648337e-01 1.36211964e+00 6.48628398e-01 1.23239396e+00 1.26482538e+00 8.75648337e-01 7.45922658e-01 9.72942597e-01 5.83765558e-01 1.10266828e+00 6.48628398e-01 8.75648337e-01 9.40511177e-01 9.08079757e-01 8.10785497e-01 8.10785497e-01 7.45922658e-01 1.00537402e+00 1.00537402e+00 1.13509970e+00 1.07023686e+00 9.08079757e-01 8.43216917e-01 6.81059818e-01 8.43216917e-01 8.10785497e-01 8.75648337e-01 6.81059818e-01 7.45922658e-01 9.40511177e-01 8.43216917e-01 1.19996254e+00 8.10785497e-01 1.19996254e+00 9.72942597e-01 1.07023686e+00 7.45922658e-01 6.48628398e-01 1.03780544e+00 1.32968822e+00 1.00537402e+00 8.75648337e-01 8.75648337e-01 9.72942597e-01 8.43216917e-01 9.08079757e-01 7.78354078e-01 8.75648337e-01 6.48628398e-01 7.13491238e-01 8.10785497e-01 8.75648337e-01 1.03780544e+00 9.08079757e-01 9.40511177e-01 7.45922658e-01 7.78354078e-01 7.78354078e-01 8.75648337e-01 1.19996254e+00 7.78354078e-01 1.10266828e+00 1.07023686e+00 6.48628398e-01 8.10785497e-01 9.40511177e-01 9.72942597e-01 1.13509970e+00 8.10785497e-01 8.43216917e-01 7.78354078e-01 9.72942597e-01 1.19996254e+00 1.07023686e+00 8.10785497e-01 1.07023686e+00 8.10785497e-01 8.75648337e-01 1.03780544e+00 1.03780544e+00 8.43216917e-01 9.08079757e-01 7.45922658e-01 1.13509970e+00 1.13509970e+00 1.19996254e+00 1.00537402e+00 7.45922658e-01 1.10266828e+00 1.07023686e+00 1.29725680e+00 1.07023686e+00 1.19996254e+00 9.40511177e-01 1.32968822e+00 1.03780544e+00 1.19996254e+00 8.10785497e-01 1.10266828e+00 6.81059818e-01 1.00537402e+00 1.32968822e+00 8.75648337e-01 1.13509970e+00 1.23239396e+00 9.72942597e-01 5.83765558e-01 9.40511177e-01 9.08079757e-01 1.13509970e+00 1.16753112e+00 9.40511177e-01 1.00537402e+00 1.00537402e+00 6.48628398e-01 7.45922658e-01 1.13509970e+00 9.08079757e-01 8.75648337e-01 9.08079757e-01 9.72942597e-01 9.72942597e-01 1.00537402e+00 1.26482538e+00 1.13509970e+00 5.51334138e-01 8.43216917e-01 1.10266828e+00 7.78354078e-01 1.10266828e+00 1.03780544e+00 1.23239396e+00 8.10785497e-01 8.43216917e-01 7.13491238e-01 9.08079757e-01 1.07023686e+00 1.07023686e+00 7.13491238e-01 1.19996254e+00 8.75648337e-01 9.40511177e-01 9.08079757e-01 7.45922658e-01 7.78354078e-01 9.08079757e-01 8.10785497e-01 1.07023686e+00 1.13509970e+00 1.00537402e+00 7.78354078e-01 8.75648337e-01 1.29725680e+00 6.81059818e-01 1.10266828e+00 8.43216917e-01 9.72942597e-01 9.08079757e-01 8.43216917e-01 1.00537402e+00 8.75648337e-01 7.78354078e-01 7.78354078e-01 8.43216917e-01 9.08079757e-01 1.10266828e+00 9.40511177e-01 1.03780544e+00 9.08079757e-01 6.16196978e-01 1.03780544e+00 9.08079757e-01 8.43216917e-01 7.78354078e-01 6.81059818e-01 1.13509970e+00 8.43216917e-01 7.45922658e-01 9.08079757e-01 7.78354078e-01 9.40511177e-01 1.10266828e+00 1.00537402e+00 6.81059818e-01 9.08079757e-01 8.10785497e-01 1.07023686e+00 1.13509970e+00 8.43216917e-01 1.19996254e+00 9.40511177e-01 1.19996254e+00 1.10266828e+00 8.75648337e-01 1.36211964e+00 1.00537402e+00 1.07023686e+00 9.72942597e-01 8.10785497e-01 8.43216917e-01 8.43216917e-01 8.75648337e-01 5.51334138e-01 1.00537402e+00 1.19996254e+00 1.00537402e+00 8.10785497e-01 1.13509970e+00 8.10785497e-01 7.45922658e-01 1.10266828e+00 1.10266828e+00 8.75648337e-01 1.03780544e+00 9.40511177e-01 1.19996254e+00 9.72942597e-01 1.03780544e+00 6.48628398e-01 9.08079757e-01 7.45922658e-01 8.43216917e-01 9.40511177e-01 9.40511177e-01 8.75648337e-01 1.03780544e+00 9.08079757e-01 9.72942597e-01 9.40511177e-01 7.45922658e-01 1.07023686e+00 9.72942597e-01 9.40511177e-01 1.07023686e+00 1.19996254e+00 8.75648337e-01 8.75648337e-01 8.10785497e-01 1.03780544e+00 7.78354078e-01 9.08079757e-01 8.43216917e-01 9.08079757e-01 1.00537402e+00 9.08079757e-01 1.19996254e+00 8.10785497e-01 9.40511177e-01 1.19996254e+00 7.13491238e-01 1.10266828e+00 8.75648337e-01 9.72942597e-01 1.45941390e+00 8.43216917e-01 1.03780544e+00 9.40511177e-01 9.72942597e-01 8.10785497e-01 1.07023686e+00 7.45922658e-01 1.10266828e+00 7.45922658e-01 6.81059818e-01 8.75648337e-01 8.43216917e-01 8.43216917e-01 1.36211964e+00 1.03780544e+00 1.19996254e+00 6.81059818e-01 8.10785497e-01 8.75648337e-01 6.81059818e-01 1.07023686e+00 8.43216917e-01 1.07023686e+00 1.07023686e+00 7.45922658e-01 7.13491238e-01 5.18902718e-01 1.03780544e+00 8.43216917e-01 6.48628398e-01 1.32968822e+00 7.13491238e-01 9.40511177e-01 8.43216917e-01 9.40511177e-01 9.08079757e-01 6.16196978e-01 9.40511177e-01 6.81059818e-01 1.03780544e+00 9.08079757e-01 1.07023686e+00 1.19996254e+00 1.26482538e+00 8.43216917e-01 1.10266828e+00 8.10785497e-01 7.45922658e-01 8.75648337e-01 1.13509970e+00 8.43216917e-01 9.40511177e-01 9.08079757e-01 9.72942597e-01 8.43216917e-01 7.13491238e-01 7.78354078e-01 1.23239396e+00 8.75648337e-01 1.16753112e+00 7.45922658e-01 8.10785497e-01 9.72942597e-01 9.40511177e-01 9.40511177e-01 1.16753112e+00 1.13509970e+00 1.13509970e+00 1.16753112e+00 8.75648337e-01 7.78354078e-01 1.16753112e+00 9.72942597e-01 1.03780544e+00 1.10266828e+00 9.08079757e-01 8.75648337e-01 1.13509970e+00 6.81059818e-01 8.75648337e-01 1.16753112e+00 9.08079757e-01 7.78354078e-01 1.00537402e+00 1.00537402e+00 8.10785497e-01 1.03780544e+00 7.78354078e-01 5.83765558e-01 8.10785497e-01 7.78354078e-01 9.40511177e-01 8.43216917e-01 1.07023686e+00 9.08079757e-01 7.13491238e-01 1.03780544e+00 7.78354078e-01 8.10785497e-01 1.00537402e+00 8.10785497e-01 1.03780544e+00 8.43216917e-01 1.03780544e+00 8.43216917e-01 9.08079757e-01 9.72942597e-01 7.45922658e-01 1.10266828e+00 1.00537402e+00 1.00537402e+00 1.13509970e+00 1.03780544e+00 6.81059818e-01 9.72942597e-01 9.72942597e-01 9.72942597e-01 1.10266828e+00 7.78354078e-01 1.07023686e+00 9.08079757e-01 6.16196978e-01 7.78354078e-01 7.78354078e-01 9.72942597e-01 4.54039879e-01 6.81059818e-01 9.08079757e-01 1.00537402e+00 9.40511177e-01 1.16753112e+00 8.43216917e-01 8.10785497e-01 1.00537402e+00 9.40511177e-01 7.78354078e-01 1.03780544e+00 1.00537402e+00 9.40511177e-01 8.10785497e-01 1.13509970e+00 8.10785497e-01 1.10266828e+00 9.40511177e-01 7.78354078e-01 1.00537402e+00 7.78354078e-01 8.75648337e-01 1.10266828e+00 7.13491238e-01 9.72942597e-01 7.13491238e-01 8.75648337e-01 6.16196978e-01 1.03780544e+00 7.13491238e-01 8.75648337e-01 7.13491238e-01 7.13491238e-01 9.40511177e-01 9.08079757e-01 1.49184532e+00 9.40511177e-01 8.75648337e-01 8.43216917e-01 6.48628398e-01 8.10785497e-01 1.13509970e+00 8.75648337e-01 5.51334138e-01 1.03780544e+00 7.13491238e-01 8.43216917e-01 1.23239396e+00 6.81059818e-01 1.10266828e+00 9.72942597e-01 1.26482538e+00 6.81059818e-01 7.45922658e-01 6.16196978e-01 8.10785497e-01 1.07023686e+00 1.07023686e+00 9.40511177e-01 9.72942597e-01 7.45922658e-01 1.07023686e+00 8.10785497e-01 6.16196978e-01 6.81059818e-01 8.75648337e-01 7.13491238e-01 8.75648337e-01 8.75648337e-01 8.10785497e-01 8.10785497e-01 8.43216917e-01 5.83765558e-01 5.51334138e-01 7.78354078e-01 8.10785497e-01 1.29725680e+00 1.03780544e+00 6.81059818e-01 1.10266828e+00 7.78354078e-01 1.03780544e+00 8.10785497e-01 9.72942597e-01 8.43216917e-01 1.00537402e+00 1.00537402e+00 7.45922658e-01 1.00537402e+00 7.13491238e-01 6.16196978e-01 8.43216917e-01 8.43216917e-01 1.10266828e+00 9.40511177e-01 6.48628398e-01 9.72942597e-01 9.08079757e-01 8.10785497e-01 8.43216917e-01 1.07023686e+00 8.43216917e-01 8.43216917e-01 1.10266828e+00 9.08079757e-01 8.43216917e-01 8.43216917e-01 5.51334138e-01 8.43216917e-01 8.75648337e-01 5.18902718e-01 7.13491238e-01 8.10785497e-01 9.40511177e-01 7.78354078e-01 6.81059818e-01 8.10785497e-01 9.08079757e-01 7.78354078e-01 9.08079757e-01 1.29725680e+00 7.13491238e-01 8.10785497e-01 1.36211964e+00 1.07023686e+00 8.43216917e-01 8.75648337e-01 6.81059818e-01 9.40511177e-01 7.45922658e-01 7.78354078e-01 6.81059818e-01 8.10785497e-01 1.03780544e+00 8.43216917e-01 1.29725680e+00 8.10785497e-01 9.72942597e-01 8.43216917e-01 1.03780544e+00 7.45922658e-01 8.10785497e-01 8.10785497e-01 9.08079757e-01 1.00537402e+00 6.81059818e-01 9.08079757e-01 9.72942597e-01 7.13491238e-01 9.08079757e-01 1.00537402e+00 6.81059818e-01 7.13491238e-01 6.48628398e-01 8.75648337e-01 8.43216917e-01 7.45922658e-01 6.81059818e-01 6.48628398e-01 1.00537402e+00 9.72942597e-01 7.45922658e-01 7.78354078e-01 1.07023686e+00 8.43216917e-01 8.75648337e-01 1.00537402e+00 6.16196978e-01 7.45922658e-01 8.10785497e-01 8.10785497e-01 1.13509970e+00 6.16196978e-01 8.10785497e-01 9.08079757e-01 6.81059818e-01 6.16196978e-01 9.08079757e-01 1.10266828e+00 8.10785497e-01 4.86471298e-01 5.83765558e-01 7.13491238e-01 9.40511177e-01 8.43216917e-01 8.43216917e-01 8.10785497e-01 9.72942597e-01 7.78354078e-01 5.83765558e-01 8.10785497e-01 6.48628398e-01 5.83765558e-01 9.40511177e-01 7.13491238e-01 7.45922658e-01 6.16196978e-01 7.78354078e-01 9.08079757e-01 6.48628398e-01 7.78354078e-01 8.43216917e-01 6.48628398e-01 8.75648337e-01 9.08079757e-01 7.78354078e-01 9.40511177e-01 6.48628398e-01 9.08079757e-01 7.45922658e-01 8.43216917e-01 7.13491238e-01 8.10785497e-01 8.75648337e-01 9.08079757e-01 6.81059818e-01 6.81059818e-01 6.48628398e-01 6.81059818e-01 1.03780544e+00 9.08079757e-01 7.45922658e-01 7.45922658e-01 9.08079757e-01 6.16196978e-01 7.78354078e-01 7.78354078e-01 1.07023686e+00 5.83765558e-01 7.78354078e-01 8.75648337e-01 5.83765558e-01 7.45922658e-01 6.81059818e-01 9.40511177e-01 1.26482538e+00 7.78354078e-01 7.45922658e-01 8.10785497e-01 7.45922658e-01 9.40511177e-01 9.72942597e-01 8.43216917e-01 6.81059818e-01 1.00537402e+00 8.43216917e-01 6.48628398e-01 7.13491238e-01 5.83765558e-01 4.86471298e-01 7.78354078e-01 5.51334138e-01 6.81059818e-01 9.72942597e-01 6.81059818e-01 5.18902718e-01 7.13491238e-01 6.48628398e-01 7.45922658e-01 5.83765558e-01 8.43216917e-01 9.08079757e-01 6.81059818e-01 8.75648337e-01 5.18902718e-01 5.18902718e-01 6.16196978e-01 6.81059818e-01 8.10785497e-01 6.48628398e-01 7.78354078e-01 7.13491238e-01 6.48628398e-01 7.45922658e-01 6.16196978e-01 8.75648337e-01 8.10785497e-01 5.18902718e-01 7.45922658e-01 5.83765558e-01 5.83765558e-01 6.48628398e-01 8.10785497e-01 9.40511177e-01 8.43216917e-01 5.83765558e-01 7.45922658e-01 5.83765558e-01 7.45922658e-01 7.45922658e-01 5.83765558e-01 5.83765558e-01 4.54039879e-01 5.51334138e-01 7.78354078e-01 5.18902718e-01 7.13491238e-01 2.59451359e-01 4.21608459e-01 7.45922658e-01 7.78354078e-01 3.89177039e-01 6.48628398e-01 7.45922658e-01 6.81059818e-01 6.48628398e-01 2.91882779e-01 7.78354078e-01 5.18902718e-01 5.18902718e-01 7.13491238e-01 7.45922658e-01 8.43216917e-01 4.86471298e-01 7.45922658e-01 7.45922658e-01 6.48628398e-01 8.43216917e-01 6.81059818e-01 6.16196978e-01 7.45922658e-01 5.18902718e-01 4.86471298e-01 4.54039879e-01 2.91882779e-01 5.51334138e-01 6.81059818e-01 4.86471298e-01 5.51334138e-01 4.21608459e-01 5.83765558e-01 2.91882779e-01 6.16196978e-01 6.48628398e-01 6.48628398e-01 3.56745619e-01 4.86471298e-01 5.83765558e-01 4.21608459e-01 5.18902718e-01 6.16196978e-01 6.48628398e-01 5.51334138e-01 5.83765558e-01 6.81059818e-01 2.59451359e-01 4.86471298e-01 5.18902718e-01 5.18902718e-01 5.83765558e-01 6.81059818e-01 6.81059818e-01 8.75648337e-01 6.48628398e-01 6.48628398e-01 2.91882779e-01 4.54039879e-01 3.89177039e-01 4.86471298e-01 8.43216917e-01 6.48628398e-01 5.51334138e-01 8.43216917e-01 5.51334138e-01 5.51334138e-01 7.45922658e-01 5.51334138e-01 7.13491238e-01 3.89177039e-01 5.51334138e-01 6.16196978e-01 5.18902718e-01 5.51334138e-01 4.86471298e-01 4.54039879e-01 4.86471298e-01 5.18902718e-01 4.54039879e-01 4.54039879e-01 8.75648337e-01 6.16196978e-01 6.48628398e-01 3.89177039e-01 4.54039879e-01 5.51334138e-01 6.16196978e-01 6.81059818e-01 8.10785497e-01 3.24314199e-01 4.86471298e-01 4.54039879e-01 4.54039879e-01 4.86471298e-01 5.83765558e-01 5.83765558e-01 5.18902718e-01 3.89177039e-01 7.13491238e-01 6.48628398e-01 2.91882779e-01 6.81059818e-01 5.51334138e-01 5.18902718e-01 7.13491238e-01 3.56745619e-01 4.21608459e-01 3.89177039e-01 6.16196978e-01 3.56745619e-01 6.16196978e-01 6.81059818e-01 3.56745619e-01 4.54039879e-01 2.91882779e-01 4.86471298e-01 2.59451359e-01 6.81059818e-01 2.91882779e-01 3.89177039e-01 3.89177039e-01 5.18902718e-01 5.83765558e-01 4.54039879e-01 4.54039879e-01 4.21608459e-01 6.16196978e-01 3.24314199e-01 5.83765558e-01 3.56745619e-01 3.89177039e-01 4.54039879e-01 1.94588519e-01 6.81059818e-01 5.83765558e-01 5.18902718e-01 3.89177039e-01 2.91882779e-01 3.24314199e-01 2.91882779e-01 3.89177039e-01 1.94588519e-01 5.18902718e-01 4.21608459e-01 2.59451359e-01 3.56745619e-01 3.24314199e-01 2.59451359e-01 2.27019939e-01 4.86471298e-01 4.86471298e-01 3.56745619e-01 4.21608459e-01 6.48628398e-01 3.56745619e-01 3.56745619e-01 3.89177039e-01 3.89177039e-01 3.56745619e-01 5.51334138e-01 1.29725680e-01 4.21608459e-01 2.59451359e-01 3.56745619e-01 3.56745619e-01 5.51334138e-01 2.91882779e-01 1.94588519e-01 2.91882779e-01 3.56745619e-01 3.56745619e-01 4.86471298e-01 1.62157099e-01 3.89177039e-01 5.18902718e-01 2.27019939e-01 3.56745619e-01 2.91882779e-01 2.27019939e-01 3.89177039e-01 2.91882779e-01 5.18902718e-01 4.21608459e-01 2.91882779e-01 2.91882779e-01 1.29725680e-01 4.21608459e-01 2.91882779e-01 3.24314199e-01 2.59451359e-01 5.51334138e-01 4.21608459e-01 3.56745619e-01 4.21608459e-01 2.59451359e-01 3.56745619e-01 3.24314199e-01 1.62157099e-01 2.27019939e-01 4.54039879e-01 3.24314199e-01 2.91882779e-01 2.59451359e-01 1.29725680e-01 3.24314199e-01 3.89177039e-01 1.62157099e-01 2.27019939e-01 2.91882779e-01 3.56745619e-01 3.24314199e-01 2.91882779e-01 6.48628398e-02 3.89177039e-01 1.29725680e-01 1.62157099e-01 3.24314199e-01 3.24314199e-01 1.29725680e-01 3.56745619e-01 1.29725680e-01 2.59451359e-01 2.27019939e-01 2.27019939e-01 2.91882779e-01 9.72942597e-02 3.24314199e-01 3.24314199e-01 2.59451359e-01 2.91882779e-01 1.29725680e-01 2.59451359e-01 2.59451359e-01 1.62157099e-01 2.27019939e-01 1.62157099e-01 2.59451359e-01 9.72942597e-02 3.24314199e-01 5.18902718e-01 2.27019939e-01 2.27019939e-01 6.48628398e-02 1.94588519e-01 2.27019939e-01 2.91882779e-01 1.62157099e-01 1.62157099e-01 2.27019939e-01 1.29725680e-01 1.94588519e-01 1.29725680e-01 2.59451359e-01 2.27019939e-01 2.27019939e-01 1.29725680e-01 9.72942597e-02 1.94588519e-01 6.48628398e-02 1.62157099e-01 1.94588519e-01 3.24314199e-02 1.94588519e-01 1.94588519e-01 2.27019939e-01 1.29725680e-01 1.29725680e-01 9.72942597e-02 1.62157099e-01 9.72942597e-02 1.62157099e-01 0.00000000e+00 2.27019939e-01 1.29725680e-01 9.72942597e-02 1.29725680e-01 1.29725680e-01 1.94588519e-01 9.72942597e-02 1.94588519e-01 3.24314199e-02 6.48628398e-02 6.48628398e-02 9.72942597e-02 1.29725680e-01 1.29725680e-01 6.48628398e-02 -3.24314199e-02 1.29725680e-01 3.24314199e-02 9.72942597e-02 1.62157099e-01 0.00000000e+00 0.00000000e+00 6.48628398e-02 1.29725680e-01 6.48628398e-02 1.29725680e-01 6.48628398e-02 1.29725680e-01 3.24314199e-02 6.48628398e-02 9.72942597e-02 3.24314199e-02 0.00000000e+00 0.00000000e+00 6.48628398e-02 1.29725680e-01 3.24314199e-02 3.24314199e-02 3.24314199e-02 0.00000000e+00 1.29725680e-01 9.72942597e-02 6.48628398e-02 3.24314199e-02 6.48628398e-02 0.00000000e+00 3.24314199e-02 3.24314199e-02 3.24314199e-02 9.72942597e-02 6.48628398e-02 3.24314199e-02 3.24314199e-02 0.00000000e+00 0.00000000e+00 0.00000000e+00 3.24314199e-02 0.00000000e+00 0.00000000e+00 3.24314199e-02 0.00000000e+00 6.48628398e-02 3.24314199e-02 3.24314199e-02 0.00000000e+00 0.00000000e+00 0.00000000e+00 3.24314199e-02 0.00000000e+00 3.24314199e-02 0.00000000e+00 3.24314199e-02 0.00000000e+00 0.00000000e+00 0.00000000e+00 0.00000000e+00 0.00000000e+00 0.00000000e+00 0.00000000e+00 0.00000000e+00 0.00000000e+00 0.00000000e+00 0.00000000e+00 0.00000000e+00 3.24314199e-02 0.00000000e+00 0.00000000e+00 3.24314199e-02 0.00000000e+00 0.00000000e+00 
      </Histogram>
    </PDF>
    <PDF Name="BDTG_PDFBkg" MinNSmooth="0" MaxNSmooth="0" InterpolMethod="2" KDE_type="1" KDE_iter="1" KDE_border="1" KDE_finefactor="1.0000000000000000e+00">
      <Histogram Name="BDT_tr_B_original" NBins="2552" XMin="-9.0419322252273560e-01" XMax="9.0201169252395630e-01" HasEquidistantBins="1">
        8.68002712e-03 0.00000000e+00 0.00000000e+00 0.00000000e+00 0.00000000e+00 0.00000000e+00 0.00000000e+00 0.00000000e+00 0.00000000e+00 1.86551083e-02 0.00000000e+00 0.00000000e+00 0.00000000e+00 0.00000000e+00 0.00000000e+00 0.00000000e+00 0.00000000e+00 0.00000000e+00 0.00000000e+00 0.00000000e+00 0.00000000e+00 0.00000000e+00 0.00000000e+00 0.00000000e+00 1.86551083e-02 0.00000000e+00 0.00000000e+00 0.00000000e+00 0.00000000e+00 0.00000000e+00 0.00000000e+00 0.00000000e+00 0.00000000e+00 0.00000000e+00 1.93317153e-02 0.00000000e+00 0.00000000e+00 1.93317153e-02 4.66574119e-02 0.00000000e+00 0.00000000e+00 1.93317153e-02 0.00000000e+00 8.68002712e-03 0.00000000e+00 0.00000000e+00 0.00000000e+00 0.00000000e+00 0.00000000e+00 0.00000000e+00 0.00000000e+00 1.93317153e-02 4.59902438e-02 0.00000000e+00 1.93317153e-02 1.93317153e-02 3.73102167e-02 0.00000000e+00 1.86551083e-02 2.73256966e-02 0.00000000e+00 3.79868236e-02 1.86551083e-02 3.73102167e-02 3.79868236e-02 0.00000000e+00 3.60151626e-02 0.00000000e+00 0.00000000e+00 0.00000000e+00 1.93317153e-02 0.00000000e+00 0.00000000e+00 1.86551083e-02 1.93317153e-02 0.00000000e+00 0.00000000e+00 2.80117424e-02 6.59985661e-02 1.86551083e-02 1.93317153e-02 3.66823307e-02 3.79868236e-02 8.67058829e-03 0.00000000e+00 1.86551083e-02 1.73600542e-02 1.93317153e-02 2.73351354e-02 8.68002712e-03 0.00000000e+00 3.79868236e-02 4.73434577e-02 8.68002712e-03 3.79868236e-02 3.73102167e-02 6.59891272e-02 0.00000000e+00 0.00000000e+00 7.40019862e-02 1.86551083e-02 0.00000000e+00 3.79868236e-02 3.60151626e-02 5.73185389e-02 6.59891272e-02 3.73102167e-02 8.67058829e-03 5.73185389e-02 1.86551083e-02 1.86551083e-02 1.93317153e-02 4.59808049e-02 3.79868236e-02 0.00000000e+00 2.73256966e-02 8.67058829e-03 5.73185389e-02 9.46287556e-02 2.80023036e-02 1.14637078e-01 4.46951897e-02 6.66751730e-02 3.86634306e-02 2.73351354e-02 6.53219591e-02 6.46751955e-02 1.48603542e-01 1.93317153e-02 7.52970403e-02 8.67058829e-03 1.02004290e-01 7.66502543e-02 1.93317153e-02 4.59808049e-02 3.86634306e-02 4.59808049e-02 5.79951459e-02 9.46287556e-02 8.39676286e-02 4.59902438e-02 4.59808049e-02 6.53219591e-02 1.11979371e-01 6.53125203e-02 5.73185389e-02 8.46442356e-02 1.11969932e-01 3.86634306e-02 1.04661997e-01 5.73185389e-02 6.59985661e-02 5.66419320e-02 1.69925796e-01 0.00000000e+00 1.21326566e-01 6.59985661e-02 1.11979371e-01 1.01946130e-01 6.59891272e-02 1.11969932e-01 1.22631059e-01 7.66502543e-02 4.66574119e-02 6.66657342e-02 1.31978254e-01 7.46785932e-02 1.37323968e-01 1.88580904e-01 1.13960471e-01 1.49956756e-01 7.53457613e-02 1.96633045e-01 1.87992300e-01 1.31938972e-01 1.58646222e-01 1.86639087e-01 1.04661997e-01 1.51947295e-01 1.89973400e-01 1.21954452e-01 1.31320525e-01 1.98604706e-01 8.39676286e-02 1.66002878e-01 1.51309970e-01 1.30634479e-01 1.41295606e-01 2.75254961e-01 1.67954135e-01 1.75996837e-01 3.13241784e-01 2.74627075e-01 1.57950737e-01 1.39323945e-01 2.08589227e-01 1.53300509e-01 7.46204333e-02 1.61294490e-01 2.17936422e-01 1.61980536e-01 1.84609266e-01 1.30634479e-01 1.12646539e-01 2.17945861e-01 7.59736473e-02 1.30643918e-01 2.15964761e-01 1.49280149e-01 1.69974517e-01 2.08637948e-01 2.25293078e-01 1.86639087e-01 2.18004020e-01 3.67177288e-01 1.57322851e-01 1.11979371e-01 2.64593834e-01 2.08637948e-01 1.77252609e-01 1.89306232e-01 1.39932954e-01 2.89908587e-01 8.39770674e-02 3.47903733e-01 2.85288202e-01 2.36591530e-01 1.83981380e-01 2.15974200e-01 2.36600969e-01 1.94651946e-01 2.92624454e-01 2.60601791e-01 1.40609561e-01 3.19882552e-01 1.96691205e-01 2.07294172e-01 2.58659973e-01 2.14669707e-01 3.60594681e-01 2.71262918e-01 3.68530502e-01 2.55285921e-01 2.36591530e-01 3.11211963e-01 1.76673444e-01 2.17269254e-01 3.74592105e-01 2.71911208e-01 2.16641368e-01 2.25263235e-01 3.57269806e-01 2.38621351e-01 3.49933554e-01 4.33215137e-01 3.58564860e-01 1.97986259e-01 3.01971649e-01 3.66539964e-01 3.63331408e-01 2.53226256e-01 1.99281313e-01 4.22572887e-01 2.93242901e-01 3.52640438e-01 3.18645657e-01 3.05905988e-01 2.35287037e-01 3.41351425e-01 3.33947574e-01 2.89310544e-01 4.25897762e-01 2.52588932e-01 2.55932684e-01 3.88548263e-01 4.97987774e-01 2.69321100e-01 4.04584947e-01 4.98488375e-01 3.75954758e-01 2.71283322e-01 3.31269007e-01 3.21921811e-01 3.77259251e-01 4.51261237e-01 3.56583760e-01 4.04594386e-01 4.53918944e-01 4.34577789e-01 4.37912103e-01 4.27927583e-01 4.67895963e-01 4.41904603e-01 4.33843023e-01 4.51947283e-01 6.15155274e-01 3.15939230e-01 4.34577789e-01 4.87934129e-01 4.02555126e-01 4.13274413e-01 3.53230569e-01 3.77249812e-01 5.26490678e-01 5.57836735e-01 5.83848499e-01 3.97934741e-01 5.64584383e-01 5.29157824e-01 5.39239786e-01 4.99223142e-01 3.60594681e-01 5.43869154e-01 6.81183683e-01 4.73241220e-01 5.15887711e-01 4.99213703e-01 3.45285308e-01 6.03894577e-01 4.32606128e-01 4.35263835e-01 5.10551437e-01 4.50535909e-01 3.66558841e-01 5.75863957e-01 5.78589263e-01 4.98488375e-01 6.03199092e-01 6.08477207e-01 5.49205429e-01 5.47900936e-01 4.88582419e-01 6.87843328e-01 4.45248355e-01 7.99822699e-01 6.45903743e-01 5.15192227e-01 6.93835805e-01 3.92580045e-01 6.71971685e-01 4.39914064e-01 5.65202830e-01 5.15829551e-01 5.71843597e-01 7.84413901e-01 5.67144648e-01 5.65898315e-01 4.52663628e-01 4.30557430e-01 6.69178781e-01 6.76466312e-01 7.05164100e-01 5.91224034e-01 7.19093925e-01 5.86525084e-01 7.11872466e-01 4.97251481e-01 5.96500165e-01 4.27250976e-01 7.65846796e-01 6.10584065e-01 8.07816680e-01 5.91261789e-01 5.93872758e-01 5.53893412e-01 7.27183366e-01 5.71930074e-01 6.35889380e-01 5.55160150e-01 7.67191027e-01 4.96555996e-01 7.59148325e-01 6.49933542e-01 4.43943862e-01 7.05724387e-01 7.35912114e-01 8.36398149e-01 5.23842410e-01 5.57287869e-01 7.51851355e-01 4.95956426e-01 7.55136948e-01 7.70476620e-01 8.80464996e-01 6.80449372e-01 6.63138039e-01 8.28471766e-01 6.20617307e-01 6.11820960e-01 6.31829282e-01 5.65879437e-01 6.35175018e-01 4.41837004e-01 5.38523897e-01 5.70509261e-01 6.42578868e-01 5.43899454e-01 7.79881975e-01 8.31080752e-01 8.00527622e-01 6.61920023e-01 6.31780561e-01 7.61187585e-01 7.99116249e-01 6.66549390e-01 6.78535415e-01 7.64493582e-01 7.09167565e-01 7.31311062e-01 5.27234884e-01 7.46487221e-01 6.01208554e-01 8.11141555e-01 6.79182179e-01 6.41185916e-01 6.92491574e-01 7.43847935e-01 8.71136679e-01 8.13180815e-01 7.05831268e-01 7.90484943e-01 8.89782804e-01 8.17124593e-01 7.17159563e-01 6.66569795e-01 5.86525084e-01 7.71848712e-01 5.63202852e-01 5.93175290e-01 9.48512717e-01 6.55260378e-01 8.67783487e-01 7.04507898e-01 6.98485577e-01 8.39809500e-01 8.81857949e-01 8.39074733e-01 7.07175043e-01 4.79291857e-01 7.20554020e-01 7.55234390e-01 7.59747895e-01 7.41169824e-01 8.07158951e-01 7.81128308e-01 7.35167908e-01 8.17810639e-01 8.17027151e-01 6.85243781e-01 8.01157035e-01 8.11848462e-01 8.30482709e-01 8.80581772e-01 9.25169625e-01 7.05928710e-01 9.05905508e-01 7.45229466e-01 7.65160750e-01 8.99206581e-01 7.81902358e-01 7.11167543e-01 8.01166474e-01 1.03638439e+00 8.94500176e-01 6.45159538e-01 8.73775964e-01 8.15887699e-01 1.01382524e+00 7.05222260e-01 6.98436856e-01 7.99813260e-01 8.17791762e-01 6.81163278e-01 8.03843059e-01 1.07504782e+00 6.95258144e-01 7.80442263e-01 8.98413654e-01 8.66477468e-01 9.86557701e-01 9.84529407e-01 6.75849392e-01 7.25192827e-01 8.54453232e-01 8.49891462e-01 6.79858786e-01 8.07207672e-01 7.46466360e-01 6.87136878e-01 9.58450043e-01 8.70480933e-01 1.00971642e+00 9.15310864e-01 8.02412807e-01 7.85101930e-01 7.26467476e-01 8.89880247e-01 9.21835311e-01 9.00434493e-01 8.09111734e-01 1.00174131e+00 8.42450312e-01 9.43815294e-01 9.00484741e-01 9.18382694e-01 9.37183966e-01 1.12311660e+00 1.00984218e+00 8.18487246e-01 7.02524815e-01 8.94344574e-01 9.57134584e-01 9.10400135e-01 8.33875639e-01 9.51663113e-01 1.06510258e+00 1.02714560e+00 9.29838731e-01 9.09221401e-01 8.85880291e-01 8.19173292e-01 9.07898030e-01 8.93677406e-01 8.33110573e-01 1.03777734e+00 8.99138982e-01 1.07305728e+00 9.59763975e-01 7.01222305e-01 7.91093951e-01 8.77052118e-01 9.99722916e-01 1.14704982e+00 1.20447524e+00 9.21844750e-01 9.80448904e-01 7.19847114e-01 7.53832455e-01 1.22506273e+00 9.17901428e-01 7.91731276e-01 1.06640707e+00 9.07791149e-01 9.66481780e-01 1.02841081e+00 5.98560286e-01 7.50663182e-01 8.45048333e-01 9.87089671e-01 7.26516197e-01 8.79904709e-01 9.95064775e-01 1.04378976e+00 1.07108562e+00 1.06107080e+00 8.97776786e-01 9.07742428e-01 9.81174688e-01 8.96432554e-01 8.31206511e-01 9.10496050e-01 1.02180780e+00 9.75810097e-01 8.91077859e-01 1.00109455e+00 8.52551152e-01 1.11232972e+00 1.13638870e+00 8.49263576e-01 8.00480428e-01 9.79714137e-01 9.61145505e-01 9.95827858e-01 8.74443132e-01 8.95295085e-01 7.61894035e-01 8.70518232e-01 8.51893423e-01 1.05172558e+00 1.11776191e+00 7.39827576e-01 9.44492358e-01 1.00970698e+00 8.61152159e-01 8.43801543e-01 9.38460598e-01 1.03705155e+00 8.39956119e-01 6.85166743e-01 1.08842679e+00 1.23309600e+00 9.55211188e-01 1.05782494e+00 1.05103756e+00 9.82390722e-01 9.55162923e-01 9.49721295e-01 8.80465453e-01 9.16452299e-01 1.05907128e+00 9.12527398e-01 8.32463809e-01 9.88471202e-01 7.97214169e-01 8.97825051e-01 1.00513577e+00 1.31571041e+00 1.10970976e+00 1.19782549e+00 1.09052421e+00 8.57681121e-01 1.17769096e+00 9.01159821e-01 1.24447347e+00 1.25305560e+00 9.68395281e-01 1.05650903e+00 1.02713463e+00 1.02979234e+00 8.65221696e-01 1.00507761e+00 8.72441172e-01 8.33896044e-01 9.37773026e-01 9.89128931e-01 1.10971129e+00 8.24500128e-01 8.95755948e-01 1.12712007e+00 1.14844232e+00 9.81744414e-01 9.90472706e-01 9.85185609e-01 9.73875735e-01 9.57753032e-01 1.31761295e+00 8.84476373e-01 9.42473502e-01 6.38558053e-01 1.00970698e+00 1.39179094e+00 9.28417919e-01 9.30505899e-01 1.35966885e+00 1.03383356e+00 8.22509589e-01 1.10578685e+00 9.29800976e-01 1.09114266e+00 1.09846947e+00 9.96416462e-01 9.75857292e-01 8.39132893e-01 8.85152980e-01 1.04846831e+00 1.04906589e+00 1.34766395e+00 1.33833716e+00 1.37432400e+00 1.08771045e+00 1.03975798e+00 1.11574107e+00 1.21103699e+00 1.26568884e+00 1.12378377e+00 7.49830973e-01 1.04841913e+00 9.59164405e-01 1.09043819e+00 1.10309884e+00 1.02973616e+00 1.24368009e+00 1.13308270e+00 8.39820922e-01 1.16842080e+00 1.20112007e+00 7.40513621e-01 1.09907848e+00 1.03975798e+00 1.11713402e+00 1.09975509e+00 1.18370231e+00 1.10520570e+00 1.06303348e+00 9.15087663e-01 1.11644006e+00 9.91719496e-01 1.15778753e+00 1.04385736e+00 1.09523260e+00 9.53123208e-01 9.26447784e-01 9.79723576e-01 1.06440709e+00 1.17308991e+00 1.06035491e+00 9.97181072e-01 8.70450633e-01 1.10769091e+00 8.17898642e-01 1.20698679e+00 9.27799471e-01 9.35056703e-01 1.18250424e+00 1.11376195e+00 1.22579750e+00 1.32365369e+00 9.99848674e-01 8.33905483e-01 9.19814929e-01 1.00049696e+00 1.14114428e+00 9.49828176e-01 1.06360320e+00 9.29094526e-01 1.06252191e+00 9.57792314e-01 9.78458365e-01 1.16636114e+00 1.18030040e+00 1.20978122e+00 1.21162758e+00 1.25233971e+00 1.08109054e+00 9.97876557e-01 1.30314324e+00 9.97720955e-01 1.05241163e+00 1.20298531e+00 1.26635601e+00 7.97164992e-01 1.00382184e+00 1.19050766e+00 9.34409939e-01 8.66497872e-01 9.01817550e-01 1.03713956e+00 1.27504502e+00 9.93788599e-01 1.07639159e+00 1.08323668e+00 1.12439278e+00 9.33782509e-01 1.14107623e+00 1.05107729e+00 1.05576681e+00 1.02102629e+00 1.07573585e+00 1.03239387e+00 1.24441333e+00 1.23182926e+00 1.03916040e+00 7.55881154e-01 9.65002807e-01 1.24636611e+00 1.23303631e+00 9.49102848e-01 1.02765762e+00 1.13367283e+00 1.34632170e+00 1.00239006e+00 1.08716006e+00 1.27510363e+00 9.75180685e-01 1.13912497e+00 1.07845171e+00 1.07380148e+00 7.43122607e-01 8.27834441e-01 8.70480933e-01 1.44516616e+00 1.21371556e+00 1.08044225e+00 1.21845181e+00 1.11566449e+00 9.07249283e-01 1.07970748e+00 1.18975402e+00 9.15155262e-01 1.01511085e+00 9.81146372e-01 1.00908853e+00 1.29895784e+00 9.77770793e-01 9.93207451e-01 1.07578258e+00 1.03649127e+00 1.16174273e+00 8.91214583e-01 1.15114722e+00 9.71690313e-01 9.01073344e-01 1.21767776e+00 1.14708758e+00 1.10048042e+00 1.22509258e+00 1.08587398e+00 1.19766944e+00 9.35124302e-01 9.20540257e-01 1.07709804e+00 1.11376941e+00 1.12112759e+00 1.13177775e+00 1.07981436e+00 8.94539914e-01 1.04716382e+00 1.08377656e+00 1.12776683e+00 7.93761097e-01 1.11379925e+00 1.10042226e+00 1.26034313e+00 1.11239732e+00 1.38903533e+00 1.14240158e+00 1.01243427e+00 1.02508593e+00 9.73161829e-01 9.42452642e-01 1.09315360e+00 1.10116646e+00 1.13173847e+00 9.99055291e-01 1.26632617e+00 1.18913405e+00 8.35886583e-01 1.14772643e+00 1.03307992e+00 1.00186906e+00 1.16508649e+00 1.08298364e+00 9.61737619e-01 1.05182303e+00 1.07706820e+00 1.02245609e+00 1.09447697e+00 1.12512800e+00 1.19971814e+00 9.84413087e-01 1.17974910e+00 1.05109617e+00 1.04108334e+00 1.23565626e+00 1.16231246e+00 7.23897773e-01 1.26035257e+00 1.07841396e+00 9.36537658e-01 1.00907909e+00 8.95784264e-01 1.07181094e+00 1.29045382e+00 1.05048869e+00 9.29683129e-01 1.03847389e+00 1.09441881e+00 9.36351757e-01 1.06581892e+00 1.23573482e+00 1.01848490e+00 1.11507588e+00 1.26437293e+00 9.22365755e-01 1.27307381e+00 1.14315477e+00 1.14776571e+00 1.00717503e+00 8.09865379e-01 8.78551495e-01 9.93140308e-01 1.06912492e+00 1.09965765e+00 9.98446283e-01 1.06303348e+00 9.15794113e-01 1.07178263e+00 1.06246375e+00 1.05847125e+00 9.95779137e-01 1.06912339e+00 1.13640758e+00 1.39432136e+00 9.65795734e-01 9.04533417e-01 1.25105562e+00 1.05044941e+00 1.29571153e+00 1.02380032e+00 1.04976336e+00 1.06323780e+00 8.69823203e-01 1.09844116e+00 9.77124029e-01 1.10982608e+00 1.09112378e+00 1.15650390e+00 1.12500224e+00 1.27778175e+00 8.62477512e-01 1.20831214e+00 1.13172903e+00 9.02415593e-01 9.09260683e-01 1.09639991e+00 1.04307387e+00 1.28975681e+00 1.18575254e+00 1.36893901e+00 1.52040458e+00 9.29094526e-01 1.03436553e+00 1.23119193e+00 1.21770806e+00 1.08723862e+00 1.15374875e+00 1.21972844e+00 1.15705475e+00 1.12167691e+00 8.82534556e-01 8.27206556e-01 9.15812991e-01 1.12167691e+00 1.20031770e+00 1.05047727e+00 1.02842025e+00 9.43689992e-01 1.10169691e+00 1.17433624e+00 1.28631561e+00 9.75036048e-01 1.05711804e+00 1.15637814e+00 1.11168143e+00 9.95730416e-01 9.87745874e-01 1.27100578e+00 1.15777855e+00 1.24571036e+00 9.71122570e-01 1.07712636e+00 1.38698663e+00 8.52570030e-01 1.23308503e+00 8.67165040e-01 1.30772541e+00 1.01772182e+00 1.08986648e+00 1.05990348e+00 1.07572442e+00 1.10308940e+00 1.11515246e+00 1.11245593e+00 1.11700826e+00 1.05714986e+00 8.98550835e-01 1.18765507e+00 1.18233022e+00 8.91726149e-01 1.06506330e+00 1.27027893e+00 1.24779789e+00 8.36495591e-01 1.04236895e+00 1.05442257e+00 1.01641535e+00 1.21242051e+00 8.54444249e-01 1.17302231e+00 8.84466935e-01 1.21708017e+00 1.23450737e+00 1.10038297e+00 1.10312716e+00 9.13068808e-01 1.09971581e+00 1.24768004e+00 1.20641706e+00 9.59165932e-01 1.13775135e+00 9.97093069e-01 1.20243599e+00 1.17438496e+00 9.87736435e-01 1.15037470e+00 1.39633230e+00 1.31900544e+00 9.63098745e-01 1.27713346e+00 1.25176054e+00 1.19569778e+00 7.53116566e-01 1.09379093e+00 1.10901428e+00 8.67763083e-01 1.09031989e+00 9.43843611e-01 1.26709976e+00 1.23829555e+00 1.22303291e+00 9.63814178e-01 1.03774902e+00 9.27083582e-01 9.82625344e-01 1.43758630e+00 9.09153802e-01 1.00708703e+00 1.20378920e+00 1.09711626e+00 8.93726127e-01 1.11711514e+00 1.17037358e+00 8.81140077e-01 8.55111417e-01 1.19047782e+00 8.66497872e-01 1.50097542e+00 9.84450842e-01 9.13204005e-01 1.11708530e+00 1.14774684e+00 1.08844567e+00 5.99883656e-01 1.11780119e+00 1.13369171e+00 1.08516008e+00 1.10981665e+00 9.41127744e-01 9.17882550e-01 1.32962729e+00 1.06577020e+00 9.08458317e-01 1.03379580e+00 9.13783170e-01 9.30417896e-01 8.77207720e-01 9.19805490e-01 1.01441537e+00 9.12459799e-01 1.05908970e+00 9.60431143e-01 8.62447213e-01 9.22502479e-01 1.12573655e+00 1.00448901e+00 1.15114921e+00 9.61793796e-01 1.25912664e+00 9.91119470e-01 1.31301342e+00 8.65193379e-01 9.55878813e-01 1.10775851e+00 1.13373997e+00 9.31819831e-01 1.07920536e+00 9.03701208e-01 9.60508181e-01 1.24365968e+00 1.24706159e+00 8.99090261e-01 1.13775135e+00 1.07108562e+00 9.45071066e-01 1.02644859e+00 8.13102251e-01 1.32315507e+00 9.61126628e-01 9.37137228e-01 1.03044063e+00 1.03917882e+00 9.93796055e-01 1.04707536e+00 9.95160234e-01 9.99792041e-01 9.65079389e-01 8.97148444e-01 9.58459938e-01 9.78437961e-01 1.25503670e+00 7.05851673e-01 9.53142085e-01 1.06777916e+00 9.89198057e-01 8.97855350e-01 8.93126557e-01 9.92570582e-01 8.94539914e-01 1.21972646e+00 1.05179318e+00 9.48463996e-01 9.92532827e-01 1.03305007e+00 6.84597017e-01 1.06583735e+00 8.47910362e-01 7.73773179e-01 9.59831574e-01 1.18036009e+00 9.64472363e-01 7.41847958e-01 7.67858196e-01 1.25035861e+00 1.15097274e+00 8.25195612e-01 9.37184422e-01 1.05304896e+00 9.45777973e-01 7.77928736e-01 1.08113774e+00 1.13510308e+00 8.84534533e-01 9.10458295e-01 1.16576309e+00 1.04441765e+00 1.12912004e+00 1.14443886e+00 9.81184127e-01 1.21841253e+00 1.14976569e+00 7.91200832e-01 1.16638154e+00 1.02634171e+00 1.24706159e+00 1.16180044e+00 8.57189959e-01 7.39807171e-01 9.11773754e-01 8.71931589e-01 6.54583771e-01 1.11702714e+00 1.24095325e+00 9.66453463e-01 1.12174451e+00 9.11772227e-01 1.07437274e+00 6.57908646e-01 9.74496166e-01 1.05044941e+00 8.24558287e-01 1.29788751e+00 1.04105502e+00 9.89796099e-01 7.74586966e-01 1.03647239e+00 8.77177877e-01 9.65776856e-01 8.73775964e-01 1.08707312e+00 9.36468077e-01 8.69088436e-01 6.73896608e-01 7.68592962e-01 8.67077037e-01 9.02425031e-01 9.21835311e-01 1.10454051e+00 1.15246268e+00 1.19243259e+00 8.79769968e-01 1.06438669e+00 9.09144363e-01 8.30433988e-01 1.03779576e+00 8.95823546e-01 1.02111231e+00 8.41220874e-01 9.63784335e-01 8.41822426e-01 9.97808958e-01 1.00838361e+00 7.50458859e-01 9.31859113e-01 1.01509045e+00 1.08046266e+00 1.02644859e+00 7.79833254e-01 9.63089306e-01 9.35772592e-01 6.83871689e-01 9.01052940e-01 8.57808406e-01 9.93758755e-01 7.51841916e-01 8.65772544e-01 9.31026904e-01 1.04845689e+00 1.09843917e+00 9.22551656e-01 9.20472658e-01 8.10493265e-01 9.22483602e-01 9.33752210e-01 7.82414380e-01 9.45266407e-01 8.68497850e-01 1.12715782e+00 9.55857952e-01 9.25739351e-01 9.01101661e-01 6.94551694e-01 1.09436065e+00 8.06481888e-01 8.64468051e-01 9.00425054e-01 8.98481253e-01 7.80519300e-01 9.70385820e-01 1.14843288e+00 6.88559217e-01 9.41755630e-01 8.31837906e-01 1.07707764e+00 8.64370609e-01 8.45087615e-01 8.79140099e-01 9.62402804e-01 7.25192827e-01 9.79075286e-01 1.02304667e+00 7.61256710e-01 8.74471449e-01 8.79777424e-01 9.65774873e-01 6.83918884e-01 1.16700943e+00 8.89773366e-01 1.03046940e+00 1.11306448e+00 8.68527693e-01 7.53126005e-01 7.91075073e-01 8.27834441e-01 9.78467804e-01 9.78408117e-01 1.04719168e+00 6.34507850e-01 1.04503610e+00 9.64442064e-01 7.61912913e-01 9.54466983e-01 9.45227124e-01 1.10040185e+00 1.01305119e+00 8.00548027e-01 8.71892306e-01 8.01097349e-01 7.63856257e-01 8.49195978e-01 8.66497872e-01 1.07837269e+00 7.83834736e-01 8.30492148e-01 8.17144998e-01 1.07710748e+00 8.42438891e-01 1.00582334e+00 8.78484353e-01 9.65205603e-01 9.49788894e-01 6.71229462e-01 8.89861369e-01 8.67146163e-01 6.10516467e-01 9.43187409e-01 7.38472379e-01 8.79837567e-01 9.37116367e-01 8.97176760e-01 9.30447740e-01 8.69744183e-01 7.99146092e-01 8.83230040e-01 7.49203087e-01 7.32558922e-01 8.31826941e-01 9.41225642e-01 8.88410713e-01 6.24570068e-01 6.25865122e-01 9.83067329e-01 7.07812368e-01 7.07861089e-01 9.81811557e-01 9.65244429e-01 1.03581619e+00 9.31800953e-01 7.30606139e-01 7.79814377e-01 7.19896291e-01 7.65279053e-01 1.01112825e+00 8.67763083e-01 9.25778633e-01 8.91010260e-01 7.91152111e-01 8.97167321e-01 7.97164992e-01 7.13883409e-01 7.96516702e-01 5.42497519e-01 9.01122065e-01 1.05102812e+00 7.81834759e-01 8.39820466e-01 6.45217698e-01 9.17127379e-01 8.73080480e-01 5.59266986e-01 8.37760802e-01 6.92619315e-01 8.57771107e-01 8.63742723e-01 7.14462574e-01 8.07826119e-01 7.70536307e-01 8.13190254e-01 8.95755948e-01 6.07279595e-01 9.27150725e-01 8.15859383e-01 6.61224538e-01 6.78516537e-01 8.59141216e-01 8.82455991e-01 7.27918132e-01 8.15838978e-01 8.01882363e-01 8.42409047e-01 1.05499077e+00 7.52421081e-01 9.28436796e-01 7.18570937e-01 6.31947585e-01 9.03856810e-01 7.63140368e-01 5.94577225e-01 7.55127509e-01 7.74545701e-01 8.90431095e-01 7.23888334e-01 7.62503044e-01 7.82472084e-01 9.29829292e-01 8.27776282e-01 7.51135466e-01 8.42499033e-01 7.82462645e-01 7.29204204e-01 8.29187655e-01 8.01097349e-01 9.11232344e-01 6.57859924e-01 1.16700943e+00 9.67757956e-01 8.36563190e-01 8.43831843e-01 8.75747625e-01 7.63170212e-01 5.73775976e-01 7.25830152e-01 7.91200832e-01 6.21168155e-01 8.69099402e-01 6.94542255e-01 6.78437973e-01 7.03859607e-01 9.03199080e-01 5.51284427e-01 8.63782005e-01 8.46498989e-01 6.47217675e-01 7.14550578e-01 7.37788316e-01 6.39204816e-01 8.43792105e-01 7.91142672e-01 9.24453736e-01 8.48549214e-01 8.37093633e-01 7.30538540e-01 1.05433457e+00 7.15873948e-01 7.15139181e-01 7.93888382e-01 8.04470945e-01 5.65840155e-01 7.71859678e-01 7.93830678e-01 7.71820395e-01 6.63851945e-01 5.14602096e-01 5.59150666e-01 7.27820690e-01 6.92491574e-01 9.39214243e-01 8.23195179e-01 8.89801226e-01 6.50551989e-01 6.90482613e-01 7.80539705e-01 6.41853084e-01 7.59796616e-01 7.31959353e-01 8.21830999e-01 7.43827531e-01 5.93872302e-01 6.79182179e-01 8.77728725e-01 5.43213408e-01 8.56474070e-01 5.67842115e-01 8.00566905e-01 7.49724092e-01 6.47855000e-01 5.09874830e-01 5.43850733e-01 9.61068468e-01 4.89277904e-01 7.41953312e-01 7.87296792e-01 7.65837357e-01 7.93133211e-01 5.73225128e-01 6.28553128e-01 7.47161845e-01 6.50523673e-01 6.57878802e-01 6.17226360e-01 8.89154462e-01 5.06675713e-01 7.63816975e-01 7.34470897e-01 5.85848477e-01 5.91242911e-01 6.59908623e-01 5.92547404e-01 6.81821008e-01 5.14592657e-01 6.57192756e-01 7.35196225e-01 8.35779702e-01 5.42536801e-01 8.99757886e-01 6.84615895e-01 7.17838153e-01 7.80481545e-01 9.00443475e-01 6.54476890e-01 5.63907776e-01 6.51886325e-01 7.29183343e-01 7.98508767e-01 6.62498731e-01 6.07230874e-01 7.71859678e-01 5.73882857e-01 8.59131777e-01 6.36605269e-01 6.93895492e-01 6.75868269e-01 7.11795429e-01 7.01201444e-01 6.65786307e-01 8.40486107e-01 5.64584383e-01 6.79839908e-01 7.29127166e-01 8.41230313e-01 6.79907507e-01 8.51109479e-01 6.66433071e-01 7.03222282e-01 7.55136948e-01 9.41755630e-01 6.97132363e-01 7.41797710e-01 4.41218557e-01 7.89828740e-01 6.66500669e-01 5.94470344e-01 7.06498436e-01 7.43876252e-01 5.39877111e-01 6.04552306e-01 5.35905472e-01 8.43890003e-01 6.38597335e-01 6.59899184e-01 9.06377792e-01 5.25891109e-01 7.76596383e-01 4.31234037e-01 8.55179016e-01 5.60485459e-01 6.97190523e-01 7.53860772e-01 5.58513342e-01 4.24544548e-01 5.63163570e-01 5.19240903e-01 6.02571207e-01 6.52581810e-01 5.71930074e-01 7.37865353e-01 7.23828647e-01 8.72403873e-01 6.12546288e-01 7.15806349e-01 6.79849347e-01 6.77142919e-01 6.98562615e-01 7.59138886e-01 6.36498388e-01 7.69829857e-01 8.47089119e-01 5.31226927e-01 5.43918331e-01 6.82555775e-01 8.03745617e-01 6.05847360e-01 5.41908915e-01 3.84567186e-01 6.78554293e-01 6.17901440e-01 5.81267830e-01 5.19270746e-01 7.81128308e-01 6.39842141e-01 4.58627332e-01 3.77240373e-01 5.37249247e-01 5.51274988e-01 6.28592410e-01 5.25881670e-01 5.45889992e-01 7.91798874e-01 7.28537036e-01 5.37277564e-01 7.05124818e-01 6.21128873e-01 5.96558781e-01 6.17843280e-01 6.21226315e-01 5.81286708e-01 6.24551190e-01 5.54541703e-01 4.87894846e-01 5.80551941e-01 6.95237740e-01 4.86601319e-01 7.71036907e-01 6.12574604e-01 6.49895787e-01 6.89254702e-01 5.99806619e-01 4.96614156e-01 4.99232580e-01 6.36507827e-01 5.83190770e-01 7.92447165e-01 5.57925194e-01 5.33933811e-01 6.58506688e-01 7.53802612e-01 4.12597806e-01 5.33208483e-01 5.71225150e-01 5.01234085e-01 6.30436786e-01 4.63207979e-01 6.36516810e-01 5.82514163e-01 3.55907153e-01 5.05168424e-01 4.21317115e-01 6.04571184e-01 5.25941357e-01 5.41879071e-01 5.80600662e-01 5.83867377e-01 5.10609597e-01 5.27206567e-01 7.61110547e-01 4.39904625e-01 5.76579846e-01 6.71885209e-01 5.16573757e-01 6.69139499e-01 5.97913522e-01 7.81853636e-01 5.17926971e-01 3.47266408e-01 6.47894282e-01 4.43199657e-01 7.57118048e-01 7.21819231e-01 6.48396409e-01 5.75196789e-01 6.99231766e-01 4.59215936e-01 5.43174126e-01 5.62505841e-01 7.14472013e-01 5.13267303e-01 5.90527022e-01 5.56560558e-01 4.27909162e-01 6.31857598e-01 6.34535710e-01 4.88610736e-01 3.49247508e-01 5.25234906e-01 6.75857304e-01 6.98465173e-01 5.77845057e-01 4.95956426e-01 5.75196789e-01 6.13820937e-01 5.73196811e-01 5.17878250e-01 4.31252914e-01 4.71917849e-01 6.59145540e-01 7.25800308e-01 4.20582349e-01 5.20526518e-01 7.13167520e-01 5.99178733e-01 6.63128600e-01 4.81911808e-01 4.25965361e-01 6.89882588e-01 6.34624169e-01 6.49884821e-01 4.30576307e-01 4.87248083e-01 5.97872257e-01 5.70606703e-01 6.20500987e-01 6.13831903e-01 5.86525084e-01 5.65279868e-01 5.76559442e-01 7.43190206e-01 6.12497567e-01 5.27234884e-01 5.87220569e-01 5.07217123e-01 7.54430498e-01 4.64570632e-01 5.05912630e-01 5.47243206e-01 5.50588942e-01 5.29197106e-01 3.77249812e-01 5.83886255e-01 5.43908892e-01 3.83281571e-01 6.49798344e-01 4.21210235e-01 4.23916662e-01 4.60510990e-01 4.91935611e-01 4.79205380e-01 4.79205380e-01 3.27934693e-01 5.52511882e-01 6.51837604e-01 4.81293361e-01 6.85146339e-01 5.09826109e-01 5.59896855e-01 6.11202513e-01 5.45929275e-01 6.23197976e-01 4.92563497e-01 5.11876790e-01 6.60508193e-01 6.31201396e-01 3.66568280e-01 5.47175608e-01 5.29883152e-01 5.94547382e-01 5.50577520e-01 7.31087862e-01 5.62515280e-01 4.49889145e-01 3.25963032e-01 6.50533111e-01 4.98537096e-01 5.66526201e-01 5.29922434e-01 5.41946670e-01 6.89196542e-01 4.03231733e-01 4.86532194e-01 7.85757676e-01 5.83809217e-01 5.81876838e-01 4.12569490e-01 5.51844714e-01 4.24612147e-01 5.37249247e-01 7.17845609e-01 4.01936679e-01 5.07845009e-01 3.52660843e-01 6.66588673e-01 4.29890262e-01 4.70660551e-01 5.83190770e-01 5.25832949e-01 4.23867941e-01 5.72510765e-01 5.99227454e-01 4.29938983e-01 4.95879389e-01 3.08651699e-01 6.05170753e-01 4.41885725e-01 5.23223963e-01 4.79214819e-01 3.79965678e-01 4.26574369e-01 6.33868542e-01 4.09272475e-01 4.69858185e-01 5.69232628e-01 4.13255535e-01 3.51238047e-01 4.61912925e-01 4.96526152e-01 3.74610982e-01 3.33348005e-01 4.52614451e-01 3.91236270e-01 4.12627649e-01 3.19931273e-01 4.88571453e-01 2.33991983e-01 5.06549955e-01 3.47266408e-01 4.81147198e-01 4.69955627e-01 5.78531103e-01 3.96542245e-01 4.38609571e-01 6.33201374e-01 4.98546535e-01 3.94561145e-01 4.53242337e-01 6.23835301e-01 4.61226879e-01 4.48612969e-01 6.67844445e-01 2.61994287e-01 5.21889171e-01 3.92589484e-01 3.19882552e-01 4.97271885e-01 5.49214867e-01 4.14618188e-01 5.07226562e-01 3.28572018e-01 2.89938430e-01 4.22572887e-01 4.73192499e-01 4.04594386e-01 3.57918096e-01 4.52605012e-01 3.71943837e-01 6.00492665e-01 6.53837582e-01 3.46599240e-01 4.38628449e-01 4.70525353e-01 4.63207979e-01 3.59271310e-01 5.87927019e-01 4.69906906e-01 4.16608727e-01 5.16554879e-01 4.24612147e-01 5.64574944e-01 5.78482382e-01 5.48577543e-01 4.03985378e-01 3.18606375e-01 5.55169589e-01 5.39230347e-01 3.19254666e-01 3.56564882e-01 4.55213998e-01 4.53909505e-01 4.82539694e-01 4.89248060e-01 2.91252362e-01 4.19208274e-01 4.04624229e-01 4.13892860e-01 4.56567212e-01 2.49293900e-01 3.20568598e-01 4.23240055e-01 4.49889145e-01 4.33263858e-01 4.23907224e-01 5.33845808e-01 4.13941581e-01 5.17259803e-01 4.05947600e-01 3.64607585e-01 3.37879931e-01 2.81953888e-01 4.91877451e-01 3.63968733e-01 3.61959317e-01 5.48577999e-01 3.01971649e-01 4.66600453e-01 3.83851297e-01 4.87846125e-01 5.07912608e-01 3.65930955e-01 3.48570901e-01 4.62540811e-01 3.73915498e-01 3.85939278e-01 4.78586933e-01 3.83262693e-01 3.19264105e-01 4.87218239e-01 4.20610209e-01 3.00667156e-01 3.09298462e-01 3.03315424e-01 3.56593199e-01 2.62622173e-01 4.25858480e-01 4.12588367e-01 3.20559159e-01 1.58694943e-01 4.19306172e-01 4.23210212e-01 4.36617049e-01 4.13932142e-01 3.46599240e-01 3.11937291e-01 3.86625323e-01 3.59947917e-01 2.70576872e-01 4.73241220e-01 3.10584077e-01 3.45264448e-01 4.69925784e-01 1.98614145e-01 2.74627075e-01 4.71839285e-01 5.43183564e-01 2.83934988e-01 2.90585194e-01 3.93305373e-01 4.70534792e-01 2.99304503e-01 3.57936974e-01 5.15887711e-01 4.33901182e-01 4.23916662e-01 3.95904920e-01 3.75307994e-01 3.51286768e-01 2.31971601e-01 3.63891696e-01 2.31962162e-01 3.93933259e-01 2.69948986e-01 2.62573452e-01 2.54609314e-01 2.32648208e-01 4.13206814e-01 3.39214267e-01 4.43943862e-01 2.83267820e-01 2.14602108e-01 3.10574639e-01 2.71302200e-01 3.79975117e-01 4.11872478e-01 2.75254961e-01 3.56574321e-01 3.03276142e-01 3.69207109e-01 4.12539646e-01 3.71846395e-01 3.36556560e-01 3.38595820e-01 3.41204806e-01 2.73950468e-01 2.89280701e-01 3.11927853e-01 4.35931003e-01 3.09289023e-01 3.38547099e-01 3.98562627e-01 3.16615837e-01 3.89273592e-01 3.86615885e-01 2.34629308e-01 3.49875394e-01 4.25279315e-01 3.66568280e-01 3.55230546e-01 3.74543384e-01 4.67181601e-01 3.41253527e-01 2.91938408e-01 2.52598370e-01 3.38614698e-01 3.92589484e-01 4.93210260e-01 2.52637653e-01 3.73238891e-01 3.19891991e-01 4.70583513e-01 2.63250059e-01 3.40635080e-01 4.62521933e-01 3.10574639e-01 4.00534744e-01 3.50552001e-01 4.22591765e-01 2.17308536e-01 2.85964809e-01 2.63240620e-01 3.75887159e-01 3.37272449e-01 2.35914923e-01 3.26620761e-01 1.97309652e-01 4.40609549e-01 4.21219673e-01 4.57950725e-01 2.91880248e-01 3.09279585e-01 1.77977937e-01 1.76605845e-01 2.43281018e-01 2.45948164e-01 3.55955874e-01 3.09975069e-01 4.13235131e-01 3.66558841e-01 4.21219673e-01 3.48561462e-01 2.47929264e-01 2.27969663e-01 2.49950102e-01 2.43927782e-01 4.45238916e-01 2.81228560e-01 3.18529338e-01 2.99941828e-01 2.29274156e-01 2.53265539e-01 2.35287037e-01 2.07236013e-01 3.67235448e-01 3.56525600e-01 3.30592400e-01 1.67316810e-01 2.28597549e-01 2.65947048e-01 3.46608679e-01 2.89231980e-01 3.43999693e-01 1.66698363e-01 2.91947847e-01 2.37954183e-01 2.63240620e-01 2.36659129e-01 2.14650829e-01 2.28597549e-01 3.01236882e-01 2.99255782e-01 2.15288154e-01 3.01913489e-01 4.27250976e-01 3.20578036e-01 1.39981675e-01 3.47275847e-01 3.31229725e-01 2.71253479e-01 1.86639087e-01 3.28562579e-01 3.67960776e-01 2.37944744e-01 2.52598370e-01 2.93242901e-01 1.20659398e-01 1.49289588e-01 2.75264400e-01 2.51921763e-01 2.33943262e-01 2.24577189e-01 2.16631929e-01 3.19950150e-01 1.87943579e-01 3.75268712e-01 3.36547121e-01 3.50552001e-01 2.25930403e-01 2.34619869e-01 2.61994287e-01 2.59297298e-01 3.67912055e-01 1.67258650e-01 2.42604412e-01 2.05322511e-01 3.07935809e-01 2.55256077e-01 2.88594655e-01 2.23282135e-01 3.11946730e-01 2.91889687e-01 1.59264669e-01 1.65973035e-01 3.21245204e-01 3.01285603e-01 2.71262918e-01 2.23958742e-01 3.09898032e-01 2.27920942e-01 2.51902886e-01 2.25263235e-01 2.62622173e-01 1.41295606e-01 2.35277598e-01 1.69974517e-01 1.31997132e-01 1.95337991e-01 2.21968203e-01 2.27920942e-01 2.55304798e-01 2.93919508e-01 2.07961341e-01 1.59313390e-01 2.29322877e-01 1.76615284e-01 1.53300509e-01 2.05303634e-01 1.97300214e-01 3.16557677e-01 1.68621303e-01 1.02632176e-01 2.62670894e-01 2.53951584e-01 1.57920894e-01 2.05264351e-01 3.41253527e-01 2.84611595e-01 9.32755416e-02 1.48661702e-01 6.46359133e-02 2.05980241e-01 2.15974200e-01 1.97986259e-01 1.47975656e-01 1.98653428e-01 2.36591530e-01 2.71204758e-01 2.52647091e-01 2.55923245e-01 2.55923245e-01 2.12621008e-01 1.80626205e-01 3.12632776e-01 2.08589227e-01 3.94609866e-01 1.31997132e-01 1.79331151e-01 2.91968251e-01 1.98643989e-01 6.59985661e-02 2.35924362e-01 2.63240620e-01 1.69297910e-01 1.97309652e-01 2.41956121e-01 2.07951902e-01 1.29967311e-01 1.96642484e-01 1.51270688e-01 1.30634479e-01 1.51328847e-01 2.17994582e-01 1.60617883e-01 1.69297910e-01 1.21345444e-01 1.59989997e-01 9.46287556e-02 1.34645400e-01 2.92566294e-01 2.42613850e-01 2.55246638e-01 1.41962775e-01 2.49998823e-01 1.59322829e-01 2.46624771e-01 1.39991113e-01 1.60627322e-01 1.20640520e-01 2.34619869e-01 1.58636783e-01 1.60617883e-01 2.57285898e-01 1.69974517e-01 1.88629625e-01 1.30683200e-01 8.39770674e-02 2.27293056e-01 2.56609291e-01 9.33242627e-02 1.60617883e-01 1.80635644e-01 2.45948164e-01 1.51270688e-01 1.69925796e-01 1.61294490e-01 2.53942146e-01 1.13283864e-01 1.97928099e-01 1.70651124e-01 9.06759946e-02 1.79272991e-01 1.41286168e-01 1.32664300e-01 1.41295606e-01 2.28597549e-01 1.86639087e-01 1.59322829e-01 2.16583208e-01 1.12607257e-01 1.14637078e-01 4.66668508e-02 1.97300214e-01 8.60068884e-02 2.27244335e-01 1.21317127e-01 1.70602403e-01 1.03985390e-01 9.33242627e-02 2.15278715e-01 1.77331173e-01 1.78596384e-01 1.79272991e-01 1.12655978e-01 7.59736473e-02 1.70641685e-01 1.86657964e-01 1.51309970e-01 1.99290752e-01 9.33242627e-02 1.95337991e-01 1.21954452e-01 1.04661997e-01 7.59736473e-02 1.77243170e-01 5.66419320e-02 1.29339425e-01 8.46536744e-02 1.39314506e-01 1.78605823e-01 1.13283864e-01 2.73351354e-02 1.31978254e-01 1.99281313e-01 9.26476557e-02 1.39314506e-01 1.51996016e-01 1.59274108e-01 9.53053626e-02 9.33242627e-02 2.05931520e-01 8.33004604e-02 8.39770674e-02 1.49975633e-01 1.13999753e-01 1.31311086e-01 8.68002712e-03 1.13960471e-01 1.31262365e-01 1.31262365e-01 1.03975951e-01 1.41972213e-01 5.73185389e-02 1.80626205e-01 1.71318292e-01 2.17945861e-01 1.84019135e-01 6.53125203e-02 1.33968793e-01 8.39676286e-02 5.73185389e-02 1.50633363e-01 1.40658282e-01 1.41286168e-01 1.40667720e-01 1.89973400e-01 1.42020934e-01 1.41286168e-01 1.23307666e-01 1.61303929e-01 9.46287556e-02 8.46442356e-02 1.11302764e-01 3.73102167e-02 1.69974517e-01 9.20103309e-02 3.59962849e-02 9.26476557e-02 7.46691544e-02 1.21954452e-01 1.40658282e-01 1.49975633e-01 7.66502543e-02 4.73340189e-02 1.20668837e-01 1.39981675e-01 1.12655978e-01 5.73185389e-02 1.01994851e-01 9.33148238e-02 1.42648820e-01 1.31301647e-01 2.35973083e-01 5.46608321e-02 9.26382169e-02 1.31978254e-01 4.66574119e-02 1.86551083e-02 5.53468779e-02 1.60627322e-01 1.21954452e-01 2.73351354e-02 1.02632176e-01 1.03975951e-01 2.15916040e-01 1.11312203e-01 1.04652558e-01 9.39521486e-02 2.73351354e-02 1.73506154e-02 1.14637078e-01 2.06656848e-01 6.33408592e-02 1.14637078e-01 1.11988810e-01 1.31262365e-01 8.33397426e-02 2.80117424e-02 1.33292186e-01 7.66502543e-02 1.39981675e-01 7.52970403e-02 0.00000000e+00 3.79868236e-02 6.59891272e-02 2.80117424e-02 5.79951459e-02 1.31320525e-01 9.66585765e-02 1.60627322e-01 9.26476557e-02 5.66419320e-02 8.46536744e-02 8.53302814e-02 1.86599804e-01 1.15990292e-01 9.59819696e-02 4.66668508e-02 1.11302764e-01 1.41295606e-01 1.13283864e-01 1.31262365e-01 0.00000000e+00 6.59891272e-02 1.14637078e-01 9.33242627e-02 6.59891272e-02 5.66419320e-02 5.73185389e-02 5.66419320e-02 5.73185389e-02 1.86551083e-02 1.86551083e-02 2.80023036e-02 3.79868236e-02 9.33148238e-02 8.53302814e-02 3.60057237e-02 1.03299344e-01 7.59736473e-02 4.73340189e-02 1.49975633e-01 9.46287556e-02 1.93317153e-02 9.53053626e-02 5.73185389e-02 4.59902438e-02 5.46608321e-02 0.00000000e+00 9.53053626e-02 8.46442356e-02 6.53219591e-02 1.12607257e-01 4.59808049e-02 4.66668508e-02 0.00000000e+00 2.80117424e-02 8.39770674e-02 7.52970403e-02 5.66419320e-02 4.73340189e-02 5.66419320e-02 3.79868236e-02 2.80023036e-02 4.66574119e-02 3.86634306e-02 5.79951459e-02 1.69965078e-01 6.53125203e-02 9.33242627e-02 1.86551083e-02 1.68621303e-01 9.59819696e-02 3.86634306e-02 7.46691544e-02 5.59653250e-02 3.86634306e-02 6.59891272e-02 6.53125203e-02 3.86634306e-02 2.80117424e-02 5.73185389e-02 2.80117424e-02 7.66502543e-02 8.67058829e-03 1.86551083e-02 7.73268612e-02 3.73102167e-02 5.59653250e-02 3.86634306e-02 4.66574119e-02 2.73256966e-02 7.59736473e-02 5.46608321e-02 1.93317153e-02 1.86551083e-02 4.59902438e-02 5.46513932e-02 2.80117424e-02 8.53302814e-02 1.86551083e-02 3.79868236e-02 9.59819696e-02 0.00000000e+00 3.73102167e-02 1.93317153e-02 6.46453521e-02 0.00000000e+00 1.86551083e-02 6.53125203e-02 1.93317153e-02 0.00000000e+00 4.59808049e-02 8.67058829e-03 0.00000000e+00 1.86551083e-02 2.73351354e-02 5.59653250e-02 0.00000000e+00 0.00000000e+00 1.93317153e-02 3.59962849e-02 1.93317153e-02 1.93317153e-02 3.79868236e-02 0.00000000e+00 3.79868236e-02 8.68002712e-03 2.73351354e-02 1.93317153e-02 3.86634306e-02 3.73102167e-02 1.93317153e-02 1.86551083e-02 5.66419320e-02 7.66502543e-02 0.00000000e+00 1.86551083e-02 0.00000000e+00 3.79868236e-02 5.66419320e-02 2.73351354e-02 1.86551083e-02 1.93317153e-02 0.00000000e+00 1.93317153e-02 1.86551083e-02 2.73351354e-02 4.66574119e-02 1.93317153e-02 2.80023036e-02 0.00000000e+00 0.00000000e+00 1.86551083e-02 2.73351354e-02 1.86551083e-02 0.00000000e+00 2.80023036e-02 5.66419320e-02 0.00000000e+00 3.79868236e-02 0.00000000e+00 2.73256966e-02 1.93317153e-02 1.86551083e-02 0.00000000e+00 1.86551083e-02 1.86551083e-02 1.86551083e-02 1.86551083e-02 0.00000000e+00 0.00000000e+00 1.86551083e-02 0.00000000e+00 1.93317153e-02 0.00000000e+00 8.67058829e-03 0.00000000e+00 0.00000000e+00 8.68002712e-03 0.00000000e+00 1.93317153e-02 0.00000000e+00 0.00000000e+00 0.00000000e+00 3.86634306e-02 1.93317153e-02 1.86551083e-02 0.00000000e+00 0.00000000e+00 0.00000000e+00 0.00000000e+00 2.73256966e-02 0.00000000e+00 0.00000000e+00 0.00000000e+00 1.93317153e-02 0.00000000e+00 0.00000000e+00 0.00000000e+00 2.73351354e-02 0.00000000e+00 2.73256966e-02 1.86551083e-02 0.00000000e+00 0.00000000e+00 0.00000000e+00 0.00000000e+00 1.93317153e-02 0.00000000e+00 0.00000000e+00 0.00000000e+00 0.00000000e+00 0.00000000e+00 0.00000000e+00 0.00000000e+00 0.00000000e+00 8.67058829e-03 0.00000000e+00 0.00000000e+00 1.86551083e-02 0.00000000e+00 0.00000000e+00 0.00000000e+00 1.86551083e-02 0.00000000e+00 0.00000000e+00 0.00000000e+00 0.00000000e+00 0.00000000e+00 0.00000000e+00 0.00000000e+00 8.68002712e-03 0.00000000e+00 0.00000000e+00 0.00000000e+00 0.00000000e+00 0.00000000e+00 0.00000000e+00 1.93317153e-02 0.00000000e+00 0.00000000e+00 0.00000000e+00 1.86551083e-02 0.00000000e+00 0.00000000e+00 0.00000000e+00 0.00000000e+00 0.00000000e+00 0.00000000e+00 0.00000000e+00 0.00000000e+00 0.00000000e+00 0.00000000e+00 0.00000000e+00 0.00000000e+00 0.00000000e+00 0.00000000e+00 0.00000000e+00 0.00000000e+00 0.00000000e+00 0.00000000e+00 0.00000000e+00 0.00000000e+00 0.00000000e+00 0.00000000e+00 0.00000000e+00 0.00000000e+00 0.00000000e+00 0.00000000e+00 0.00000000e+00 0.00000000e+00 0.00000000e+00 0.00000000e+00 0.00000000e+00 0.00000000e+00 0.00000000e+00 0.00000000e+00 0.00000000e+00 0.00000000e+00 0.00000000e+00 0.00000000e+00 0.00000000e+00 0.00000000e+00 0.00000000e+00 0.00000000e+00 0.00000000e+00 0.00000000e+00 0.00000000e+00 
      </Histogram>
    </PDF>
  </MVAPdfs>
  <Weights NTrees="200" AnalysisType="1">
    <BinaryTree type="DecisionTree" boostWeight="1.0000000000000000e+00" itree="0">
      <Node pos="s" depth="0" NCoef="0" IVar="4" Cut="1.2154383850097656e+02" cType="1" res="-2.8788671208208882e-13" rms="5.0000000000000000e-01" purity="5.0000000000000000e-01" nType="0">
        <Node pos="l" depth="1" NCoef="0" IVar="1" Cut="4.0447759628295898e+00" cType="1" res="-4.3405253440141678e-02" rms="4.9811241030693054e-01" purity="4.5659473538398743e-01" nType="0">
          <Node pos="l" depth="2" NCoef="0" IVar="-1" Cut="0.0000000000000000e+00" cType="1" res="-2.8747474774718285e-02" rms="4.7740858793258667e-01" purity="3.5140311717987061e-01" nType="-99"/>
          <Node pos="r" depth="2" NCoef="0" IVar="-1" Cut="0.0000000000000000e+00" cType="1" res="6.3074487261474133e-03" rms="4.9867287278175354e-01" purity="5.3640574216842651e-01" nType="-99"/>
        </Node>
        <Node pos="r" depth="1" NCoef="0" IVar="5" Cut="9.8789894104003906e+01" cType="1" res="2.1717931330204010e-01" rms="4.5037001371383667e-01" purity="7.1717929840087891e-01" nType="0">
          <Node pos="l" depth="2" NCoef="0" IVar="-1" Cut="0.0000000000000000e+00" cType="1" res="2.1525150164961815e-02" rms="4.8257651925086975e-01" purity="6.3084304332733154e-01" nType="-99"/>
          <Node pos="r" depth="2" NCoef="0" IVar="-1" Cut="0.0000000000000000e+00" cType="1" res="4.3982017785310745e-02" rms="4.0733572840690613e-01" purity="7.8996139764785767e-01" nType="-99"/>
        </Node>
      </Node>
    </BinaryTree>
    <BinaryTree type="DecisionTree" boostWeight="1.0000000000000000e+00" itree="1">
      <Node pos="s" depth="0" NCoef="0" IVar="4" Cut="1.1546674346923828e+02" cType="1" res="8.6600513895973563e-04" rms="4.9711161851882935e-01" purity="5.0000000000000000e-01" nType="0">
        <Node pos="l" depth="1" NCoef="0" IVar="1" Cut="5.0298509597778320e+00" cType="1" res="-4.2704630643129349e-02" rms="4.9623796343803406e-01" purity="4.5288091897964478e-01" nType="0">
          <Node pos="l" depth="2" NCoef="0" IVar="-1" Cut="0.0000000000000000e+00" cType="1" res="-1.8085876479744911e-02" rms="4.8820087313652039e-01" purity="3.9657947421073914e-01" nType="-99"/>
          <Node pos="r" depth="2" NCoef="0" IVar="-1" Cut="0.0000000000000000e+00" cType="1" res="1.6217032447457314e-02" rms="4.8987835645675659e-01" purity="6.0009592771530151e-01" nType="-99"/>
        </Node>
        <Node pos="r" depth="1" NCoef="0" IVar="5" Cut="1.0458238983154297e+02" cType="1" res="1.8537721037864685e-01" rms="4.5684951543807983e-01" purity="6.9953811168670654e-01" nType="0">
          <Node pos="l" depth="2" NCoef="0" IVar="-1" Cut="0.0000000000000000e+00" cType="1" res="1.8344003707170486e-02" rms="4.8462909460067749e-01" purity="6.1989969015121460e-01" nType="-99"/>
          <Node pos="r" depth="2" NCoef="0" IVar="-1" Cut="0.0000000000000000e+00" cType="1" res="4.0719266980886459e-02" rms="4.0865883231163025e-01" purity="7.8731501102447510e-01" nType="-99"/>
        </Node>
      </Node>
    </BinaryTree>
    <BinaryTree type="DecisionTree" boostWeight="1.0000000000000000e+00" itree="2">
      <Node pos="s" depth="0" NCoef="0" IVar="5" Cut="9.1627647399902344e+01" cType="1" res="1.5782312257215381e-03" rms="4.9464070796966553e-01" purity="5.0000000000000000e-01" nType="0">
        <Node pos="l" depth="1" NCoef="0" IVar="1" Cut="4.0447759628295898e+00" cType="1" res="-5.8390740305185318e-02" rms="4.9226248264312744e-01" purity="4.3545088171958923e-01" nType="0">
          <Node pos="l" depth="2" NCoef="0" IVar="-1" Cut="0.0000000000000000e+00" cType="1" res="-2.8247766196727753e-02" rms="4.7071814537048340e-01" purity="3.3658272027969360e-01" nType="-99"/>
          <Node pos="r" depth="2" NCoef="0" IVar="-1" Cut="0.0000000000000000e+00" cType="1" res="1.9536828622221947e-03" rms="4.9828338623046875e-01" purity="5.1539731025695801e-01" nType="-99"/>
        </Node>
        <Node pos="r" depth="1" NCoef="0" IVar="4" Cut="1.2762188720703125e+02" cType="1" res="1.1575981974601746e-01" rms="4.7880426049232483e-01" purity="6.2290233373641968e-01" nType="0">
          <Node pos="l" depth="2" NCoef="0" IVar="-1" Cut="0.0000000000000000e+00" cType="1" res="1.1493878439068794e-02" rms="4.9324426054954529e-01" purity="5.6274682283401489e-01" nType="-99"/>
          <Node pos="r" depth="2" NCoef="0" IVar="-1" Cut="0.0000000000000000e+00" cType="1" res="3.8117025047540665e-02" rms="4.0763133764266968e-01" purity="7.8876298666000366e-01" nType="-99"/>
        </Node>
      </Node>
    </BinaryTree>
    <BinaryTree type="DecisionTree" boostWeight="1.0000000000000000e+00" itree="3">
      <Node pos="s" depth="0" NCoef="0" IVar="4" Cut="1.1546674346923828e+02" cType="1" res="2.1701008081436157e-03" rms="4.9245280027389526e-01" purity="5.0000000000000000e-01" nType="0">
        <Node pos="l" depth="1" NCoef="0" IVar="1" Cut="5.0298509597778320e+00" cType="1" res="-3.5921603441238403e-02" rms="4.9350714683532715e-01" purity="4.5288091897964478e-01" nType="0">
          <Node pos="l" depth="2" NCoef="0" IVar="-1" Cut="0.0000000000000000e+00" cType="1" res="-1.5583801083266735e-02" rms="4.8693180084228516e-01" purity="3.9657947421073914e-01" nType="-99"/>
          <Node pos="r" depth="2" NCoef="0" IVar="-1" Cut="0.0000000000000000e+00" cType="1" res="1.4437613077461720e-02" rms="4.8966839909553528e-01" purity="6.0009592771530151e-01" nType="-99"/>
        </Node>
        <Node pos="r" depth="1" NCoef="0" IVar="5" Cut="1.1037489318847656e+02" cType="1" res="1.6347934305667877e-01" rms="4.5380866527557373e-01" purity="6.9953811168670654e-01" nType="0">
          <Node pos="l" depth="2" NCoef="0" IVar="-1" Cut="0.0000000000000000e+00" cType="1" res="1.7704438418149948e-02" rms="4.8130759596824646e-01" purity="6.2713974714279175e-01" nType="-99"/>
          <Node pos="r" depth="2" NCoef="0" IVar="-1" Cut="0.0000000000000000e+00" cType="1" res="3.6379929631948471e-02" rms="4.0356045961380005e-01" purity="7.9394066333770752e-01" nType="-99"/>
        </Node>
      </Node>
    </BinaryTree>
    <BinaryTree type="DecisionTree" boostWeight="1.0000000000000000e+00" itree="4">
      <Node pos="s" depth="0" NCoef="0" IVar="5" Cut="1.1550164031982422e+02" cType="1" res="2.6659173890948296e-03" rms="4.9056705832481384e-01" purity="5.0000000000000000e-01" nType="0">
        <Node pos="l" depth="1" NCoef="0" IVar="0" Cut="1.2835156917572021e+00" cType="1" res="-3.6570217460393906e-02" rms="4.9095577001571655e-01" purity="4.5323735475540161e-01" nType="0">
          <Node pos="l" depth="2" NCoef="0" IVar="-1" Cut="0.0000000000000000e+00" cType="1" res="5.3712823428213596e-03" rms="4.9240458011627197e-01" purity="5.2190947532653809e-01" nType="-99"/>
          <Node pos="r" depth="2" NCoef="0" IVar="-1" Cut="0.0000000000000000e+00" cType="1" res="-1.9963525235652924e-02" rms="4.7993147373199463e-01" purity="3.8342171907424927e-01" nType="-99"/>
        </Node>
        <Node pos="r" depth="1" NCoef="0" IVar="0" Cut="1.6210168600082397e+00" cType="1" res="1.4420904219150543e-01" rms="4.6226784586906433e-01" purity="6.6869479417800903e-01" nType="0">
          <Node pos="l" depth="2" NCoef="0" IVar="-1" Cut="0.0000000000000000e+00" cType="1" res="2.9198247939348221e-02" rms="4.4639372825622559e-01" purity="7.0879852771759033e-01" nType="-99"/>
          <Node pos="r" depth="2" NCoef="0" IVar="-1" Cut="0.0000000000000000e+00" cType="1" res="6.4653782173991203e-03" rms="4.8778146505355835e-01" purity="5.5811053514480591e-01" nType="-99"/>
        </Node>
      </Node>
    </BinaryTree>
    <BinaryTree type="DecisionTree" boostWeight="1.0000000000000000e+00" itree="5">
      <Node pos="s" depth="0" NCoef="0" IVar="4" Cut="1.2154383850097656e+02" cType="1" res="2.9827146790921688e-03" rms="4.8888188600540161e-01" purity="5.0000000000000000e-01" nType="0">
        <Node pos="l" depth="1" NCoef="0" IVar="1" Cut="4.0447759628295898e+00" cType="1" res="-2.8570365160703659e-02" rms="4.9124443531036377e-01" purity="4.5659473538398743e-01" nType="0">
          <Node pos="l" depth="2" NCoef="0" IVar="-1" Cut="0.0000000000000000e+00" cType="1" res="-2.1049322560429573e-02" rms="4.7466257214546204e-01" purity="3.5140311717987061e-01" nType="-99"/>
          <Node pos="r" depth="2" NCoef="0" IVar="-1" Cut="0.0000000000000000e+00" cType="1" res="5.4999701678752899e-03" rms="4.9503102898597717e-01" purity="5.3640574216842651e-01" nType="-99"/>
        </Node>
        <Node pos="r" depth="1" NCoef="0" IVar="0" Cut="1.0528118610382080e+00" cType="1" res="1.6085936129093170e-01" rms="4.4442409276962280e-01" purity="7.1717929840087891e-01" nType="0">
          <Node pos="l" depth="2" NCoef="0" IVar="-1" Cut="0.0000000000000000e+00" cType="1" res="3.4935597330331802e-02" rms="4.0458378195762634e-01" purity="7.8735995292663574e-01" nType="-99"/>
          <Node pos="r" depth="2" NCoef="0" IVar="-1" Cut="0.0000000000000000e+00" cType="1" res="1.8430469557642937e-02" rms="4.6630701422691345e-01" purity="6.6438442468643188e-01" nType="-99"/>
        </Node>
      </Node>
    </BinaryTree>
    <BinaryTree type="DecisionTree" boostWeight="1.0000000000000000e+00" itree="6">
      <Node pos="s" depth="0" NCoef="0" IVar="5" Cut="8.7648651123046875e+01" cType="1" res="3.3494527451694012e-03" rms="4.8728370666503906e-01" purity="5.0000000000000000e-01" nType="0">
        <Node pos="l" depth="1" NCoef="0" IVar="6" Cut="2.3984773159027100e+00" cType="1" res="-4.8266045749187469e-02" rms="4.8739606142044067e-01" purity="4.3183764815330505e-01" nType="0">
          <Node pos="l" depth="2" NCoef="0" IVar="-1" Cut="0.0000000000000000e+00" cType="1" res="-1.3309608912095428e-03" rms="4.9104487895965576e-01" purity="4.7333392500877380e-01" nType="-99"/>
          <Node pos="r" depth="2" NCoef="0" IVar="-1" Cut="0.0000000000000000e+00" cType="1" res="-3.0303198844194412e-02" rms="4.6163752675056458e-01" purity="3.2543921470642090e-01" nType="-99"/>
        </Node>
        <Node pos="r" depth="1" NCoef="0" IVar="0" Cut="1.6329010725021362e+00" cType="1" res="9.0880721807479858e-02" rms="4.7442600131034851e-01" purity="6.1559200286865234e-01" nType="0">
          <Node pos="l" depth="2" NCoef="0" IVar="-1" Cut="0.0000000000000000e+00" cType="1" res="2.1458759903907776e-02" rms="4.6248999238014221e-01" purity="6.6064661741256714e-01" nType="-99"/>
          <Node pos="r" depth="2" NCoef="0" IVar="-1" Cut="0.0000000000000000e+00" cType="1" res="-2.1667424589395523e-03" rms="4.8928290605545044e-01" purity="4.9868994951248169e-01" nType="-99"/>
        </Node>
      </Node>
    </BinaryTree>
    <BinaryTree type="DecisionTree" boostWeight="1.0000000000000000e+00" itree="7">
      <Node pos="s" depth="0" NCoef="0" IVar="4" Cut="1.0331253814697266e+02" cType="1" res="3.5805883817374706e-03" rms="4.8576167225837708e-01" purity="5.0000000000000000e-01" nType="0">
        <Node pos="l" depth="1" NCoef="0" IVar="1" Cut="5.0298509597778320e+00" cType="1" res="-3.3567808568477631e-02" rms="4.8816826939582825e-01" purity="4.4638898968696594e-01" nType="0">
          <Node pos="l" depth="2" NCoef="0" IVar="-1" Cut="0.0000000000000000e+00" cType="1" res="-1.3991080224514008e-02" rms="4.8223191499710083e-01" purity="3.8987764716148376e-01" nType="-99"/>
          <Node pos="r" depth="2" NCoef="0" IVar="-1" Cut="0.0000000000000000e+00" cType="1" res="1.1941645294427872e-02" rms="4.8815456032752991e-01" purity="5.9428936243057251e-01" nType="-99"/>
        </Node>
        <Node pos="r" depth="1" NCoef="0" IVar="0" Cut="1.2999831438064575e+00" cType="1" res="1.1461823433637619e-01" rms="4.6098187565803528e-01" purity="6.6024494171142578e-01" nType="0">
          <Node pos="l" depth="2" NCoef="0" IVar="-1" Cut="0.0000000000000000e+00" cType="1" res="2.6286575943231583e-02" rms="4.3883565068244934e-01" purity="7.1912038326263428e-01" nType="-99"/>
          <Node pos="r" depth="2" NCoef="0" IVar="-1" Cut="0.0000000000000000e+00" cType="1" res="8.7345968931913376e-03" rms="4.8116871714591980e-01" purity="5.8291816711425781e-01" nType="-99"/>
        </Node>
      </Node>
    </BinaryTree>
    <BinaryTree type="DecisionTree" boostWeight="1.0000000000000000e+00" itree="8">
      <Node pos="s" depth="0" NCoef="0" IVar="5" Cut="1.1749113464355469e+02" cType="1" res="3.8182802964001894e-03" rms="4.8442164063453674e-01" purity="5.0000000000000000e-01" nType="0">
        <Node pos="l" depth="1" NCoef="0" IVar="3" Cut="1.4892674684524536e+00" cType="1" res="-2.7743086218833923e-02" rms="4.8642414808273315e-01" purity="4.5463117957115173e-01" nType="0">
          <Node pos="l" depth="2" NCoef="0" IVar="-1" Cut="0.0000000000000000e+00" cType="1" res="1.4314407017081976e-03" rms="4.8909297585487366e-01" purity="4.9471604824066162e-01" nType="-99"/>
          <Node pos="r" depth="2" NCoef="0" IVar="-1" Cut="0.0000000000000000e+00" cType="1" res="-2.7481008321046829e-02" rms="4.6075329184532166e-01" purity="3.3032190799713135e-01" nType="-99"/>
        </Node>
        <Node pos="r" depth="1" NCoef="0" IVar="0" Cut="1.2992396354675293e+00" cType="1" res="1.2375236302614212e-01" rms="4.5728239417076111e-01" purity="6.7240279912948608e-01" nType="0">
          <Node pos="l" depth="2" NCoef="0" IVar="-1" Cut="0.0000000000000000e+00" cType="1" res="2.7230739593505859e-02" rms="4.3488284945487976e-01" purity="7.2842115163803101e-01" nType="-99"/>
          <Node pos="r" depth="2" NCoef="0" IVar="-1" Cut="0.0000000000000000e+00" cType="1" res="1.0566675104200840e-02" rms="4.7928619384765625e-01" purity="5.9605169296264648e-01" nType="-99"/>
        </Node>
      </Node>
    </BinaryTree>
    <BinaryTree type="DecisionTree" boostWeight="1.0000000000000000e+00" itree="9">
      <Node pos="s" depth="0" NCoef="0" IVar="2" Cut="1.0035020112991333e+00" cType="1" res="3.9655091241002083e-03" rms="4.8312038183212280e-01" purity="5.0000000000000000e-01" nType="0">
        <Node pos="l" depth="1" NCoef="0" IVar="0" Cut="1.2853649854660034e+00" cType="1" res="6.9171473383903503e-02" rms="4.7782769799232483e-01" purity="5.7785427570343018e-01" nType="0">
          <Node pos="l" depth="2" NCoef="0" IVar="-1" Cut="0.0000000000000000e+00" cType="1" res="1.9947810098528862e-02" rms="4.6547499299049377e-01" purity="6.4152920246124268e-01" nType="-99"/>
          <Node pos="r" depth="2" NCoef="0" IVar="-1" Cut="0.0000000000000000e+00" cType="1" res="1.2666771654039621e-03" rms="4.8543018102645874e-01" purity="4.9961030483245850e-01" nType="-99"/>
        </Node>
        <Node pos="r" depth="1" NCoef="0" IVar="6" Cut="2.3662576675415039e+00" cType="1" res="-4.9767762422561646e-02" rms="4.8083826899528503e-01" purity="4.3584379553794861e-01" nType="0">
          <Node pos="l" depth="2" NCoef="0" IVar="-1" Cut="0.0000000000000000e+00" cType="1" res="-1.8752509495243430e-03" rms="4.8540273308753967e-01" purity="4.7894927859306335e-01" nType="-99"/>
          <Node pos="r" depth="2" NCoef="0" IVar="-1" Cut="0.0000000000000000e+00" cType="1" res="-2.7305204421281815e-02" rms="4.5834839344024658e-01" purity="3.3943903446197510e-01" nType="-99"/>
        </Node>
      </Node>
    </BinaryTree>
    <BinaryTree type="DecisionTree" boostWeight="1.0000000000000000e+00" itree="10">
      <Node pos="s" depth="0" NCoef="0" IVar="4" Cut="1.2762094116210938e+02" cType="1" res="4.0229046717286110e-03" rms="4.8191753029823303e-01" purity="5.0000000000000000e-01" nType="0">
        <Node pos="l" depth="1" NCoef="0" IVar="6" Cut="2.2853417396545410e+00" cType="1" res="-1.9788837060332298e-02" rms="4.8570743203163147e-01" purity="4.6049878001213074e-01" nType="0">
          <Node pos="l" depth="2" NCoef="0" IVar="-1" Cut="0.0000000000000000e+00" cType="1" res="4.4265650212764740e-03" rms="4.8822069168090820e-01" purity="5.1130527257919312e-01" nType="-99"/>
          <Node pos="r" depth="2" NCoef="0" IVar="-1" Cut="0.0000000000000000e+00" cType="1" res="-1.8118899315595627e-02" rms="4.7228294610977173e-01" purity="3.7634527683258057e-01" nType="-99"/>
        </Node>
        <Node pos="r" depth="1" NCoef="0" IVar="6" Cut="2.2982037067413330e+00" cType="1" res="1.4434657990932465e-01" rms="4.3312993645668030e-01" purity="7.3278260231018066e-01" nType="0">
          <Node pos="l" depth="2" NCoef="0" IVar="-1" Cut="0.0000000000000000e+00" cType="1" res="2.8465738520026207e-02" rms="4.1250705718994141e-01" purity="7.7094805240631104e-01" nType="-99"/>
          <Node pos="r" depth="2" NCoef="0" IVar="-1" Cut="0.0000000000000000e+00" cType="1" res="1.4392245560884476e-02" rms="4.6146866679191589e-01" purity="6.6553634405136108e-01" nType="-99"/>
        </Node>
      </Node>
    </BinaryTree>
    <BinaryTree type="DecisionTree" boostWeight="1.0000000000000000e+00" itree="11">
      <Node pos="s" depth="0" NCoef="0" IVar="0" Cut="1.6186239719390869e+00" cType="1" res="4.1088578291237354e-03" rms="4.8082888126373291e-01" purity="5.0000000000000000e-01" nType="0">
        <Node pos="l" depth="1" NCoef="0" IVar="1" Cut="4.0447759628295898e+00" cType="1" res="4.2169395834207535e-02" rms="4.7909042239189148e-01" purity="5.4817384481430054e-01" nType="0">
          <Node pos="l" depth="2" NCoef="0" IVar="-1" Cut="0.0000000000000000e+00" cType="1" res="-4.5387018471956253e-03" rms="4.7952839732170105e-01" purity="4.4656330347061157e-01" nType="-99"/>
