<?xml version="1.0"?>
<MethodSetup Method="BDT::BDTG">
  <GeneralInfo>
    <Info name="TMVA Release" value="4.2.0 [262656]"/>
    <Info name="ROOT Release" value="5.34/18 [336402]"/>
    <Info name="Creator" value="muell149"/>
    <Info name="Date" value="Thu Jan  7 21:37:34 2016"/>
    <Info name="Host" value="Linux cmsdev02.cern.ch 2.6.32-431.23.3.el6.x86_64 #1 SMP Wed Jul 30 09:43:11 CEST 2014 x86_64 x86_64 x86_64 GNU/Linux"/>
    <Info name="Dir" value="/afs/cern.ch/work/m/muell149/CMSSW_7_2_3/src/TMVA-v4.2.0/test"/>
    <Info name="Training events" value="21277"/>
    <Info name="TrainingTime" value="1.36946290e+01"/>
    <Info name="AnalysisType" value="Classification"/>
  </GeneralInfo>
  <Options>
    <Option name="V" modified="Yes">False</Option>
    <Option name="VerbosityLevel" modified="No">Default</Option>
    <Option name="VarTransform" modified="No">None</Option>
    <Option name="H" modified="Yes">False</Option>
    <Option name="CreateMVAPdfs" modified="No">False</Option>
    <Option name="IgnoreNegWeightsInTraining" modified="No">False</Option>
    <Option name="NTrees" modified="Yes">1000</Option>
    <Option name="MaxDepth" modified="Yes">2</Option>
    <Option name="MinNodeSize" modified="Yes">2.5%</Option>
    <Option name="nCuts" modified="Yes">20</Option>
    <Option name="BoostType" modified="Yes">Grad</Option>
    <Option name="AdaBoostR2Loss" modified="No">quadratic</Option>
    <Option name="UseBaggedBoost" modified="Yes">True</Option>
    <Option name="Shrinkage" modified="Yes">1.000000e-01</Option>
    <Option name="AdaBoostBeta" modified="No">5.000000e-01</Option>
    <Option name="UseRandomisedTrees" modified="No">False</Option>
    <Option name="UseNvars" modified="No">3</Option>
    <Option name="UsePoissonNvars" modified="No">True</Option>
    <Option name="BaggedSampleFraction" modified="Yes">5.000000e-01</Option>
    <Option name="UseYesNoLeaf" modified="No">True</Option>
    <Option name="NegWeightTreatment" modified="No">ignorenegweightsintraining</Option>
    <Option name="Css" modified="No">1.000000e+00</Option>
    <Option name="Cts_sb" modified="No">1.000000e+00</Option>
    <Option name="Ctb_ss" modified="No">1.000000e+00</Option>
    <Option name="Cbb" modified="No">1.000000e+00</Option>
    <Option name="NodePurityLimit" modified="No">5.000000e-01</Option>
    <Option name="SeparationType" modified="No">giniindex</Option>
    <Option name="DoBoostMonitor" modified="No">False</Option>
    <Option name="UseFisherCuts" modified="No">False</Option>
    <Option name="MinLinCorrForFisher" modified="No">8.000000e-01</Option>
    <Option name="UseExclusiveVars" modified="No">False</Option>
    <Option name="DoPreselection" modified="No">False</Option>
    <Option name="SigToBkgFraction" modified="No">1.000000e+00</Option>
    <Option name="PruneMethod" modified="No">nopruning</Option>
    <Option name="PruneStrength" modified="No">0.000000e+00</Option>
    <Option name="PruningValFraction" modified="No">5.000000e-01</Option>
    <Option name="nEventsMin" modified="No">0</Option>
    <Option name="UseBaggedGrad" modified="No">False</Option>
    <Option name="GradBaggingFraction" modified="No">5.000000e-01</Option>
    <Option name="UseNTrainEvents" modified="No">0</Option>
    <Option name="NNodesMax" modified="No">0</Option>
  </Options>
  <Variables NVar="7">
    <Variable VarIndex="0" Expression="bJet_csv" Label="bJet_csv" Title="b-jet csv" Unit="csv" Internal="bJet_csv" Type="D" Min="-1.00000000e+01" Max="1.00000000e+00"/>
    <Variable VarIndex="1" Expression="wJet1_csv" Label="wJet1_csv" Title="w jet1 csv" Unit="csv" Internal="wJet1_csv" Type="D" Min="-1.00000000e+01" Max="1.00000000e+00"/>
    <Variable VarIndex="2" Expression="wJet2_csv" Label="wJet2_csv" Title="w jet2 csv" Unit="csv" Internal="wJet2_csv" Type="D" Min="-1.00000000e+01" Max="1.00000000e+00"/>
    <Variable VarIndex="3" Expression="w_Mass" Label="w_Mass" Title="W mass" Unit="GeV" Internal="w_Mass" Type="D" Min="1.07508984e+01" Max="1.12857666e+03"/>
    <Variable VarIndex="4" Expression="top_Mass" Label="top_Mass" Title="top mass" Unit="GeV" Internal="top_Mass" Type="D" Min="4.23619080e+01" Max="1.77753833e+03"/>
    <Variable VarIndex="5" Expression="bJet_W_dR" Label="bJet_W_dR" Title="dR( b,W )" Unit="" Internal="bJet_W_dR" Type="D" Min="1.02924472e-02" Max="6.07274628e+00"/>
    <Variable VarIndex="6" Expression="j_j_dR" Label="j_j_dR" Title="dR( j1,j2 )" Unit="" Internal="j_j_dR" Type="D" Min="0.00000000e+00" Max="5.06690502e+00"/>
  </Variables>
  <Spectators NSpec="0"/>
  <Classes NClass="2">
    <Class Name="Signal" Index="0"/>
    <Class Name="Background" Index="1"/>
  </Classes>
  <Transformations NTransformations="0"/>
  <MVAPdfs/>
  <Weights NTrees="1000" AnalysisType="1">
    <BinaryTree type="DecisionTree" boostWeight="1.0000000000000000e+00" itree="0">
      <Node pos="s" depth="0" NCoef="0" IVar="4" Cut="2.0713803100585938e+02" cType="1" res="2.4053303059190512e-03" rms="4.9999421834945679e-01" purity="5.0240528583526611e-01" nType="0">
        <Node pos="l" depth="1" NCoef="0" IVar="3" Cut="1.1561758422851562e+02" cType="1" res="7.6502390205860138e-02" rms="4.9411273002624512e-01" purity="5.7650238275527954e-01" nType="0">
          <Node pos="l" depth="2" NCoef="0" IVar="-1" Cut="0.0000000000000000e+00" cType="1" res="1.7293337732553482e-02" rms="4.9169600009918213e-01" purity="5.9074705839157104e-01" nType="-99"/>
          <Node pos="r" depth="2" NCoef="0" IVar="-1" Cut="0.0000000000000000e+00" cType="1" res="-5.9831462800502777e-02" rms="4.0614372491836548e-01" purity="2.0837135612964630e-01" nType="-99"/>
        </Node>
        <Node pos="r" depth="1" NCoef="0" IVar="4" Cut="2.7062939453125000e+02" cType="1" res="-2.6204338669776917e-01" rms="4.2583242058753967e-01" purity="2.3795659840106964e-01" nType="0">
          <Node pos="l" depth="2" NCoef="0" IVar="-1" Cut="0.0000000000000000e+00" cType="1" res="-3.8405362516641617e-02" rms="4.6676605939865112e-01" purity="3.2075312733650208e-01" nType="-99"/>
          <Node pos="r" depth="2" NCoef="0" IVar="-1" Cut="0.0000000000000000e+00" cType="1" res="-9.5245406031608582e-02" rms="2.7026265859603882e-01" purity="7.9336136579513550e-02" nType="-99"/>
        </Node>
      </Node>
    </BinaryTree>
    <BinaryTree type="DecisionTree" boostWeight="1.0000000000000000e+00" itree="1">
      <Node pos="s" depth="0" NCoef="0" IVar="4" Cut="2.5633724975585938e+02" cType="1" res="-3.2091846223920584e-03" rms="4.9450686573982239e-01" purity="4.9583199620246887e-01" nType="0">
        <Node pos="l" depth="1" NCoef="0" IVar="3" Cut="1.1552867126464844e+02" cType="1" res="3.5936146974563599e-02" rms="4.9627691507339478e-01" purity="5.3934669494628906e-01" nType="0">
          <Node pos="l" depth="2" NCoef="0" IVar="-1" Cut="0.0000000000000000e+00" cType="1" res="1.2133165262639523e-02" rms="4.9459633231163025e-01" purity="5.6729096174240112e-01" nType="-99"/>
          <Node pos="r" depth="2" NCoef="0" IVar="-1" Cut="0.0000000000000000e+00" cType="1" res="-4.3793663382530212e-02" rms="4.4036859273910522e-01" purity="2.6369297504425049e-01" nType="-99"/>
        </Node>
        <Node pos="r" depth="1" NCoef="0" IVar="4" Cut="3.1748858642578125e+02" cType="1" res="-3.6561113595962524e-01" rms="2.8771439194679260e-01" purity="9.2979036271572113e-02" nType="0">
          <Node pos="l" depth="2" NCoef="0" IVar="-1" Cut="0.0000000000000000e+00" cType="1" res="-7.0697918534278870e-02" rms="3.4144198894500732e-01" purity="1.3703708350658417e-01" nType="-99"/>
          <Node pos="r" depth="2" NCoef="0" IVar="-1" Cut="0.0000000000000000e+00" cType="1" res="-9.5420606434345245e-02" rms="1.4168794453144073e-01" purity="2.0495541393756866e-02" nType="-99"/>
        </Node>
      </Node>
    </BinaryTree>
    <BinaryTree type="DecisionTree" boostWeight="1.0000000000000000e+00" itree="2">
      <Node pos="s" depth="0" NCoef="0" IVar="4" Cut="2.1149508666992188e+02" cType="1" res="-9.2759187100455165e-04" rms="4.9070385098457336e-01" purity="4.9805828928947449e-01" nType="0">
        <Node pos="l" depth="1" NCoef="0" IVar="3" Cut="5.9678577423095703e+01" cType="0" res="6.2468335032463074e-02" rms="4.9291673302650452e-01" purity="5.7409054040908813e-01" nType="0">
          <Node pos="l" depth="2" NCoef="0" IVar="-1" Cut="0.0000000000000000e+00" cType="1" res="1.6094921156764030e-02" rms="4.8903027176856995e-01" purity="5.9518957138061523e-01" nType="-99"/>
          <Node pos="r" depth="2" NCoef="0" IVar="-1" Cut="0.0000000000000000e+00" cType="1" res="-3.4714624285697937e-02" rms="4.7100132703781128e-01" purity="3.3280968666076660e-01" nType="-99"/>
        </Node>
        <Node pos="r" depth="1" NCoef="0" IVar="4" Cut="2.8609774780273438e+02" cType="1" res="-2.4725052714347839e-01" rms="3.9502167701721191e-01" purity="2.0263740420341492e-01" nType="0">
          <Node pos="l" depth="2" NCoef="0" IVar="-1" Cut="0.0000000000000000e+00" cType="1" res="-3.8899768143892288e-02" rms="4.3951863050460815e-01" purity="2.6501742005348206e-01" nType="-99"/>
          <Node pos="r" depth="2" NCoef="0" IVar="-1" Cut="0.0000000000000000e+00" cType="1" res="-8.2564771175384521e-02" rms="2.0322218537330627e-01" purity="4.3544974178075790e-02" nType="-99"/>
        </Node>
      </Node>
    </BinaryTree>
    <BinaryTree type="DecisionTree" boostWeight="1.0000000000000000e+00" itree="3">
      <Node pos="s" depth="0" NCoef="0" IVar="4" Cut="1.8951329040527344e+02" cType="1" res="1.1336451396346092e-02" rms="4.8633939027786255e-01" purity="5.1000273227691650e-01" nType="0">
        <Node pos="l" depth="1" NCoef="0" IVar="3" Cut="9.4644515991210938e+01" cType="1" res="8.6260475218296051e-02" rms="4.8702245950698853e-01" purity="6.0573834180831909e-01" nType="0">
          <Node pos="l" depth="2" NCoef="0" IVar="-1" Cut="0.0000000000000000e+00" cType="1" res="1.9095601513981819e-02" rms="4.8002818226814270e-01" purity="6.3554376363754272e-01" nType="-99"/>
          <Node pos="r" depth="2" NCoef="0" IVar="-1" Cut="0.0000000000000000e+00" cType="1" res="-2.1804476156830788e-02" rms="4.8542690277099609e-01" purity="3.9130276441574097e-01" nType="-99"/>
        </Node>
        <Node pos="r" depth="1" NCoef="0" IVar="3" Cut="1.5048060607910156e+02" cType="1" res="-1.3416486978530884e-01" rms="4.5073565840721130e-01" purity="3.2408565282821655e-01" nType="0">
          <Node pos="l" depth="2" NCoef="0" IVar="-1" Cut="0.0000000000000000e+00" cType="1" res="-2.0069601014256477e-02" rms="4.7188556194305420e-01" purity="3.7823331356048584e-01" nType="-99"/>
          <Node pos="r" depth="2" NCoef="0" IVar="-1" Cut="0.0000000000000000e+00" cType="1" res="-7.4212774634361267e-02" rms="2.4677230417728424e-01" purity="6.4972914755344391e-02" nType="-99"/>
        </Node>
      </Node>
    </BinaryTree>
    <BinaryTree type="DecisionTree" boostWeight="1.0000000000000000e+00" itree="4">
      <Node pos="s" depth="0" NCoef="0" IVar="4" Cut="2.0761680603027344e+02" cType="1" res="6.4826761372387409e-03" rms="4.8364388942718506e-01" purity="5.0483024120330811e-01" nType="0">
        <Node pos="l" depth="1" NCoef="0" IVar="3" Cut="6.5255920410156250e+01" cType="0" res="5.8886129409074783e-02" rms="4.8981034755706787e-01" purity="5.8136564493179321e-01" nType="0">
          <Node pos="l" depth="2" NCoef="0" IVar="-1" Cut="0.0000000000000000e+00" cType="1" res="1.5401113778352737e-02" rms="4.8484635353088379e-01" purity="6.0856473445892334e-01" nType="-99"/>
          <Node pos="r" depth="2" NCoef="0" IVar="-1" Cut="0.0000000000000000e+00" cType="1" res="-1.9519792869687080e-02" rms="4.8967158794403076e-01" purity="4.1571688652038574e-01" nType="-99"/>
        </Node>
        <Node pos="r" depth="1" NCoef="0" IVar="3" Cut="1.4252854919433594e+02" cType="1" res="-1.8155245482921600e-01" rms="4.0885359048843384e-01" purity="2.3020434379577637e-01" nType="0">
          <Node pos="l" depth="2" NCoef="0" IVar="-1" Cut="0.0000000000000000e+00" cType="1" res="-3.0346941202878952e-02" rms="4.4696301221847534e-01" purity="2.9264721274375916e-01" nType="-99"/>
          <Node pos="r" depth="2" NCoef="0" IVar="-1" Cut="0.0000000000000000e+00" cType="1" res="-6.4240984618663788e-02" rms="2.8687325119972229e-01" purity="9.3840695917606354e-02" nType="-99"/>
        </Node>
      </Node>
    </BinaryTree>
    <BinaryTree type="DecisionTree" boostWeight="1.0000000000000000e+00" itree="5">
      <Node pos="s" depth="0" NCoef="0" IVar="4" Cut="2.0388713073730469e+02" cType="1" res="-7.4665094725787640e-03" rms="4.8174729943275452e-01" purity="4.9037018418312073e-01" nType="0">
        <Node pos="l" depth="1" NCoef="0" IVar="4" Cut="1.4231179809570312e+02" cType="0" res="4.0633201599121094e-02" rms="4.9103185534477234e-01" purity="5.6861984729766846e-01" nType="0">
          <Node pos="l" depth="2" NCoef="0" IVar="-1" Cut="0.0000000000000000e+00" cType="1" res="1.4510670676827431e-02" rms="4.8504555225372314e-01" purity="5.9750717878341675e-01" nType="-99"/>
          <Node pos="r" depth="2" NCoef="0" IVar="-1" Cut="0.0000000000000000e+00" cType="1" res="-2.0141363143920898e-02" rms="4.9210005998611450e-01" purity="3.9733064174652100e-01" nType="-99"/>
        </Node>
        <Node pos="r" depth="1" NCoef="0" IVar="4" Cut="2.5007746887207031e+02" cType="1" res="-1.5704648196697235e-01" rms="4.1764160990715027e-01" purity="2.4703030288219452e-01" nType="0">
          <Node pos="l" depth="2" NCoef="0" IVar="-1" Cut="0.0000000000000000e+00" cType="1" res="-1.6688479110598564e-02" rms="4.6965041756629944e-01" purity="3.4212654829025269e-01" nType="-99"/>
          <Node pos="r" depth="2" NCoef="0" IVar="-1" Cut="0.0000000000000000e+00" cType="1" res="-5.8629348874092102e-02" rms="3.1528499722480774e-01" purity="1.1627278476953506e-01" nType="-99"/>
        </Node>
      </Node>
    </BinaryTree>
    <BinaryTree type="DecisionTree" boostWeight="1.0000000000000000e+00" itree="6">
      <Node pos="s" depth="0" NCoef="0" IVar="4" Cut="2.0761680603027344e+02" cType="1" res="2.6546807494014502e-03" rms="4.7869470715522766e-01" purity="5.0057613849639893e-01" nType="0">
        <Node pos="l" depth="1" NCoef="0" IVar="0" Cut="4.7619047760963440e-01" cType="0" res="4.6326469630002975e-02" rms="4.8883515596389771e-01" purity="5.7862055301666260e-01" nType="0">
          <Node pos="l" depth="2" NCoef="0" IVar="-1" Cut="0.0000000000000000e+00" cType="1" res="1.4806397259235382e-02" rms="4.8126956820487976e-01" purity="6.1548388004302979e-01" nType="-99"/>
          <Node pos="r" depth="2" NCoef="0" IVar="-1" Cut="0.0000000000000000e+00" cType="1" res="-1.7436539754271507e-02" rms="4.9135798215866089e-01" purity="4.2946010828018188e-01" nType="-99"/>
        </Node>
        <Node pos="r" depth="1" NCoef="0" IVar="3" Cut="7.9970626831054688e+01" cType="0" res="-1.5016819536685944e-01" rms="4.0593963861465454e-01" purity="2.2747153043746948e-01" nType="0">
          <Node pos="l" depth="2" NCoef="0" IVar="-1" Cut="0.0000000000000000e+00" cType="1" res="-2.9311029240489006e-02" rms="4.1308730840682983e-01" purity="2.4315007030963898e-01" nType="-99"/>
          <Node pos="r" depth="2" NCoef="0" IVar="-1" Cut="0.0000000000000000e+00" cType="1" res="-5.6403148919343948e-02" rms="3.3259785175323486e-01" purity="1.2981477379798889e-01" nType="-99"/>
        </Node>
      </Node>
    </BinaryTree>
    <BinaryTree type="DecisionTree" boostWeight="1.0000000000000000e+00" itree="7">
      <Node pos="s" depth="0" NCoef="0" IVar="4" Cut="2.1149508666992188e+02" cType="1" res="-2.0878580398857594e-03" rms="4.7779646515846252e-01" purity="4.9535506963729858e-01" nType="0">
        <Node pos="l" depth="1" NCoef="0" IVar="4" Cut="1.4077008056640625e+02" cType="0" res="3.1357992440462112e-02" rms="4.8943671584129333e-01" purity="5.6506603956222534e-01" nType="0">
          <Node pos="l" depth="2" NCoef="0" IVar="-1" Cut="0.0000000000000000e+00" cType="1" res="1.1673921719193459e-02" rms="4.8474630713462830e-01" purity="5.9195250272750854e-01" nType="-99"/>
          <Node pos="r" depth="2" NCoef="0" IVar="-1" Cut="0.0000000000000000e+00" cType="1" res="-2.1154204383492470e-02" rms="4.8780265450477600e-01" purity="3.7966442108154297e-01" nType="-99"/>
        </Node>
        <Node pos="r" depth="1" NCoef="0" IVar="4" Cut="2.8608499145507812e+02" cType="1" res="-1.3032816350460052e-01" rms="4.0544465184211731e-01" purity="2.2806462645530701e-01" nType="0">
          <Node pos="l" depth="2" NCoef="0" IVar="-1" Cut="0.0000000000000000e+00" cType="1" res="-2.2932736203074455e-02" rms="4.4898828864097595e-01" purity="2.9356414079666138e-01" nType="-99"/>
          <Node pos="r" depth="2" NCoef="0" IVar="-1" Cut="0.0000000000000000e+00" cType="1" res="-6.4163744449615479e-02" rms="2.1591137349605560e-01" purity="4.9615222960710526e-02" nType="-99"/>
        </Node>
      </Node>
    </BinaryTree>
    <BinaryTree type="DecisionTree" boostWeight="1.0000000000000000e+00" itree="8">
      <Node pos="s" depth="0" NCoef="0" IVar="4" Cut="1.8501214599609375e+02" cType="1" res="2.4908059276640415e-03" rms="4.7302374243736267e-01" purity="4.9921795725822449e-01" nType="0">
        <Node pos="l" depth="1" NCoef="0" IVar="3" Cut="9.9548210144042969e+01" cType="1" res="6.1629150062799454e-02" rms="4.8270633816719055e-01" purity="6.0450786352157593e-01" nType="0">
          <Node pos="l" depth="2" NCoef="0" IVar="-1" Cut="0.0000000000000000e+00" cType="1" res="1.3401888310909271e-02" rms="4.7916057705879211e-01" purity="6.2316542863845825e-01" nType="-99"/>
          <Node pos="r" depth="2" NCoef="0" IVar="-1" Cut="0.0000000000000000e+00" cType="1" res="-4.5576881617307663e-02" rms="4.5809045433998108e-01" purity="3.1488165259361267e-01" nType="-99"/>
        </Node>
        <Node pos="r" depth="1" NCoef="0" IVar="4" Cut="2.4956077575683594e+02" cType="1" res="-8.6249150335788727e-02" rms="4.4355690479278564e-01" purity="3.4122547507286072e-01" nType="0">
          <Node pos="l" depth="2" NCoef="0" IVar="-1" Cut="0.0000000000000000e+00" cType="1" res="-6.4430576749145985e-03" rms="4.8281046748161316e-01" purity="4.3390753865242004e-01" nType="-99"/>
          <Node pos="r" depth="2" NCoef="0" IVar="-1" Cut="0.0000000000000000e+00" cType="1" res="-4.8617620021104813e-02" rms="2.8549501299858093e-01" purity="9.3036256730556488e-02" nType="-99"/>
        </Node>
      </Node>
    </BinaryTree>
    <BinaryTree type="DecisionTree" boostWeight="1.0000000000000000e+00" itree="9">
      <Node pos="s" depth="0" NCoef="0" IVar="4" Cut="2.1764659118652344e+02" cType="1" res="2.2089807316660881e-03" rms="4.7364342212677002e-01" purity="4.9965569376945496e-01" nType="0">
        <Node pos="l" depth="1" NCoef="0" IVar="6" Cut="1.2808831930160522e+00" cType="1" res="3.0696220695972443e-02" rms="4.8722583055496216e-01" purity="5.6686407327651978e-01" nType="0">
          <Node pos="l" depth="2" NCoef="0" IVar="-1" Cut="0.0000000000000000e+00" cType="1" res="1.8423015251755714e-02" rms="4.7126007080078125e-01" purity="6.4027768373489380e-01" nType="-99"/>
          <Node pos="r" depth="2" NCoef="0" IVar="-1" Cut="0.0000000000000000e+00" cType="1" res="-2.6014195755124092e-03" rms="4.9200370907783508e-01" purity="5.1205891370773315e-01" nType="-99"/>
        </Node>
        <Node pos="r" depth="1" NCoef="0" IVar="4" Cut="2.9193133544921875e+02" cType="1" res="-1.2725347280502319e-01" rms="3.8023486733436584e-01" purity="1.9422213733196259e-01" nType="0">
          <Node pos="l" depth="2" NCoef="0" IVar="-1" Cut="0.0000000000000000e+00" cType="1" res="-2.4715524166822433e-02" rms="4.3382695317268372e-01" purity="2.6243004202842712e-01" nType="-99"/>
          <Node pos="r" depth="2" NCoef="0" IVar="-1" Cut="0.0000000000000000e+00" cType="1" res="-5.8362577110528946e-02" rms="1.7650635540485382e-01" purity="3.2528888434171677e-02" nType="-99"/>
        </Node>
      </Node>
    </BinaryTree>
    <BinaryTree type="DecisionTree" boostWeight="1.0000000000000000e+00" itree="10">
      <Node pos="s" depth="0" NCoef="0" IVar="3" Cut="1.3148855590820312e+02" cType="1" res="7.7146776020526886e-03" rms="4.7206953167915344e-01" purity="5.0561529397964478e-01" nType="0">
        <Node pos="l" depth="1" NCoef="0" IVar="3" Cut="6.8240661621093750e+01" cType="0" res="2.5832777842879295e-02" rms="4.8064738512039185e-01" purity="5.4361975193023682e-01" nType="0">
          <Node pos="l" depth="2" NCoef="0" IVar="-1" Cut="0.0000000000000000e+00" cType="1" res="9.2184189707040787e-03" rms="4.7507554292678833e-01" purity="5.7491320371627808e-01" nType="-99"/>
          <Node pos="r" depth="2" NCoef="0" IVar="-1" Cut="0.0000000000000000e+00" cType="1" res="-2.0521037280559540e-02" rms="4.7931382060050964e-01" purity="3.9739105105400085e-01" nType="-99"/>
        </Node>
        <Node pos="r" depth="1" NCoef="0" IVar="6" Cut="1.9404572248458862e+00" cType="1" res="-1.7638565599918365e-01" rms="3.2028394937515259e-01" purity="1.1944648623466492e-01" nType="0">
          <Node pos="l" depth="2" NCoef="0" IVar="-1" Cut="0.0000000000000000e+00" cType="1" res="-3.3364351838827133e-02" rms="3.6592414975166321e-01" purity="1.7163361608982086e-01" nType="-99"/>
          <Node pos="r" depth="2" NCoef="0" IVar="-1" Cut="0.0000000000000000e+00" cType="1" res="-5.0741262733936310e-02" rms="2.8913843631744385e-01" purity="9.0714454650878906e-02" nType="-99"/>
        </Node>
      </Node>
    </BinaryTree>
    <BinaryTree type="DecisionTree" boostWeight="1.0000000000000000e+00" itree="11">
      <Node pos="s" depth="0" NCoef="0" IVar="6" Cut="1.4397377967834473e+00" cType="1" res="1.4127355068922043e-02" rms="4.6982795000076294e-01" purity="5.1145869493484497e-01" nType="0">
        <Node pos="l" depth="1" NCoef="0" IVar="3" Cut="6.6642082214355469e+01" cType="0" res="7.0322893559932709e-02" rms="4.6519950032234192e-01" purity="5.8639836311340332e-01" nType="0">
          <Node pos="l" depth="2" NCoef="0" IVar="-1" Cut="0.0000000000000000e+00" cType="1" res="1.9443877041339874e-02" rms="4.5226907730102539e-01" purity="6.3364022970199585e-01" nType="-99"/>
          <Node pos="r" depth="2" NCoef="0" IVar="-1" Cut="0.0000000000000000e+00" cType="1" res="-2.5291522964835167e-02" rms="4.7621500492095947e-01" purity="3.9218193292617798e-01" nType="-99"/>
        </Node>
        <Node pos="r" depth="1" NCoef="0" IVar="3" Cut="1.1737290954589844e+02" cType="1" res="-3.9880383759737015e-02" rms="4.6791636943817139e-01" purity="4.3943655490875244e-01" nType="0">
          <Node pos="l" depth="2" NCoef="0" IVar="-1" Cut="0.0000000000000000e+00" cType="1" res="-3.9101908914744854e-03" rms="4.8725968599319458e-01" purity="5.1164120435714722e-01" nType="-99"/>
          <Node pos="r" depth="2" NCoef="0" IVar="-1" Cut="0.0000000000000000e+00" cType="1" res="-3.9033699780702591e-02" rms="3.6837503314018250e-01" purity="1.6784176230430603e-01" nType="-99"/>
        </Node>
      </Node>
    </BinaryTree>
    <BinaryTree type="DecisionTree" boostWeight="1.0000000000000000e+00" itree="12">
      <Node pos="s" depth="0" NCoef="0" IVar="3" Cut="5.6801216125488281e+01" cType="0" res="1.0802765376865864e-02" rms="4.6935218572616577e-01" purity="5.0688821077346802e-01" nType="0">
        <Node pos="l" depth="1" NCoef="0" IVar="4" Cut="2.1947624206542969e+02" cType="1" res="2.3511234670877457e-02" rms="4.6800020337104797e-01" purity="5.2082806825637817e-01" nType="0">
          <Node pos="l" depth="2" NCoef="0" IVar="-1" Cut="0.0000000000000000e+00" cType="1" res="7.7445455826818943e-03" rms="4.8100662231445312e-01" purity="5.9505271911621094e-01" nType="-99"/>
          <Node pos="r" depth="2" NCoef="0" IVar="-1" Cut="0.0000000000000000e+00" cType="1" res="-2.8839854523539543e-02" rms="3.8079634308815002e-01" purity="1.9235904514789581e-01" nType="-99"/>
        </Node>
        <Node pos="r" depth="1" NCoef="0" IVar="5" Cut="1.6891657114028931e+00" cType="1" res="-2.2054938971996307e-01" rms="4.3231710791587830e-01" purity="2.5311982631683350e-01" nType="0">
          <Node pos="l" depth="2" NCoef="0" IVar="-1" Cut="0.0000000000000000e+00" cType="1" res="-2.6607200503349304e-02" rms="4.7163161635398865e-01" purity="3.3178484439849854e-01" nType="-99"/>
          <Node pos="r" depth="2" NCoef="0" IVar="-1" Cut="0.0000000000000000e+00" cType="1" res="-4.9053981900215149e-02" rms="3.7196308374404907e-01" purity="1.6960239410400391e-01" nType="-99"/>
        </Node>
      </Node>
    </BinaryTree>
    <BinaryTree type="DecisionTree" boostWeight="1.0000000000000000e+00" itree="13">
      <Node pos="s" depth="0" NCoef="0" IVar="0" Cut="4.7619047760963440e-01" cType="0" res="-5.7176202535629272e-03" rms="4.6687853336334229e-01" purity="4.8923373222351074e-01" nType="0">
        <Node pos="l" depth="1" NCoef="0" IVar="6" Cut="1.6670417785644531e+00" cType="1" res="2.0956987515091896e-02" rms="4.6378445625305176e-01" purity="5.1741552352905273e-01" nType="0">
          <Node pos="l" depth="2" NCoef="0" IVar="-1" Cut="0.0000000000000000e+00" cType="1" res="1.4947818592190742e-02" rms="4.6010613441467285e-01" purity="5.9352266788482666e-01" nType="-99"/>
          <Node pos="r" depth="2" NCoef="0" IVar="-1" Cut="0.0000000000000000e+00" cType="1" res="-9.3667944893240929e-03" rms="4.5793807506561279e-01" purity="4.0824007987976074e-01" nType="-99"/>
        </Node>
        <Node pos="r" depth="1" NCoef="0" IVar="1" Cut="4.7618696093559265e-01" cType="1" res="-1.2006749957799911e-01" rms="4.6281045675277710e-01" purity="3.6842280626296997e-01" nType="0">
          <Node pos="l" depth="2" NCoef="0" IVar="-1" Cut="0.0000000000000000e+00" cType="1" res="-1.7465582117438316e-02" rms="4.6850603818893433e-01" purity="4.0136662125587463e-01" nType="-99"/>
          <Node pos="r" depth="2" NCoef="0" IVar="-1" Cut="0.0000000000000000e+00" cType="1" res="-2.8128288686275482e-02" rms="4.4042408466339111e-01" purity="2.8315004706382751e-01" nType="-99"/>
        </Node>
      </Node>
    </BinaryTree>
    <BinaryTree type="DecisionTree" boostWeight="1.0000000000000000e+00" itree="14">
      <Node pos="s" depth="0" NCoef="0" IVar="6" Cut="1.4168068170547485e+00" cType="1" res="-2.8485280927270651e-03" rms="4.6702522039413452e-01" purity="4.9428334832191467e-01" nType="0">
        <Node pos="l" depth="1" NCoef="0" IVar="3" Cut="7.1754211425781250e+01" cType="0" res="5.2271135151386261e-02" rms="4.6430712938308716e-01" purity="5.7644164562225342e-01" nType="0">
          <Node pos="l" depth="2" NCoef="0" IVar="-1" Cut="0.0000000000000000e+00" cType="1" res="1.9633207470178604e-02" rms="4.4881355762481689e-01" purity="6.3592100143432617e-01" nType="-99"/>
          <Node pos="r" depth="2" NCoef="0" IVar="-1" Cut="0.0000000000000000e+00" cType="1" res="-1.6143234446644783e-02" rms="4.7554764151573181e-01" purity="4.2384278774261475e-01" nType="-99"/>
        </Node>
        <Node pos="r" depth="1" NCoef="0" IVar="3" Cut="9.1528251647949219e+01" cType="1" res="-5.2408549934625626e-02" rms="4.6389731764793396e-01" purity="4.2041194438934326e-01" nType="0">
          <Node pos="l" depth="2" NCoef="0" IVar="-1" Cut="0.0000000000000000e+00" cType="1" res="1.7451324965804815e-03" rms="4.8549914360046387e-01" purity="5.3009462356567383e-01" nType="-99"/>
          <Node pos="r" depth="2" NCoef="0" IVar="-1" Cut="0.0000000000000000e+00" cType="1" res="-2.2717133164405823e-02" rms="4.2859560251235962e-01" purity="2.8483226895332336e-01" nType="-99"/>
        </Node>
      </Node>
    </BinaryTree>
    <BinaryTree type="DecisionTree" boostWeight="1.0000000000000000e+00" itree="15">
      <Node pos="s" depth="0" NCoef="0" IVar="6" Cut="8.3676439523696899e-01" cType="1" res="9.7644664347171783e-03" rms="4.6668168902397156e-01" purity="5.0784170627593994e-01" nType="0">
        <Node pos="l" depth="1" NCoef="0" IVar="3" Cut="7.3849098205566406e+01" cType="0" res="1.0954155027866364e-01" rms="4.3623754382133484e-01" purity="6.4045631885528564e-01" nType="0">
          <Node pos="l" depth="2" NCoef="0" IVar="-1" Cut="0.0000000000000000e+00" cType="1" res="3.0173592269420624e-02" rms="3.9176794886589050e-01" purity="7.4066418409347534e-01" nType="-99"/>
          <Node pos="r" depth="2" NCoef="0" IVar="-1" Cut="0.0000000000000000e+00" cType="1" res="-1.6189958900213242e-02" rms="4.6970728039741516e-01" purity="4.2439660429954529e-01" nType="-99"/>
        </Node>
        <Node pos="r" depth="1" NCoef="0" IVar="3" Cut="1.3576556396484375e+02" cType="1" res="-9.4465259462594986e-03" rms="4.6989208459854126e-01" purity="4.8230823874473572e-01" nType="0">
          <Node pos="l" depth="2" NCoef="0" IVar="-1" Cut="0.0000000000000000e+00" cType="1" res="2.9254812397994101e-04" rms="4.8154222965240479e-01" purity="5.2112519741058350e-01" nType="-99"/>
          <Node pos="r" depth="2" NCoef="0" IVar="-1" Cut="0.0000000000000000e+00" cType="1" res="-3.9123956114053726e-02" rms="3.1450754404067993e-01" purity="1.1130912601947784e-01" nType="-99"/>
        </Node>
      </Node>
    </BinaryTree>
    <BinaryTree type="DecisionTree" boostWeight="1.0000000000000000e+00" itree="16">
      <Node pos="s" depth="0" NCoef="0" IVar="6" Cut="1.8754220008850098e+00" cType="1" res="-2.5045655202120543e-03" rms="4.6551224589347839e-01" purity="4.9452328681945801e-01" nType="0">
        <Node pos="l" depth="1" NCoef="0" IVar="3" Cut="5.8334377288818359e+01" cType="0" res="2.7868511155247688e-02" rms="4.6714350581169128e-01" purity="5.5018872022628784e-01" nType="0">
          <Node pos="l" depth="2" NCoef="0" IVar="-1" Cut="0.0000000000000000e+00" cType="1" res="8.8723329827189445e-03" rms="4.6471405029296875e-01" purity="5.7487356662750244e-01" nType="-99"/>
          <Node pos="r" depth="2" NCoef="0" IVar="-1" Cut="0.0000000000000000e+00" cType="1" res="-3.2008402049541473e-02" rms="4.4243216514587402e-01" purity="2.7194848656654358e-01" nType="-99"/>
        </Node>
        <Node pos="r" depth="1" NCoef="0" IVar="3" Cut="8.3169960021972656e+01" cType="1" res="-6.7741706967353821e-02" rms="4.5518848299980164e-01" purity="3.7496173381805420e-01" nType="0">
          <Node pos="l" depth="2" NCoef="0" IVar="-1" Cut="0.0000000000000000e+00" cType="1" res="1.1398980859667063e-03" rms="4.8807930946350098e-01" purity="5.0744932889938354e-01" nType="-99"/>
          <Node pos="r" depth="2" NCoef="0" IVar="-1" Cut="0.0000000000000000e+00" cType="1" res="-1.8040565773844719e-02" rms="4.3758144974708557e-01" purity="3.1265503168106079e-01" nType="-99"/>
        </Node>
      </Node>
    </BinaryTree>
    <BinaryTree type="DecisionTree" boostWeight="1.0000000000000000e+00" itree="17">
      <Node pos="s" depth="0" NCoef="0" IVar="0" Cut="4.7619047760963440e-01" cType="0" res="-7.1779941208660603e-03" rms="4.6175879240036011e-01" purity="4.8925590515136719e-01" nType="0">
        <Node pos="l" depth="1" NCoef="0" IVar="4" Cut="2.1149508666992188e+02" cType="1" res="1.5334728173911572e-02" rms="4.5863196253776550e-01" purity="5.1569664478302002e-01" nType="0">
          <Node pos="l" depth="2" NCoef="0" IVar="-1" Cut="0.0000000000000000e+00" cType="1" res="9.7845895215868950e-03" rms="4.7359725832939148e-01" purity="6.0073632001876831e-01" nType="-99"/>
          <Node pos="r" depth="2" NCoef="0" IVar="-1" Cut="0.0000000000000000e+00" cType="1" res="-1.9102079793810844e-02" rms="3.8105380535125732e-01" purity="2.0389111340045929e-01" nType="-99"/>
        </Node>
        <Node pos="r" depth="1" NCoef="0" IVar="6" Cut="9.6512478590011597e-01" cType="0" res="-1.0463622957468033e-01" rms="4.6258783340454102e-01" purity="3.7479349970817566e-01" nType="0">
          <Node pos="l" depth="2" NCoef="0" IVar="-1" Cut="0.0000000000000000e+00" cType="1" res="-1.7135566100478172e-02" rms="4.6833464503288269e-01" purity="3.8714739680290222e-01" nType="-99"/>
          <Node pos="r" depth="2" NCoef="0" IVar="-1" Cut="0.0000000000000000e+00" cType="1" res="-2.3424545302987099e-02" rms="4.4160091876983643e-01" purity="3.3970603346824646e-01" nType="-99"/>
        </Node>
      </Node>
    </BinaryTree>
    <BinaryTree type="DecisionTree" boostWeight="1.0000000000000000e+00" itree="18">
      <Node pos="s" depth="0" NCoef="0" IVar="0" Cut="4.7619047760963440e-01" cType="0" res="2.2136946208775043e-03" rms="4.6300810575485229e-01" purity="4.9876317381858826e-01" nType="0">
        <Node pos="l" depth="1" NCoef="0" IVar="6" Cut="1.2551466226577759e+00" cType="1" res="2.3651508614420891e-02" rms="4.5956417918205261e-01" purity="5.2566355466842651e-01" nType="0">
          <Node pos="l" depth="2" NCoef="0" IVar="-1" Cut="0.0000000000000000e+00" cType="1" res="1.6412407159805298e-02" rms="4.4294369220733643e-01" purity="6.2992155551910400e-01" nType="-99"/>
          <Node pos="r" depth="2" NCoef="0" IVar="-1" Cut="0.0000000000000000e+00" cType="1" res="-2.9170492198318243e-03" rms="4.6534046530723572e-01" purity="4.6491029858589172e-01" nType="-99"/>
        </Node>
        <Node pos="r" depth="1" NCoef="0" IVar="4" Cut="1.9669389343261719e+02" cType="1" res="-8.9296780526638031e-02" rms="4.6647951006889343e-01" purity="3.8393479585647583e-01" nType="0">
          <Node pos="l" depth="2" NCoef="0" IVar="-1" Cut="0.0000000000000000e+00" cType="1" res="-1.3445158489048481e-02" rms="4.9043232202529907e-01" purity="4.4969061017036438e-01" nType="-99"/>
          <Node pos="r" depth="2" NCoef="0" IVar="-1" Cut="0.0000000000000000e+00" cType="1" res="-2.8773903846740723e-02" rms="3.8589093089103699e-01" purity="1.9524483382701874e-01" nType="-99"/>
        </Node>
      </Node>
    </BinaryTree>
    <BinaryTree type="DecisionTree" boostWeight="1.0000000000000000e+00" itree="19">
      <Node pos="s" depth="0" NCoef="0" IVar="3" Cut="9.4834617614746094e+01" cType="1" res="6.6408999264240265e-03" rms="4.6197569370269775e-01" purity="5.0460940599441528e-01" nType="0">
        <Node pos="l" depth="1" NCoef="0" IVar="3" Cut="7.0801704406738281e+01" cType="0" res="3.3440902829170227e-02" rms="4.6965730190277100e-01" purity="5.7954883575439453e-01" nType="0">
          <Node pos="l" depth="2" NCoef="0" IVar="-1" Cut="0.0000000000000000e+00" cType="1" res="1.2150794267654419e-02" rms="4.5940247178077698e-01" purity="6.3525676727294922e-01" nType="-99"/>
          <Node pos="r" depth="2" NCoef="0" IVar="-1" Cut="0.0000000000000000e+00" cType="1" res="-1.3164318166673183e-02" rms="4.8018640279769897e-01" purity="4.3514668941497803e-01" nType="-99"/>
        </Node>
        <Node pos="r" depth="1" NCoef="0" IVar="6" Cut="1.2064059972763062e+00" cType="1" res="-5.7898756116628647e-02" rms="4.3622514605522156e-01" purity="3.2414048910140991e-01" nType="0">
          <Node pos="l" depth="2" NCoef="0" IVar="-1" Cut="0.0000000000000000e+00" cType="1" res="8.4965731948614120e-03" rms="4.5535543560981750e-01" purity="5.0953584909439087e-01" nType="-99"/>
          <Node pos="r" depth="2" NCoef="0" IVar="-1" Cut="0.0000000000000000e+00" cType="1" res="-1.8685374408960342e-02" rms="4.2659866809844971e-01" purity="2.7293035387992859e-01" nType="-99"/>
        </Node>
      </Node>
    </BinaryTree>
    <BinaryTree type="DecisionTree" boostWeight="1.0000000000000000e+00" itree="20">
      <Node pos="s" depth="0" NCoef="0" IVar="3" Cut="1.0260260009765625e+02" cType="1" res="-9.6618263341952115e-05" rms="4.6157136559486389e-01" purity="4.9877247214317322e-01" nType="0">
        <Node pos="l" depth="1" NCoef="0" IVar="3" Cut="6.3221084594726562e+01" cType="0" res="1.9255973398685455e-02" rms="4.7138613462448120e-01" purity="5.6237477064132690e-01" nType="0">
          <Node pos="l" depth="2" NCoef="0" IVar="-1" Cut="0.0000000000000000e+00" cType="1" res="7.6864538714289665e-03" rms="4.6869516372680664e-01" purity="5.9345352649688721e-01" nType="-99"/>
          <Node pos="r" depth="2" NCoef="0" IVar="-1" Cut="0.0000000000000000e+00" cType="1" res="-2.0225195214152336e-02" rms="4.6729761362075806e-01" purity="3.4471192955970764e-01" nType="-99"/>
        </Node>
        <Node pos="r" depth="1" NCoef="0" IVar="4" Cut="2.0027624511718750e+02" cType="1" res="-7.3347859084606171e-02" rms="4.1425308585166931e-01" purity="2.5803235173225403e-01" nType="0">
          <Node pos="l" depth="2" NCoef="0" IVar="-1" Cut="0.0000000000000000e+00" cType="1" res="-3.5314824432134628e-02" rms="4.4268801808357239e-01" purity="3.0116274952888489e-01" nType="-99"/>
          <Node pos="r" depth="2" NCoef="0" IVar="-1" Cut="0.0000000000000000e+00" cType="1" res="-8.2162972539663315e-03" rms="3.9708727598190308e-01" purity="2.4298948049545288e-01" nType="-99"/>
        </Node>
      </Node>
    </BinaryTree>
    <BinaryTree type="DecisionTree" boostWeight="1.0000000000000000e+00" itree="21">
      <Node pos="s" depth="0" NCoef="0" IVar="4" Cut="2.1149508666992188e+02" cType="1" res="-7.1803699247539043e-03" rms="4.6053272485733032e-01" purity="4.9280577898025513e-01" nType="0">
        <Node pos="l" depth="1" NCoef="0" IVar="3" Cut="1.0718317413330078e+02" cType="1" res="1.3146721757948399e-02" rms="4.7684207558631897e-01" purity="5.6866163015365601e-01" nType="0">
          <Node pos="l" depth="2" NCoef="0" IVar="-1" Cut="0.0000000000000000e+00" cType="1" res="6.1459480784833431e-03" rms="4.7750797867774963e-01" purity="5.8962529897689819e-01" nType="-99"/>
          <Node pos="r" depth="2" NCoef="0" IVar="-1" Cut="0.0000000000000000e+00" cType="1" res="-2.6537498459219933e-02" rms="4.3422809243202209e-01" purity="2.9085209965705872e-01" nType="-99"/>
        </Node>
        <Node pos="r" depth="1" NCoef="0" IVar="4" Cut="2.8608789062500000e+02" cType="1" res="-8.7177515029907227e-02" rms="3.7934017181396484e-01" purity="1.9427527487277985e-01" nType="0">
          <Node pos="l" depth="2" NCoef="0" IVar="-1" Cut="0.0000000000000000e+00" cType="1" res="-9.2508075758814812e-03" rms="4.2493012547492981e-01" purity="2.5195699930191040e-01" nType="-99"/>
          <Node pos="r" depth="2" NCoef="0" IVar="-1" Cut="0.0000000000000000e+00" cType="1" res="-4.8905294388532639e-02" rms="2.1303103864192963e-01" purity="4.4820841401815414e-02" nType="-99"/>
        </Node>
      </Node>
    </BinaryTree>
    <BinaryTree type="DecisionTree" boostWeight="1.0000000000000000e+00" itree="22">
      <Node pos="s" depth="0" NCoef="0" IVar="0" Cut="4.7619047760963440e-01" cType="0" res="4.6043922193348408e-03" rms="4.5958092808723450e-01" purity="5.0272190570831299e-01" nType="0">
        <Node pos="l" depth="1" NCoef="0" IVar="6" Cut="8.3676439523696899e-01" cType="1" res="2.5831243023276329e-02" rms="4.5567640662193298e-01" purity="5.3155869245529175e-01" nType="0">
          <Node pos="l" depth="2" NCoef="0" IVar="-1" Cut="0.0000000000000000e+00" cType="1" res="2.0341692492365837e-02" rms="4.0300175547599792e-01" purity="6.9745385646820068e-01" nType="-99"/>
          <Node pos="r" depth="2" NCoef="0" IVar="-1" Cut="0.0000000000000000e+00" cType="1" res="1.1596626136451960e-03" rms="4.6209454536437988e-01" purity="5.0130021572113037e-01" nType="-99"/>
        </Node>
        <Node pos="r" depth="1" NCoef="0" IVar="4" Cut="1.5327722167968750e+02" cType="1" res="-8.2943357527256012e-02" rms="4.6522113680839539e-01" purity="3.8378795981407166e-01" nType="0">
          <Node pos="l" depth="2" NCoef="0" IVar="-1" Cut="0.0000000000000000e+00" cType="1" res="-1.7832539975643158e-02" rms="4.8507547378540039e-01" purity="3.8705524802207947e-01" nType="-99"/>
          <Node pos="r" depth="2" NCoef="0" IVar="-1" Cut="0.0000000000000000e+00" cType="1" res="-1.4577657915651798e-02" rms="4.5789065957069397e-01" purity="3.8272982835769653e-01" nType="-99"/>
        </Node>
      </Node>
    </BinaryTree>
    <BinaryTree type="DecisionTree" boostWeight="1.0000000000000000e+00" itree="23">
      <Node pos="s" depth="0" NCoef="0" IVar="3" Cut="6.3980697631835938e+01" cType="0" res="1.6836584545671940e-03" rms="4.6032857894897461e-01" purity="4.9904379248619080e-01" nType="0">
        <Node pos="l" depth="1" NCoef="0" IVar="6" Cut="9.6512478590011597e-01" cType="1" res="1.4677409082651138e-02" rms="4.5763349533081055e-01" purity="5.1664745807647705e-01" nType="0">
          <Node pos="l" depth="2" NCoef="0" IVar="-1" Cut="0.0000000000000000e+00" cType="1" res="1.8786307424306870e-02" rms="4.2633479833602905e-01" purity="6.6528832912445068e-01" nType="-99"/>
          <Node pos="r" depth="2" NCoef="0" IVar="-1" Cut="0.0000000000000000e+00" cType="1" res="-1.4470702735707164e-03" rms="4.6289357542991638e-01" purity="4.7622907161712646e-01" nType="-99"/>
        </Node>
        <Node pos="r" depth="1" NCoef="0" IVar="4" Cut="1.5180496215820312e+02" cType="1" res="-1.0699751228094101e-01" rms="4.6837100386619568e-01" purity="3.5180440545082092e-01" nType="0">
          <Node pos="l" depth="2" NCoef="0" IVar="-1" Cut="0.0000000000000000e+00" cType="1" res="8.4941266104578972e-03" rms="4.9971926212310791e-01" purity="4.9538493156433105e-01" nType="-99"/>
          <Node pos="r" depth="2" NCoef="0" IVar="-1" Cut="0.0000000000000000e+00" cType="1" res="-4.6733170747756958e-02" rms="4.0072157979011536e-01" purity="2.2235240042209625e-01" nType="-99"/>
        </Node>
      </Node>
    </BinaryTree>
    <BinaryTree type="DecisionTree" boostWeight="1.0000000000000000e+00" itree="24">
      <Node pos="s" depth="0" NCoef="0" IVar="5" Cut="2.0311102867126465e+00" cType="1" res="7.6325526461005211e-03" rms="4.6064740419387817e-01" purity="5.0433540344238281e-01" nType="0">
        <Node pos="l" depth="1" NCoef="0" IVar="4" Cut="1.3794148254394531e+02" cType="0" res="3.2537914812564850e-02" rms="4.5524996519088745e-01" purity="5.4571640491485596e-01" nType="0">
          <Node pos="l" depth="2" NCoef="0" IVar="-1" Cut="0.0000000000000000e+00" cType="1" res="9.0673035010695457e-03" rms="4.4682145118713379e-01" purity="5.6182312965393066e-01" nType="-99"/>
          <Node pos="r" depth="2" NCoef="0" IVar="-1" Cut="0.0000000000000000e+00" cType="1" res="-2.9087195172905922e-02" rms="5.0238585472106934e-01" purity="3.9995881915092468e-01" nType="-99"/>
        </Node>
        <Node pos="r" depth="1" NCoef="0" IVar="6" Cut="1.0419011116027832e+00" cType="0" res="-3.4903332591056824e-02" rms="4.6665877103805542e-01" purity="4.3366077542304993e-01" nType="0">
          <Node pos="l" depth="2" NCoef="0" IVar="-1" Cut="0.0000000000000000e+00" cType="1" res="-5.6904731318354607e-03" rms="4.7073206305503845e-01" purity="4.5638230443000793e-01" nType="-99"/>
          <Node pos="r" depth="2" NCoef="0" IVar="-1" Cut="0.0000000000000000e+00" cType="1" res="-2.6825964450836182e-02" rms="4.1100004315376282e-01" purity="2.8131008148193359e-01" nType="-99"/>
        </Node>
      </Node>
    </BinaryTree>
    <BinaryTree type="DecisionTree" boostWeight="1.0000000000000000e+00" itree="25">
      <Node pos="s" depth="0" NCoef="0" IVar="4" Cut="1.8951329040527344e+02" cType="1" res="6.7173903807997704e-03" rms="4.5909675955772400e-01" purity="5.0442939996719360e-01" nType="0">
        <Node pos="l" depth="1" NCoef="0" IVar="4" Cut="1.3508847045898438e+02" cType="0" res="3.9053540676832199e-02" rms="4.6974408626556396e-01" purity="6.0463994741439819e-01" nType="0">
          <Node pos="l" depth="2" NCoef="0" IVar="-1" Cut="0.0000000000000000e+00" cType="1" res="8.7073128670454025e-03" rms="4.6309715509414673e-01" purity="6.3047897815704346e-01" nType="-99"/>
          <Node pos="r" depth="2" NCoef="0" IVar="-1" Cut="0.0000000000000000e+00" cType="1" res="-2.4004682898521423e-02" rms="4.9613007903099060e-01" purity="3.6988371610641479e-01" nType="-99"/>
        </Node>
        <Node pos="r" depth="1" NCoef="0" IVar="3" Cut="9.1202735900878906e+01" cType="0" res="-5.5129725486040115e-02" rms="4.3131145834922791e-01" purity="3.1276357173919678e-01" nType="0">
          <Node pos="l" depth="2" NCoef="0" IVar="-1" Cut="0.0000000000000000e+00" cType="1" res="-2.4550792295485735e-03" rms="4.2250338196754456e-01" purity="3.1933552026748657e-01" nType="-99"/>
          <Node pos="r" depth="2" NCoef="0" IVar="-1" Cut="0.0000000000000000e+00" cType="1" res="-2.8452202677726746e-02" rms="4.3388998508453369e-01" purity="2.9885286092758179e-01" nType="-99"/>
        </Node>
      </Node>
    </BinaryTree>
    <BinaryTree type="DecisionTree" boostWeight="1.0000000000000000e+00" itree="26">
      <Node pos="s" depth="0" NCoef="0" IVar="0" Cut="4.7619047760963440e-01" cType="0" res="-7.3466030880808830e-03" rms="4.5842155814170837e-01" purity="4.8938372731208801e-01" nType="0">
        <Node pos="l" depth="1" NCoef="0" IVar="4" Cut="2.6119891357421875e+02" cType="1" res="1.0339129716157913e-02" rms="4.5427650213241577e-01" purity="5.1643574237823486e-01" nType="0">
          <Node pos="l" depth="2" NCoef="0" IVar="-1" Cut="0.0000000000000000e+00" cType="1" res="5.8359354734420776e-03" rms="4.6738126873970032e-01" purity="5.5929690599441528e-01" nType="-99"/>
          <Node pos="r" depth="2" NCoef="0" IVar="-1" Cut="0.0000000000000000e+00" cType="1" res="-3.5081136971712112e-02" rms="2.3735138773918152e-01" purity="6.2952280044555664e-02" nType="-99"/>
        </Node>
        <Node pos="r" depth="1" NCoef="0" IVar="6" Cut="9.6512478590011597e-01" cType="0" res="-8.1052146852016449e-02" rms="4.6816748380661011e-01" purity="3.7664431333541870e-01" nType="0">
          <Node pos="l" depth="2" NCoef="0" IVar="-1" Cut="0.0000000000000000e+00" cType="1" res="-1.1986745521426201e-02" rms="4.6978986263275146e-01" purity="3.8842242956161499e-01" nType="-99"/>
          <Node pos="r" depth="2" NCoef="0" IVar="-1" Cut="0.0000000000000000e+00" cType="1" res="-1.9404536113142967e-02" rms="4.5819833874702454e-01" purity="3.3999559283256531e-01" nType="-99"/>
        </Node>
      </Node>
    </BinaryTree>
    <BinaryTree type="DecisionTree" boostWeight="1.0000000000000000e+00" itree="27">
      <Node pos="s" depth="0" NCoef="0" IVar="5" Cut="1.7424221038818359e+00" cType="1" res="5.8930880186380818e-05" rms="4.5706465840339661e-01" purity="4.9887424707412720e-01" nType="0">
        <Node pos="l" depth="1" NCoef="0" IVar="4" Cut="1.5719853210449219e+02" cType="0" res="3.9781779050827026e-02" rms="4.4984140992164612e-01" purity="5.6151181459426880e-01" nType="0">
          <Node pos="l" depth="2" NCoef="0" IVar="-1" Cut="0.0000000000000000e+00" cType="1" res="1.3330552726984024e-02" rms="4.2822146415710449e-01" purity="5.8447915315628052e-01" nType="-99"/>
          <Node pos="r" depth="2" NCoef="0" IVar="-1" Cut="0.0000000000000000e+00" cType="1" res="-1.1329924687743187e-02" rms="4.8913469910621643e-01" purity="5.0314134359359741e-01" nType="-99"/>
        </Node>
        <Node pos="r" depth="1" NCoef="0" IVar="3" Cut="6.0600746154785156e+01" cType="0" res="-4.5706115663051605e-02" rms="4.6102386713027954e-01" purity="4.2670887708663940e-01" nType="0">
          <Node pos="l" depth="2" NCoef="0" IVar="-1" Cut="0.0000000000000000e+00" cType="1" res="-4.2020953260362148e-03" rms="4.6296724677085876e-01" purity="4.4251823425292969e-01" nType="-99"/>
          <Node pos="r" depth="2" NCoef="0" IVar="-1" Cut="0.0000000000000000e+00" cType="1" res="-2.8808446601033211e-02" rms="4.1785970330238342e-01" purity="2.4512565135955811e-01" nType="-99"/>
        </Node>
      </Node>
    </BinaryTree>
    <BinaryTree type="DecisionTree" boostWeight="1.0000000000000000e+00" itree="28">
      <Node pos="s" depth="0" NCoef="0" IVar="1" Cut="4.7619047760963440e-01" cType="1" res="5.4799066856503487e-03" rms="4.5685619115829468e-01" purity="5.0357681512832642e-01" nType="0">
        <Node pos="l" depth="1" NCoef="0" IVar="4" Cut="2.0388713073730469e+02" cType="1" res="2.6290826499462128e-02" rms="4.5478597283363342e-01" purity="5.3085970878601074e-01" nType="0">
          <Node pos="l" depth="2" NCoef="0" IVar="-1" Cut="0.0000000000000000e+00" cType="1" res="6.6785584203898907e-03" rms="4.6510148048400879e-01" purity="6.0799038410186768e-01" nType="-99"/>
          <Node pos="r" depth="2" NCoef="0" IVar="-1" Cut="0.0000000000000000e+00" cType="1" res="-1.0061784647405148e-02" rms="4.1027072072029114e-01" purity="2.6197633147239685e-01" nType="-99"/>
        </Node>
        <Node pos="r" depth="1" NCoef="0" IVar="5" Cut="1.6051644086837769e+00" cType="1" res="-4.7208365052938461e-02" rms="4.5784628391265869e-01" purity="4.3450286984443665e-01" nType="0">
          <Node pos="l" depth="2" NCoef="0" IVar="-1" Cut="0.0000000000000000e+00" cType="1" res="1.3862565392628312e-03" rms="4.5079284906387329e-01" purity="5.2731788158416748e-01" nType="-99"/>
          <Node pos="r" depth="2" NCoef="0" IVar="-1" Cut="0.0000000000000000e+00" cType="1" res="-1.7044732347130775e-02" rms="4.5847627520561218e-01" purity="3.5867044329643250e-01" nType="-99"/>
        </Node>
      </Node>
    </BinaryTree>
    <BinaryTree type="DecisionTree" boostWeight="1.0000000000000000e+00" itree="29">
      <Node pos="s" depth="0" NCoef="0" IVar="6" Cut="1.4397377967834473e+00" cType="1" res="4.5515187084674835e-03" rms="4.5626011490821838e-01" purity="5.0147020816802979e-01" nType="0">
        <Node pos="l" depth="1" NCoef="0" IVar="0" Cut="4.7619047760963440e-01" cType="0" res="4.1406694799661636e-02" rms="4.4868779182434082e-01" purity="5.8292531967163086e-01" nType="0">
          <Node pos="l" depth="2" NCoef="0" IVar="-1" Cut="0.0000000000000000e+00" cType="1" res="1.1143877170979977e-02" rms="4.3954843282699585e-01" purity="6.2506347894668579e-01" nType="-99"/>
          <Node pos="r" depth="2" NCoef="0" IVar="-1" Cut="0.0000000000000000e+00" cType="1" res="-1.3678848743438721e-02" rms="4.6805074810981750e-01" purity="4.1020393371582031e-01" nType="-99"/>
        </Node>
        <Node pos="r" depth="1" NCoef="0" IVar="1" Cut="4.7619047760963440e-01" cType="1" res="-3.0768590047955513e-02" rms="4.6064215898513794e-01" purity="4.2340791225433350e-01" nType="0">
          <Node pos="l" depth="2" NCoef="0" IVar="-1" Cut="0.0000000000000000e+00" cType="1" res="-1.2313647894188762e-03" rms="4.6077305078506470e-01" purity="4.5260050892829895e-01" nType="-99"/>
          <Node pos="r" depth="2" NCoef="0" IVar="-1" Cut="0.0000000000000000e+00" cType="1" res="-1.6378683969378471e-02" rms="4.5616576075553894e-01" purity="3.4885513782501221e-01" nType="-99"/>
        </Node>
      </Node>
    </BinaryTree>
    <BinaryTree type="DecisionTree" boostWeight="1.0000000000000000e+00" itree="30">
      <Node pos="s" depth="0" NCoef="0" IVar="3" Cut="1.2616597747802734e+02" cType="1" res="6.2563605606555939e-03" rms="4.5506539940834045e-01" purity="5.0689548254013062e-01" nType="0">
        <Node pos="l" depth="1" NCoef="0" IVar="4" Cut="1.4499388122558594e+02" cType="0" res="1.7561083659529686e-02" rms="4.6605527400970459e-01" purity="5.5189305543899536e-01" nType="0">
          <Node pos="l" depth="2" NCoef="0" IVar="-1" Cut="0.0000000000000000e+00" cType="1" res="4.8875873908400536e-03" rms="4.5798447728157043e-01" purity="5.7097399234771729e-01" nType="-99"/>
          <Node pos="r" depth="2" NCoef="0" IVar="-1" Cut="0.0000000000000000e+00" cType="1" res="-1.3872093521058559e-02" rms="5.0228238105773926e-01" purity="4.3945300579071045e-01" nType="-99"/>
        </Node>
        <Node pos="r" depth="1" NCoef="0" IVar="5" Cut="1.0870656967163086e+00" cType="0" res="-8.8590733706951141e-02" rms="3.3478924632072449e-01" purity="1.2936389446258545e-01" nType="0">
          <Node pos="l" depth="2" NCoef="0" IVar="-1" Cut="0.0000000000000000e+00" cType="1" res="-1.6227604821324348e-02" rms="3.4888723492622375e-01" purity="1.4508637785911560e-01" nType="-99"/>
          <Node pos="r" depth="2" NCoef="0" IVar="-1" Cut="0.0000000000000000e+00" cType="1" res="-4.4065907597541809e-02" rms="2.7943366765975952e-01" purity="8.3902701735496521e-02" nType="-99"/>
        </Node>
      </Node>
    </BinaryTree>
    <BinaryTree type="DecisionTree" boostWeight="1.0000000000000000e+00" itree="31">
      <Node pos="s" depth="0" NCoef="0" IVar="4" Cut="1.8951329040527344e+02" cType="1" res="6.3618081621825695e-03" rms="4.5501896739006042e-01" purity="5.0487637519836426e-01" nType="0">
        <Node pos="l" depth="1" NCoef="0" IVar="3" Cut="1.0110133361816406e+02" cType="1" res="2.7732446789741516e-02" rms="4.6802821755409241e-01" purity="5.9897965192794800e-01" nType="0">
          <Node pos="l" depth="2" NCoef="0" IVar="-1" Cut="0.0000000000000000e+00" cType="1" res="7.2281798347830772e-03" rms="4.6600931882858276e-01" purity="6.1888134479522705e-01" nType="-99"/>
          <Node pos="r" depth="2" NCoef="0" IVar="-1" Cut="0.0000000000000000e+00" cType="1" res="-3.5508446395397186e-02" rms="4.5167201757431030e-01" purity="3.1020030379295349e-01" nType="-99"/>
        </Node>
        <Node pos="r" depth="1" NCoef="0" IVar="3" Cut="8.1051879882812500e+01" cType="0" res="-3.3269014209508896e-02" rms="4.2703184485435486e-01" purity="3.3036637306213379e-01" nType="0">
          <Node pos="l" depth="2" NCoef="0" IVar="-1" Cut="0.0000000000000000e+00" cType="1" res="-1.3724121963605285e-03" rms="4.2509388923645020e-01" purity="3.5614001750946045e-01" nType="-99"/>
          <Node pos="r" depth="2" NCoef="0" IVar="-1" Cut="0.0000000000000000e+00" cType="1" res="-4.7556266188621521e-02" rms="3.9623475074768066e-01" purity="2.0250409841537476e-01" nType="-99"/>
        </Node>
      </Node>
    </BinaryTree>
    <BinaryTree type="DecisionTree" boostWeight="1.0000000000000000e+00" itree="32">
      <Node pos="s" depth="0" NCoef="0" IVar="6" Cut="2.0838022232055664e+00" cType="1" res="4.4879484921693802e-03" rms="4.5272538065910339e-01" purity="5.0433558225631714e-01" nType="0">
        <Node pos="l" depth="1" NCoef="0" IVar="0" Cut="4.7619047760963440e-01" cType="0" res="2.4540752172470093e-02" rms="4.5523414015769958e-01" purity="5.5188870429992676e-01" nType="0">
          <Node pos="l" depth="2" NCoef="0" IVar="-1" Cut="0.0000000000000000e+00" cType="1" res="6.8716607056558132e-03" rms="4.4849967956542969e-01" purity="5.8620703220367432e-01" nType="-99"/>
          <Node pos="r" depth="2" NCoef="0" IVar="-1" Cut="0.0000000000000000e+00" cType="1" res="-1.1598526500165462e-02" rms="4.7409290075302124e-01" purity="4.1337400674819946e-01" nType="-99"/>
        </Node>
        <Node pos="r" depth="1" NCoef="0" IVar="5" Cut="1.5350675582885742e+00" cType="0" res="-5.6091431528329849e-02" rms="4.3953862786293030e-01" purity="3.6067804694175720e-01" nType="0">
          <Node pos="l" depth="2" NCoef="0" IVar="-1" Cut="0.0000000000000000e+00" cType="1" res="-6.3208490610122681e-03" rms="4.5462954044342041e-01" purity="3.8802576065063477e-01" nType="-99"/>
          <Node pos="r" depth="2" NCoef="0" IVar="-1" Cut="0.0000000000000000e+00" cType="1" res="-1.8770447000861168e-02" rms="3.9690425992012024e-01" purity="2.9383009672164917e-01" nType="-99"/>
        </Node>
      </Node>
    </BinaryTree>
    <BinaryTree type="DecisionTree" boostWeight="1.0000000000000000e+00" itree="33">
      <Node pos="s" depth="0" NCoef="0" IVar="0" Cut="4.7619047760963440e-01" cType="0" res="4.9529788084328175e-03" rms="4.5417165756225586e-01" purity="5.0399172306060791e-01" nType="0">
        <Node pos="l" depth="1" NCoef="0" IVar="4" Cut="1.8889042663574219e+02" cType="1" res="2.2270161658525467e-02" rms="4.5064470171928406e-01" purity="5.3458160161972046e-01" nType="0">
          <Node pos="l" depth="2" NCoef="0" IVar="-1" Cut="0.0000000000000000e+00" cType="1" res="7.0640663616359234e-03" rms="4.5904511213302612e-01" purity="6.3976097106933594e-01" nType="-99"/>
          <Node pos="r" depth="2" NCoef="0" IVar="-1" Cut="0.0000000000000000e+00" cType="1" res="-6.2139234505593777e-03" rms="4.3090093135833740e-01" purity="3.4348815679550171e-01" nType="-99"/>
        </Node>
        <Node pos="r" depth="1" NCoef="0" IVar="4" Cut="1.5803425598144531e+02" cType="1" res="-6.8948730826377869e-02" rms="4.6168100833892822e-01" purity="3.7344855070114136e-01" nType="0">
          <Node pos="l" depth="2" NCoef="0" IVar="-1" Cut="0.0000000000000000e+00" cType="1" res="-1.0895664803683758e-02" rms="4.8287492990493774e-01" purity="3.7585130333900452e-01" nType="-99"/>
          <Node pos="r" depth="2" NCoef="0" IVar="-1" Cut="0.0000000000000000e+00" cType="1" res="-1.0134102776646614e-02" rms="4.5097041130065918e-01" purity="3.7236601114273071e-01" nType="-99"/>
        </Node>
      </Node>
    </BinaryTree>
    <BinaryTree type="DecisionTree" boostWeight="1.0000000000000000e+00" itree="34">
      <Node pos="s" depth="0" NCoef="0" IVar="5" Cut="1.3417873382568359e+00" cType="1" res="3.1051475089043379e-03" rms="4.5440950989723206e-01" purity="4.9953478574752808e-01" nType="0">
        <Node pos="l" depth="1" NCoef="0" IVar="6" Cut="1.2144058942794800e+00" cType="1" res="3.6910086870193481e-02" rms="4.4035887718200684e-01" purity="5.6667226552963257e-01" nType="0">
          <Node pos="l" depth="2" NCoef="0" IVar="-1" Cut="0.0000000000000000e+00" cType="1" res="1.9354494288563728e-02" rms="4.2071968317031860e-01" purity="6.8642199039459229e-01" nType="-99"/>
          <Node pos="r" depth="2" NCoef="0" IVar="-1" Cut="0.0000000000000000e+00" cType="1" res="-5.4718186147511005e-03" rms="4.5117536187171936e-01" purity="4.3437606096267700e-01" nType="-99"/>
        </Node>
        <Node pos="r" depth="1" NCoef="0" IVar="0" Cut="4.7619047760963440e-01" cType="0" res="-1.5163222327828407e-02" rms="4.6079355478286743e-01" purity="4.6325331926345825e-01" nType="0">
          <Node pos="l" depth="2" NCoef="0" IVar="-1" Cut="0.0000000000000000e+00" cType="1" res="-1.4006325509399176e-03" rms="4.5867359638214111e-01" purity="4.8773097991943359e-01" nType="-99"/>
          <Node pos="r" depth="2" NCoef="0" IVar="-1" Cut="0.0000000000000000e+00" cType="1" res="-1.2473433278501034e-02" rms="4.6647316217422485e-01" purity="3.6734494566917419e-01" nType="-99"/>
        </Node>
      </Node>
    </BinaryTree>
    <BinaryTree type="DecisionTree" boostWeight="1.0000000000000000e+00" itree="35">
      <Node pos="s" depth="0" NCoef="0" IVar="3" Cut="1.1820426940917969e+02" cType="1" res="4.7193194041028619e-04" rms="4.5153501629829407e-01" purity="4.9962869286537170e-01" nType="0">
        <Node pos="l" depth="1" NCoef="0" IVar="3" Cut="5.7416618347167969e+01" cType="0" res="1.1605583131313324e-02" rms="4.6298438310623169e-01" purity="5.5001330375671387e-01" nType="0">
          <Node pos="l" depth="2" NCoef="0" IVar="-1" Cut="0.0000000000000000e+00" cType="1" res="3.6800198722630739e-03" rms="4.6280631422996521e-01" purity="5.6969761848449707e-01" nType="-99"/>
          <Node pos="r" depth="2" NCoef="0" IVar="-1" Cut="0.0000000000000000e+00" cType="1" res="-2.4796225130558014e-02" rms="4.4228795170783997e-01" purity="2.8367376327514648e-01" nType="-99"/>
        </Node>
        <Node pos="r" depth="1" NCoef="0" IVar="4" Cut="2.1109681701660156e+02" cType="1" res="-7.4157431721687317e-02" rms="3.5678830742835999e-01" purity="1.6189882159233093e-01" nType="0">
          <Node pos="l" depth="2" NCoef="0" IVar="-1" Cut="0.0000000000000000e+00" cType="1" res="-3.8817055523395538e-02" rms="3.8314953446388245e-01" purity="1.8468412756919861e-01" nType="-99"/>
          <Node pos="r" depth="2" NCoef="0" IVar="-1" Cut="0.0000000000000000e+00" cType="1" res="-7.0977266877889633e-03" rms="3.4280577301979065e-01" purity="1.5571440756320953e-01" nType="-99"/>
        </Node>
      </Node>
    </BinaryTree>
    <BinaryTree type="DecisionTree" boostWeight="1.0000000000000000e+00" itree="36">
      <Node pos="s" depth="0" NCoef="0" IVar="4" Cut="1.3554701232910156e+02" cType="0" res="7.3986937059089541e-04" rms="4.5235049724578857e-01" purity="5.0269544124603271e-01" nType="0">
        <Node pos="l" depth="1" NCoef="0" IVar="5" Cut="2.0003550052642822e+00" cType="1" res="9.1213053092360497e-03" rms="4.4822695851325989e-01" purity="5.1245427131652832e-01" nType="0">
          <Node pos="l" depth="2" NCoef="0" IVar="-1" Cut="0.0000000000000000e+00" cType="1" res="6.6507803276181221e-03" rms="4.4260945916175842e-01" purity="5.6524759531021118e-01" nType="-99"/>
          <Node pos="r" depth="2" NCoef="0" IVar="-1" Cut="0.0000000000000000e+00" cType="1" res="-6.1628329567611217e-03" rms="4.5408752560615540e-01" purity="4.2332267761230469e-01" nType="-99"/>
        </Node>
        <Node pos="r" depth="1" NCoef="0" IVar="3" Cut="6.8194427490234375e+01" cType="1" res="-1.2146164476871490e-01" rms="4.9275505542755127e-01" purity="3.6041086912155151e-01" nType="0">
          <Node pos="l" depth="2" NCoef="0" IVar="-1" Cut="0.0000000000000000e+00" cType="1" res="8.8164536282420158e-03" rms="5.0469630956649780e-01" purity="4.4611793756484985e-01" nType="-99"/>
          <Node pos="r" depth="2" NCoef="0" IVar="-1" Cut="0.0000000000000000e+00" cType="1" res="-4.8543624579906464e-02" rms="4.4093039631843567e-01" purity="2.7023831009864807e-01" nType="-99"/>
        </Node>
      </Node>
    </BinaryTree>
    <BinaryTree type="DecisionTree" boostWeight="1.0000000000000000e+00" itree="37">
      <Node pos="s" depth="0" NCoef="0" IVar="1" Cut="4.7619047760963440e-01" cType="1" res="1.4094283105805516e-03" rms="4.5421826839447021e-01" purity="5.0182139873504639e-01" nType="0">
        <Node pos="l" depth="1" NCoef="0" IVar="4" Cut="2.5542189025878906e+02" cType="1" res="1.7671043053269386e-02" rms="4.5485451817512512e-01" purity="5.2718913555145264e-01" nType="0">
          <Node pos="l" depth="2" NCoef="0" IVar="-1" Cut="0.0000000000000000e+00" cType="1" res="4.6451683156192303e-03" rms="4.6636238694190979e-01" purity="5.6649482250213623e-01" nType="-99"/>
          <Node pos="r" depth="2" NCoef="0" IVar="-1" Cut="0.0000000000000000e+00" cType="1" res="-2.9308488592505455e-02" rms="2.7619901299476624e-01" purity="8.7843932211399078e-02" nType="-99"/>
        </Node>
        <Node pos="r" depth="1" NCoef="0" IVar="4" Cut="1.4415702819824219e+02" cType="0" res="-4.1286524385213852e-02" rms="4.4975364208221436e-01" purity="4.3521657586097717e-01" nType="0">
          <Node pos="l" depth="2" NCoef="0" IVar="-1" Cut="0.0000000000000000e+00" cType="1" res="-4.4739567674696445e-03" rms="4.4593340158462524e-01" purity="4.4766226410865784e-01" nType="-99"/>
          <Node pos="r" depth="2" NCoef="0" IVar="-1" Cut="0.0000000000000000e+00" cType="1" res="-2.5066751986742020e-02" rms="4.6243819594383240e-01" purity="3.3518874645233154e-01" nType="-99"/>
        </Node>
      </Node>
    </BinaryTree>
    <BinaryTree type="DecisionTree" boostWeight="1.0000000000000000e+00" itree="38">
      <Node pos="s" depth="0" NCoef="0" IVar="4" Cut="2.7402139282226562e+02" cType="1" res="7.3328400030732155e-03" rms="4.5240706205368042e-01" purity="5.0331908464431763e-01" nType="0">
        <Node pos="l" depth="1" NCoef="0" IVar="3" Cut="6.3887184143066406e+01" cType="0" res="1.4973386190831661e-02" rms="4.6400371193885803e-01" purity="5.3801953792572021e-01" nType="0">
          <Node pos="l" depth="2" NCoef="0" IVar="-1" Cut="0.0000000000000000e+00" cType="1" res="3.7308821920305490e-03" rms="4.6183046698570251e-01" purity="5.5818003416061401e-01" nType="-99"/>
          <Node pos="r" depth="2" NCoef="0" IVar="-1" Cut="0.0000000000000000e+00" cType="1" res="-1.5059993602335453e-02" rms="4.7267788648605347e-01" purity="3.8472542166709900e-01" nType="-99"/>
        </Node>
        <Node pos="r" depth="1" NCoef="0" IVar="6" Cut="1.6889683008193970e+00" cType="0" res="-8.9868746697902679e-02" rms="2.4348081648349762e-01" purity="6.1866819858551025e-02" nType="0">
          <Node pos="l" depth="2" NCoef="0" IVar="-1" Cut="0.0000000000000000e+00" cType="1" res="-3.3293366432189941e-02" rms="2.4744364619255066e-01" purity="6.6562809050083160e-02" nType="-99"/>
          <Node pos="r" depth="2" NCoef="0" IVar="-1" Cut="0.0000000000000000e+00" cType="1" res="-3.8791026920080185e-02" rms="2.2952635586261749e-01" purity="5.5125702172517776e-02" nType="-99"/>
        </Node>
      </Node>
    </BinaryTree>
    <BinaryTree type="DecisionTree" boostWeight="1.0000000000000000e+00" itree="39">
      <Node pos="s" depth="0" NCoef="0" IVar="5" Cut="1.3189518451690674e+00" cType="1" res="2.8837940189987421e-03" rms="4.5154476165771484e-01" purity="4.9923378229141235e-01" nType="0">
        <Node pos="l" depth="1" NCoef="0" IVar="3" Cut="1.3148330688476562e+02" cType="1" res="4.1942257434129715e-02" rms="4.3393272161483765e-01" purity="5.7313650846481323e-01" nType="0">
          <Node pos="l" depth="2" NCoef="0" IVar="-1" Cut="0.0000000000000000e+00" cType="1" res="1.0071805678308010e-02" rms="4.4633567333221436e-01" purity="6.3701623678207397e-01" nType="-99"/>
          <Node pos="r" depth="2" NCoef="0" IVar="-1" Cut="0.0000000000000000e+00" cType="1" res="-3.5503149032592773e-02" rms="2.7129092812538147e-01" purity="8.1101357936859131e-02" nType="-99"/>
        </Node>
        <Node pos="r" depth="1" NCoef="0" IVar="4" Cut="1.7994810485839844e+02" cType="1" res="-1.6063569113612175e-02" rms="4.5864889025688171e-01" purity="4.6338334679603577e-01" nType="0">
          <Node pos="l" depth="2" NCoef="0" IVar="-1" Cut="0.0000000000000000e+00" cType="1" res="2.2499491460621357e-03" rms="4.7551262378692627e-01" purity="5.7368725538253784e-01" nType="-99"/>
          <Node pos="r" depth="2" NCoef="0" IVar="-1" Cut="0.0000000000000000e+00" cType="1" res="-9.9584022536873817e-03" rms="4.3829309940338135e-01" purity="3.4716168045997620e-01" nType="-99"/>
        </Node>
      </Node>
    </BinaryTree>
    <BinaryTree type="DecisionTree" boostWeight="1.0000000000000000e+00" itree="40">
      <Node pos="s" depth="0" NCoef="0" IVar="3" Cut="9.8566230773925781e+01" cType="1" res="6.7175114527344704e-03" rms="4.4933453202247620e-01" purity="5.0575631856918335e-01" nType="0">
        <Node pos="l" depth="1" NCoef="0" IVar="3" Cut="7.3475502014160156e+01" cType="0" res="2.1902136504650116e-02" rms="4.5733419060707092e-01" purity="5.7961714267730713e-01" nType="0">
          <Node pos="l" depth="2" NCoef="0" IVar="-1" Cut="0.0000000000000000e+00" cType="1" res="7.4461684562265873e-03" rms="4.4857674837112427e-01" purity="6.3127917051315308e-01" nType="-99"/>
          <Node pos="r" depth="2" NCoef="0" IVar="-1" Cut="0.0000000000000000e+00" cType="1" res="-7.6847877353429794e-03" rms="4.7055128216743469e-01" purity="4.7236278653144836e-01" nType="-99"/>
        </Node>
        <Node pos="r" depth="1" NCoef="0" IVar="4" Cut="2.0027624511718750e+02" cType="1" res="-3.8328062742948532e-02" rms="4.2151159048080444e-01" purity="2.8664642572402954e-01" nType="0">
          <Node pos="l" depth="2" NCoef="0" IVar="-1" Cut="0.0000000000000000e+00" cType="1" res="-2.1685915067791939e-02" rms="4.6044796705245972e-01" purity="3.6497789621353149e-01" nType="-99"/>
          <Node pos="r" depth="2" NCoef="0" IVar="-1" Cut="0.0000000000000000e+00" cType="1" res="9.4170845113694668e-04" rms="3.9803156256675720e-01" purity="2.5131317973136902e-01" nType="-99"/>
        </Node>
      </Node>
    </BinaryTree>
    <BinaryTree type="DecisionTree" boostWeight="1.0000000000000000e+00" itree="41">
      <Node pos="s" depth="0" NCoef="0" IVar="3" Cut="5.4719291687011719e+01" cType="0" res="5.4715303704142570e-03" rms="4.5095348358154297e-01" purity="5.0210565328598022e-01" nType="0">
        <Node pos="l" depth="1" NCoef="0" IVar="6" Cut="1.4476871490478516e+00" cType="1" res="1.1650476604700089e-02" rms="4.5085281133651733e-01" purity="5.1324850320816040e-01" nType="0">
          <Node pos="l" depth="2" NCoef="0" IVar="-1" Cut="0.0000000000000000e+00" cType="1" res="6.6648735664784908e-03" rms="4.4044733047485352e-01" purity="6.0743993520736694e-01" nType="-99"/>
          <Node pos="r" depth="2" NCoef="0" IVar="-1" Cut="0.0000000000000000e+00" cType="1" res="-3.9738845080137253e-03" rms="4.5790171623229980e-01" purity="4.2789247632026672e-01" nType="-99"/>
        </Node>
        <Node pos="r" depth="1" NCoef="0" IVar="-1" Cut="0.0000000000000000e+00" cType="1" res="-2.2181805223226547e-02" rms="4.3095546960830688e-01" purity="2.5481691956520081e-01" nType="-99"/>
      </Node>
    </BinaryTree>
    <BinaryTree type="DecisionTree" boostWeight="1.0000000000000000e+00" itree="42">
      <Node pos="s" depth="0" NCoef="0" IVar="4" Cut="1.9154820251464844e+02" cType="1" res="2.9779728502035141e-03" rms="4.5149698853492737e-01" purity="5.0255393981933594e-01" nType="0">
        <Node pos="l" depth="1" NCoef="0" IVar="3" Cut="9.9548210144042969e+01" cType="1" res="2.1035209298133850e-02" rms="4.6558493375778198e-01" purity="5.9673929214477539e-01" nType="0">
          <Node pos="l" depth="2" NCoef="0" IVar="-1" Cut="0.0000000000000000e+00" cType="1" res="5.3714569658041000e-03" rms="4.6364563703536987e-01" purity="6.1892408132553101e-01" nType="-99"/>
          <Node pos="r" depth="2" NCoef="0" IVar="-1" Cut="0.0000000000000000e+00" cType="1" res="-2.5685656815767288e-02" rms="4.6084740757942200e-01" purity="3.3016207814216614e-01" nType="-99"/>
        </Node>
        <Node pos="r" depth="1" NCoef="0" IVar="4" Cut="2.3417974853515625e+02" cType="1" res="-3.4447345882654190e-02" rms="4.1832470893859863e-01" purity="3.0734601616859436e-01" nType="0">
          <Node pos="l" depth="2" NCoef="0" IVar="-1" Cut="0.0000000000000000e+00" cType="1" res="-1.8212466966360807e-03" rms="4.6721181273460388e-01" purity="4.2245244979858398e-01" nType="-99"/>
          <Node pos="r" depth="2" NCoef="0" IVar="-1" Cut="0.0000000000000000e+00" cType="1" res="-1.8998095765709877e-02" rms="3.3209559321403503e-01" purity="1.3928100466728210e-01" nType="-99"/>
        </Node>
      </Node>
    </BinaryTree>
    <BinaryTree type="DecisionTree" boostWeight="1.0000000000000000e+00" itree="43">
      <Node pos="s" depth="0" NCoef="0" IVar="6" Cut="2.4128119945526123e+00" cType="1" res="-9.8054846748709679e-03" rms="4.5197087526321411e-01" purity="4.8458993434906006e-01" nType="0">
        <Node pos="l" depth="1" NCoef="0" IVar="0" Cut="4.7619047760963440e-01" cType="0" res="1.6903345240280032e-03" rms="4.5497757196426392e-01" purity="5.1708322763442993e-01" nType="0">
          <Node pos="l" depth="2" NCoef="0" IVar="-1" Cut="0.0000000000000000e+00" cType="1" res="4.6101165935397148e-03" rms="4.5063593983650208e-01" purity="5.4599034786224365e-01" nType="-99"/>
          <Node pos="r" depth="2" NCoef="0" IVar="-1" Cut="0.0000000000000000e+00" cType="1" res="-9.4943065196275711e-03" rms="4.6828120946884155e-01" purity="4.0003296732902527e-01" nType="-99"/>
        </Node>
        <Node pos="r" depth="1" NCoef="0" IVar="5" Cut="1.4768531322479248e+00" cType="0" res="-6.8198360502719879e-02" rms="4.3167734146118164e-01" purity="3.1954076886177063e-01" nType="0">
          <Node pos="l" depth="2" NCoef="0" IVar="-1" Cut="0.0000000000000000e+00" cType="1" res="-6.0103433206677437e-03" rms="4.5109838247299194e-01" purity="3.5382324457168579e-01" nType="-99"/>
          <Node pos="r" depth="2" NCoef="0" IVar="-1" Cut="0.0000000000000000e+00" cType="1" res="-2.0991588011384010e-02" rms="3.6255133152008057e-01" purity="2.1768338978290558e-01" nType="-99"/>
        </Node>
      </Node>
    </BinaryTree>
    <BinaryTree type="DecisionTree" boostWeight="1.0000000000000000e+00" itree="44">
      <Node pos="s" depth="0" NCoef="0" IVar="3" Cut="6.3980697631835938e+01" cType="0" res="-3.0743132811039686e-03" rms="4.4959270954132080e-01" purity="4.9324744939804077e-01" nType="0">
        <Node pos="l" depth="1" NCoef="0" IVar="4" Cut="2.4365760803222656e+02" cType="1" res="6.1721922829747200e-03" rms="4.4709494709968567e-01" purity="5.1097357273101807e-01" nType="0">
          <Node pos="l" depth="2" NCoef="0" IVar="-1" Cut="0.0000000000000000e+00" cType="1" res="3.5740074235945940e-03" rms="4.6281626820564270e-01" purity="5.6999200582504272e-01" nType="-99"/>
          <Node pos="r" depth="2" NCoef="0" IVar="-1" Cut="0.0000000000000000e+00" cType="1" res="-1.9162688404321671e-02" rms="3.0935579538345337e-01" purity="1.0906567424535751e-01" nType="-99"/>
        </Node>
        <Node pos="r" depth="1" NCoef="0" IVar="4" Cut="1.6637768554687500e+02" cType="1" res="-7.6059937477111816e-02" rms="4.6239656209945679e-01" purity="3.5333007574081421e-01" nType="0">
          <Node pos="l" depth="2" NCoef="0" IVar="-1" Cut="0.0000000000000000e+00" cType="1" res="5.3329393267631531e-03" rms="4.9654668569564819e-01" purity="4.7052708268165588e-01" nType="-99"/>
          <Node pos="r" depth="2" NCoef="0" IVar="-1" Cut="0.0000000000000000e+00" cType="1" res="-5.9016529470682144e-02" rms="3.2198375463485718e-01" purity="1.2483312934637070e-01" nType="-99"/>
        </Node>
      </Node>
    </BinaryTree>
    <BinaryTree type="DecisionTree" boostWeight="1.0000000000000000e+00" itree="45">
      <Node pos="s" depth="0" NCoef="0" IVar="4" Cut="1.4827976989746094e+02" cType="0" res="5.0686406902968884e-03" rms="4.4934779405593872e-01" purity="5.0422692298889160e-01" nType="0">
        <Node pos="l" depth="1" NCoef="0" IVar="3" Cut="6.3980697631835938e+01" cType="0" res="1.7443377524614334e-02" rms="4.4060456752777100e-01" purity="5.1323825120925903e-01" nType="0">
          <Node pos="l" depth="2" NCoef="0" IVar="-1" Cut="0.0000000000000000e+00" cType="1" res="5.4769930429756641e-03" rms="4.4036799669265747e-01" purity="5.2991461753845215e-01" nType="-99"/>
          <Node pos="r" depth="2" NCoef="0" IVar="-1" Cut="0.0000000000000000e+00" cType="1" res="-3.2672304660081863e-02" rms="4.1825148463249207e-01" purity="2.7975508570671082e-01" nType="-99"/>
        </Node>
        <Node pos="r" depth="1" NCoef="0" IVar="3" Cut="7.5360412597656250e+01" cType="1" res="-6.7027717828750610e-02" rms="4.9107682704925537e-01" purity="4.5172604918479919e-01" nType="0">
          <Node pos="l" depth="2" NCoef="0" IVar="-1" Cut="0.0000000000000000e+00" cType="1" res="5.7867732830345631e-03" rms="4.9323946237564087e-01" purity="5.2232789993286133e-01" nType="-99"/>
          <Node pos="r" depth="2" NCoef="0" IVar="-1" Cut="0.0000000000000000e+00" cType="1" res="-4.3254751712083817e-02" rms="4.5198956131935120e-01" purity="3.4335115551948547e-01" nType="-99"/>
        </Node>
      </Node>
    </BinaryTree>
    <BinaryTree type="DecisionTree" boostWeight="1.0000000000000000e+00" itree="46">
      <Node pos="s" depth="0" NCoef="0" IVar="5" Cut="1.6040127277374268e+00" cType="1" res="-5.0970572046935558e-03" rms="4.5028778910636902e-01" purity="4.9167817831039429e-01" nType="0">
        <Node pos="l" depth="1" NCoef="0" IVar="4" Cut="1.5004539489746094e+02" cType="0" res="2.4088619276881218e-02" rms="4.4200378656387329e-01" purity="5.6040340662002563e-01" nType="0">
          <Node pos="l" depth="2" NCoef="0" IVar="-1" Cut="0.0000000000000000e+00" cType="1" res="1.1036898009479046e-02" rms="4.2379271984100342e-01" purity="5.9156489372253418e-01" nType="-99"/>
          <Node pos="r" depth="2" NCoef="0" IVar="-1" Cut="0.0000000000000000e+00" cType="1" res="-1.8201367929577827e-02" rms="4.8810356855392456e-01" purity="4.4471320509910583e-01" nType="-99"/>
        </Node>
        <Node pos="r" depth="1" NCoef="0" IVar="2" Cut="-9.4761905670166016e+00" cType="0" res="-3.1064419075846672e-02" rms="4.5596444606781006e-01" purity="4.3053120374679565e-01" nType="0">
          <Node pos="l" depth="2" NCoef="0" IVar="-1" Cut="0.0000000000000000e+00" cType="1" res="-3.1073174905031919e-03" rms="4.5596623420715332e-01" purity="4.3632292747497559e-01" nType="-99"/>
          <Node pos="r" depth="2" NCoef="0" IVar="-1" Cut="0.0000000000000000e+00" cType="1" res="-1.4585290104150772e-02" rms="4.4596883654594421e-01" purity="3.3915948867797852e-01" nType="-99"/>
        </Node>
      </Node>
    </BinaryTree>
    <BinaryTree type="DecisionTree" boostWeight="1.0000000000000000e+00" itree="47">
      <Node pos="s" depth="0" NCoef="0" IVar="3" Cut="9.8623924255371094e+01" cType="1" res="-2.5100572383962572e-04" rms="4.4902080297470093e-01" purity="4.9815383553504944e-01" nType="0">
        <Node pos="l" depth="1" NCoef="0" IVar="4" Cut="2.0075526428222656e+02" cType="1" res="1.0496476665139198e-02" rms="4.5855346322059631e-01" purity="5.7046794891357422e-01" nType="0">
          <Node pos="l" depth="2" NCoef="0" IVar="-1" Cut="0.0000000000000000e+00" cType="1" res="4.3479437008500099e-03" rms="4.6379908919334412e-01" purity="6.0930669307708740e-01" nType="-99"/>
          <Node pos="r" depth="2" NCoef="0" IVar="-1" Cut="0.0000000000000000e+00" cType="1" res="-1.8147807568311691e-02" rms="4.0914320945739746e-01" purity="2.8935226798057556e-01" nType="-99"/>
        </Node>
        <Node pos="r" depth="1" NCoef="0" IVar="4" Cut="2.0499684143066406e+02" cType="1" res="-3.1079409644007683e-02" rms="4.1895273327827454e-01" purity="2.9072594642639160e-01" nType="0">
          <Node pos="l" depth="2" NCoef="0" IVar="-1" Cut="0.0000000000000000e+00" cType="1" res="-1.6516391187906265e-02" rms="4.5630288124084473e-01" purity="3.9092788100242615e-01" nType="-99"/>
          <Node pos="r" depth="2" NCoef="0" IVar="-1" Cut="0.0000000000000000e+00" cType="1" res="2.1753939799964428e-03" rms="3.9211094379425049e-01" purity="2.3015333712100983e-01" nType="-99"/>
        </Node>
      </Node>
    </BinaryTree>
    <BinaryTree type="DecisionTree" boostWeight="1.0000000000000000e+00" itree="48">
      <Node pos="s" depth="0" NCoef="0" IVar="6" Cut="1.4397377967834473e+00" cType="1" res="3.5218496341258287e-03" rms="4.5014405250549316e-01" purity="5.0241130590438843e-01" nType="0">
        <Node pos="l" depth="1" NCoef="0" IVar="5" Cut="1.6048775911331177e+00" cType="1" res="2.7585687115788460e-02" rms="4.4008514285087585e-01" purity="5.8350002765655518e-01" nType="0">
          <Node pos="l" depth="2" NCoef="0" IVar="-1" Cut="0.0000000000000000e+00" cType="1" res="1.0752126574516296e-02" rms="4.2612224817276001e-01" purity="6.6487705707550049e-01" nType="-99"/>
          <Node pos="r" depth="2" NCoef="0" IVar="-1" Cut="0.0000000000000000e+00" cType="1" res="-6.4710341393947601e-03" rms="4.5284920930862427e-01" purity="4.5756459236145020e-01" nType="-99"/>
        </Node>
        <Node pos="r" depth="1" NCoef="0" IVar="5" Cut="1.7569704055786133e+00" cType="0" res="-1.8481684848666191e-02" rms="4.5804372429847717e-01" purity="4.2826518416404724e-01" nType="0">
          <Node pos="l" depth="2" NCoef="0" IVar="-1" Cut="0.0000000000000000e+00" cType="1" res="-1.5853708609938622e-03" rms="4.6335819363594055e-01" purity="4.4105914235115051e-01" nType="-99"/>
          <Node pos="r" depth="2" NCoef="0" IVar="-1" Cut="0.0000000000000000e+00" cType="1" res="-5.9240139089524746e-03" rms="4.4874256849288940e-01" purity="4.0895387530326843e-01" nType="-99"/>
        </Node>
      </Node>
    </BinaryTree>
    <BinaryTree type="DecisionTree" boostWeight="1.0000000000000000e+00" itree="49">
      <Node pos="s" depth="0" NCoef="0" IVar="5" Cut="1.1815335750579834e+00" cType="1" res="2.2157989442348480e-03" rms="4.4830241799354553e-01" purity="4.9931439757347107e-01" nType="0">
        <Node pos="l" depth="1" NCoef="0" IVar="4" Cut="1.5004539489746094e+02" cType="0" res="3.5020314157009125e-02" rms="4.3021649122238159e-01" purity="5.7580745220184326e-01" nType="0">
          <Node pos="l" depth="2" NCoef="0" IVar="-1" Cut="0.0000000000000000e+00" cType="1" res="1.4250515028834343e-02" rms="4.0518161654472351e-01" purity="6.1499071121215820e-01" nType="-99"/>
          <Node pos="r" depth="2" NCoef="0" IVar="-1" Cut="0.0000000000000000e+00" cType="1" res="-2.2677181288599968e-02" rms="4.8902609944343567e-01" purity="4.4162964820861816e-01" nType="-99"/>
        </Node>
        <Node pos="r" depth="1" NCoef="0" IVar="0" Cut="4.7619047760963440e-01" cType="0" res="-9.6972165629267693e-03" rms="4.5410615205764771e-01" purity="4.7153580188751221e-01" nType="0">
          <Node pos="l" depth="2" NCoef="0" IVar="-1" Cut="0.0000000000000000e+00" cType="1" res="3.6172161344438791e-04" rms="4.5126083493232727e-01" purity="4.9719429016113281e-01" nType="-99"/>
          <Node pos="r" depth="2" NCoef="0" IVar="-1" Cut="0.0000000000000000e+00" cType="1" res="-1.0196787305176258e-02" rms="4.6302437782287598e-01" purity="3.7200170755386353e-01" nType="-99"/>
        </Node>
      </Node>
    </BinaryTree>
    <BinaryTree type="DecisionTree" boostWeight="1.0000000000000000e+00" itree="50">
      <Node pos="s" depth="0" NCoef="0" IVar="4" Cut="1.8563500976562500e+02" cType="1" res="-2.7954785618931055e-03" rms="4.4991028308868408e-01" purity="4.9590662121772766e-01" nType="0">
        <Node pos="l" depth="1" NCoef="0" IVar="4" Cut="1.5834388732910156e+02" cType="0" res="1.5975212678313255e-02" rms="4.6404349803924561e-01" purity="5.9340304136276245e-01" nType="0">
          <Node pos="l" depth="2" NCoef="0" IVar="-1" Cut="0.0000000000000000e+00" cType="1" res="9.0619511902332306e-03" rms="4.4381397962570190e-01" purity="6.5812176465988159e-01" nType="-99"/>
          <Node pos="r" depth="2" NCoef="0" IVar="-1" Cut="0.0000000000000000e+00" cType="1" res="-5.1292567513883114e-03" rms="4.8625960946083069e-01" purity="5.0309193134307861e-01" nType="-99"/>
        </Node>
        <Node pos="r" depth="1" NCoef="0" IVar="5" Cut="1.1815335750579834e+00" cType="1" res="-3.2507050782442093e-02" rms="4.2489135265350342e-01" purity="3.4158238768577576e-01" nType="0">
          <Node pos="l" depth="2" NCoef="0" IVar="-1" Cut="0.0000000000000000e+00" cType="1" res="3.1492887064814568e-03" rms="4.1085675358772278e-01" purity="4.1795778274536133e-01" nType="-99"/>
          <Node pos="r" depth="2" NCoef="0" IVar="-1" Cut="0.0000000000000000e+00" cType="1" res="-7.5899343937635422e-03" rms="4.2827481031417847e-01" purity="3.1914678215980530e-01" nType="-99"/>
        </Node>
      </Node>
    </BinaryTree>
    <BinaryTree type="DecisionTree" boostWeight="1.0000000000000000e+00" itree="51">
      <Node pos="s" depth="0" NCoef="0" IVar="4" Cut="2.9024426269531250e+02" cType="1" res="9.4312252476811409e-03" rms="4.4682294130325317e-01" purity="5.0944566726684570e-01" nType="0">
        <Node pos="l" depth="1" NCoef="0" IVar="3" Cut="7.6896049499511719e+01" cType="0" res="1.3829843141138554e-02" rms="4.5591294765472412e-01" purity="5.3596943616867065e-01" nType="0">
          <Node pos="l" depth="2" NCoef="0" IVar="-1" Cut="0.0000000000000000e+00" cType="1" res="3.5217667464166880e-03" rms="4.4910886883735657e-01" purity="5.4937064647674561e-01" nType="-99"/>
          <Node pos="r" depth="2" NCoef="0" IVar="-1" Cut="0.0000000000000000e+00" cType="1" res="-3.4936512820422649e-03" rms="4.6738958358764648e-01" purity="5.0949883460998535e-01" nType="-99"/>
        </Node>
        <Node pos="r" depth="1" NCoef="0" IVar="5" Cut="2.2303469181060791e+00" cType="1" res="-6.5851785242557526e-02" rms="2.3066663742065430e-01" purity="5.5487044155597687e-02" nType="0">
          <Node pos="l" depth="2" NCoef="0" IVar="-1" Cut="0.0000000000000000e+00" cType="1" res="-3.2685600221157074e-02" rms="2.8400152921676636e-01" purity="8.8341139256954193e-02" nType="-99"/>
          <Node pos="r" depth="2" NCoef="0" IVar="-1" Cut="0.0000000000000000e+00" cType="1" res="-4.1003283113241196e-02" rms="1.5585373342037201e-01" purity="2.3475309833884239e-02" nType="-99"/>
        </Node>
      </Node>
    </BinaryTree>
    <BinaryTree type="DecisionTree" boostWeight="1.0000000000000000e+00" itree="52">
      <Node pos="s" depth="0" NCoef="0" IVar="4" Cut="1.2498935699462891e+02" cType="0" res="-1.8195903394371271e-03" rms="4.4930940866470337e-01" purity="4.9912163615226746e-01" nType="0">
        <Node pos="l" depth="1" NCoef="0" IVar="3" Cut="5.6801216125488281e+01" cType="0" res="1.5111817046999931e-03" rms="4.4784092903137207e-01" purity="5.0425183773040771e-01" nType="0">
          <Node pos="l" depth="2" NCoef="0" IVar="-1" Cut="0.0000000000000000e+00" cType="1" res="1.8902367446571589e-03" rms="4.4844976067543030e-01" purity="5.1527673006057739e-01" nType="-99"/>
          <Node pos="r" depth="2" NCoef="0" IVar="-1" Cut="0.0000000000000000e+00" cType="1" res="-2.5913786143064499e-02" rms="4.2043584585189819e-01" purity="2.6222249865531921e-01" nType="-99"/>
        </Node>
        <Node pos="r" depth="1" NCoef="0" IVar="-1" Cut="0.0000000000000000e+00" cType="1" res="-1.6261992976069450e-02" rms="4.8370411992073059e-01" purity="3.1996160745620728e-01" nType="-99"/>
      </Node>
    </BinaryTree>
    <BinaryTree type="DecisionTree" boostWeight="1.0000000000000000e+00" itree="53">
      <Node pos="s" depth="0" NCoef="0" IVar="5" Cut="1.1650454998016357e+00" cType="1" res="-1.3535865582525730e-03" rms="4.4688400626182556e-01" purity="4.9700883030891418e-01" nType="0">
        <Node pos="l" depth="1" NCoef="0" IVar="6" Cut="1.0120048522949219e+00" cType="1" res="4.1294604539871216e-02" rms="4.2191788554191589e-01" purity="5.8728814125061035e-01" nType="0">
          <Node pos="l" depth="2" NCoef="0" IVar="-1" Cut="0.0000000000000000e+00" cType="1" res="1.9414857029914856e-02" rms="3.8366758823394775e-01" purity="7.4724811315536499e-01" nType="-99"/>
          <Node pos="r" depth="2" NCoef="0" IVar="-1" Cut="0.0000000000000000e+00" cType="1" res="-4.6448991633951664e-03" rms="4.3734383583068848e-01" purity="4.7895428538322449e-01" nType="-99"/>
        </Node>
        <Node pos="r" depth="1" NCoef="0" IVar="3" Cut="6.7969535827636719e+01" cType="0" res="-1.6274260357022285e-02" rms="4.5435109734535217e-01" purity="4.6542415022850037e-01" nType="0">
          <Node pos="l" depth="2" NCoef="0" IVar="-1" Cut="0.0000000000000000e+00" cType="1" res="4.0749058825895190e-04" rms="4.5205593109130859e-01" purity="4.8442700505256653e-01" nType="-99"/>
          <Node pos="r" depth="2" NCoef="0" IVar="-1" Cut="0.0000000000000000e+00" cType="1" res="-1.1308783665299416e-02" rms="4.6265611052513123e-01" purity="3.6790877580642700e-01" nType="-99"/>
        </Node>
      </Node>
    </BinaryTree>
    <BinaryTree type="DecisionTree" boostWeight="1.0000000000000000e+00" itree="54">
      <Node pos="s" depth="0" NCoef="0" IVar="6" Cut="2.2921824455261230e+00" cType="1" res="1.9197192741557956e-03" rms="4.5005989074707031e-01" purity="5.0260823965072632e-01" nType="0">
        <Node pos="l" depth="1" NCoef="0" IVar="5" Cut="1.8190850019454956e+00" cType="1" res="1.0128069669008255e-02" rms="4.5111566781997681e-01" purity="5.3403306007385254e-01" nType="0">
          <Node pos="l" depth="2" NCoef="0" IVar="-1" Cut="0.0000000000000000e+00" cType="1" res="4.6442174352705479e-03" rms="4.4589307904243469e-01" purity="5.7962030172348022e-01" nType="-99"/>
          <Node pos="r" depth="2" NCoef="0" IVar="-1" Cut="0.0000000000000000e+00" cType="1" res="-2.8603451792150736e-03" rms="4.5822259783744812e-01" purity="4.6298319101333618e-01" nType="-99"/>
        </Node>
        <Node pos="r" depth="1" NCoef="0" IVar="1" Cut="4.7615873813629150e-01" cType="1" res="-3.2072864472866058e-02" rms="4.4404873251914978e-01" purity="3.7247130274772644e-01" nType="0">
          <Node pos="l" depth="2" NCoef="0" IVar="-1" Cut="0.0000000000000000e+00" cType="1" res="-2.9374742880463600e-03" rms="4.4707116484642029e-01" purity="4.0539491176605225e-01" nType="-99"/>
          <Node pos="r" depth="2" NCoef="0" IVar="-1" Cut="0.0000000000000000e+00" cType="1" res="-1.6976770013570786e-02" rms="4.3149858713150024e-01" purity="2.8523343801498413e-01" nType="-99"/>
        </Node>
      </Node>
    </BinaryTree>
    <BinaryTree type="DecisionTree" boostWeight="1.0000000000000000e+00" itree="55">
      <Node pos="s" depth="0" NCoef="0" IVar="0" Cut="4.7619047760963440e-01" cType="0" res="-2.8247593436390162e-03" rms="4.4741490483283997e-01" purity="4.9788287281990051e-01" nType="0">
        <Node pos="l" depth="1" NCoef="0" IVar="0" Cut="9.0023154020309448e-01" cType="0" res="8.2148797810077667e-03" rms="4.4387546181678772e-01" purity="5.2698028087615967e-01" nType="0">
          <Node pos="l" depth="2" NCoef="0" IVar="-1" Cut="0.0000000000000000e+00" cType="1" res="4.9279411323368549e-03" rms="4.4152981042861938e-01" purity="5.4401713609695435e-01" nType="-99"/>
          <Node pos="r" depth="2" NCoef="0" IVar="-1" Cut="0.0000000000000000e+00" cType="1" res="-5.4496554657816887e-03" rms="4.4692850112915039e-01" purity="4.8565283417701721e-01" nType="-99"/>
        </Node>
        <Node pos="r" depth="1" NCoef="0" IVar="5" Cut="1.9815704822540283e+00" cType="1" res="-5.0587989389896393e-02" rms="4.5936933159828186e-01" purity="3.7199237942695618e-01" nType="0">
          <Node pos="l" depth="2" NCoef="0" IVar="-1" Cut="0.0000000000000000e+00" cType="1" res="-8.3575919270515442e-03" rms="4.5901530981063843e-01" purity="3.8161566853523254e-01" nType="-99"/>
          <Node pos="r" depth="2" NCoef="0" IVar="-1" Cut="0.0000000000000000e+00" cType="1" res="-5.5760289542376995e-03" rms="4.5831334590911865e-01" purity="3.5910037159919739e-01" nType="-99"/>
        </Node>
      </Node>
    </BinaryTree>
    <BinaryTree type="DecisionTree" boostWeight="1.0000000000000000e+00" itree="56">
      <Node pos="s" depth="0" NCoef="0" IVar="4" Cut="1.5392367553710938e+02" cType="0" res="1.6504072118550539e-03" rms="4.4836491346359253e-01" purity="4.9811020493507385e-01" nType="0">
        <Node pos="l" depth="1" NCoef="0" IVar="3" Cut="6.4047256469726562e+01" cType="0" res="1.1789713054895401e-02" rms="4.3593573570251465e-01" purity="5.0122910737991333e-01" nType="0">
          <Node pos="l" depth="2" NCoef="0" IVar="-1" Cut="0.0000000000000000e+00" cType="1" res="4.5208167284727097e-03" rms="4.3678465485572815e-01" purity="5.1928901672363281e-01" nType="-99"/>
          <Node pos="r" depth="2" NCoef="0" IVar="-1" Cut="0.0000000000000000e+00" cType="1" res="-3.6183279007673264e-02" rms="3.9925286173820496e-01" purity="2.4796776473522186e-01" nType="-99"/>
        </Node>
        <Node pos="r" depth="1" NCoef="0" IVar="3" Cut="8.6153015136718750e+01" cType="1" res="-3.6965131759643555e-02" rms="4.9092572927474976e-01" purity="4.8623195290565491e-01" nType="0">
          <Node pos="l" depth="2" NCoef="0" IVar="-1" Cut="0.0000000000000000e+00" cType="1" res="3.2276497222483158e-03" rms="4.8993989825248718e-01" purity="5.3198564052581787e-01" nType="-99"/>
          <Node pos="r" depth="2" NCoef="0" IVar="-1" Cut="0.0000000000000000e+00" cType="1" res="-5.6873161345720291e-02" rms="4.1274082660675049e-01" purity="2.3028285801410675e-01" nType="-99"/>
        </Node>
      </Node>
    </BinaryTree>
    <BinaryTree type="DecisionTree" boostWeight="1.0000000000000000e+00" itree="57">
      <Node pos="s" depth="0" NCoef="0" IVar="4" Cut="1.4273323059082031e+02" cType="0" res="-2.9095408535795286e-05" rms="4.4562408328056335e-01" purity="4.9953290820121765e-01" nType="0">
        <Node pos="l" depth="1" NCoef="0" IVar="3" Cut="6.3980697631835938e+01" cType="0" res="6.7976079881191254e-03" rms="4.3877661228179932e-01" purity="5.0944942235946655e-01" nType="0">
          <Node pos="l" depth="2" NCoef="0" IVar="-1" Cut="0.0000000000000000e+00" cType="1" res="3.4315197262912989e-03" rms="4.3937477469444275e-01" purity="5.3029745817184448e-01" nType="-99"/>
          <Node pos="r" depth="2" NCoef="0" IVar="-1" Cut="0.0000000000000000e+00" cType="1" res="-2.1236285567283630e-02" rms="4.1349682211875916e-01" purity="2.7133435010910034e-01" nType="-99"/>
        </Node>
        <Node pos="r" depth="1" NCoef="0" IVar="3" Cut="7.7881011962890625e+01" cType="1" res="-5.7883314788341522e-02" rms="4.9614590406417847e-01" purity="4.1549327969551086e-01" nType="0">
          <Node pos="l" depth="2" NCoef="0" IVar="-1" Cut="0.0000000000000000e+00" cType="1" res="5.9444732032716274e-03" rms="5.0387185811996460e-01" purity="4.9753516912460327e-01" nType="-99"/>
          <Node pos="r" depth="2" NCoef="0" IVar="-1" Cut="0.0000000000000000e+00" cType="1" res="-4.8613417893648148e-02" rms="4.1805526614189148e-01" purity="2.3602783679962158e-01" nType="-99"/>
        </Node>
      </Node>
    </BinaryTree>
    <BinaryTree type="DecisionTree" boostWeight="1.0000000000000000e+00" itree="58">
      <Node pos="s" depth="0" NCoef="0" IVar="6" Cut="2.0919108390808105e+00" cType="1" res="2.0452083554118872e-03" rms="4.4735532999038696e-01" purity="5.0163662433624268e-01" nType="0">
        <Node pos="l" depth="1" NCoef="0" IVar="0" Cut="4.7619047760963440e-01" cType="0" res="1.3878926634788513e-02" rms="4.5014697313308716e-01" purity="5.4533636569976807e-01" nType="0">
          <Node pos="l" depth="2" NCoef="0" IVar="-1" Cut="0.0000000000000000e+00" cType="1" res="4.2491406202316284e-03" rms="4.4288593530654907e-01" purity="5.7634586095809937e-01" nType="-99"/>
          <Node pos="r" depth="2" NCoef="0" IVar="-1" Cut="0.0000000000000000e+00" cType="1" res="-7.0505756884813309e-03" rms="4.7735303640365601e-01" purity="4.1184741258621216e-01" nType="-99"/>
        </Node>
        <Node pos="r" depth="1" NCoef="0" IVar="5" Cut="1.8504893779754639e+00" cType="0" res="-3.4656424075365067e-02" rms="4.3654870986938477e-01" purity="3.6610445380210876e-01" nType="0">
          <Node pos="l" depth="2" NCoef="0" IVar="-1" Cut="0.0000000000000000e+00" cType="1" res="-1.7258196603506804e-03" rms="4.5110103487968445e-01" purity="3.9041623473167419e-01" nType="-99"/>
          <Node pos="r" depth="2" NCoef="0" IVar="-1" Cut="0.0000000000000000e+00" cType="1" res="-1.3589689508080482e-02" rms="4.1120171546936035e-01" purity="3.2791584730148315e-01" nType="-99"/>
        </Node>
      </Node>
    </BinaryTree>
    <BinaryTree type="DecisionTree" boostWeight="1.0000000000000000e+00" itree="59">
      <Node pos="s" depth="0" NCoef="0" IVar="5" Cut="1.2423412799835205e+00" cType="1" res="-2.0275756251066923e-03" rms="4.4845420122146606e-01" purity="5.0112074613571167e-01" nType="0">
        <Node pos="l" depth="1" NCoef="0" IVar="4" Cut="1.3723056030273438e+02" cType="0" res="3.3986572176218033e-02" rms="4.2693394422531128e-01" purity="5.8500838279724121e-01" nType="0">
          <Node pos="l" depth="2" NCoef="0" IVar="-1" Cut="0.0000000000000000e+00" cType="1" res="8.9197726920247078e-03" rms="4.1770392656326294e-01" purity="6.1261236667633057e-01" nType="-99"/>
          <Node pos="r" depth="2" NCoef="0" IVar="-1" Cut="0.0000000000000000e+00" cType="1" res="-2.9007788747549057e-02" rms="4.7758200764656067e-01" purity="3.5531952977180481e-01" nType="-99"/>
        </Node>
        <Node pos="r" depth="1" NCoef="0" IVar="1" Cut="4.7619047760963440e-01" cType="1" res="-1.6827240586280823e-02" rms="4.5618054270744324e-01" purity="4.6664798259735107e-01" nType="0">
          <Node pos="l" depth="2" NCoef="0" IVar="-1" Cut="0.0000000000000000e+00" cType="1" res="1.3744594762101769e-03" rms="4.5854485034942627e-01" purity="4.9286356568336487e-01" nType="-99"/>
          <Node pos="r" depth="2" NCoef="0" IVar="-1" Cut="0.0000000000000000e+00" cType="1" res="-9.5258364453911781e-03" rms="4.4880998134613037e-01" purity="4.0209665894508362e-01" nType="-99"/>
        </Node>
      </Node>
    </BinaryTree>
    <BinaryTree type="DecisionTree" boostWeight="1.0000000000000000e+00" itree="60">
      <Node pos="s" depth="0" NCoef="0" IVar="1" Cut="4.7619047760963440e-01" cType="1" res="-3.0735387554159388e-05" rms="4.4333553314208984e-01" purity="5.0031036138534546e-01" nType="0">
        <Node pos="l" depth="1" NCoef="0" IVar="4" Cut="2.2750833129882812e+02" cType="1" res="1.8526958301663399e-02" rms="4.4378632307052612e-01" purity="5.3240543603897095e-01" nType="0">
          <Node pos="l" depth="2" NCoef="0" IVar="-1" Cut="0.0000000000000000e+00" cType="1" res="3.8600380066782236e-03" rms="4.5645898580551147e-01" purity="5.9153926372528076e-01" nType="-99"/>
          <Node pos="r" depth="2" NCoef="0" IVar="-1" Cut="0.0000000000000000e+00" cType="1" res="-1.3691888190805912e-02" rms="3.4581825137138367e-01" purity="1.5769766271114349e-01" nType="-99"/>
        </Node>
        <Node pos="r" depth="1" NCoef="0" IVar="6" Cut="1.2502813339233398e+00" cType="1" res="-4.8878304660320282e-02" rms="4.3840757012367249e-01" purity="4.1582977771759033e-01" nType="0">
          <Node pos="l" depth="2" NCoef="0" IVar="-1" Cut="0.0000000000000000e+00" cType="1" res="1.4986387686803937e-03" rms="4.2807301878929138e-01" purity="5.2711147069931030e-01" nType="-99"/>
          <Node pos="r" depth="2" NCoef="0" IVar="-1" Cut="0.0000000000000000e+00" cType="1" res="-1.0033848695456982e-02" rms="4.4270762801170349e-01" purity="3.4636873006820679e-01" nType="-99"/>
        </Node>
      </Node>
    </BinaryTree>
    <BinaryTree type="DecisionTree" boostWeight="1.0000000000000000e+00" itree="61">
      <Node pos="s" depth="0" NCoef="0" IVar="6" Cut="1.2551466226577759e+00" cType="1" res="-2.3925257846713066e-03" rms="4.4415000081062317e-01" purity="4.9661689996719360e-01" nType="0">
        <Node pos="l" depth="1" NCoef="0" IVar="4" Cut="2.1764659118652344e+02" cType="1" res="2.3781355470418930e-02" rms="4.3126070499420166e-01" purity="5.9027963876724243e-01" nType="0">
          <Node pos="l" depth="2" NCoef="0" IVar="-1" Cut="0.0000000000000000e+00" cType="1" res="6.2858345918357372e-03" rms="4.3647384643554688e-01" purity="6.4643234014511108e-01" nType="-99"/>
          <Node pos="r" depth="2" NCoef="0" IVar="-1" Cut="0.0000000000000000e+00" cType="1" res="-1.8017999827861786e-02" rms="3.7885138392448425e-01" purity="1.9730080664157867e-01" nType="-99"/>
        </Node>
        <Node pos="r" depth="1" NCoef="0" IVar="1" Cut="4.7619047760963440e-01" cType="1" res="-1.8361954018473625e-02" rms="4.5108819007873535e-01" purity="4.3947061896324158e-01" nType="0">
          <Node pos="l" depth="2" NCoef="0" IVar="-1" Cut="0.0000000000000000e+00" cType="1" res="4.6336415107361972e-04" rms="4.5679023861885071e-01" purity="4.7356292605400085e-01" nType="-99"/>
          <Node pos="r" depth="2" NCoef="0" IVar="-1" Cut="0.0000000000000000e+00" cType="1" res="-8.9924400672316551e-03" rms="4.3304926156997681e-01" purity="3.5175120830535889e-01" nType="-99"/>
        </Node>
      </Node>
    </BinaryTree>
    <BinaryTree type="DecisionTree" boostWeight="1.0000000000000000e+00" itree="62">
      <Node pos="s" depth="0" NCoef="0" IVar="0" Cut="4.7619047760963440e-01" cType="0" res="5.8872997760772705e-03" rms="4.4891083240509033e-01" purity="5.0684410333633423e-01" nType="0">
        <Node pos="l" depth="1" NCoef="0" IVar="0" Cut="9.2517364025115967e-01" cType="0" res="1.3227241113781929e-02" rms="4.4470480084419250e-01" purity="5.3316140174865723e-01" nType="0">
          <Node pos="l" depth="2" NCoef="0" IVar="-1" Cut="0.0000000000000000e+00" cType="1" res="4.9805431626737118e-03" rms="4.4081553816795349e-01" purity="5.5989271402359009e-01" nType="-99"/>
          <Node pos="r" depth="2" NCoef="0" IVar="-1" Cut="0.0000000000000000e+00" cType="1" res="-4.8606176860630512e-03" rms="4.4890528917312622e-01" purity="4.8447939753532410e-01" nType="-99"/>
        </Node>
        <Node pos="r" depth="1" NCoef="0" IVar="6" Cut="2.2998137474060059e+00" cType="1" res="-2.5022467598319054e-02" rms="4.6493723988533020e-01" purity="3.9601719379425049e-01" nType="0">
          <Node pos="l" depth="2" NCoef="0" IVar="-1" Cut="0.0000000000000000e+00" cType="1" res="-6.8724080920219421e-03" rms="4.6630060672760010e-01" purity="4.0130427479743958e-01" nType="-99"/>
          <Node pos="r" depth="2" NCoef="0" IVar="-1" Cut="0.0000000000000000e+00" cType="1" res="-5.3885796660324559e-05" rms="4.5501980185508728e-01" purity="3.7154239416122437e-01" nType="-99"/>
        </Node>
      </Node>
    </BinaryTree>
    <BinaryTree type="DecisionTree" boostWeight="1.0000000000000000e+00" itree="63">
      <Node pos="s" depth="0" NCoef="0" IVar="4" Cut="1.8563500976562500e+02" cType="1" res="-7.0362091064453125e-03" rms="4.4466695189476013e-01" purity="4.9229866266250610e-01" nType="0">
        <Node pos="l" depth="1" NCoef="0" IVar="3" Cut="8.9316146850585938e+01" cType="1" res="6.5477113239467144e-03" rms="4.6015980839729309e-01" purity="5.8953404426574707e-01" nType="0">
          <Node pos="l" depth="2" NCoef="0" IVar="-1" Cut="0.0000000000000000e+00" cType="1" res="7.0655648596584797e-03" rms="4.5721009373664856e-01" purity="6.2225753068923950e-01" nType="-99"/>
