<?xml version="1.0"?>
<MethodSetup Method="BDT::BDTG">
  <GeneralInfo>
    <Info name="TMVA Release" value="4.2.1 [262657]"/>
    <Info name="ROOT Release" value="6.10/09 [395785]"/>
    <Info name="Creator" value="pdas"/>
    <Info name="Date" value="Sat Mar 30 21:35:22 2019"/>
    <Info name="Host" value="Linux cmsbuild76.cern.ch 2.6.32-696.30.1.el6.x86_64 #1 SMP Tue May 22 06:09:36 CEST 2018 x86_64 x86_64 x86_64 GNU/Linux"/>
    <Info name="Dir" value="/home/pdas/thqmultilepton/CMSSW_9_4_9/src/CMGTools/TTHAnalysis/python/plotter/tHq-multilepton/signal_mva"/>
    <Info name="Training events" value="70339"/>
    <Info name="TrainingTime" value="1.23036925e+02"/>
    <Info name="AnalysisType" value="Classification"/>
  </GeneralInfo>
  <Options>
    <Option name="V" modified="Yes">False</Option>
    <Option name="VerbosityLevel" modified="No">Default</Option>
    <Option name="VarTransform" modified="No">None</Option>
    <Option name="H" modified="Yes">False</Option>
    <Option name="CreateMVAPdfs" modified="Yes">True</Option>
    <Option name="IgnoreNegWeightsInTraining" modified="No">False</Option>
    <Option name="NTrees" modified="Yes">200</Option>
    <Option name="MaxDepth" modified="Yes">3</Option>
    <Option name="MinNodeSize" modified="No">5%</Option>
    <Option name="nCuts" modified="Yes">40</Option>
    <Option name="BoostType" modified="Yes">Grad</Option>
    <Option name="AdaBoostR2Loss" modified="No">quadratic</Option>
    <Option name="UseBaggedBoost" modified="No">False</Option>
    <Option name="Shrinkage" modified="Yes">1.000000e-01</Option>
    <Option name="AdaBoostBeta" modified="No">5.000000e-01</Option>
    <Option name="UseRandomisedTrees" modified="No">False</Option>
    <Option name="UseNvars" modified="No">3</Option>
    <Option name="UsePoissonNvars" modified="No">True</Option>
    <Option name="BaggedSampleFraction" modified="No">6.000000e-01</Option>
    <Option name="UseYesNoLeaf" modified="No">True</Option>
    <Option name="NegWeightTreatment" modified="Yes">pairnegweightsglobal</Option>
    <Option name="Css" modified="No">1.000000e+00</Option>
    <Option name="Cts_sb" modified="No">1.000000e+00</Option>
    <Option name="Ctb_ss" modified="No">1.000000e+00</Option>
    <Option name="Cbb" modified="No">1.000000e+00</Option>
    <Option name="NodePurityLimit" modified="No">5.000000e-01</Option>
    <Option name="SeparationType" modified="No">giniindex</Option>
    <Option name="RegressionLossFunctionBDTG" modified="No">huber</Option>
    <Option name="HuberQuantile" modified="No">7.000000e-01</Option>
    <Option name="DoBoostMonitor" modified="No">False</Option>
    <Option name="UseFisherCuts" modified="No">False</Option>
    <Option name="MinLinCorrForFisher" modified="No">8.000000e-01</Option>
    <Option name="UseExclusiveVars" modified="No">False</Option>
    <Option name="DoPreselection" modified="No">False</Option>
    <Option name="SigToBkgFraction" modified="No">1.000000e+00</Option>
    <Option name="PruneMethod" modified="No">nopruning</Option>
    <Option name="PruneStrength" modified="No">0.000000e+00</Option>
    <Option name="PruningValFraction" modified="No">5.000000e-01</Option>
    <Option name="SkipNormalization" modified="No">False</Option>
    <Option name="nEventsMin" modified="No">0</Option>
    <Option name="UseBaggedGrad" modified="No">False</Option>
    <Option name="GradBaggingFraction" modified="No">6.000000e-01</Option>
    <Option name="UseNTrainEvents" modified="No">0</Option>
    <Option name="NNodesMax" modified="No">0</Option>
  </Options>
  <Variables NVar="11">
    <Variable VarIndex="0" Expression="nJet25_Recl" Label="nJet25_Recl" Title="nJet25_Recl" Unit="" Internal="nJet25_Recl" Type="I" Min="1.00000000e+00" Max="1.20000000e+01"/>
    <Variable VarIndex="1" Expression="nJetEta1" Label="nJetEta1" Title="nJetEta1" Unit="" Internal="nJetEta1" Type="I" Min="0.00000000e+00" Max="9.00000000e+00"/>
    <Variable VarIndex="2" Expression="maxEtaJet25" Label="maxEtaJet25" Title="maxEtaJet25" Unit="" Internal="maxEtaJet25" Type="F" Min="2.37848610e-04" Max="4.69282675e+00"/>
    <Variable VarIndex="3" Expression="dEtaFwdJetBJet" Label="dEtaFwdJetBJet" Title="dEtaFwdJetBJet" Unit="" Internal="dEtaFwdJetBJet" Type="F" Min="7.62939453e-05" Max="6.95776367e+00"/>
    <Variable VarIndex="4" Expression="dEtaFwdJetClosestLep" Label="dEtaFwdJetClosestLep" Title="dEtaFwdJetClosestLep" Unit="" Internal="dEtaFwdJetClosestLep" Type="F" Min="4.57763672e-05" Max="6.80255127e+00"/>
    <Variable VarIndex="5" Expression="dPhiHighestPtSSPair" Label="dPhiHighestPtSSPair" Title="dPhiHighestPtSSPair" Unit="" Internal="dPhiHighestPtSSPair" Type="F" Min="0.00000000e+00" Max="3.14158368e+00"/>
    <Variable VarIndex="6" Expression="LepGood_conePt[iLepFO_Recl[1]]" Label="Lep2Pt" Title="Lep2Pt" Unit="" Internal="Lep2Pt" Type="F" Min="1.00009441e+01" Max="5.07933685e+02"/>
    <Variable VarIndex="7" Expression="minDRll" Label="minDRll" Title="minDRll" Unit="" Internal="minDRll" Type="F" Min="7.51732588e-02" Max="5.51220274e+00"/>
    <Variable VarIndex="8" Expression="LepGood_charge[iLepFO_Recl[0]]+LepGood_charge[iLepFO_Recl[1]]" Label="lepCharge" Title="lepCharge" Unit="" Internal="lepCharge" Type="I" Min="-2.00000000e+00" Max="2.00000000e+00"/>
    <Variable VarIndex="9" Expression="dEtaFwdJet2BJet" Label="dEtaFwdJet2BJet" Title="dEtaFwdJet2BJet" Unit="" Internal="dEtaFwdJet2BJet" Type="F" Min="-1.00000000e+00" Max="7.03292179e+00"/>
    <Variable VarIndex="10" Expression="fwdJetPt25" Label="fwdJetPt25" Title="fwdJetPt25" Unit="" Internal="fwdJetPt25" Type="F" Min="2.50002441e+01" Max="9.90460938e+02"/>
  </Variables>
  <Spectators NSpec="3">
    <Spectator SpecIndex="0" Expression="iLepFO_Recl[0]" Label="iF0" Title="F" Unit="" Internal="iF0" Type="F" Min="0.00000000e+00" Max="3.00000000e+00"/>
    <Spectator SpecIndex="1" Expression="iLepFO_Recl[1]" Label="iF1" Title="F" Unit="" Internal="iF1" Type="F" Min="0.00000000e+00" Max="3.00000000e+00"/>
    <Spectator SpecIndex="2" Expression="iLepFO_Recl[2]" Label="iF2" Title="F" Unit="" Internal="iF2" Type="F" Min="0.00000000e+00" Max="4.00000000e+00"/>
  </Spectators>
  <Classes NClass="2">
    <Class Name="Signal" Index="0"/>
    <Class Name="Background" Index="1"/>
  </Classes>
  <Transformations NTransformations="0"/>
  <MVAPdfs>
    <PDF Name="BDTG_PDFSig" MinNSmooth="0" MaxNSmooth="0" InterpolMethod="2" KDE_type="1" KDE_iter="1" KDE_border="1" KDE_finefactor="1.0000000000000000e+00">
      <Histogram Name="BDT_tr_S_original" NBins="1406" XMin="-8.8078278303146362e-01" XMax="8.7112575769424438e-01" HasEquidistantBins="1">
        0.00000000e+00 0.00000000e+00 0.00000000e+00 0.00000000e+00 0.00000000e+00 0.00000000e+00 0.00000000e+00 0.00000000e+00 0.00000000e+00 0.00000000e+00 0.00000000e+00 0.00000000e+00 0.00000000e+00 0.00000000e+00 0.00000000e+00 0.00000000e+00 0.00000000e+00 0.00000000e+00 0.00000000e+00 0.00000000e+00 0.00000000e+00 0.00000000e+00 0.00000000e+00 0.00000000e+00 4.41545616e-02 0.00000000e+00 0.00000000e+00 0.00000000e+00 0.00000000e+00 0.00000000e+00 0.00000000e+00 0.00000000e+00 0.00000000e+00 0.00000000e+00 0.00000000e+00 0.00000000e+00 0.00000000e+00 0.00000000e+00 0.00000000e+00 0.00000000e+00 0.00000000e+00 0.00000000e+00 0.00000000e+00 8.83091231e-02 0.00000000e+00 0.00000000e+00 0.00000000e+00 0.00000000e+00 0.00000000e+00 0.00000000e+00 4.41545616e-02 4.41545616e-02 4.41545616e-02 0.00000000e+00 0.00000000e+00 0.00000000e+00 0.00000000e+00 0.00000000e+00 0.00000000e+00 0.00000000e+00 0.00000000e+00 4.41545616e-02 0.00000000e+00 0.00000000e+00 0.00000000e+00 0.00000000e+00 4.41545616e-02 4.41545616e-02 0.00000000e+00 0.00000000e+00 4.41545616e-02 0.00000000e+00 4.41545616e-02 0.00000000e+00 0.00000000e+00 0.00000000e+00 0.00000000e+00 0.00000000e+00 0.00000000e+00 0.00000000e+00 0.00000000e+00 0.00000000e+00 4.41545616e-02 4.41545616e-02 0.00000000e+00 4.41545616e-02 4.41545616e-02 0.00000000e+00 0.00000000e+00 4.41545616e-02 4.41545616e-02 0.00000000e+00 4.41545616e-02 8.83091231e-02 8.83091231e-02 0.00000000e+00 4.41545616e-02 0.00000000e+00 0.00000000e+00 0.00000000e+00 0.00000000e+00 0.00000000e+00 4.41545616e-02 0.00000000e+00 4.41545616e-02 0.00000000e+00 4.41545616e-02 0.00000000e+00 0.00000000e+00 8.83091231e-02 0.00000000e+00 0.00000000e+00 4.41545616e-02 0.00000000e+00 4.41545616e-02 0.00000000e+00 4.41545616e-02 4.41545616e-02 4.41545616e-02 0.00000000e+00 0.00000000e+00 0.00000000e+00 8.83091231e-02 0.00000000e+00 8.83091231e-02 0.00000000e+00 4.41545616e-02 8.83091231e-02 0.00000000e+00 4.41545616e-02 0.00000000e+00 4.41545616e-02 0.00000000e+00 1.76618246e-01 0.00000000e+00 0.00000000e+00 4.41545616e-02 0.00000000e+00 8.83091231e-02 4.41545616e-02 4.41545616e-02 4.41545616e-02 4.41545616e-02 0.00000000e+00 4.41545616e-02 1.32463685e-01 0.00000000e+00 1.32463685e-01 0.00000000e+00 0.00000000e+00 8.83091231e-02 4.41545616e-02 0.00000000e+00 4.41545616e-02 8.83091231e-02 1.32463685e-01 4.41545616e-02 0.00000000e+00 8.83091231e-02 0.00000000e+00 4.41545616e-02 0.00000000e+00 8.83091231e-02 0.00000000e+00 0.00000000e+00 0.00000000e+00 4.41545616e-02 4.41545616e-02 4.41545616e-02 0.00000000e+00 0.00000000e+00 4.41545616e-02 1.76618246e-01 8.83091231e-02 1.76618246e-01 2.20772808e-01 1.32463685e-01 4.41545616e-02 4.41545616e-02 8.83091231e-02 8.83091231e-02 8.83091231e-02 8.83091231e-02 1.32463685e-01 8.83091231e-02 4.41545616e-02 2.20772808e-01 4.41545616e-02 4.41545616e-02 1.32463685e-01 0.00000000e+00 8.83091231e-02 4.41545616e-02 8.83091231e-02 8.83091231e-02 8.83091231e-02 2.64927369e-01 1.76618246e-01 4.41545616e-02 4.41545616e-02 1.76618246e-01 1.32463685e-01 8.83091231e-02 1.32463685e-01 0.00000000e+00 4.41545616e-02 0.00000000e+00 0.00000000e+00 1.32463685e-01 4.41545616e-02 1.76618246e-01 1.32463685e-01 2.20772808e-01 1.32463685e-01 2.20772808e-01 8.83091231e-02 1.32463685e-01 3.97391054e-01 8.83091231e-02 8.83091231e-02 -4.41545616e-02 1.32463685e-01 1.32463685e-01 8.83091231e-02 1.32463685e-01 1.32463685e-01 1.76618246e-01 8.83091231e-02 8.83091231e-02 1.32463685e-01 1.32463685e-01 3.09081931e-01 1.32463685e-01 1.76618246e-01 2.20772808e-01 2.20772808e-01 3.53236493e-01 4.41545616e-02 4.41545616e-02 3.53236493e-01 4.41545616e-02 1.76618246e-01 1.32463685e-01 4.41545616e-02 1.32463685e-01 2.20772808e-01 8.83091231e-02 8.83091231e-02 8.83091231e-02 4.41545616e-02 8.83091231e-02 1.76618246e-01 1.76618246e-01 2.20772808e-01 1.32463685e-01 1.32463685e-01 1.32463685e-01 2.20772808e-01 3.97391054e-01 3.09081931e-01 3.53236493e-01 3.09081931e-01 2.20772808e-01 8.83091231e-02 8.83091231e-02 3.97391054e-01 8.83091231e-02 2.20772808e-01 2.20772808e-01 8.83091231e-02 8.83091231e-02 2.20772808e-01 1.76618246e-01 1.76618246e-01 3.53236493e-01 2.20772808e-01 1.76618246e-01 8.83091231e-02 8.83091231e-02 1.76618246e-01 1.32463685e-01 2.64927369e-01 3.97391054e-01 2.20772808e-01 1.76618246e-01 3.97391054e-01 2.20772808e-01 2.64927369e-01 1.32463685e-01 5.29854739e-01 3.09081931e-01 1.76618246e-01 1.32463685e-01 3.97391054e-01 2.64927369e-01 8.83091231e-02 5.74009300e-01 3.09081931e-01 2.64927369e-01 4.41545616e-02 0.00000000e+00 3.97391054e-01 1.76618246e-01 2.64927369e-01 4.41545616e-01 4.41545616e-02 4.85700177e-01 1.76618246e-01 2.64927369e-01 3.53236493e-01 1.76618246e-01 2.64927369e-01 3.09081931e-01 1.32463685e-01 1.76618246e-01 3.09081931e-01 3.97391054e-01 4.85700177e-01 2.64927369e-01 4.85700177e-01 2.64927369e-01 3.09081931e-01 2.64927369e-01 5.29854739e-01 5.29854739e-01 3.97391054e-01 3.09081931e-01 3.09081931e-01 2.64927369e-01 1.32463685e-01 3.09081931e-01 3.09081931e-01 7.06472985e-01 2.64927369e-01 3.09081931e-01 2.64927369e-01 4.41545616e-01 3.09081931e-01 4.41545616e-01 4.41545616e-01 1.76618246e-01 2.64927369e-01 3.09081931e-01 3.97391054e-01 4.85700177e-01 3.97391054e-01 4.41545616e-01 4.85700177e-01 2.64927369e-01 2.20772808e-01 4.41545616e-01 2.64927369e-01 3.09081931e-01 4.85700177e-01 3.97391054e-01 2.64927369e-01 5.29854739e-01 4.41545616e-01 4.85700177e-01 2.64927369e-01 5.74009300e-01 4.41545616e-01 3.09081931e-01 5.74009300e-01 5.74009300e-01 5.29854739e-01 5.29854739e-01 2.20772808e-01 3.97391054e-01 3.97391054e-01 6.18163862e-01 5.29854739e-01 4.41545616e-01 1.32463685e-01 3.53236493e-01 7.06472985e-01 3.09081931e-01 5.29854739e-01 4.41545616e-01 3.97391054e-01 6.18163862e-01 4.85700177e-01 8.38936670e-01 2.20772808e-01 6.18163862e-01 3.09081931e-01 7.94782108e-01 3.09081931e-01 6.62318424e-01 3.97391054e-01 6.62318424e-01 3.97391054e-01 7.06472985e-01 4.41545616e-01 6.18163862e-01 6.18163862e-01 5.74009300e-01 4.41545616e-01 3.53236493e-01 4.85700177e-01 6.62318424e-01 4.41545616e-01 5.29854739e-01 7.06472985e-01 6.62318424e-01 4.85700177e-01 4.85700177e-01 2.64927369e-01 3.97391054e-01 3.97391054e-01 5.74009300e-01 5.29854739e-01 4.41545616e-01 5.74009300e-01 5.74009300e-01 3.53236493e-01 7.50627547e-01 5.74009300e-01 4.41545616e-01 3.97391054e-01 1.01555492e+00 8.38936670e-01 7.50627547e-01 4.41545616e-01 4.41545616e-01 7.06472985e-01 6.18163862e-01 4.85700177e-01 7.50627547e-01 5.74009300e-01 4.85700177e-01 9.27245793e-01 5.74009300e-01 3.97391054e-01 8.38936670e-01 5.29854739e-01 6.62318424e-01 7.06472985e-01 6.62318424e-01 3.97391054e-01 5.74009300e-01 3.97391054e-01 6.18163862e-01 6.18163862e-01 5.29854739e-01 4.41545616e-01 5.29854739e-01 1.01555492e+00 7.06472985e-01 9.71400354e-01 8.38936670e-01 4.85700177e-01 4.85700177e-01 7.06472985e-01 5.74009300e-01 6.18163862e-01 6.18163862e-01 5.29854739e-01 5.74009300e-01 4.85700177e-01 3.97391054e-01 4.85700177e-01 8.83091231e-01 8.38936670e-01 7.06472985e-01 6.18163862e-01 3.97391054e-01 7.94782108e-01 5.74009300e-01 2.64927369e-01 5.29854739e-01 5.74009300e-01 7.50627547e-01 5.29854739e-01 3.53236493e-01 6.18163862e-01 5.29854739e-01 6.18163862e-01 5.74009300e-01 6.62318424e-01 9.27245793e-01 8.38936670e-01 5.29854739e-01 4.85700177e-01 5.29854739e-01 7.50627547e-01 4.85700177e-01 9.71400354e-01 8.83091231e-01 4.85700177e-01 5.74009300e-01 5.29854739e-01 6.62318424e-01 6.18163862e-01 5.29854739e-01 7.94782108e-01 6.18163862e-01 8.38936670e-01 6.18163862e-01 4.41545616e-01 3.53236493e-01 9.71400354e-01 5.74009300e-01 7.94782108e-01 6.62318424e-01 5.29854739e-01 8.83091231e-01 5.74009300e-01 4.41545616e-01 1.14801860e+00 6.62318424e-01 4.41545616e-01 5.29854739e-01 5.74009300e-01 4.85700177e-01 7.06472985e-01 4.41545616e-01 4.41545616e-01 4.41545616e-01 4.85700177e-01 7.50627547e-01 7.50627547e-01 6.18163862e-01 6.62318424e-01 7.06472985e-01 1.10386404e+00 4.85700177e-01 7.06472985e-01 7.94782108e-01 4.41545616e-01 1.01555492e+00 5.74009300e-01 3.97391054e-01 1.10386404e+00 6.62318424e-01 4.85700177e-01 1.14801860e+00 6.62318424e-01 7.06472985e-01 6.62318424e-01 8.83091231e-01 6.62318424e-01 6.62318424e-01 6.18163862e-01 7.50627547e-01 9.71400354e-01 8.38936670e-01 6.18163862e-01 7.50627547e-01 4.41545616e-01 6.62318424e-01 8.83091231e-01 6.62318424e-01 6.62318424e-01 7.50627547e-01 6.18163862e-01 9.27245793e-01 8.83091231e-01 5.29854739e-01 9.71400354e-01 7.50627547e-01 6.18163862e-01 5.74009300e-01 6.18163862e-01 9.27245793e-01 7.06472985e-01 7.50627547e-01 3.53236493e-01 6.62318424e-01 8.38936670e-01 5.29854739e-01 8.83091231e-01 6.62318424e-01 8.38936670e-01 7.50627547e-01 4.41545616e-01 8.38936670e-01 7.06472985e-01 6.18163862e-01 5.74009300e-01 5.29854739e-01 4.85700177e-01 1.10386404e+00 8.38936670e-01 1.01555492e+00 6.62318424e-01 8.83091231e-01 9.27245793e-01 7.06472985e-01 9.27245793e-01 1.05970948e+00 6.18163862e-01 1.05970948e+00 7.94782108e-01 6.62318424e-01 4.85700177e-01 6.62318424e-01 5.74009300e-01 9.71400354e-01 7.50627547e-01 7.06472985e-01 8.38936670e-01 6.62318424e-01 3.97391054e-01 4.41545616e-01 9.71400354e-01 6.62318424e-01 7.94782108e-01 7.50627547e-01 9.27245793e-01 7.50627547e-01 9.27245793e-01 7.50627547e-01 7.06472985e-01 7.06472985e-01 7.06472985e-01 1.23632772e+00 7.94782108e-01 6.62318424e-01 7.94782108e-01 7.50627547e-01 6.18163862e-01 7.06472985e-01 8.38936670e-01 1.10386404e+00 7.50627547e-01 7.94782108e-01 6.18163862e-01 7.50627547e-01 7.94782108e-01 3.53236493e-01 6.62318424e-01 6.62318424e-01 5.74009300e-01 7.94782108e-01 9.27245793e-01 7.06472985e-01 1.10386404e+00 7.50627547e-01 1.19217316e+00 7.50627547e-01 4.85700177e-01 7.94782108e-01 9.27245793e-01 7.94782108e-01 5.74009300e-01 5.74009300e-01 6.18163862e-01 7.06472985e-01 1.10386404e+00 7.50627547e-01 7.50627547e-01 7.06472985e-01 6.18163862e-01 5.29854739e-01 7.50627547e-01 9.27245793e-01 9.27245793e-01 8.83091231e-01 7.50627547e-01 8.38936670e-01 7.94782108e-01 7.06472985e-01 9.27245793e-01 9.71400354e-01 1.10386404e+00 8.83091231e-01 7.50627547e-01 9.27245793e-01 7.94782108e-01 6.62318424e-01 8.38936670e-01 8.38936670e-01 6.18163862e-01 7.06472985e-01 5.74009300e-01 5.74009300e-01 1.23632772e+00 7.06472985e-01 6.18163862e-01 8.83091231e-01 8.83091231e-01 8.38936670e-01 8.83091231e-01 9.27245793e-01 7.94782108e-01 4.85700177e-01 6.62318424e-01 1.10386404e+00 8.83091231e-01 5.74009300e-01 7.94782108e-01 7.94782108e-01 4.85700177e-01 6.18163862e-01 7.94782108e-01 7.94782108e-01 1.01555492e+00 8.83091231e-01 9.27245793e-01 8.83091231e-01 7.50627547e-01 4.85700177e-01 8.38936670e-01 1.05970948e+00 1.05970948e+00 8.83091231e-01 9.71400354e-01 6.62318424e-01 8.38936670e-01 1.45710053e+00 9.27245793e-01 6.18163862e-01 6.18163862e-01 1.54540965e+00 7.50627547e-01 4.85700177e-01 5.74009300e-01 7.50627547e-01 8.38936670e-01 7.94782108e-01 6.62318424e-01 1.10386404e+00 9.27245793e-01 9.71400354e-01 8.38936670e-01 1.01555492e+00 8.38936670e-01 7.06472985e-01 9.27245793e-01 1.19217316e+00 6.18163862e-01 1.01555492e+00 1.01555492e+00 6.62318424e-01 1.14801860e+00 7.94782108e-01 7.50627547e-01 1.10386404e+00 1.05970948e+00 9.27245793e-01 7.06472985e-01 1.19217316e+00 1.01555492e+00 4.41545616e-01 7.06472985e-01 6.62318424e-01 9.71400354e-01 6.62318424e-01 7.50627547e-01 7.06472985e-01 7.94782108e-01 1.10386404e+00 6.62318424e-01 9.27245793e-01 8.38936670e-01 6.18163862e-01 1.32463685e+00 7.50627547e-01 7.94782108e-01 7.94782108e-01 6.62318424e-01 7.50627547e-01 7.94782108e-01 1.19217316e+00 1.10386404e+00 1.01555492e+00 9.71400354e-01 6.18163862e-01 1.28048229e+00 9.27245793e-01 1.28048229e+00 8.83091231e-01 9.71400354e-01 6.62318424e-01 9.27245793e-01 7.94782108e-01 7.06472985e-01 6.18163862e-01 7.50627547e-01 1.10386404e+00 7.50627547e-01 8.38936670e-01 5.74009300e-01 4.41545616e-01 7.06472985e-01 7.50627547e-01 8.83091231e-01 7.94782108e-01 8.83091231e-01 8.83091231e-01 9.71400354e-01 7.06472985e-01 8.38936670e-01 7.50627547e-01 7.50627547e-01 7.50627547e-01 8.83091231e-01 1.14801860e+00 7.50627547e-01 9.71400354e-01 1.05970948e+00 8.83091231e-01 9.71400354e-01 1.05970948e+00 7.94782108e-01 8.38936670e-01 7.50627547e-01 6.62318424e-01 6.62318424e-01 5.74009300e-01 6.62318424e-01 1.36879141e+00 7.94782108e-01 6.62318424e-01 9.27245793e-01 1.05970948e+00 8.83091231e-01 6.18163862e-01 5.29854739e-01 1.28048229e+00 8.38936670e-01 7.06472985e-01 7.50627547e-01 1.32463685e+00 1.01555492e+00 1.05970948e+00 4.41545616e-01 1.41294597e+00 5.74009300e-01 9.27245793e-01 8.83091231e-01 6.62318424e-01 9.27245793e-01 7.06472985e-01 1.28048229e+00 1.19217316e+00 6.62318424e-01 7.50627547e-01 1.10386404e+00 1.14801860e+00 7.94782108e-01 1.19217316e+00 6.18163862e-01 7.94782108e-01 8.38936670e-01 6.62318424e-01 9.71400354e-01 1.32463685e+00 8.38936670e-01 4.85700177e-01 1.10386404e+00 7.50627547e-01 5.74009300e-01 8.83091231e-01 6.62318424e-01 8.83091231e-01 9.27245793e-01 1.28048229e+00 8.38936670e-01 1.10386404e+00 6.62318424e-01 7.94782108e-01 8.83091231e-01 9.27245793e-01 1.23632772e+00 7.50627547e-01 7.50627547e-01 1.28048229e+00 1.01555492e+00 8.83091231e-01 1.01555492e+00 5.29854739e-01 7.50627547e-01 8.38936670e-01 8.38936670e-01 1.01555492e+00 1.14801860e+00 7.50627547e-01 1.01555492e+00 9.71400354e-01 1.05970948e+00 8.38936670e-01 5.74009300e-01 1.05970948e+00 1.05970948e+00 9.27245793e-01 1.28048229e+00 5.74009300e-01 1.36879141e+00 1.05970948e+00 1.05970948e+00 7.94782108e-01 9.71400354e-01 1.32463685e+00 1.14801860e+00 8.83091231e-01 9.27245793e-01 4.85700177e-01 9.27245793e-01 8.83091231e-01 1.05970948e+00 6.62318424e-01 9.71400354e-01 1.14801860e+00 1.05970948e+00 9.71400354e-01 1.36879141e+00 8.83091231e-01 1.28048229e+00 7.94782108e-01 1.23632772e+00 5.29854739e-01 7.50627547e-01 1.05970948e+00 9.71400354e-01 6.62318424e-01 8.83091231e-01 5.74009300e-01 1.14801860e+00 6.18163862e-01 7.94782108e-01 8.38936670e-01 9.27245793e-01 8.38936670e-01 1.01555492e+00 1.14801860e+00 1.23632772e+00 9.71400354e-01 9.71400354e-01 7.50627547e-01 9.27245793e-01 1.19217316e+00 7.50627547e-01 9.71400354e-01 6.62318424e-01 9.71400354e-01 1.10386404e+00 8.83091231e-01 1.01555492e+00 7.50627547e-01 7.06472985e-01 1.14801860e+00 9.71400354e-01 1.01555492e+00 1.05970948e+00 9.71400354e-01 1.23632772e+00 1.01555492e+00 7.06472985e-01 9.71400354e-01 1.10386404e+00 9.27245793e-01 6.62318424e-01 9.27245793e-01 9.71400354e-01 9.27245793e-01 1.14801860e+00 9.27245793e-01 7.06472985e-01 9.27245793e-01 9.71400354e-01 7.94782108e-01 1.32463685e+00 7.94782108e-01 1.01555492e+00 7.50627547e-01 6.62318424e-01 7.94782108e-01 7.06472985e-01 7.06472985e-01 1.19217316e+00 6.18163862e-01 1.01555492e+00 6.62318424e-01 7.94782108e-01 1.32463685e+00 8.38936670e-01 8.83091231e-01 4.85700177e-01 1.05970948e+00 1.01555492e+00 8.83091231e-01 9.27245793e-01 1.10386404e+00 8.38936670e-01 6.18163862e-01 7.94782108e-01 1.23632772e+00 1.23632772e+00 7.06472985e-01 9.71400354e-01 1.01555492e+00 1.36879141e+00 8.83091231e-01 8.83091231e-01 9.27245793e-01 1.01555492e+00 1.01555492e+00 1.14801860e+00 7.50627547e-01 9.71400354e-01 9.27245793e-01 1.01555492e+00 1.10386404e+00 7.50627547e-01 9.27245793e-01 8.83091231e-01 9.27245793e-01 1.36879141e+00 8.38936670e-01 8.83091231e-01 1.14801860e+00 9.71400354e-01 9.27245793e-01 4.85700177e-01 1.01555492e+00 6.62318424e-01 1.32463685e+00 7.50627547e-01 6.18163862e-01 1.05970948e+00 8.83091231e-01 6.62318424e-01 1.10386404e+00 8.83091231e-01 6.18163862e-01 8.38936670e-01 8.38936670e-01 1.05970948e+00 8.38936670e-01 8.83091231e-01 9.27245793e-01 9.27245793e-01 4.85700177e-01 1.28048229e+00 1.41294597e+00 7.94782108e-01 1.14801860e+00 8.83091231e-01 1.23632772e+00 1.32463685e+00 1.10386404e+00 9.71400354e-01 1.28048229e+00 7.50627547e-01 8.83091231e-01 9.71400354e-01 8.38936670e-01 7.06472985e-01 5.29854739e-01 1.19217316e+00 8.83091231e-01 9.27245793e-01 8.83091231e-01 9.71400354e-01 9.27245793e-01 6.62318424e-01 8.38936670e-01 1.14801860e+00 8.83091231e-01 7.94782108e-01 1.10386404e+00 7.94782108e-01 8.83091231e-01 1.01555492e+00 6.62318424e-01 8.83091231e-01 6.62318424e-01 9.27245793e-01 7.06472985e-01 1.50125509e+00 1.28048229e+00 5.29854739e-01 1.01555492e+00 7.06472985e-01 7.06472985e-01 8.38936670e-01 8.38936670e-01 1.01555492e+00 7.94782108e-01 8.83091231e-01 1.01555492e+00 6.62318424e-01 1.32463685e+00 7.94782108e-01 9.27245793e-01 9.71400354e-01 1.01555492e+00 7.50627547e-01 1.01555492e+00 6.62318424e-01 1.14801860e+00 6.18163862e-01 1.01555492e+00 1.01555492e+00 7.06472985e-01 1.05970948e+00 9.27245793e-01 1.01555492e+00 9.71400354e-01 7.94782108e-01 5.74009300e-01 9.27245793e-01 7.06472985e-01 1.01555492e+00 4.85700177e-01 1.28048229e+00 9.27245793e-01 9.71400354e-01 1.14801860e+00 1.01555492e+00 9.27245793e-01 7.94782108e-01 1.10386404e+00 9.27245793e-01 1.05970948e+00 6.62318424e-01 7.06472985e-01 6.62318424e-01 7.94782108e-01 7.94782108e-01 9.27245793e-01 7.50627547e-01 9.27245793e-01 6.62318424e-01 8.38936670e-01 1.05970948e+00 7.50627547e-01 8.38936670e-01 8.38936670e-01 1.19217316e+00 1.10386404e+00 9.71400354e-01 7.94782108e-01 1.01555492e+00 7.50627547e-01 7.94782108e-01 8.38936670e-01 5.29854739e-01 8.38936670e-01 1.01555492e+00 4.85700177e-01 8.38936670e-01 9.27245793e-01 1.01555492e+00 6.18163862e-01 9.71400354e-01 8.38936670e-01 7.50627547e-01 7.06472985e-01 1.05970948e+00 9.27245793e-01 1.10386404e+00 9.71400354e-01 8.83091231e-01 3.97391054e-01 4.85700177e-01 9.71400354e-01 6.62318424e-01 1.01555492e+00 7.50627547e-01 9.71400354e-01 7.94782108e-01 5.29854739e-01 9.27245793e-01 8.83091231e-01 1.23632772e+00 8.83091231e-01 3.53236493e-01 5.74009300e-01 9.71400354e-01 7.06472985e-01 4.85700177e-01 1.05970948e+00 9.71400354e-01 6.62318424e-01 1.05970948e+00 9.71400354e-01 8.83091231e-01 7.94782108e-01 6.62318424e-01 7.50627547e-01 8.83091231e-01 8.38936670e-01 8.83091231e-01 9.27245793e-01 6.18163862e-01 8.38936670e-01 7.50627547e-01 6.62318424e-01 7.06472985e-01 7.06472985e-01 8.38936670e-01 8.83091231e-01 7.94782108e-01 8.38936670e-01 9.27245793e-01 4.41545616e-01 6.62318424e-01 6.18163862e-01 7.94782108e-01 9.27245793e-01 1.01555492e+00 5.74009300e-01 3.53236493e-01 7.06472985e-01 8.38936670e-01 6.18163862e-01 8.83091231e-01 8.38936670e-01 6.18163862e-01 5.29854739e-01 6.62318424e-01 4.85700177e-01 5.74009300e-01 7.06472985e-01 8.83091231e-01 9.27245793e-01 4.85700177e-01 4.85700177e-01 7.94782108e-01 6.62318424e-01 3.97391054e-01 9.71400354e-01 9.71400354e-01 6.18163862e-01 6.62318424e-01 5.29854739e-01 6.62318424e-01 1.01555492e+00 6.62318424e-01 5.29854739e-01 8.38936670e-01 3.97391054e-01 3.09081931e-01 7.50627547e-01 6.18163862e-01 4.41545616e-01 8.83091231e-01 7.94782108e-01 4.85700177e-01 1.10386404e+00 9.71400354e-01 3.97391054e-01 9.27245793e-01 6.62318424e-01 4.41545616e-01 6.18163862e-01 5.74009300e-01 6.18163862e-01 5.29854739e-01 5.74009300e-01 7.06472985e-01 6.18163862e-01 8.83091231e-01 6.18163862e-01 7.94782108e-01 6.62318424e-01 6.62318424e-01 6.62318424e-01 6.62318424e-01 5.74009300e-01 7.50627547e-01 7.06472985e-01 5.29854739e-01 5.74009300e-01 3.53236493e-01 7.94782108e-01 4.85700177e-01 5.29854739e-01 3.97391054e-01 6.62318424e-01 6.18163862e-01 5.29854739e-01 6.18163862e-01 7.06472985e-01 7.06472985e-01 5.29854739e-01 3.09081931e-01 3.53236493e-01 5.29854739e-01 7.06472985e-01 7.94782108e-01 1.76618246e-01 4.41545616e-01 3.97391054e-01 5.29854739e-01 7.50627547e-01 2.20772808e-01 2.64927369e-01 7.06472985e-01 7.50627547e-01 4.85700177e-01 4.41545616e-01 4.85700177e-01 4.41545616e-01 4.41545616e-01 3.53236493e-01 2.20772808e-01 3.97391054e-01 3.53236493e-01 4.85700177e-01 7.50627547e-01 5.29854739e-01 3.53236493e-01 4.41545616e-01 3.97391054e-01 5.29854739e-01 6.62318424e-01 3.09081931e-01 4.41545616e-01 4.41545616e-01 5.74009300e-01 5.29854739e-01 4.85700177e-01 3.53236493e-01 2.64927369e-01 3.09081931e-01 3.53236493e-01 3.97391054e-01 5.74009300e-01 5.74009300e-01 2.64927369e-01 3.09081931e-01 3.53236493e-01 3.09081931e-01 3.09081931e-01 4.41545616e-01 4.85700177e-01 3.53236493e-01 3.53236493e-01 2.64927369e-01 3.53236493e-01 8.83091231e-02 3.97391054e-01 4.85700177e-01 1.32463685e-01 8.83091231e-02 2.20772808e-01 1.76618246e-01 3.09081931e-01 2.20772808e-01 1.76618246e-01 2.20772808e-01 1.32463685e-01 1.32463685e-01 3.09081931e-01 2.64927369e-01 2.20772808e-01 1.76618246e-01 2.20772808e-01 1.76618246e-01 3.09081931e-01 1.76618246e-01 3.53236493e-01 3.53236493e-01 1.76618246e-01 1.76618246e-01 1.32463685e-01 8.83091231e-02 1.32463685e-01 1.32463685e-01 8.83091231e-02 2.20772808e-01 2.64927369e-01 2.20772808e-01 4.41545616e-02 2.20772808e-01 3.09081931e-01 1.32463685e-01 1.76618246e-01 1.76618246e-01 4.41545616e-02 8.83091231e-02 8.83091231e-02 4.41545616e-02 1.32463685e-01 4.41545616e-02 2.20772808e-01 4.41545616e-02 1.32463685e-01 4.41545616e-02 8.83091231e-02 4.41545616e-02 8.83091231e-02 8.83091231e-02 0.00000000e+00 8.83091231e-02 8.83091231e-02 0.00000000e+00 0.00000000e+00 0.00000000e+00 0.00000000e+00 4.41545616e-02 0.00000000e+00 0.00000000e+00 4.41545616e-02 0.00000000e+00 0.00000000e+00 4.41545616e-02 0.00000000e+00 4.41545616e-02 0.00000000e+00 0.00000000e+00 0.00000000e+00 
      </Histogram>
    </PDF>
    <PDF Name="BDTG_PDFBkg" MinNSmooth="0" MaxNSmooth="0" InterpolMethod="2" KDE_type="1" KDE_iter="1" KDE_border="1" KDE_finefactor="1.0000000000000000e+00">
      <Histogram Name="BDT_tr_B_original" NBins="1406" XMin="-8.8078278303146362e-01" XMax="8.7112575769424438e-01" HasEquidistantBins="1">
        1.71283836e-02 0.00000000e+00 0.00000000e+00 0.00000000e+00 0.00000000e+00 0.00000000e+00 0.00000000e+00 0.00000000e+00 0.00000000e+00 0.00000000e+00 0.00000000e+00 0.00000000e+00 0.00000000e+00 1.71283836e-02 0.00000000e+00 1.71413237e-02 1.71413237e-02 0.00000000e+00 1.04345839e-02 1.04345839e-02 4.47481366e-02 0.00000000e+00 5.51622618e-02 1.71413237e-02 1.04345839e-02 2.07648220e-02 2.74148345e-02 1.21693669e-01 1.04345839e-02 3.43135527e-02 7.60518882e-02 7.23006574e-02 2.75759075e-02 4.46913512e-02 7.69430391e-02 0.00000000e+00 0.00000000e+00 8.73905630e-02 2.08691678e-02 4.47276779e-02 3.80104914e-02 7.22906454e-02 2.75863542e-02 3.13037516e-02 3.80104914e-02 5.51259350e-02 8.06838232e-02 1.27516777e-01 6.93246897e-02 2.74044940e-02 2.74247461e-02 8.94190290e-02 4.46913512e-02 6.84118464e-02 5.88796592e-02 1.04529393e-01 9.41048214e-02 1.17051287e-01 6.18456148e-02 1.25431960e-01 8.94858265e-02 1.74812031e-01 7.60314295e-02 7.59370958e-02 7.90203372e-02 5.87957722e-02 6.93347017e-02 7.60080428e-02 1.20025196e-01 6.56173043e-02 7.23006574e-02 1.04495560e-01 1.00524096e-01 1.53008302e-01 1.61298616e-01 9.99074703e-02 6.17050005e-02 1.17017889e-01 1.47614044e-01 1.48362558e-01 6.18894602e-02 5.51388750e-02 1.37780217e-01 2.73916816e-02 1.04345839e-02 5.88901059e-02 1.61740145e-01 7.23344908e-02 1.76876389e-01 1.17005383e-01 1.16921496e-01 1.17072181e-01 4.68024827e-02 1.76840063e-01 7.96649399e-02 2.55928067e-01 1.42559909e-01 1.41679205e-01 1.40702619e-01 1.70099924e-01 8.93956423e-02 1.20766191e-01 1.39583941e-01 1.72213984e-01 1.37780175e-01 1.10025378e-01 1.86403954e-01 3.92514241e-01 2.58847684e-01 2.43944743e-01 3.00444642e-01 1.51968960e-01 2.03851654e-01 2.58629624e-01 1.61786919e-01 3.81051655e-01 1.61756013e-01 1.90059976e-01 2.06345947e-01 2.79504520e-01 1.20789578e-01 2.45878546e-01 1.52039472e-01 1.92931762e-01 1.85564035e-01 1.03487123e-01 2.32595293e-01 2.24384410e-01 8.27381693e-02 2.09970290e-01 4.26014380e-01 1.72571928e-01 2.25204179e-01 4.02084718e-01 3.06023253e-01 2.69088266e-01 2.34023272e-01 2.34963533e-01 2.63296064e-01 2.89085636e-01 4.06455546e-01 2.75557464e-01 2.03445082e-01 4.17963277e-01 2.31711931e-01 4.31297010e-01 3.35092949e-01 1.65517256e-01 2.75423593e-01 3.93650587e-01 2.07242651e-01 2.75573433e-01 3.37408707e-01 3.49678625e-01 3.28681783e-01 3.41830430e-01 3.74715960e-01 2.75502796e-01 4.57209866e-01 2.10221982e-01 4.31481686e-01 3.42380705e-01 4.82754380e-01 3.11110787e-01 2.17679729e-01 3.42319443e-01 4.02808529e-01 3.59338004e-01 4.33486172e-01 3.46101465e-01 4.00659166e-01 3.45243537e-01 3.78543686e-01 3.56157151e-01 4.93456411e-01 4.33598473e-01 3.30814060e-01 3.71928735e-01 4.50690132e-01 2.93011081e-01 3.35536221e-01 5.82107595e-01 3.69679476e-01 3.68163065e-01 5.19094125e-01 5.10715684e-01 5.25664216e-01 4.16142506e-01 6.27322895e-01 3.37658586e-01 5.86115427e-01 5.51845348e-01 6.88776263e-01 5.20862480e-01 4.09905827e-01 5.82323172e-01 3.65329992e-01 4.68362493e-01 4.96890721e-01 4.45057202e-01 3.76131614e-01 5.00128928e-01 4.56409686e-01 7.21392094e-01 6.17304491e-01 5.59881736e-01 4.89402075e-01 4.86582736e-01 4.52385418e-01 7.99475507e-01 6.65790379e-01 6.16458715e-01 6.42548657e-01 5.59989803e-01 4.81722866e-01 4.13000546e-01 4.69575654e-01 5.74395876e-01 4.96862990e-01 8.10931337e-01 4.90641084e-01 4.57700879e-01 9.20220480e-01 6.21373293e-01 5.21548748e-01 6.58957907e-01 8.10575810e-01 5.87690038e-01 6.42804807e-01 9.39167857e-01 5.19242714e-01 5.52285470e-01 6.09424567e-01 5.70325872e-01 8.37882013e-01 7.46905192e-01 8.16734683e-01 8.33645022e-01 3.83351731e-01 9.27434295e-01 6.38260549e-01 8.12499226e-01 8.46865809e-01 1.11009262e+00 6.22804859e-01 7.43336497e-01 8.18164935e-01 5.55203933e-01 6.55780780e-01 6.56484370e-01 7.26340773e-01 8.28544377e-01 7.77938554e-01 5.85572418e-01 8.39677530e-01 9.53971612e-01 7.37798763e-01 9.80097987e-01 9.07786439e-01 9.31598738e-01 7.28935917e-01 7.35395103e-01 1.01984647e+00 8.58246356e-01 7.66399801e-01 7.34366412e-01 7.28837632e-01 8.17603357e-01 8.07155666e-01 9.19677459e-01 7.02311413e-01 7.19629484e-01 7.98449791e-01 9.47888205e-01 8.21516405e-01 8.99053311e-01 7.00152679e-01 6.75683320e-01 5.97495607e-01 1.01959758e+00 8.71613247e-01 7.20795186e-01 9.15911470e-01 7.67305242e-01 1.12011039e+00 1.11077732e+00 7.03335509e-01 8.56386051e-01 7.11476875e-01 8.51034584e-01 8.47606768e-01 8.61093455e-01 8.60383596e-01 9.62887016e-01 9.01927171e-01 8.88376824e-01 9.32910996e-01 9.75487617e-01 9.88519770e-01 1.17334933e+00 9.30923361e-01 1.08215121e+00 8.67814853e-01 1.36793131e+00 1.04826635e+00 9.11093612e-01 1.01339777e+00 9.64103957e-01 1.10529546e+00 9.13035312e-01 1.03746260e+00 9.03603591e-01 1.03483950e+00 9.59447870e-01 8.93845082e-01 1.00451158e+00 1.05526768e+00 1.13038887e+00 1.19504350e+00 1.18577225e+00 1.05077078e+00 9.61483760e-01 9.93075303e-01 1.00751503e+00 1.17273871e+00 1.14087006e+00 1.06736837e+00 1.13104069e+00 1.24072413e+00 1.09886257e+00 8.15223504e-01 1.01970384e+00 1.02832860e+00 1.03085510e+00 1.11057639e+00 8.88631390e-01 1.19329625e+00 1.04748875e+00 9.40328396e-01 9.67503827e-01 1.20226870e+00 1.17393663e+00 1.05756756e+00 1.18729888e+00 1.24484641e+00 1.52992974e+00 9.99744731e-01 1.11656004e+00 1.15285898e+00 1.27256862e+00 1.39024723e+00 9.20251183e-01 1.03797593e+00 1.15463378e+00 1.02115953e+00 1.25308254e+00 1.30087165e+00 1.17601387e+00 9.89252422e-01 8.71473277e-01 1.37112807e+00 1.38457484e+00 1.06924861e+00 1.06810156e+00 1.09866257e+00 1.40197845e+00 1.18902930e+00 1.45551268e+00 9.50167208e-01 1.29498647e+00 1.11900787e+00 1.30302612e+00 1.11670494e+00 1.08243410e+00 1.08788879e+00 8.97184555e-01 1.13021765e+00 1.24935680e+00 1.05496864e+00 1.26648510e+00 1.25455574e+00 1.31711069e+00 9.14187154e-01 1.28698839e+00 1.04835972e+00 1.06911569e+00 1.28086006e+00 1.10885577e+00 1.24618341e+00 1.25433788e+00 1.19702025e+00 1.15200759e+00 1.52657799e+00 1.18090273e+00 1.16388138e+00 1.59394323e+00 1.02972300e+00 1.08885439e+00 1.18339400e+00 1.01732225e+00 1.17673876e+00 1.28795936e+00 1.69012877e+00 1.26075743e+00 1.24017754e+00 1.00752833e+00 1.21593009e+00 1.26759628e+00 1.04464980e+00 1.08344620e+00 1.38064557e+00 1.05648943e+00 1.31925734e+00 1.15493164e+00 1.20449848e+00 1.59407215e+00 9.36422418e-01 1.16038126e+00 1.28092184e+00 1.27417361e+00 1.19190670e+00 1.23943588e+00 1.53255165e+00 1.18338264e+00 1.38179584e+00 1.35069701e+00 9.65268341e-01 1.37703529e+00 1.10397991e+00 1.12829998e+00 1.04837737e+00 1.13189260e+00 1.56006424e+00 1.14286667e+00 1.36309947e+00 1.15185822e+00 1.21391287e+00 1.10621385e+00 1.26599803e+00 1.37137063e+00 1.46746317e+00 8.86602925e-01 1.24963870e+00 1.08101631e+00 1.26278333e+00 9.21141345e-01 1.04592840e+00 1.37850607e+00 1.31355860e+00 9.91247863e-01 1.20492475e+00 1.32154887e+00 1.29660323e+00 1.35391328e+00 1.27375305e+00 1.35053062e+00 1.03211046e+00 1.06183986e+00 1.23308618e+00 1.19989237e+00 1.46276119e+00 1.29119610e+00 1.32247741e+00 1.46106026e+00 1.26389221e+00 9.96046563e-01 1.03820933e+00 1.26573860e+00 1.30207482e+00 1.33478101e+00 1.05186316e+00 1.03629512e+00 1.17825103e+00 1.16203716e+00 1.53683665e+00 1.17784660e+00 1.34397796e+00 1.32339891e+00 1.24439528e+00 1.57870487e+00 1.25340304e+00 9.67756742e-01 1.09774650e+00 1.15709762e+00 1.38345185e+00 8.78300488e-01 1.00066279e+00 1.43732173e+00 1.03143419e+00 1.38818757e+00 1.20692239e+00 1.17836923e+00 1.30694228e+00 9.38680018e-01 1.27710867e+00 1.31480199e+00 1.30462987e+00 1.08135166e+00 1.15582222e+00 1.11105796e+00 1.51826646e+00 1.01109871e+00 1.14612241e+00 1.08725485e+00 1.21185635e+00 1.22492206e+00 1.05212948e+00 1.00270425e+00 1.33083041e+00 1.03563842e+00 1.35697647e+00 1.43455894e+00 1.37650868e+00 1.25323092e+00 1.14857106e+00 1.05602436e+00 1.25546412e+00 1.06354373e+00 1.19633145e+00 1.15189258e+00 9.66651145e-01 1.48568038e+00 1.08079610e+00 1.25558725e+00 7.74016995e-01 1.08317191e+00 1.07341104e+00 1.02447272e+00 1.19165892e+00 1.11064065e+00 1.43985667e+00 1.25636859e+00 1.07275521e+00 1.17892204e+00 1.14128748e+00 1.42718275e+00 9.80786182e-01 9.34571696e-01 1.16219902e+00 1.12581308e+00 1.16692415e+00 1.30381710e+00 9.94907058e-01 1.12939728e+00 1.22282001e+00 1.04867752e+00 1.03982428e+00 1.11843774e+00 1.22382558e+00 1.38676995e+00 9.15213207e-01 9.84621517e-01 1.09479453e+00 1.17394650e+00 9.73486486e-01 9.75024295e-01 9.78017974e-01 1.03270387e+00 9.54016700e-01 1.32087369e+00 1.10679770e+00 1.13787109e+00 1.01128645e+00 1.13260013e+00 1.08439071e+00 9.43219952e-01 1.12015124e+00 8.87975899e-01 1.39232955e+00 1.25976230e+00 1.02961775e+00 1.02382809e+00 7.63175429e-01 1.06973675e+00 8.22607548e-01 7.34174300e-01 1.19600489e+00 9.43485347e-01 1.23577419e+00 1.23566020e+00 1.03655947e+00 1.13613318e+00 1.33712239e+00 1.23227971e+00 1.09988165e+00 1.30436879e+00 9.94622622e-01 1.14275733e+00 1.28554257e+00 9.80276527e-01 1.24688661e+00 8.36156278e-01 9.18823310e-01 1.14970422e+00 1.10861448e+00 1.11202825e+00 9.74081432e-01 1.26354809e+00 1.05833300e+00 1.01047541e+00 1.05137602e+00 1.28262147e+00 1.00019197e+00 7.64676891e-01 9.57033939e-01 1.10251439e+00 8.79157809e-01 8.79252419e-01 8.74312770e-01 1.02383387e+00 9.47699921e-01 1.07965819e+00 7.89591309e-01 8.39037348e-01 1.00646254e+00 8.20060924e-01 9.18894257e-01 9.72897784e-01 1.00193571e+00 9.08767977e-01 8.19461658e-01 7.61223954e-01 1.01969014e+00 9.87738672e-01 9.33517739e-01 8.04497032e-01 1.06081370e+00 1.03919525e+00 1.10596341e+00 9.96985325e-01 1.08543355e+00 1.22009329e+00 9.65147492e-01 8.02752673e-01 1.03685279e+00 9.68739444e-01 1.12228921e+00 7.84347147e-01 1.07595527e+00 1.02246191e+00 9.66046296e-01 9.73038363e-01 1.10912435e+00 1.01886778e+00 1.23209979e+00 9.69683193e-01 7.85909173e-01 9.21393920e-01 8.88630739e-01 1.18705557e+00 8.57606371e-01 8.27469836e-01 9.10200295e-01 1.00832973e+00 1.04369302e+00 9.04100978e-01 8.76389703e-01 1.00938618e+00 9.94722246e-01 9.28050836e-01 1.04023636e+00 9.36880920e-01 9.03102341e-01 1.01316347e+00 1.15278752e+00 1.09295207e+00 7.96240875e-01 9.68386243e-01 7.86725921e-01 7.84234970e-01 7.56472329e-01 1.06171186e+00 1.37593484e+00 7.10677437e-01 7.06118377e-01 8.75710982e-01 9.61993737e-01 9.38729606e-01 1.05724717e+00 7.20390164e-01 9.12523824e-01 8.17238535e-01 7.36221635e-01 9.53497543e-01 1.07026533e+00 1.00998747e+00 9.37485602e-01 7.11728435e-01 7.95268566e-01 1.02610784e+00 8.38975685e-01 7.36723097e-01 1.08322252e+00 1.13756324e+00 7.22757389e-01 1.02941885e+00 7.73770609e-01 9.18034495e-01 1.10540985e+00 9.57586135e-01 8.91702483e-01 1.01672074e+00 8.93707571e-01 8.27241580e-01 1.09015887e+00 8.58217703e-01 1.02803140e+00 9.27563534e-01 1.05298491e+00 1.11440184e+00 9.30514151e-01 8.40389242e-01 6.33210398e-01 9.51321644e-01 7.43223146e-01 9.72544289e-01 8.53662678e-01 6.53904527e-01 7.46729739e-01 9.87000901e-01 6.16842042e-01 6.29242585e-01 7.45439078e-01 8.91796599e-01 7.46959746e-01 9.49854008e-01 8.53492376e-01 7.81299011e-01 8.53136302e-01 8.22740074e-01 7.06352249e-01 8.70127425e-01 9.69141667e-01 8.24831350e-01 6.68144614e-01 7.54092884e-01 7.95990210e-01 9.26916693e-01 1.00416359e+00 9.39232183e-01 8.28453509e-01 7.47990776e-01 7.98638930e-01 8.06173372e-01 9.65348204e-01 7.19805254e-01 7.50992030e-01 6.71843032e-01 1.02246841e+00 8.47336369e-01 8.51686011e-01 5.78952199e-01 7.40121643e-01 7.59761668e-01 7.44752230e-01 6.31208000e-01 7.78565392e-01 8.63312080e-01 7.83513594e-01 6.97322653e-01 9.66981812e-01 7.38099155e-01 9.08473514e-01 7.21678034e-01 7.82452134e-01 6.32940485e-01 6.93037573e-01 7.81475506e-01 7.78921848e-01 6.01434407e-01 8.68987228e-01 9.38158494e-01 7.85991936e-01 5.64479702e-01 5.43897752e-01 7.13617877e-01 6.81757272e-01 8.61420188e-01 5.88434815e-01 6.62369089e-01 6.88573534e-01 6.80548817e-01 8.21363286e-01 7.09019478e-01 8.03875762e-01 5.80825572e-01 9.06971531e-01 7.26478846e-01 5.98627309e-01 5.72424933e-01 7.92097555e-01 8.10575588e-01 5.44067162e-01 5.76480318e-01 7.49310153e-01 6.20066874e-01 6.94220339e-01 6.56109393e-01 4.72496235e-01 9.36760215e-01 5.22845488e-01 6.92331650e-01 5.76713670e-01 6.54844986e-01 6.68564731e-01 5.97350449e-01 5.79222744e-01 7.50741824e-01 5.35253024e-01 7.72369783e-01 4.82081404e-01 7.31211132e-01 7.06969309e-01 6.72412754e-01 5.38922150e-01 5.99609036e-01 7.73731102e-01 6.16233754e-01 6.25332959e-01 7.55463363e-01 4.66783770e-01 7.12848326e-01 6.47043231e-01 5.74812374e-01 5.86892419e-01 8.88935145e-01 7.20610612e-01 7.05538915e-01 6.78241818e-01 9.28529973e-01 4.70218327e-01 6.84957901e-01 6.89098678e-01 7.11785088e-01 6.38712259e-01 9.27825533e-01 4.85594658e-01 7.61024885e-01 5.86062738e-01 5.23469616e-01 6.12894379e-01 7.15604719e-01 6.36130269e-01 6.08406221e-01 5.41089725e-01 7.55621161e-01 5.46575044e-01 7.09325446e-01 6.17254789e-01 4.92234148e-01 6.77655457e-01 6.47199247e-01 7.54541334e-01 4.40033214e-01 6.09293184e-01 6.87580397e-01 6.13859432e-01 6.78529077e-01 8.44536389e-01 6.35762755e-01 6.28895598e-01 7.13811736e-01 5.14426078e-01 7.36644699e-01 5.97422923e-01 4.68149126e-01 7.29473422e-01 5.89073257e-01 6.56764584e-01 5.43329483e-01 4.92555829e-01 3.05754265e-01 5.85306941e-01 5.64236668e-01 5.76301124e-01 5.37901485e-01 7.66153414e-01 5.13040117e-01 4.82682904e-01 4.79892953e-01 5.07533164e-01 8.77019305e-01 5.45394127e-01 4.88818967e-01 6.74657517e-01 8.00368109e-01 5.30779095e-01 6.04286613e-01 5.68848753e-01 6.23494035e-01 4.46305779e-01 5.71160087e-01 5.57993583e-01 5.21001810e-01 5.16052764e-01 5.50040297e-01 5.52369577e-01 3.65322619e-01 3.68127937e-01 5.93270110e-01 5.15025817e-01 5.28927861e-01 5.15157679e-01 5.60209001e-01 4.94142637e-01 6.42161337e-01 4.99984181e-01 4.69939701e-01 5.37126908e-01 5.56005363e-01 7.49067756e-01 5.32743495e-01 5.17108525e-01 5.78904322e-01 6.10894465e-01 4.51455489e-01 6.17677664e-01 4.04917003e-01 5.16323575e-01 5.21699954e-01 5.44600706e-01 5.43318695e-01 4.55738096e-01 6.01879635e-01 3.91355490e-01 5.89179648e-01 6.00566550e-01 4.76324098e-01 2.91734644e-01 5.43427694e-01 4.34009072e-01 4.91282237e-01 3.06651606e-01 4.74820038e-01 4.57330263e-01 5.13376673e-01 3.92107949e-01 3.40231227e-01 4.49481625e-01 4.69680000e-01 4.04821222e-01 4.35361422e-01 7.54133552e-01 4.34231854e-01 5.73229060e-01 3.65817143e-01 4.98080077e-01 5.75142406e-01 3.37221447e-01 3.92212602e-01 5.64811769e-01 7.09105524e-01 5.42670694e-01 2.68312577e-01 3.54856695e-01 5.02606050e-01 4.10746794e-01 4.19837177e-01 5.03962939e-01 6.99965580e-01 5.84197763e-01 4.27524843e-01 3.58944260e-01 3.66730814e-01 3.89929234e-01 3.26791003e-01 4.00099134e-01 2.69108725e-01 2.65212666e-01 3.87396705e-01 3.01380872e-01 4.29611958e-01 5.28706345e-01 5.41594113e-01 3.33779681e-01 5.92072264e-01 4.25709185e-01 3.52368515e-01 4.45949222e-01 2.75362357e-01 2.90801025e-01 5.01816109e-01 3.93013741e-01 3.76867553e-01 4.86525434e-01 2.64696237e-01 3.61416548e-01 3.67592125e-01 4.03808629e-01 4.53414761e-01 2.20622732e-01 3.54713964e-01 6.14217490e-01 4.61946622e-01 4.04914768e-01 2.82364060e-01 3.33944117e-01 1.86340085e-01 2.55596321e-01 6.46556882e-01 4.38359669e-01 4.26634170e-01 5.75346274e-01 5.22652723e-01 2.99431450e-01 3.24977678e-01 3.66151959e-01 4.60867550e-01 2.74788592e-01 4.81864016e-01 2.93662635e-01 4.09277044e-01 2.27711149e-01 6.12873890e-01 4.71070549e-01 3.51655734e-01 2.30616276e-01 4.97457521e-01 4.64376679e-01 3.86011515e-01 4.17330610e-01 3.11419041e-01 4.33700708e-01 1.62300277e-01 3.09776576e-01 3.48286302e-01 4.78529112e-01 4.32207538e-01 1.69178303e-01 2.52785622e-01 4.20931474e-01 2.85536596e-01 3.74528270e-01 3.36633672e-01 1.34898149e-01 5.04046774e-01 3.81493573e-01 2.97836563e-01 4.36018600e-01 3.27129833e-01 4.15320585e-01 2.03445082e-01 2.76507225e-01 3.16385578e-01 2.08177648e-01 3.26763659e-01 2.83217662e-01 2.38415133e-01 2.75392077e-01 4.42073187e-01 2.16889902e-01 3.38432886e-01 2.32642336e-01 3.56099728e-01 2.62081429e-01 1.58753731e-01 2.73646284e-01 3.37459865e-01 3.21847110e-01 3.16785263e-01 5.28997289e-01 2.92228733e-01 3.86406743e-01 2.10489852e-01 3.03927990e-01 3.76568182e-01 4.10917627e-01 3.36758476e-01 2.54563492e-01 2.10083368e-01 2.51159609e-01 1.85463696e-01 3.86645841e-01 3.21178786e-01 3.30432879e-01 3.62749065e-01 1.78958713e-01 1.92872754e-01 3.17691256e-01 2.41364332e-01 1.45251339e-01 1.79508498e-01 3.16658716e-01 1.86268703e-01 2.66113993e-01 2.06157981e-01 3.63169701e-01 2.33697897e-01 2.25328983e-01 1.89886069e-01 2.37503462e-01 2.48844630e-01 1.61758506e-01 1.65369123e-01 6.55968456e-02 2.10209042e-01 2.44226939e-01 3.58128941e-01 2.58286788e-01 2.07201734e-01 2.54604467e-01 3.17346765e-01 2.79216620e-01 2.46759813e-01 2.57991990e-01 1.54865047e-01 2.09909355e-01 3.29643118e-01 2.61468167e-01 2.48219099e-01 2.20563019e-01 3.22184936e-01 3.67612692e-01 3.69849774e-01 2.61458507e-01 1.93015919e-01 2.18380153e-01 1.65036171e-01 3.44236807e-01 1.20587588e-01 1.61359834e-01 3.76140881e-01 3.45431424e-01 2.89029720e-01 2.24074176e-01 1.61730133e-01 2.34151445e-01 2.76348319e-01 2.71034063e-01 1.82487002e-01 2.13016801e-01 1.48110455e-01 2.54889512e-01 6.75539300e-02 1.65463399e-01 7.90512426e-02 1.65473845e-01 1.75941393e-01 1.41454061e-01 1.55056792e-01 2.29018838e-01 1.45248846e-01 1.68094301e-01 1.65195158e-01 1.82601794e-01 1.37897503e-01 1.78756722e-01 1.82645640e-01 1.38427313e-01 1.83236385e-01 1.58545039e-01 2.20573466e-01 1.86339650e-01 1.58595051e-01 1.78787135e-01 2.49700518e-01 1.21116412e-01 1.99521651e-01 2.65717941e-01 1.92978806e-01 1.52036544e-01 1.54944928e-01 9.99103983e-02 2.95027869e-01 1.71957104e-01 2.43250028e-01 1.20745733e-01 1.13978493e-01 2.02780462e-01 2.67659886e-01 1.68925623e-01 2.60401478e-01 1.34200564e-01 8.93814808e-02 1.62356770e-01 2.62414020e-01 3.26700384e-01 1.61625310e-01 1.87162782e-01 2.31017275e-01 1.84298679e-01 2.14255767e-01 1.96649430e-01 1.13878154e-01 1.23594360e-01 1.92921750e-01 1.82501607e-01 2.00270435e-01 1.14973989e-01 2.28511904e-01 8.26438356e-02 2.47068843e-01 2.23210768e-01 1.49206583e-01 1.21563443e-01 4.45662763e-02 1.79604933e-01 2.18510379e-01 5.51827205e-02 2.81406217e-01 1.41433603e-01 1.13708899e-01 7.23445028e-02 1.68340046e-01 1.02850474e-01 1.04345839e-02 1.20699394e-01 1.24392618e-01 6.56072923e-02 9.40948094e-02 2.03514807e-01 1.61417698e-01 9.31493665e-02 2.52716275e-01 8.25974969e-02 4.45531297e-02 1.37746442e-01 7.23135974e-02 6.55839056e-02 1.44476240e-01 1.23712123e-01 1.21487162e-01 2.06464108e-01 2.74568383e-01 2.04470262e-01 1.03604844e-01 1.59704595e-01 7.20959369e-02 6.55734589e-02 9.77078611e-02 8.64864721e-02 1.64320662e-01 1.10308655e-01 9.28607590e-02 1.17048794e-01 9.78122068e-02 6.55968456e-02 1.04529393e-01 7.90516773e-02 7.22297104e-02 1.03302382e-02 4.47247499e-02 8.94628744e-02 6.18326748e-02 1.44678559e-01 4.84321353e-02 9.00790651e-02 8.25741682e-02 9.96950332e-02 7.90178439e-02 1.28441761e-01 1.55092684e-01 1.44409877e-01 1.47895583e-01 9.30654794e-02 1.06570365e-01 2.74715618e-02 1.06627150e-01 7.90049039e-02 3.80209381e-02 1.14997376e-01 3.79975514e-02 1.10153110e-01 7.23135974e-02 1.11987575e-01 1.08142445e-01 1.04506007e-01 5.51827205e-02 2.74586218e-02 1.20746167e-01 1.04345839e-02 1.13344771e-01 5.14548764e-02 5.51722738e-02 3.11994059e-02 6.85598733e-02 4.45766169e-02 2.74920205e-02 6.55734589e-02 5.51493217e-02 1.04345839e-02 3.13037516e-02 3.80104914e-02 5.12397451e-02 4.17383355e-02 7.23140321e-02 9.31598131e-02 2.75759075e-02 1.25431960e-01 2.75963662e-02 3.43031060e-02 3.80309501e-02 2.75629675e-02 1.04539405e-01 2.75863542e-02 6.54556962e-02 4.17383355e-02 5.51259350e-02 7.21193595e-02 7.90407959e-02 6.17751025e-02 3.79165924e-02 4.84655340e-02 9.78251468e-02 2.75863542e-02 4.46913512e-02 2.08691678e-02 0.00000000e+00 4.45434520e-02 1.04531887e-01 8.55608165e-02 2.75963662e-02 4.84450753e-02 4.47481366e-02 1.02631703e-02 1.04345839e-02 2.08691678e-02 3.79061457e-02 0.00000000e+00 1.04345839e-02 0.00000000e+00 1.69802506e-02 3.79061457e-02 0.00000000e+00 2.08691678e-02 0.00000000e+00 2.75963662e-02 3.80104914e-02 1.04345839e-02 1.71517703e-02 5.98146554e-02 2.75629675e-02 2.74920205e-02 2.08691678e-02 3.78494184e-02 0.00000000e+00 1.71283836e-02 0.00000000e+00 0.00000000e+00 9.41077494e-02 1.71617824e-02 0.00000000e+00 5.98146554e-02 2.75629675e-02 1.71413237e-02 0.00000000e+00 1.71617824e-02 1.71517703e-02 0.00000000e+00 2.75629675e-02 0.00000000e+00 1.04345839e-02 0.00000000e+00 1.71283836e-02 3.42697073e-02 2.08691678e-02 0.00000000e+00 0.00000000e+00 1.71413237e-02 0.00000000e+00 1.71283836e-02 0.00000000e+00 1.04345839e-02 0.00000000e+00 1.04345839e-02 0.00000000e+00 0.00000000e+00 0.00000000e+00 3.42801540e-02 0.00000000e+00 0.00000000e+00 0.00000000e+00 0.00000000e+00 0.00000000e+00 0.00000000e+00 0.00000000e+00 0.00000000e+00 0.00000000e+00 0.00000000e+00 1.04345839e-02 0.00000000e+00 0.00000000e+00 0.00000000e+00 1.04345839e-02 0.00000000e+00 0.00000000e+00 0.00000000e+00 0.00000000e+00 0.00000000e+00 0.00000000e+00 0.00000000e+00 0.00000000e+00 0.00000000e+00 0.00000000e+00 0.00000000e+00 0.00000000e+00 0.00000000e+00 0.00000000e+00 0.00000000e+00 0.00000000e+00 0.00000000e+00 0.00000000e+00 0.00000000e+00 0.00000000e+00 0.00000000e+00 0.00000000e+00 
      </Histogram>
    </PDF>
  </MVAPdfs>
  <Weights NTrees="200" AnalysisType="1">
    <BinaryTree type="DecisionTree" boostWeight="1.0000000000000000e+00" itree="0">
      <Node pos="s" depth="0" NCoef="0" IVar="4" Cut="1.6591935157775879e+00" cType="1" res="0.0000000000000000e+00" rms="3.1247034668922424e-01" purity="4.9952986836433411e-01" nType="0">
        <Node pos="l" depth="1" NCoef="0" IVar="8" Cut="-1.0000000000000000e+00" cType="1" res="-1.1936055868864059e-01" rms="4.7645553946495056e-01" purity="3.7767472863197327e-01" nType="0">
          <Node pos="l" depth="2" NCoef="0" IVar="4" Cut="1.1734175682067871e+00" cType="1" res="-1.8929733335971832e-01" rms="-nan" purity="3.1037613749504089e-01" nType="0">
            <Node pos="l" depth="3" NCoef="0" IVar="-1" Cut="0.0000000000000000e+00" cType="1" res="-3.6903202533721924e-02" rms="4.4981145858764648e-01" purity="2.8166621923446655e-01" nType="-99"/>
            <Node pos="r" depth="3" NCoef="0" IVar="-1" Cut="0.0000000000000000e+00" cType="1" res="-1.5318498015403748e-02" rms="4.8989525437355042e-01" purity="3.9998683333396912e-01" nType="-99"/>
          </Node>
          <Node pos="r" depth="2" NCoef="0" IVar="3" Cut="1.4746406078338623e+00" cType="1" res="6.6684490442276001e-01" rms="2.9517832398414612e-01" purity="4.3261411786079407e-01" nType="0">
            <Node pos="l" depth="3" NCoef="0" IVar="-1" Cut="0.0000000000000000e+00" cType="1" res="-1.9924819469451904e-02" rms="4.8373469710350037e-01" purity="3.7350594997406006e-01" nType="-99"/>
            <Node pos="r" depth="3" NCoef="0" IVar="-1" Cut="0.0000000000000000e+00" cType="1" res="-4.9156876048073173e-04" rms="4.9998772144317627e-01" purity="4.9649780988693237e-01" nType="-99"/>
          </Node>
        </Node>
        <Node pos="r" depth="1" NCoef="0" IVar="2" Cut="2.0604743957519531e+00" cType="1" res="6.0718727111816406e-01" rms="9.2661522328853607e-02" purity="6.1667370796203613e-01" nType="0">
          <Node pos="l" depth="2" NCoef="0" IVar="-1" Cut="0.0000000000000000e+00" cType="1" res="-1.7001044005155563e-02" rms="4.8696073889732361e-01" purity="3.8655737042427063e-01" nType="-99"/>
          <Node pos="r" depth="2" NCoef="0" IVar="10" Cut="3.6562545776367188e+01" cType="1" res="6.4021044969558716e-01" rms="-nan" purity="6.4279121160507202e-01" nType="0">
            <Node pos="l" depth="3" NCoef="0" IVar="-1" Cut="0.0000000000000000e+00" cType="1" res="7.1129570715129375e-03" rms="4.9724742770195007e-01" purity="5.5239272117614746e-01" nType="-99"/>
            <Node pos="r" depth="3" NCoef="0" IVar="-1" Cut="0.0000000000000000e+00" cType="1" res="2.6583584025502205e-02" rms="4.5017716288566589e-01" purity="7.1757882833480835e-01" nType="-99"/>
          </Node>
        </Node>
      </Node>
    </BinaryTree>
    <BinaryTree type="DecisionTree" boostWeight="1.0000000000000000e+00" itree="1">
      <Node pos="s" depth="0" NCoef="0" IVar="4" Cut="1.4932787418365479e+00" cType="1" res="-3.6426845937967300e-02" rms="3.1033983826637268e-01" purity="4.9952986836433411e-01" nType="0">
        <Node pos="l" depth="1" NCoef="0" IVar="8" Cut="-1.0000000000000000e+00" cType="1" res="-1.1902886629104614e-01" rms="4.7278311848640442e-01" purity="3.6735796928405762e-01" nType="0">
          <Node pos="l" depth="2" NCoef="0" IVar="3" Cut="1.8479747772216797e+00" cType="1" res="1.0458257198333740e+00" rms="-nan" purity="3.0152231454849243e-01" nType="0">
            <Node pos="l" depth="3" NCoef="0" IVar="-1" Cut="0.0000000000000000e+00" cType="1" res="-3.6669537425041199e-02" rms="4.4392508268356323e-01" purity="2.7015501260757446e-01" nType="-99"/>
            <Node pos="r" depth="3" NCoef="0" IVar="-1" Cut="0.0000000000000000e+00" cType="1" res="-1.7879910767078400e-02" rms="4.8221647739410400e-01" purity="3.6993595957756042e-01" nType="-99"/>
          </Node>
          <Node pos="r" depth="2" NCoef="0" IVar="3" Cut="1.4746406078338623e+00" cType="1" res="4.2065435647964478e-01" rms="6.3368970155715942e-01" purity="4.2143458127975464e-01" nType="0">
            <Node pos="l" depth="3" NCoef="0" IVar="-1" Cut="0.0000000000000000e+00" cType="1" res="-1.9027812406420708e-02" rms="4.8274081945419312e-01" purity="3.6976453661918640e-01" nType="-99"/>
            <Node pos="r" depth="3" NCoef="0" IVar="-1" Cut="0.0000000000000000e+00" cType="1" res="-2.2231619805097580e-03" rms="4.9974659085273743e-01" purity="4.8408254981040955e-01" nType="-99"/>
          </Node>
        </Node>
        <Node pos="r" depth="1" NCoef="0" IVar="2" Cut="2.2893745899200439e+00" cType="1" res="6.8238936364650726e-02" rms="1.0198506712913513e-01" purity="6.0726666450500488e-01" nType="0">
          <Node pos="l" depth="2" NCoef="0" IVar="-1" Cut="0.0000000000000000e+00" cType="1" res="-1.0745380073785782e-02" rms="4.9310806393623352e-01" purity="4.2334610223770142e-01" nType="-99"/>
          <Node pos="r" depth="2" NCoef="0" IVar="10" Cut="4.3556869506835938e+01" cType="1" res="6.3770389556884766e-01" rms="-nan" purity="6.4023327827453613e-01" nType="0">
            <Node pos="l" depth="3" NCoef="0" IVar="-1" Cut="0.0000000000000000e+00" cType="1" res="8.7578641250729561e-03" rms="4.9450546503067017e-01" purity="5.7066667079925537e-01" nType="-99"/>
            <Node pos="r" depth="3" NCoef="0" IVar="-1" Cut="0.0000000000000000e+00" cType="1" res="2.7239313349127769e-02" rms="4.3930828571319580e-01" purity="7.3820143938064575e-01" nType="-99"/>
          </Node>
        </Node>
      </Node>
    </BinaryTree>
    <BinaryTree type="DecisionTree" boostWeight="1.0000000000000000e+00" itree="2">
      <Node pos="s" depth="0" NCoef="0" IVar="4" Cut="1.6591935157775879e+00" cType="1" res="2.0343418327684049e-06" rms="3.1247034668922424e-01" purity="4.9952986836433411e-01" nType="0">
        <Node pos="l" depth="1" NCoef="0" IVar="8" Cut="-1.0000000000000000e+00" cType="1" res="-1.0106208920478821e-01" rms="4.7398036718368530e-01" purity="3.7767472863197327e-01" nType="0">
          <Node pos="l" depth="2" NCoef="0" IVar="9" Cut="1.0693955421447754e+00" cType="1" res="1.0294226408004761e+00" rms="-nan" purity="3.1037613749504089e-01" nType="0">
            <Node pos="l" depth="3" NCoef="0" IVar="-1" Cut="0.0000000000000000e+00" cType="1" res="-3.1383350491523743e-02" rms="4.5063856244087219e-01" purity="2.8550866246223450e-01" nType="-99"/>
            <Node pos="r" depth="3" NCoef="0" IVar="-1" Cut="0.0000000000000000e+00" cType="1" res="-1.1892886832356453e-02" rms="4.8743963241577148e-01" purity="3.9398506283760071e-01" nType="-99"/>
          </Node>
          <Node pos="r" depth="2" NCoef="0" IVar="3" Cut="2.2117779254913330e+00" cType="1" res="6.7906564474105835e-01" rms="2.6586127281188965e-01" purity="4.3261411786079407e-01" nType="0">
            <Node pos="l" depth="3" NCoef="0" IVar="-1" Cut="0.0000000000000000e+00" cType="1" res="-1.3783805072307587e-02" rms="4.8853909969329834e-01" purity="3.9661693572998047e-01" nType="-99"/>
            <Node pos="r" depth="3" NCoef="0" IVar="-1" Cut="0.0000000000000000e+00" cType="1" res="4.6848119236528873e-03" rms="4.9838379025459290e-01" purity="5.3412348031997681e-01" nType="-99"/>
          </Node>
        </Node>
        <Node pos="r" depth="1" NCoef="0" IVar="2" Cut="2.7471749782562256e+00" cType="1" res="6.0718727111816406e-01" rms="9.2661522328853607e-02" purity="6.1667370796203613e-01" nType="0">
          <Node pos="l" depth="2" NCoef="0" IVar="2" Cut="2.0772132873535156e+00" cType="1" res="4.8076918721199036e-01" rms="5.3335410356521606e-01" purity="4.8207980394363403e-01" nType="0">
            <Node pos="l" depth="3" NCoef="0" IVar="-1" Cut="0.0000000000000000e+00" cType="1" res="-1.4616486616432667e-02" rms="4.8743757605552673e-01" purity="3.8902094960212708e-01" nType="-99"/>
            <Node pos="r" depth="3" NCoef="0" IVar="-1" Cut="0.0000000000000000e+00" cType="1" res="4.7160903923213482e-03" rms="4.9629345536231995e-01" purity="5.4962158203125000e-01" nType="-99"/>
          </Node>
          <Node pos="r" depth="2" NCoef="0" IVar="10" Cut="4.3557334899902344e+01" cType="1" res="6.5783256292343140e-01" rms="-nan" purity="6.6076648235321045e-01" nType="0">
            <Node pos="l" depth="3" NCoef="0" IVar="-1" Cut="0.0000000000000000e+00" cType="1" res="1.0709893889725208e-02" rms="4.9127581715583801e-01" purity="5.9108352661132812e-01" nType="-99"/>
            <Node pos="r" depth="3" NCoef="0" IVar="-1" Cut="0.0000000000000000e+00" cType="1" res="2.8326205909252167e-02" rms="4.2391976714134216e-01" purity="7.6512640714645386e-01" nType="-99"/>
          </Node>
        </Node>
      </Node>
    </BinaryTree>
    <BinaryTree type="DecisionTree" boostWeight="1.0000000000000000e+00" itree="3">
      <Node pos="s" depth="0" NCoef="0" IVar="4" Cut="1.3273639678955078e+00" cType="1" res="0.0000000000000000e+00" rms="3.1247034668922424e-01" purity="4.9952986836433411e-01" nType="0">
        <Node pos="l" depth="1" NCoef="0" IVar="8" Cut="-1.0000000000000000e+00" cType="1" res="-1.1118471622467041e-01" rms="4.6795511245727539e-01" purity="3.5619282722473145e-01" nType="0">
          <Node pos="l" depth="2" NCoef="0" IVar="9" Cut="4.1459244675934315e-03" cType="1" res="1.4973251521587372e-01" rms="-nan" purity="2.8857067227363586e-01" nType="0">
            <Node pos="l" depth="3" NCoef="0" IVar="-1" Cut="0.0000000000000000e+00" cType="1" res="-3.3007092773914337e-02" rms="4.3931001424789429e-01" purity="2.6198458671569824e-01" nType="-99"/>
            <Node pos="r" depth="3" NCoef="0" IVar="-1" Cut="0.0000000000000000e+00" cType="1" res="-2.0055338740348816e-02" rms="4.7059527039527893e-01" purity="3.3347409963607788e-01" nType="-99"/>
          </Node>
          <Node pos="r" depth="2" NCoef="0" IVar="9" Cut="9.9808257818222046e-01" cType="1" res="4.1115695238113403e-01" rms="6.4739483594894409e-01" purity="4.1177171468734741e-01" nType="0">
            <Node pos="l" depth="3" NCoef="0" IVar="-1" Cut="0.0000000000000000e+00" cType="1" res="-1.5186896547675133e-02" rms="4.8560196161270142e-01" purity="3.8486018776893616e-01" nType="-99"/>
            <Node pos="r" depth="3" NCoef="0" IVar="-1" Cut="0.0000000000000000e+00" cType="1" res="2.3100890684872866e-03" rms="4.9874484539031982e-01" purity="5.0183504819869995e-01" nType="-99"/>
          </Node>
        </Node>
        <Node pos="r" depth="1" NCoef="0" IVar="2" Cut="1.7171242237091064e+00" cType="1" res="8.3586774766445160e-02" rms="1.1588560044765472e-01" purity="5.9799546003341675e-01" nType="0">
          <Node pos="l" depth="2" NCoef="0" IVar="-1" Cut="0.0000000000000000e+00" cType="1" res="-2.2287320345640182e-02" rms="4.7228303551673889e-01" purity="3.3691686391830444e-01" nType="-99"/>
          <Node pos="r" depth="2" NCoef="0" IVar="10" Cut="4.0399101257324219e+01" cType="1" res="6.2014240026473999e-01" rms="-nan" purity="6.2247490882873535e-01" nType="0">
            <Node pos="l" depth="3" NCoef="0" IVar="-1" Cut="0.0000000000000000e+00" cType="1" res="5.1760938949882984e-03" rms="4.9642381072044373e-01" purity="5.4839116334915161e-01" nType="-99"/>
            <Node pos="r" depth="3" NCoef="0" IVar="-1" Cut="0.0000000000000000e+00" cType="1" res="2.1546624600887299e-02" rms="4.5452255010604858e-01" purity="7.0097506046295166e-01" nType="-99"/>
          </Node>
        </Node>
      </Node>
    </BinaryTree>
    <BinaryTree type="DecisionTree" boostWeight="1.0000000000000000e+00" itree="4">
      <Node pos="s" depth="0" NCoef="0" IVar="4" Cut="1.6591935157775879e+00" cType="1" res="9.9385961220832542e-06" rms="3.1247034668922424e-01" purity="4.9952986836433411e-01" nType="0">
        <Node pos="l" depth="1" NCoef="0" IVar="3" Cut="2.5064630508422852e+00" cType="1" res="0.0000000000000000e+00" rms="7.6315528154373169e-01" purity="3.7767472863197327e-01" nType="0">
          <Node pos="l" depth="2" NCoef="0" IVar="9" Cut="1.5302830934524536e+00" cType="1" res="3.1923127174377441e-01" rms="7.1698266267776489e-01" purity="3.5068595409393311e-01" nType="0">
            <Node pos="l" depth="3" NCoef="0" IVar="-1" Cut="0.0000000000000000e+00" cType="1" res="-2.1102918311953545e-02" rms="4.6759590506553650e-01" purity="3.3040767908096313e-01" nType="-99"/>
            <Node pos="r" depth="3" NCoef="0" IVar="-1" Cut="0.0000000000000000e+00" cType="1" res="-2.3784446530044079e-03" rms="4.9506047368049622e-01" purity="4.5668551325798035e-01" nType="-99"/>
          </Node>
          <Node pos="r" depth="2" NCoef="0" IVar="-1" Cut="0.0000000000000000e+00" cType="1" res="1.2603484792634845e-03" rms="4.9569234251976013e-01" purity="4.9246239662170410e-01" nType="-99"/>
        </Node>
        <Node pos="r" depth="1" NCoef="0" IVar="8" Cut="-1.0000000000000000e+00" cType="1" res="8.9602664113044739e-02" rms="4.7154945135116577e-01" purity="6.1667370796203613e-01" nType="0">
          <Node pos="l" depth="2" NCoef="0" IVar="2" Cut="2.6317405700683594e+00" cType="1" res="5.2388381958007812e-01" rms="4.3108031153678894e-01" purity="5.3176176548004150e-01" nType="0">
            <Node pos="l" depth="3" NCoef="0" IVar="-1" Cut="0.0000000000000000e+00" cType="1" res="-1.3199861161410809e-02" rms="4.8722815513610840e-01" purity="4.1149860620498657e-01" nType="-99"/>
            <Node pos="r" depth="3" NCoef="0" IVar="-1" Cut="0.0000000000000000e+00" cType="1" res="5.2924784831702709e-03" rms="4.9273046851158142e-01" purity="5.6966179609298706e-01" nType="-99"/>
          </Node>
          <Node pos="r" depth="2" NCoef="0" IVar="2" Cut="2.7471749782562256e+00" cType="1" res="6.6519951820373535e-01" rms="-nan" purity="6.7580616474151611e-01" nType="0">
            <Node pos="l" depth="3" NCoef="0" IVar="-1" Cut="0.0000000000000000e+00" cType="1" res="3.3168543595820665e-03" rms="4.9450105428695679e-01" purity="5.2932137250900269e-01" nType="-99"/>
            <Node pos="r" depth="3" NCoef="0" IVar="-1" Cut="0.0000000000000000e+00" cType="1" res="2.2877080366015434e-02" rms="4.4633787870407104e-01" purity="7.1911597251892090e-01" nType="-99"/>
          </Node>
        </Node>
      </Node>
    </BinaryTree>
    <BinaryTree type="DecisionTree" boostWeight="1.0000000000000000e+00" itree="5">
      <Node pos="s" depth="0" NCoef="0" IVar="4" Cut="1.3273639678955078e+00" cType="1" res="-2.5492612272500992e-02" rms="3.1142872571945190e-01" purity="4.9952986836433411e-01" nType="0">
        <Node pos="l" depth="1" NCoef="0" IVar="8" Cut="-1.0000000000000000e+00" cType="1" res="-9.4610534608364105e-02" rms="4.6675112843513489e-01" purity="3.5619282722473145e-01" nType="0">
          <Node pos="l" depth="2" NCoef="0" IVar="9" Cut="4.1459244675934315e-03" cType="1" res="7.0993220806121826e-01" rms="-nan" purity="2.8857067227363586e-01" nType="0">
            <Node pos="l" depth="3" NCoef="0" IVar="-1" Cut="0.0000000000000000e+00" cType="1" res="-2.8994431719183922e-02" rms="4.3916186690330505e-01" purity="2.6198458671569824e-01" nType="-99"/>
            <Node pos="r" depth="3" NCoef="0" IVar="-1" Cut="0.0000000000000000e+00" cType="1" res="-1.7622895538806915e-02" rms="4.7004511952400208e-01" purity="3.3347409963607788e-01" nType="-99"/>
          </Node>
          <Node pos="r" depth="2" NCoef="0" IVar="9" Cut="9.9808257818222046e-01" cType="1" res="4.1115695238113403e-01" rms="6.4739483594894409e-01" purity="4.1177171468734741e-01" nType="0">
            <Node pos="l" depth="3" NCoef="0" IVar="-1" Cut="0.0000000000000000e+00" cType="1" res="-1.2664511799812317e-02" rms="4.8533499240875244e-01" purity="3.8486018776893616e-01" nType="-99"/>
            <Node pos="r" depth="3" NCoef="0" IVar="-1" Cut="0.0000000000000000e+00" cType="1" res="2.6075704954564571e-03" rms="4.9841186404228210e-01" purity="5.0183504819869995e-01" nType="-99"/>
          </Node>
        </Node>
        <Node pos="r" depth="1" NCoef="0" IVar="8" Cut="-1.0000000000000000e+00" cType="1" res="7.2267115116119385e-02" rms="4.7349175810813904e-01" purity="5.9799546003341675e-01" nType="0">
          <Node pos="l" depth="2" NCoef="0" IVar="10" Cut="3.9599800109863281e+01" cType="1" res="5.0795733928680420e-01" rms="4.6852406859397888e-01" purity="5.1511007547378540e-01" nType="0">
            <Node pos="l" depth="3" NCoef="0" IVar="-1" Cut="0.0000000000000000e+00" cType="1" res="-7.5557297095656395e-03" rms="4.9532526731491089e-01" purity="4.5552027225494385e-01" nType="-99"/>
            <Node pos="r" depth="3" NCoef="0" IVar="-1" Cut="0.0000000000000000e+00" cType="1" res="7.3096081614494324e-03" rms="4.8665305972099304e-01" purity="5.7869476079940796e-01" nType="-99"/>
          </Node>
          <Node pos="r" depth="2" NCoef="0" IVar="2" Cut="2.7471749782562256e+00" cType="1" res="0.0000000000000000e+00" rms="1.3001984357833862e-01" purity="6.5674835443496704e-01" nType="0">
            <Node pos="l" depth="3" NCoef="0" IVar="-1" Cut="0.0000000000000000e+00" cType="1" res="2.1429106127470732e-03" rms="4.9475392699241638e-01" purity="5.1662135124206543e-01" nType="-99"/>
            <Node pos="r" depth="3" NCoef="0" IVar="-1" Cut="0.0000000000000000e+00" cType="1" res="2.0753471180796623e-02" rms="4.5084768533706665e-01" purity="7.0826512575149536e-01" nType="-99"/>
          </Node>
        </Node>
      </Node>
    </BinaryTree>
    <BinaryTree type="DecisionTree" boostWeight="1.0000000000000000e+00" itree="6">
      <Node pos="s" depth="0" NCoef="0" IVar="3" Cut="2.3758718967437744e+00" cType="1" res="2.1409673616290092e-02" rms="3.1173601746559143e-01" purity="4.9952986836433411e-01" nType="0">
        <Node pos="l" depth="1" NCoef="0" IVar="9" Cut="2.2730755805969238e+00" cType="1" res="0.0000000000000000e+00" rms="0.0000000000000000e+00" purity="3.8848572969436646e-01" nType="0">
          <Node pos="l" depth="2" NCoef="0" IVar="8" Cut="-1.0000000000000000e+00" cType="1" res="-8.8542297482490540e-02" rms="4.6721565723419189e-01" purity="3.6601692438125610e-01" nType="0">
            <Node pos="l" depth="3" NCoef="0" IVar="-1" Cut="0.0000000000000000e+00" cType="1" res="-2.3408612236380577e-02" rms="4.5281004905700684e-01" purity="2.9942196607589722e-01" nType="-99"/>
            <Node pos="r" depth="3" NCoef="0" IVar="-1" Cut="0.0000000000000000e+00" cType="1" res="-8.1160450354218483e-03" rms="4.8791214823722839e-01" purity="4.2049282789230347e-01" nType="-99"/>
          </Node>
          <Node pos="r" depth="2" NCoef="0" IVar="-1" Cut="0.0000000000000000e+00" cType="1" res="6.4262486994266510e-03" rms="4.9059695005416870e-01" purity="5.4686439037322998e-01" nType="-99"/>
        </Node>
        <Node pos="r" depth="1" NCoef="0" IVar="8" Cut="-1.0000000000000000e+00" cType="1" res="8.0619961023330688e-02" rms="4.7036191821098328e-01" purity="6.0876172780990601e-01" nType="0">
          <Node pos="l" depth="2" NCoef="0" IVar="10" Cut="3.7510192871093750e+01" cType="1" res="5.1479434967041016e-01" rms="4.5359960198402405e-01" purity="5.2212381362915039e-01" nType="0">
            <Node pos="l" depth="3" NCoef="0" IVar="-1" Cut="0.0000000000000000e+00" cType="1" res="-5.8823009021580219e-03" rms="4.9566298723220825e-01" purity="4.5951834321022034e-01" nType="-99"/>
            <Node pos="r" depth="3" NCoef="0" IVar="-1" Cut="0.0000000000000000e+00" cType="1" res="8.0934539437294006e-03" rms="4.8417365550994873e-01" purity="5.7897132635116577e-01" nType="-99"/>
          </Node>
          <Node pos="r" depth="2" NCoef="0" IVar="10" Cut="4.4202892303466797e+01" cType="1" res="6.5858983993530273e-01" rms="-nan" purity="6.6873759031295776e-01" nType="0">
            <Node pos="l" depth="3" NCoef="0" IVar="-1" Cut="0.0000000000000000e+00" cType="1" res="1.0003784671425819e-02" rms="4.8526260256767273e-01" purity="6.0575121641159058e-01" nType="-99"/>
            <Node pos="r" depth="3" NCoef="0" IVar="-1" Cut="0.0000000000000000e+00" cType="1" res="2.4021353572607040e-02" rms="4.2764794826507568e-01" purity="7.4518156051635742e-01" nType="-99"/>
          </Node>
        </Node>
      </Node>
    </BinaryTree>
    <BinaryTree type="DecisionTree" boostWeight="1.0000000000000000e+00" itree="7">
      <Node pos="s" depth="0" NCoef="0" IVar="2" Cut="2.9760258197784424e+00" cType="1" res="-3.0893562361598015e-02" rms="3.1093940138816833e-01" purity="4.9952986836433411e-01" nType="0">
        <Node pos="l" depth="1" NCoef="0" IVar="3" Cut="1.9516289234161377e+00" cType="1" res="2.9529824852943420e-02" rms="4.0340882539749146e-01" purity="4.0740779042243958e-01" nType="0">
          <Node pos="l" depth="2" NCoef="0" IVar="5" Cut="2.1454718112945557e+00" cType="1" res="1.3433028757572174e-01" rms="7.7721261978149414e-01" purity="3.4865140914916992e-01" nType="0">
            <Node pos="l" depth="3" NCoef="0" IVar="-1" Cut="0.0000000000000000e+00" cType="1" res="-2.0752098411321640e-02" rms="4.6075665950775146e-01" purity="3.1805726885795593e-01" nType="-99"/>
            <Node pos="r" depth="3" NCoef="0" IVar="-1" Cut="0.0000000000000000e+00" cType="1" res="-8.6379786953330040e-03" rms="4.8187327384948730e-01" purity="3.8669052720069885e-01" nType="-99"/>
          </Node>
          <Node pos="r" depth="2" NCoef="0" IVar="10" Cut="4.4202651977539062e+01" cType="1" res="4.9410134553909302e-01" rms="5.0756067037582397e-01" purity="4.9594843387603760e-01" nType="0">
            <Node pos="l" depth="3" NCoef="0" IVar="-1" Cut="0.0000000000000000e+00" cType="1" res="-7.6838815584778786e-03" rms="4.9102455377578735e-01" purity="4.3728727102279663e-01" nType="-99"/>
            <Node pos="r" depth="3" NCoef="0" IVar="-1" Cut="0.0000000000000000e+00" cType="1" res="6.5904855728149414e-03" rms="4.8753827810287476e-01" purity="5.5008715391159058e-01" nType="-99"/>
          </Node>
        </Node>
        <Node pos="r" depth="1" NCoef="0" IVar="10" Cut="3.4278556823730469e+01" cType="1" res="6.3300496339797974e-01" rms="-nan" purity="6.3586735725402832e-01" nType="0">
          <Node pos="l" depth="2" NCoef="0" IVar="2" Cut="3.6464729309082031e+00" cType="1" res="1.9028359651565552e-01" rms="2.3119100928306580e-01" purity="5.4071724414825439e-01" nType="0">
            <Node pos="l" depth="3" NCoef="0" IVar="-1" Cut="0.0000000000000000e+00" cType="1" res="-5.3068571723997593e-03" rms="4.9459311366081238e-01" purity="4.7861272096633911e-01" nType="-99"/>
            <Node pos="r" depth="3" NCoef="0" IVar="-1" Cut="0.0000000000000000e+00" cType="1" res="1.0461959056556225e-02" rms="4.8586279153823853e-01" purity="6.0836112499237061e-01" nType="-99"/>
          </Node>
          <Node pos="r" depth="2" NCoef="0" IVar="4" Cut="2.0292007923126221e+00" cType="1" res="6.9806855916976929e-01" rms="-nan" purity="7.0035541057586670e-01" nType="0">
            <Node pos="l" depth="3" NCoef="0" IVar="-1" Cut="0.0000000000000000e+00" cType="1" res="5.8498228900134563e-03" rms="4.8464357852935791e-01" purity="5.6157130002975464e-01" nType="-99"/>
            <Node pos="r" depth="3" NCoef="0" IVar="-1" Cut="0.0000000000000000e+00" cType="1" res="2.2782843559980392e-02" rms="4.2912408709526062e-01" purity="7.5068229436874390e-01" nType="-99"/>
          </Node>
        </Node>
      </Node>
    </BinaryTree>
    <BinaryTree type="DecisionTree" boostWeight="1.0000000000000000e+00" itree="8">
      <Node pos="s" depth="0" NCoef="0" IVar="4" Cut="1.6591935157775879e+00" cType="1" res="-3.1577773392200470e-02" rms="3.1087067723274231e-01" purity="4.9952986836433411e-01" nType="0">
        <Node pos="l" depth="1" NCoef="0" IVar="9" Cut="2.0787544250488281e+00" cType="1" res="2.9183185688452795e-05" rms="7.6315528154373169e-01" purity="3.7767472863197327e-01" nType="0">
          <Node pos="l" depth="2" NCoef="0" IVar="8" Cut="-1.0000000000000000e+00" cType="1" res="-7.8523449599742889e-02" rms="4.6667623519897461e-01" purity="3.5852614045143127e-01" nType="0">
            <Node pos="l" depth="3" NCoef="0" IVar="-1" Cut="0.0000000000000000e+00" cType="1" res="-2.0617220550775528e-02" rms="4.5168197154998779e-01" purity="2.9248276352882385e-01" nType="-99"/>
            <Node pos="r" depth="3" NCoef="0" IVar="-1" Cut="0.0000000000000000e+00" cType="1" res="-7.5084948912262917e-03" rms="4.8843139410018921e-01" purity="4.1268822550773621e-01" nType="-99"/>
          </Node>
          <Node pos="r" depth="2" NCoef="0" IVar="-1" Cut="0.0000000000000000e+00" cType="1" res="5.3272088989615440e-03" rms="4.9431982636451721e-01" purity="5.1786100864410400e-01" nType="-99"/>
        </Node>
        <Node pos="r" depth="1" NCoef="0" IVar="8" Cut="-1.0000000000000000e+00" cType="1" res="7.3343105614185333e-02" rms="4.6697032451629639e-01" purity="6.1667370796203613e-01" nType="0">
          <Node pos="l" depth="2" NCoef="0" IVar="2" Cut="2.6317405700683594e+00" cType="1" res="5.2388381958007812e-01" rms="4.3108031153678894e-01" purity="5.3176176548004150e-01" nType="0">
            <Node pos="l" depth="3" NCoef="0" IVar="-1" Cut="0.0000000000000000e+00" cType="1" res="-1.1476944200694561e-02" rms="4.8541155457496643e-01" purity="4.1149860620498657e-01" nType="-99"/>
            <Node pos="r" depth="3" NCoef="0" IVar="-1" Cut="0.0000000000000000e+00" cType="1" res="4.4803982600569725e-03" rms="4.9094569683074951e-01" purity="5.6966179609298706e-01" nType="-99"/>
          </Node>
          <Node pos="r" depth="2" NCoef="0" IVar="2" Cut="3.0905253887176514e+00" cType="1" res="6.6519951820373535e-01" rms="-nan" purity="6.7580616474151611e-01" nType="0">
            <Node pos="l" depth="3" NCoef="0" IVar="-1" Cut="0.0000000000000000e+00" cType="1" res="5.9034954756498337e-03" rms="4.8750549554824829e-01" purity="5.6875753402709961e-01" nType="-99"/>
            <Node pos="r" depth="3" NCoef="0" IVar="-1" Cut="0.0000000000000000e+00" cType="1" res="1.9995439797639847e-02" rms="4.3977999687194824e-01" purity="7.2939169406890869e-01" nType="-99"/>
          </Node>
        </Node>
      </Node>
    </BinaryTree>
    <BinaryTree type="DecisionTree" boostWeight="1.0000000000000000e+00" itree="9">
      <Node pos="s" depth="0" NCoef="0" IVar="4" Cut="1.3273639678955078e+00" cType="1" res="5.2348426543176174e-03" rms="3.1242650747299194e-01" purity="4.9952986836433411e-01" nType="0">
        <Node pos="l" depth="1" NCoef="0" IVar="9" Cut="1.5103647708892822e+00" cType="1" res="3.5545045137405396e-01" rms="7.1932625770568848e-01" purity="3.5619282722473145e-01" nType="0">
          <Node pos="l" depth="2" NCoef="0" IVar="8" Cut="-1.0000000000000000e+00" cType="1" res="-8.5645191371440887e-02" rms="4.6184548735618591e-01" purity="3.3566650748252869e-01" nType="0">
            <Node pos="l" depth="3" NCoef="0" IVar="-1" Cut="0.0000000000000000e+00" cType="1" res="-2.1801464259624481e-02" rms="4.4290351867675781e-01" purity="2.7022245526313782e-01" nType="-99"/>
            <Node pos="r" depth="3" NCoef="0" IVar="-1" Cut="0.0000000000000000e+00" cType="1" res="-9.4472952187061310e-03" rms="4.8571458458900452e-01" purity="3.8965779542922974e-01" nType="-99"/>
          </Node>
          <Node pos="r" depth="2" NCoef="0" IVar="-1" Cut="0.0000000000000000e+00" cType="1" res="3.0651260749436915e-04" rms="4.9321645498275757e-01" purity="4.6508938074111938e-01" nType="-99"/>
        </Node>
        <Node pos="r" depth="1" NCoef="0" IVar="2" Cut="1.7171242237091064e+00" cType="1" res="1.0755480825901031e-01" rms="9.4064787030220032e-02" purity="5.9799546003341675e-01" nType="0">
          <Node pos="l" depth="2" NCoef="0" IVar="-1" Cut="0.0000000000000000e+00" cType="1" res="-1.8642049282789230e-02" rms="4.7019296884536743e-01" purity="3.3691686391830444e-01" nType="-99"/>
          <Node pos="r" depth="2" NCoef="0" IVar="10" Cut="4.0399101257324219e+01" cType="1" res="6.2014240026473999e-01" rms="-nan" purity="6.2247490882873535e-01" nType="0">
            <Node pos="l" depth="3" NCoef="0" IVar="-1" Cut="0.0000000000000000e+00" cType="1" res="2.8586571570485830e-03" rms="4.9261522293090820e-01" purity="5.4839116334915161e-01" nType="-99"/>
            <Node pos="r" depth="3" NCoef="0" IVar="-1" Cut="0.0000000000000000e+00" cType="1" res="1.7372971400618553e-02" rms="4.5016443729400635e-01" purity="7.0097506046295166e-01" nType="-99"/>
          </Node>
        </Node>
      </Node>
    </BinaryTree>
    <BinaryTree type="DecisionTree" boostWeight="1.0000000000000000e+00" itree="10">
      <Node pos="s" depth="0" NCoef="0" IVar="2" Cut="3.2049326896667480e+00" cType="1" res="-3.0082223936915398e-02" rms="3.1101894378662109e-01" purity="4.9952986836433411e-01" nType="0">
        <Node pos="l" depth="1" NCoef="0" IVar="3" Cut="1.9114971160888672e+00" cType="1" res="1.0024985298514366e-02" rms="3.8307252526283264e-01" purity="4.2240771651268005e-01" nType="0">
          <Node pos="l" depth="2" NCoef="0" IVar="5" Cut="2.1454718112945557e+00" cType="1" res="2.0382781326770782e-01" rms="3.5771399736404419e-01" purity="3.5018691420555115e-01" nType="0">
            <Node pos="l" depth="3" NCoef="0" IVar="-1" Cut="0.0000000000000000e+00" cType="1" res="-1.7858851701021194e-02" rms="4.5950245857238770e-01" purity="3.1837043166160583e-01" nType="-99"/>
            <Node pos="r" depth="3" NCoef="0" IVar="-1" Cut="0.0000000000000000e+00" cType="1" res="-6.3604125753045082e-03" rms="4.8099851608276367e-01" purity="3.8945934176445007e-01" nType="-99"/>
          </Node>
          <Node pos="r" depth="2" NCoef="0" IVar="10" Cut="4.4202651977539062e+01" cType="1" res="5.0838929414749146e-01" rms="4.7734275460243225e-01" purity="5.1105922460556030e-01" nType="0">
            <Node pos="l" depth="3" NCoef="0" IVar="-1" Cut="0.0000000000000000e+00" cType="1" res="-5.4854666814208031e-03" rms="4.9096488952636719e-01" purity="4.5278570055961609e-01" nType="-99"/>
            <Node pos="r" depth="3" NCoef="0" IVar="-1" Cut="0.0000000000000000e+00" cType="1" res="7.5709805823862553e-03" rms="4.8183616995811462e-01" purity="5.6820517778396606e-01" nType="-99"/>
          </Node>
        </Node>
        <Node pos="r" depth="1" NCoef="0" IVar="10" Cut="4.3557334899902344e+01" cType="1" res="6.4952212572097778e-01" rms="-nan" purity="6.5255647897720337e-01" nType="0">
          <Node pos="l" depth="2" NCoef="0" IVar="4" Cut="2.3460917472839355e+00" cType="1" res="1.6288620233535767e-01" rms="2.7436757087707520e-01" purity="5.8488970994949341e-01" nType="0">
            <Node pos="l" depth="3" NCoef="0" IVar="-1" Cut="0.0000000000000000e+00" cType="1" res="-6.2516517937183380e-03" rms="4.9195224046707153e-01" purity="4.7499698400497437e-01" nType="-99"/>
            <Node pos="r" depth="3" NCoef="0" IVar="-1" Cut="0.0000000000000000e+00" cType="1" res="1.0530538856983185e-02" rms="4.7997903823852539e-01" purity="6.2817627191543579e-01" nType="-99"/>
          </Node>
          <Node pos="r" depth="2" NCoef="0" IVar="-1" Cut="0.0000000000000000e+00" cType="1" res="2.0574856549501419e-02" rms="4.2274188995361328e-01" purity="7.5404834747314453e-01" nType="-99"/>
        </Node>
      </Node>
    </BinaryTree>
    <BinaryTree type="DecisionTree" boostWeight="1.0000000000000000e+00" itree="11">
      <Node pos="s" depth="0" NCoef="0" IVar="4" Cut="1.1614491939544678e+00" cType="1" res="-2.3870982229709625e-02" rms="3.1155723333358765e-01" purity="4.9952986836433411e-01" nType="0">
        <Node pos="l" depth="1" NCoef="0" IVar="7" Cut="3.2578246593475342e+00" cType="1" res="3.4643054008483887e-01" rms="7.3002511262893677e-01" purity="3.4703144431114197e-01" nType="0">
          <Node pos="l" depth="2" NCoef="0" IVar="5" Cut="2.0688319206237793e+00" cType="1" res="3.5910612344741821e-01" rms="7.1523785591125488e-01" purity="3.5945689678192139e-01" nType="0">
            <Node pos="l" depth="3" NCoef="0" IVar="-1" Cut="0.0000000000000000e+00" cType="1" res="-1.4920496381819248e-02" rms="4.6234136819839478e-01" purity="3.2486325502395630e-01" nType="-99"/>
            <Node pos="r" depth="3" NCoef="0" IVar="-1" Cut="0.0000000000000000e+00" cType="1" res="-1.6726986505091190e-03" rms="4.8563110828399658e-01" purity="4.0826791524887085e-01" nType="-99"/>
          </Node>
          <Node pos="r" depth="2" NCoef="0" IVar="-1" Cut="0.0000000000000000e+00" cType="1" res="-2.6703083887696266e-02" rms="4.3922901153564453e-01" purity="2.7283203601837158e-01" nType="-99"/>
        </Node>
        <Node pos="r" depth="1" NCoef="0" IVar="2" Cut="1.6025853157043457e+00" cType="1" res="1.5692102909088135e-01" rms="4.1973881423473358e-02" purity="5.8751130104064941e-01" nType="0">
          <Node pos="l" depth="2" NCoef="0" IVar="-1" Cut="0.0000000000000000e+00" cType="1" res="-1.9051276147365570e-02" rms="4.6322813630104065e-01" purity="3.1954401731491089e-01" nType="-99"/>
          <Node pos="r" depth="2" NCoef="0" IVar="10" Cut="4.0399101257324219e+01" cType="1" res="6.1053407192230225e-01" rms="1.1991818249225616e-01" purity="6.1276280879974365e-01" nType="0">
            <Node pos="l" depth="3" NCoef="0" IVar="-1" Cut="0.0000000000000000e+00" cType="1" res="2.1611980628222227e-03" rms="4.9208977818489075e-01" purity="5.4028642177581787e-01" nType="-99"/>
            <Node pos="r" depth="3" NCoef="0" IVar="-1" Cut="0.0000000000000000e+00" cType="1" res="1.5404375270009041e-02" rms="4.5300975441932678e-01" purity="6.8809837102890015e-01" nType="-99"/>
          </Node>
        </Node>
      </Node>
    </BinaryTree>
    <BinaryTree type="DecisionTree" boostWeight="1.0000000000000000e+00" itree="12">
      <Node pos="s" depth="0" NCoef="0" IVar="2" Cut="3.2049326896667480e+00" cType="1" res="3.8773193955421448e-02" rms="3.1005543470382690e-01" purity="4.9952986836433411e-01" nType="0">
        <Node pos="l" depth="1" NCoef="0" IVar="3" Cut="1.9114971160888672e+00" cType="1" res="2.6116592809557915e-02" rms="3.8231268525123596e-01" purity="4.2240771651268005e-01" nType="0">
          <Node pos="l" depth="2" NCoef="0" IVar="9" Cut="1.0560188293457031e+00" cType="1" res="1.5656542778015137e-01" rms="7.7040320634841919e-01" purity="3.5018691420555115e-01" nType="0">
            <Node pos="l" depth="3" NCoef="0" IVar="-1" Cut="0.0000000000000000e+00" cType="1" res="-1.3860289007425308e-02" rms="4.6280491352081299e-01" purity="3.2589295506477356e-01" nType="-99"/>
            <Node pos="r" depth="3" NCoef="0" IVar="-1" Cut="0.0000000000000000e+00" cType="1" res="-1.7943679122254252e-03" rms="4.8896852135658264e-01" purity="4.3606984615325928e-01" nType="-99"/>
          </Node>
          <Node pos="r" depth="2" NCoef="0" IVar="10" Cut="4.4202651977539062e+01" cType="1" res="5.0838929414749146e-01" rms="4.7734275460243225e-01" purity="5.1105922460556030e-01" nType="0">
            <Node pos="l" depth="3" NCoef="0" IVar="-1" Cut="0.0000000000000000e+00" cType="1" res="-4.9204220995306969e-03" rms="4.9051350355148315e-01" purity="4.5278570055961609e-01" nType="-99"/>
            <Node pos="r" depth="3" NCoef="0" IVar="-1" Cut="0.0000000000000000e+00" cType="1" res="6.8512000143527985e-03" rms="4.8073256015777588e-01" purity="5.6820517778396606e-01" nType="-99"/>
          </Node>
        </Node>
        <Node pos="r" depth="1" NCoef="0" IVar="8" Cut="-1.0000000000000000e+00" cType="1" res="8.3423607051372528e-02" rms="4.5759779214859009e-01" purity="6.5255647897720337e-01" nType="0">
          <Node pos="l" depth="2" NCoef="0" IVar="10" Cut="3.7287113189697266e+01" cType="1" res="1.7823190987110138e-01" rms="2.7292162179946899e-01" purity="5.5420905351638794e-01" nType="0">
            <Node pos="l" depth="3" NCoef="0" IVar="-1" Cut="0.0000000000000000e+00" cType="1" res="-3.9968756027519703e-03" rms="4.9659880995750427e-01" purity="4.8563370108604431e-01" nType="-99"/>
            <Node pos="r" depth="3" NCoef="0" IVar="-1" Cut="0.0000000000000000e+00" cType="1" res="7.4750655330717564e-03" rms="4.7438395023345947e-01" purity="6.2921762466430664e-01" nType="-99"/>
          </Node>
          <Node pos="r" depth="2" NCoef="0" IVar="10" Cut="3.4279033660888672e+01" cType="1" res="7.1165084838867188e-01" rms="-nan" purity="7.1514004468917847e-01" nType="0">
            <Node pos="l" depth="3" NCoef="0" IVar="-1" Cut="0.0000000000000000e+00" cType="1" res="7.7672358602285385e-03" rms="4.8469927906990051e-01" purity="6.1249470710754395e-01" nType="-99"/>
            <Node pos="r" depth="3" NCoef="0" IVar="-1" Cut="0.0000000000000000e+00" cType="1" res="2.1599089726805687e-02" rms="4.0947291254997253e-01" purity="7.7820587158203125e-01" nType="-99"/>
          </Node>
        </Node>
      </Node>
    </BinaryTree>
    <BinaryTree type="DecisionTree" boostWeight="1.0000000000000000e+00" itree="13">
      <Node pos="s" depth="0" NCoef="0" IVar="3" Cut="2.3758718967437744e+00" cType="1" res="-1.9207438454031944e-02" rms="3.1187945604324341e-01" purity="4.9952986836433411e-01" nType="0">
        <Node pos="l" depth="1" NCoef="0" IVar="8" Cut="-1.0000000000000000e+00" cType="1" res="-4.4572181999683380e-02" rms="4.6477809548377991e-01" purity="3.8848572969436646e-01" nType="0">
          <Node pos="l" depth="2" NCoef="0" IVar="0" Cut="4.0000000000000000e+00" cType="1" res="-8.1728547811508179e-02" rms="4.5704540610313416e-01" purity="3.2233044505119324e-01" nType="0">
            <Node pos="l" depth="3" NCoef="0" IVar="-1" Cut="0.0000000000000000e+00" cType="1" res="-1.7152441665530205e-02" rms="4.4877928495407104e-01" purity="2.9989910125732422e-01" nType="-99"/>
            <Node pos="r" depth="3" NCoef="0" IVar="-1" Cut="0.0000000000000000e+00" cType="1" res="-6.8377265706658363e-03" rms="4.7317290306091309e-01" purity="3.7483724951744080e-01" nType="-99"/>
          </Node>
          <Node pos="r" depth="2" NCoef="0" IVar="1" Cut="2.0000000000000000e+00" cType="1" res="-1.5619071200489998e-02" rms="4.8527956008911133e-01" purity="4.4271367788314819e-01" nType="0">
            <Node pos="l" depth="3" NCoef="0" IVar="-1" Cut="0.0000000000000000e+00" cType="1" res="-5.9741409495472908e-03" rms="4.8354512453079224e-01" purity="4.0620654821395874e-01" nType="-99"/>
            <Node pos="r" depth="3" NCoef="0" IVar="-1" Cut="0.0000000000000000e+00" cType="1" res="5.8127068914473057e-03" rms="4.8505106568336487e-01" purity="5.3125041723251343e-01" nType="-99"/>
          </Node>
        </Node>
        <Node pos="r" depth="1" NCoef="0" IVar="8" Cut="-1.0000000000000000e+00" cType="1" res="5.7487770915031433e-02" rms="4.6457496285438538e-01" purity="6.0876172780990601e-01" nType="0">
          <Node pos="l" depth="2" NCoef="0" IVar="5" Cut="1.5324480533599854e+00" cType="1" res="5.1479434967041016e-01" rms="4.5359960198402405e-01" purity="5.2212381362915039e-01" nType="0">
            <Node pos="l" depth="3" NCoef="0" IVar="-1" Cut="0.0000000000000000e+00" cType="1" res="-7.4101118370890617e-03" rms="4.8890623450279236e-01" purity="4.7109171748161316e-01" nType="-99"/>
            <Node pos="r" depth="3" NCoef="0" IVar="-1" Cut="0.0000000000000000e+00" cType="1" res="3.7634915206581354e-03" rms="4.8597919940948486e-01" purity="5.4864847660064697e-01" nType="-99"/>
          </Node>
          <Node pos="r" depth="2" NCoef="0" IVar="2" Cut="3.5691897869110107e+00" cType="1" res="6.5858983993530273e-01" rms="-nan" purity="6.6873759031295776e-01" nType="0">
            <Node pos="l" depth="3" NCoef="0" IVar="-1" Cut="0.0000000000000000e+00" cType="1" res="8.2100341096520424e-03" rms="4.7636318206787109e-01" purity="6.1301338672637939e-01" nType="-99"/>
            <Node pos="r" depth="3" NCoef="0" IVar="-1" Cut="0.0000000000000000e+00" cType="1" res="1.9402546808123589e-02" rms="4.2401093244552612e-01" purity="7.5603795051574707e-01" nType="-99"/>
          </Node>
        </Node>
      </Node>
    </BinaryTree>
    <BinaryTree type="DecisionTree" boostWeight="1.0000000000000000e+00" itree="14">
      <Node pos="s" depth="0" NCoef="0" IVar="2" Cut="3.2049326896667480e+00" cType="1" res="1.0344629408791661e-03" rms="3.1246864795684814e-01" purity="4.9952986836433411e-01" nType="0">
        <Node pos="l" depth="1" NCoef="0" IVar="7" Cut="3.3904352188110352e+00" cType="1" res="2.6116592809557915e-02" rms="3.8231268525123596e-01" purity="4.2240771651268005e-01" nType="0">
          <Node pos="l" depth="2" NCoef="0" IVar="5" Cut="2.1454718112945557e+00" cType="1" res="0.0000000000000000e+00" rms="0.0000000000000000e+00" purity="4.3416917324066162e-01" nType="0">
            <Node pos="l" depth="3" NCoef="0" IVar="-1" Cut="0.0000000000000000e+00" cType="1" res="-8.5148699581623077e-03" rms="4.7385978698730469e-01" purity="3.9231789112091064e-01" nType="-99"/>
            <Node pos="r" depth="3" NCoef="0" IVar="-1" Cut="0.0000000000000000e+00" cType="1" res="4.6182433143258095e-03" rms="4.8401859402656555e-01" purity="4.9128001928329468e-01" nType="-99"/>
          </Node>
          <Node pos="r" depth="2" NCoef="0" IVar="-1" Cut="0.0000000000000000e+00" cType="1" res="-2.5340659543871880e-02" rms="4.3986794352531433e-01" purity="2.8701055049896240e-01" nType="-99"/>
        </Node>
        <Node pos="r" depth="1" NCoef="0" IVar="8" Cut="-1.0000000000000000e+00" cType="1" res="7.5168266892433167e-02" rms="4.5608910918235779e-01" purity="6.5255647897720337e-01" nType="0">
          <Node pos="l" depth="2" NCoef="0" IVar="10" Cut="3.7287113189697266e+01" cType="1" res="1.7823190987110138e-01" rms="2.7292162179946899e-01" purity="5.5420905351638794e-01" nType="0">
            <Node pos="l" depth="3" NCoef="0" IVar="-1" Cut="0.0000000000000000e+00" cType="1" res="-3.5581490956246853e-03" rms="4.9624764919281006e-01" purity="4.8563370108604431e-01" nType="-99"/>
            <Node pos="r" depth="3" NCoef="0" IVar="-1" Cut="0.0000000000000000e+00" cType="1" res="7.1719521656632423e-03" rms="4.7398009896278381e-01" purity="6.2921762466430664e-01" nType="-99"/>
          </Node>
          <Node pos="r" depth="2" NCoef="0" IVar="10" Cut="3.4279033660888672e+01" cType="1" res="7.1165084838867188e-01" rms="-nan" purity="7.1514004468917847e-01" nType="0">
            <Node pos="l" depth="3" NCoef="0" IVar="-1" Cut="0.0000000000000000e+00" cType="1" res="6.4031016081571579e-03" rms="4.8436379432678223e-01" purity="6.1249470710754395e-01" nType="-99"/>
            <Node pos="r" depth="3" NCoef="0" IVar="-1" Cut="0.0000000000000000e+00" cType="1" res="1.9887845963239670e-02" rms="4.0919589996337891e-01" purity="7.7820587158203125e-01" nType="-99"/>
          </Node>
        </Node>
      </Node>
    </BinaryTree>
    <BinaryTree type="DecisionTree" boostWeight="1.0000000000000000e+00" itree="15">
      <Node pos="s" depth="0" NCoef="0" IVar="4" Cut="1.6591935157775879e+00" cType="1" res="-1.6321256756782532e-02" rms="3.1204381585121155e-01" purity="4.9952986836433411e-01" nType="0">
        <Node pos="l" depth="1" NCoef="0" IVar="7" Cut="3.3904352188110352e+00" cType="1" res="1.3839298486709595e-01" rms="7.5050204992294312e-01" purity="3.7767472863197327e-01" nType="0">
          <Node pos="l" depth="2" NCoef="0" IVar="9" Cut="1.8976510763168335e+00" cType="1" res="5.3449131548404694e-02" rms="7.5461447238922119e-01" purity="3.8979351520538330e-01" nType="0">
            <Node pos="l" depth="3" NCoef="0" IVar="-1" Cut="0.0000000000000000e+00" cType="1" res="-7.0406105369329453e-03" rms="4.7353339195251465e-01" purity="3.6779862642288208e-01" nType="-99"/>
            <Node pos="r" depth="3" NCoef="0" IVar="-1" Cut="0.0000000000000000e+00" cType="1" res="8.0258399248123169e-03" rms="4.9037498235702515e-01" purity="5.3302210569381714e-01" nType="-99"/>
          </Node>
          <Node pos="r" depth="2" NCoef="0" IVar="-1" Cut="0.0000000000000000e+00" cType="1" res="-2.4879900738596916e-02" rms="4.3573707342147827e-01" purity="2.7408614754676819e-01" nType="-99"/>
        </Node>
        <Node pos="r" depth="1" NCoef="0" IVar="8" Cut="-1.0000000000000000e+00" cType="1" res="5.2359592169523239e-02" rms="4.6161746978759766e-01" purity="6.1667370796203613e-01" nType="0">
          <Node pos="l" depth="2" NCoef="0" IVar="5" Cut="2.4519677162170410e+00" cType="1" res="5.2388381958007812e-01" rms="4.3108031153678894e-01" purity="5.3176176548004150e-01" nType="0">
            <Node pos="l" depth="3" NCoef="0" IVar="-1" Cut="0.0000000000000000e+00" cType="1" res="-4.3728207238018513e-03" rms="4.8982900381088257e-01" purity="4.9976623058319092e-01" nType="-99"/>
            <Node pos="r" depth="3" NCoef="0" IVar="-1" Cut="0.0000000000000000e+00" cType="1" res="7.5889835134148598e-03" rms="4.8091363906860352e-01" purity="5.9299409389495850e-01" nType="-99"/>
          </Node>
          <Node pos="r" depth="2" NCoef="0" IVar="10" Cut="5.5831108093261719e+01" cType="1" res="6.6519951820373535e-01" rms="-nan" purity="6.7580616474151611e-01" nType="0">
            <Node pos="l" depth="3" NCoef="0" IVar="-1" Cut="0.0000000000000000e+00" cType="1" res="7.9387063160538673e-03" rms="4.7261396050453186e-01" purity="6.3268899917602539e-01" nType="-99"/>
            <Node pos="r" depth="3" NCoef="0" IVar="-1" Cut="0.0000000000000000e+00" cType="1" res="2.0399829372763634e-02" rms="4.0341129899024963e-01" purity="7.7405571937561035e-01" nType="-99"/>
          </Node>
        </Node>
      </Node>
    </BinaryTree>
    <BinaryTree type="DecisionTree" boostWeight="1.0000000000000000e+00" itree="16">
      <Node pos="s" depth="0" NCoef="0" IVar="3" Cut="2.3758718967437744e+00" cType="1" res="2.6085989549756050e-02" rms="3.1137958168983459e-01" purity="4.9952986836433411e-01" nType="0">
        <Node pos="l" depth="1" NCoef="0" IVar="9" Cut="2.2730755805969238e+00" cType="1" res="6.2426213175058365e-02" rms="7.5246363878250122e-01" purity="3.8848572969436646e-01" nType="0">
          <Node pos="l" depth="2" NCoef="0" IVar="5" Cut="2.5285916328430176e+00" cType="1" res="6.4531415700912476e-02" rms="7.6844227313995361e-01" purity="3.6601692438125610e-01" nType="0">
            <Node pos="l" depth="3" NCoef="0" IVar="-1" Cut="0.0000000000000000e+00" cType="1" res="-1.1603527702391148e-02" rms="4.6389076113700867e-01" purity="3.4363141655921936e-01" nType="-99"/>
            <Node pos="r" depth="3" NCoef="0" IVar="-1" Cut="0.0000000000000000e+00" cType="1" res="-7.0130761014297605e-04" rms="4.8017364740371704e-01" purity="4.1940444707870483e-01" nType="-99"/>
          </Node>
          <Node pos="r" depth="2" NCoef="0" IVar="-1" Cut="0.0000000000000000e+00" cType="1" res="5.8473600074648857e-03" rms="4.8531785607337952e-01" purity="5.4686439037322998e-01" nType="-99"/>
        </Node>
        <Node pos="r" depth="1" NCoef="0" IVar="10" Cut="4.4202651977539062e+01" cType="1" res="5.9976685047149658e-01" rms="1.6111572086811066e-01" purity="6.0876172780990601e-01" nType="0">
          <Node pos="l" depth="2" NCoef="0" IVar="2" Cut="3.6651089191436768e+00" cType="1" res="5.4078817367553711e-01" rms="3.8712626695632935e-01" purity="5.5059796571731567e-01" nType="0">
            <Node pos="l" depth="3" NCoef="0" IVar="-1" Cut="0.0000000000000000e+00" cType="1" res="-3.5039153881371021e-03" rms="4.9210965633392334e-01" purity="4.8967421054840088e-01" nType="-99"/>
            <Node pos="r" depth="3" NCoef="0" IVar="-1" Cut="0.0000000000000000e+00" cType="1" res="1.0612675920128822e-02" rms="4.7071516513824463e-01" purity="6.5135812759399414e-01" nType="-99"/>
          </Node>
          <Node pos="r" depth="2" NCoef="0" IVar="8" Cut="-1.0000000000000000e+00" cType="1" res="9.6608832478523254e-02" rms="4.3701002001762390e-01" purity="6.8487215042114258e-01" nType="0">
            <Node pos="l" depth="3" NCoef="0" IVar="-1" Cut="0.0000000000000000e+00" cType="1" res="5.5638635531067848e-03" rms="4.7793075442314148e-01" purity="5.8802014589309692e-01" nType="-99"/>
            <Node pos="r" depth="3" NCoef="0" IVar="-1" Cut="0.0000000000000000e+00" cType="1" res="1.7320776358246803e-02" rms="4.2207759618759155e-01" purity="7.4518156051635742e-01" nType="-99"/>
          </Node>
        </Node>
      </Node>
    </BinaryTree>
    <BinaryTree type="DecisionTree" boostWeight="1.0000000000000000e+00" itree="17">
      <Node pos="s" depth="0" NCoef="0" IVar="4" Cut="1.1614491939544678e+00" cType="1" res="6.7960716784000397e-02" rms="3.0499026179313660e-01" purity="4.9952986836433411e-01" nType="0">
        <Node pos="l" depth="1" NCoef="0" IVar="7" Cut="3.2578246593475342e+00" cType="1" res="6.5192961692810059e-01" rms="-nan" purity="3.4703144431114197e-01" nType="0">
          <Node pos="l" depth="2" NCoef="0" IVar="5" Cut="2.4519488811492920e+00" cType="1" res="3.5910612344741821e-01" rms="7.1523785591125488e-01" purity="3.5945689678192139e-01" nType="0">
            <Node pos="l" depth="3" NCoef="0" IVar="-1" Cut="0.0000000000000000e+00" cType="1" res="-9.6405735239386559e-03" rms="4.6491929888725281e-01" purity="3.3555966615676880e-01" nType="-99"/>
            <Node pos="r" depth="3" NCoef="0" IVar="-1" Cut="0.0000000000000000e+00" cType="1" res="2.6932153850793839e-03" rms="4.8815008997917175e-01" purity="4.2704859375953674e-01" nType="-99"/>
          </Node>
          <Node pos="r" depth="2" NCoef="0" IVar="-1" Cut="0.0000000000000000e+00" cType="1" res="-2.1106606349349022e-02" rms="4.3769299983978271e-01" purity="2.7283203601837158e-01" nType="-99"/>
        </Node>
        <Node pos="r" depth="1" NCoef="0" IVar="2" Cut="1.6025853157043457e+00" cType="1" res="1.5692102909088135e-01" rms="4.1973881423473358e-02" purity="5.8751130104064941e-01" nType="0">
          <Node pos="l" depth="2" NCoef="0" IVar="-1" Cut="0.0000000000000000e+00" cType="1" res="-1.6215438023209572e-02" rms="4.6181946992874146e-01" purity="3.1954401731491089e-01" nType="-99"/>
          <Node pos="r" depth="2" NCoef="0" IVar="10" Cut="4.0399101257324219e+01" cType="1" res="6.1053407192230225e-01" rms="1.1991818249225616e-01" purity="6.1276280879974365e-01" nType="0">
            <Node pos="l" depth="3" NCoef="0" IVar="-1" Cut="0.0000000000000000e+00" cType="1" res="1.3022518251091242e-03" rms="4.8977336287498474e-01" purity="5.4028642177581787e-01" nType="-99"/>
            <Node pos="r" depth="3" NCoef="0" IVar="-1" Cut="0.0000000000000000e+00" cType="1" res="1.2744196690618992e-02" rms="4.5005539059638977e-01" purity="6.8809837102890015e-01" nType="-99"/>
          </Node>
        </Node>
      </Node>
    </BinaryTree>
    <BinaryTree type="DecisionTree" boostWeight="1.0000000000000000e+00" itree="18">
      <Node pos="s" depth="0" NCoef="0" IVar="2" Cut="3.4338395595550537e+00" cType="1" res="4.2893234640359879e-03" rms="3.1244093179702759e-01" purity="4.9952986836433411e-01" nType="0">
        <Node pos="l" depth="1" NCoef="0" IVar="8" Cut="-1.0000000000000000e+00" cType="1" res="-1.5811352059245110e-02" rms="4.6644636988639832e-01" purity="4.4231382012367249e-01" nType="0">
          <Node pos="l" depth="2" NCoef="0" IVar="9" Cut="2.2768733501434326e+00" cType="1" res="0.0000000000000000e+00" rms="4.4168800115585327e-01" purity="3.7497591972351074e-01" nType="0">
