<?xml version="1.0"?>
<MethodSetup Method="BDT::BDTG">
  <GeneralInfo>
    <Info name="TMVA Release" value="4.2.1 [262657]"/>
    <Info name="ROOT Release" value="6.10/09 [395785]"/>
    <Info name="Creator" value="pdas"/>
    <Info name="Date" value="Sat Mar 30 20:51:29 2019"/>
    <Info name="Host" value="Linux cmsbuild76.cern.ch 2.6.32-696.30.1.el6.x86_64 #1 SMP Tue May 22 06:09:36 CEST 2018 x86_64 x86_64 x86_64 GNU/Linux"/>
    <Info name="Dir" value="/home/pdas/thqmultilepton/CMSSW_9_4_9/src/CMGTools/TTHAnalysis/python/plotter/tHq-multilepton/signal_mva"/>
    <Info name="Training events" value="12141"/>
    <Info name="TrainingTime" value="4.86971307e+00"/>
    <Info name="AnalysisType" value="Classification"/>
  </GeneralInfo>
  <Options>
    <Option name="V" modified="Yes">False</Option>
    <Option name="VerbosityLevel" modified="No">Default</Option>
    <Option name="VarTransform" modified="No">None</Option>
    <Option name="H" modified="Yes">False</Option>
    <Option name="CreateMVAPdfs" modified="Yes">True</Option>
    <Option name="IgnoreNegWeightsInTraining" modified="No">False</Option>
    <Option name="NTrees" modified="Yes">200</Option>
    <Option name="MaxDepth" modified="Yes">3</Option>
    <Option name="MinNodeSize" modified="No">5%</Option>
    <Option name="nCuts" modified="Yes">40</Option>
    <Option name="BoostType" modified="Yes">Grad</Option>
    <Option name="AdaBoostR2Loss" modified="No">quadratic</Option>
    <Option name="UseBaggedBoost" modified="No">False</Option>
    <Option name="Shrinkage" modified="Yes">1.000000e-01</Option>
    <Option name="AdaBoostBeta" modified="No">5.000000e-01</Option>
    <Option name="UseRandomisedTrees" modified="No">False</Option>
    <Option name="UseNvars" modified="No">3</Option>
    <Option name="UsePoissonNvars" modified="No">True</Option>
    <Option name="BaggedSampleFraction" modified="No">6.000000e-01</Option>
    <Option name="UseYesNoLeaf" modified="No">True</Option>
    <Option name="NegWeightTreatment" modified="Yes">pairnegweightsglobal</Option>
    <Option name="Css" modified="No">1.000000e+00</Option>
    <Option name="Cts_sb" modified="No">1.000000e+00</Option>
    <Option name="Ctb_ss" modified="No">1.000000e+00</Option>
    <Option name="Cbb" modified="No">1.000000e+00</Option>
    <Option name="NodePurityLimit" modified="No">5.000000e-01</Option>
    <Option name="SeparationType" modified="No">giniindex</Option>
    <Option name="RegressionLossFunctionBDTG" modified="No">huber</Option>
    <Option name="HuberQuantile" modified="No">7.000000e-01</Option>
    <Option name="DoBoostMonitor" modified="No">False</Option>
    <Option name="UseFisherCuts" modified="No">False</Option>
    <Option name="MinLinCorrForFisher" modified="No">8.000000e-01</Option>
    <Option name="UseExclusiveVars" modified="No">False</Option>
    <Option name="DoPreselection" modified="No">False</Option>
    <Option name="SigToBkgFraction" modified="No">1.000000e+00</Option>
    <Option name="PruneMethod" modified="No">nopruning</Option>
    <Option name="PruneStrength" modified="No">0.000000e+00</Option>
    <Option name="PruningValFraction" modified="No">5.000000e-01</Option>
    <Option name="SkipNormalization" modified="No">False</Option>
    <Option name="nEventsMin" modified="No">0</Option>
    <Option name="UseBaggedGrad" modified="No">False</Option>
    <Option name="GradBaggingFraction" modified="No">6.000000e-01</Option>
    <Option name="UseNTrainEvents" modified="No">0</Option>
    <Option name="NNodesMax" modified="No">0</Option>
  </Options>
  <Variables NVar="11">
    <Variable VarIndex="0" Expression="nJet25_Recl" Label="nJet25_Recl" Title="nJet25_Recl" Unit="" Internal="nJet25_Recl" Type="I" Min="1.00000000e+00" Max="1.00000000e+01"/>
    <Variable VarIndex="1" Expression="nJetEta1" Label="nJetEta1" Title="nJetEta1" Unit="" Internal="nJetEta1" Type="I" Min="0.00000000e+00" Max="7.00000000e+00"/>
    <Variable VarIndex="2" Expression="maxEtaJet25" Label="maxEtaJet25" Title="maxEtaJet25" Unit="" Internal="maxEtaJet25" Type="F" Min="4.98913229e-04" Max="4.69140625e+00"/>
    <Variable VarIndex="3" Expression="dEtaFwdJetBJet" Label="dEtaFwdJetBJet" Title="dEtaFwdJetBJet" Unit="" Internal="dEtaFwdJetBJet" Type="F" Min="7.72178173e-05" Max="6.81322861e+00"/>
    <Variable VarIndex="4" Expression="dEtaFwdJetClosestLep" Label="dEtaFwdJetClosestLep" Title="dEtaFwdJetClosestLep" Unit="" Internal="dEtaFwdJetClosestLep" Type="F" Min="2.28881836e-04" Max="5.97695923e+00"/>
    <Variable VarIndex="5" Expression="dPhiHighestPtSSPair" Label="dPhiHighestPtSSPair" Title="dPhiHighestPtSSPair" Unit="" Internal="dPhiHighestPtSSPair" Type="F" Min="0.00000000e+00" Max="3.14158368e+00"/>
    <Variable VarIndex="6" Expression="LepGood_conePt[iLepFO_Recl[2]]" Label="Lep3Pt" Title="Lep3Pt" Unit="" Internal="Lep3Pt" Type="F" Min="1.00014038e+01" Max="2.21429688e+02"/>
    <Variable VarIndex="7" Expression="minDRll" Label="minDRll" Title="minDRll" Unit="" Internal="minDRll" Type="F" Min="2.01509916e-03" Max="3.36534715e+00"/>
    <Variable VarIndex="8" Expression="LepGood_charge[iLepFO_Recl[0]]+LepGood_charge[iLepFO_Recl[1]]+LepGood_charge[iLepFO_Recl[2]]" Label="lepCharge" Title="lepCharge" Unit="" Internal="lepCharge" Type="I" Min="-3.00000000e+00" Max="3.00000000e+00"/>
    <Variable VarIndex="9" Expression="dEtaFwdJet2BJet" Label="dEtaFwdJet2BJet" Title="dEtaFwdJet2BJet" Unit="" Internal="dEtaFwdJet2BJet" Type="F" Min="-1.00000000e+00" Max="6.81549835e+00"/>
    <Variable VarIndex="10" Expression="fwdJetPt25" Label="fwdJetPt25" Title="fwdJetPt25" Unit="" Internal="fwdJetPt25" Type="F" Min="2.50000572e+01" Max="8.09039062e+02"/>
  </Variables>
  <Spectators NSpec="3">
    <Spectator SpecIndex="0" Expression="iLepFO_Recl[0]" Label="iF0" Title="F" Unit="" Internal="iF0" Type="F" Min="0.00000000e+00" Max="3.00000000e+00"/>
    <Spectator SpecIndex="1" Expression="iLepFO_Recl[1]" Label="iF1" Title="F" Unit="" Internal="iF1" Type="F" Min="0.00000000e+00" Max="3.00000000e+00"/>
    <Spectator SpecIndex="2" Expression="iLepFO_Recl[2]" Label="iF2" Title="F" Unit="" Internal="iF2" Type="F" Min="0.00000000e+00" Max="4.00000000e+00"/>
  </Spectators>
  <Classes NClass="2">
    <Class Name="Signal" Index="0"/>
    <Class Name="Background" Index="1"/>
  </Classes>
  <Transformations NTransformations="0"/>
  <MVAPdfs>
    <PDF Name="BDTG_PDFSig" MinNSmooth="0" MaxNSmooth="0" InterpolMethod="2" KDE_type="1" KDE_iter="1" KDE_border="1" KDE_finefactor="1.0000000000000000e+00">
      <Histogram Name="BDT_tr_S_original" NBins="242" XMin="-9.5640599727630615e-01" XMax="9.4385075569152832e-01" HasEquidistantBins="1">
        0.00000000e+00 0.00000000e+00 0.00000000e+00 0.00000000e+00 4.19608605e-02 1.25882582e-01 0.00000000e+00 4.19608605e-02 0.00000000e+00 4.19608605e-02 4.19608605e-02 4.19608605e-02 0.00000000e+00 4.19608605e-02 0.00000000e+00 0.00000000e+00 0.00000000e+00 1.25882582e-01 4.19608605e-02 8.39217210e-02 4.19608605e-02 1.25882582e-01 1.25882582e-01 8.39217210e-02 2.09804303e-01 1.67843442e-01 1.25882582e-01 1.67843442e-01 0.00000000e+00 1.25882582e-01 4.19608605e-02 2.09804303e-01 0.00000000e+00 8.39217210e-02 1.67843442e-01 4.19608605e-02 4.19608605e-01 4.19608605e-01 2.93726024e-01 2.51765163e-01 1.25882582e-01 2.09804303e-01 3.35686884e-01 8.39217210e-02 2.09804303e-01 2.09804303e-01 2.93726024e-01 2.93726024e-01 2.93726024e-01 3.77647745e-01 1.67843442e-01 2.09804303e-01 2.93726024e-01 2.93726024e-01 2.51765163e-01 4.61569466e-01 2.09804303e-01 1.25882582e-01 5.03530326e-01 3.35686884e-01 2.09804303e-01 4.19608605e-01 1.25882582e-01 1.67843442e-01 3.77647745e-01 3.35686884e-01 4.61569466e-01 2.51765163e-01 5.45491187e-01 4.19608605e-01 3.77647745e-01 5.87452047e-01 2.09804303e-01 4.19608605e-01 5.03530326e-01 2.09804303e-01 4.61569466e-01 5.45491187e-01 1.25882582e-01 1.67843442e-01 2.51765163e-01 3.77647745e-01 2.51765163e-01 4.19608605e-01 4.61569466e-01 5.03530326e-01 2.93726024e-01 3.77647745e-01 2.51765163e-01 2.51765163e-01 4.19608605e-01 3.35686884e-01 2.09804303e-01 1.67843442e-01 1.67843442e-01 4.61569466e-01 3.77647745e-01 5.45491187e-01 5.03530326e-01 5.45491187e-01 5.03530326e-01 2.93726024e-01 6.29412908e-01 4.61569466e-01 2.51765163e-01 4.61569466e-01 4.19608605e-01 3.77647745e-01 2.93726024e-01 5.87452047e-01 5.45491187e-01 5.87452047e-01 6.71373768e-01 5.03530326e-01 3.77647745e-01 4.19608605e-01 7.13334629e-01 3.77647745e-01 2.09804303e-01 6.29412908e-01 3.77647745e-01 2.93726024e-01 5.45491187e-01 3.77647745e-01 6.29412908e-01 4.19608605e-01 4.61569466e-01 5.45491187e-01 5.45491187e-01 5.45491187e-01 1.00706065e+00 4.19608605e-01 3.35686884e-01 4.19608605e-01 5.87452047e-01 7.13334629e-01 4.19608605e-01 4.19608605e-01 7.13334629e-01 7.97256350e-01 1.00706065e+00 5.45491187e-01 8.81178071e-01 6.71373768e-01 6.29412908e-01 6.71373768e-01 5.45491187e-01 5.87452047e-01 6.29412908e-01 7.13334629e-01 3.35686884e-01 8.81178071e-01 7.13334629e-01 1.00706065e+00 5.03530326e-01 5.03530326e-01 6.71373768e-01 5.87452047e-01 1.04902151e+00 5.87452047e-01 5.03530326e-01 6.29412908e-01 8.81178071e-01 8.81178071e-01 7.97256350e-01 7.55295489e-01 5.45491187e-01 7.97256350e-01 5.87452047e-01 7.13334629e-01 8.81178071e-01 7.13334629e-01 1.09098237e+00 9.65099792e-01 1.04902151e+00 6.29412908e-01 8.81178071e-01 5.03530326e-01 1.00706065e+00 9.23138931e-01 9.23138931e-01 7.55295489e-01 5.45491187e-01 7.97256350e-01 6.71373768e-01 5.45491187e-01 7.55295489e-01 7.55295489e-01 1.17490409e+00 5.45491187e-01 7.55295489e-01 9.23138931e-01 1.09098237e+00 8.39217210e-01 8.39217210e-01 7.13334629e-01 9.65099792e-01 7.13334629e-01 7.97256350e-01 9.23138931e-01 9.23138931e-01 1.00706065e+00 9.23138931e-01 1.21686496e+00 8.81178071e-01 9.23138931e-01 6.71373768e-01 1.09098237e+00 1.25882582e+00 8.81178071e-01 1.04902151e+00 1.42666926e+00 1.21686496e+00 6.71373768e-01 8.81178071e-01 1.04902151e+00 1.25882582e+00 1.04902151e+00 1.13294323e+00 1.04902151e+00 8.39217210e-01 1.30078668e+00 1.13294323e+00 1.25882582e+00 1.00706065e+00 1.04902151e+00 1.17490409e+00 1.00706065e+00 1.17490409e+00 8.39217210e-01 1.09098237e+00 9.65099792e-01 5.03530326e-01 5.87452047e-01 1.21686496e+00 8.39217210e-01 6.71373768e-01 5.87452047e-01 3.35686884e-01 2.93726024e-01 2.51765163e-01 1.67843442e-01 
      </Histogram>
    </PDF>
    <PDF Name="BDTG_PDFBkg" MinNSmooth="0" MaxNSmooth="0" InterpolMethod="2" KDE_type="1" KDE_iter="1" KDE_border="1" KDE_finefactor="1.0000000000000000e+00">
      <Histogram Name="BDT_tr_B_original" NBins="242" XMin="-9.5640599727630615e-01" XMax="9.4385075569152832e-01" HasEquidistantBins="1">
        2.43319114e-02 2.43153278e-02 4.86348081e-02 1.21447209e-01 2.06169832e-01 1.82153181e-01 3.21651290e-01 2.97370803e-01 3.52387494e-01 5.57028152e-01 6.37476953e-01 7.89064139e-01 7.64688391e-01 6.68050244e-01 7.95189194e-01 8.62149690e-01 1.12936670e+00 8.86748261e-01 8.26156160e-01 1.00178692e+00 1.21413295e+00 1.21385098e+00 9.71972337e-01 1.15315859e+00 1.00177771e+00 1.05632288e+00 1.00199456e+00 7.34593493e-01 1.08669931e+00 9.34860398e-01 1.14745445e+00 1.03145530e+00 1.25666592e+00 1.24499739e+00 1.33534766e+00 1.03775286e+00 1.05106195e+00 9.90153827e-01 9.28498095e-01 1.16598191e+00 1.28644591e+00 1.19023262e+00 1.02657287e+00 1.13501819e+00 1.08618888e+00 1.21974557e+00 1.29269260e+00 1.00048355e+00 1.02648551e+00 9.46347077e-01 1.09231000e+00 1.01314656e+00 9.34612284e-01 9.88444599e-01 8.92367615e-01 9.34661311e-01 8.37343692e-01 8.31891726e-01 7.77292286e-01 1.06193975e+00 1.00154555e+00 8.62002377e-01 8.62198896e-01 1.11648287e+00 9.58635073e-01 8.44396267e-01 8.55322125e-01 8.80382766e-01 8.00408427e-01 8.85855830e-01 9.10365353e-01 8.79584839e-01 7.22283782e-01 8.07058898e-01 7.40746515e-01 8.49602572e-01 8.07444713e-01 6.00814467e-01 7.34378696e-01 6.79178801e-01 8.67619311e-01 7.34032317e-01 6.74184913e-01 6.13050437e-01 6.25257609e-01 8.49748119e-01 6.91991487e-01 6.43829561e-01 7.27822788e-01 8.25331043e-01 5.52246152e-01 5.27965642e-01 6.49307050e-01 5.27671913e-01 6.25565384e-01 6.25154416e-01 4.98032098e-01 5.88804499e-01 4.91353806e-01 6.31217215e-01 7.70779119e-01 5.57730269e-01 6.55879303e-01 5.28249091e-01 6.55562984e-01 4.97577839e-01 5.89097170e-01 8.18495823e-01 6.36592468e-01 6.36745346e-01 5.58788299e-01 3.64382134e-01 5.58158737e-01 5.03936436e-01 7.04376587e-01 4.91873099e-01 4.85839461e-01 6.43123254e-01 6.19022612e-01 4.49237485e-01 4.43113629e-01 5.28089898e-01 4.19178495e-01 5.27235542e-01 5.28362899e-01 6.19282808e-01 4.92098013e-01 4.96931090e-01 5.34343867e-01 3.88871325e-01 5.16014007e-01 4.97938810e-01 5.16083580e-01 4.61410390e-01 5.34051653e-01 5.15676080e-01 4.49574500e-01 5.52550291e-01 4.61835077e-01 4.48927515e-01 4.49231842e-01 4.97727371e-01 4.67653587e-01 3.22055955e-01 4.06954806e-01 5.58235151e-01 4.91358747e-01 4.67436889e-01 4.43374115e-01 5.10014885e-01 3.94635140e-01 4.49090026e-01 3.27943452e-01 4.41838767e-01 4.36873492e-01 3.21688301e-01 3.46014202e-01 4.24782600e-01 2.79495705e-01 3.03696890e-01 5.45597019e-01 4.24903570e-01 2.85248517e-01 2.48457172e-01 2.42844333e-01 2.60734392e-01 4.00336285e-01 3.03933626e-01 4.18408762e-01 2.97315862e-01 2.61170666e-01 2.49124479e-01 2.18726326e-01 3.39614775e-01 3.45240681e-01 3.58134506e-01 4.49358852e-01 3.21836790e-01 2.54854331e-01 2.54959905e-01 3.50854943e-01 4.18726576e-01 3.03354256e-01 2.97409585e-01 2.12301874e-01 2.85397107e-01 1.94195253e-01 3.27263745e-01 2.54729130e-01 2.55040658e-01 7.28269081e-02 2.12170531e-01 2.36753289e-01 2.60737875e-01 2.36771550e-01 2.24643581e-01 2.97759287e-01 1.63646536e-01 2.49138987e-01 1.26974536e-01 1.09306244e-01 1.45693230e-01 1.33631056e-01 1.33360064e-01 3.03316783e-01 1.15365315e-01 2.12365308e-01 1.57914751e-01 1.45401686e-01 1.21424396e-01 1.33728690e-01 8.50627909e-02 9.71600423e-02 1.63595194e-01 1.15372106e-01 2.30552011e-01 1.27396469e-01 1.08720918e-01 3.64777337e-02 1.15219773e-01 9.69732440e-02 7.29667195e-02 1.51613692e-01 1.21549981e-02 3.64724022e-02 4.85421973e-02 7.28120925e-02 3.64848333e-02 2.43082282e-02 1.21695055e-02 3.64943173e-02 0.00000000e+00 0.00000000e+00 1.21624059e-02 0.00000000e+00 1.20478088e-02 4.19907195e-02 1.21458223e-02 0.00000000e+00 1.21549981e-02 1.20407804e-02 0.00000000e+00 
      </Histogram>
    </PDF>
  </MVAPdfs>
  <Weights NTrees="200" AnalysisType="1">
    <BinaryTree type="DecisionTree" boostWeight="1.0000000000000000e+00" itree="0">
      <Node pos="s" depth="0" NCoef="0" IVar="7" Cut="1.1504698991775513e+00" cType="1" res="4.9571636319160461e-01" rms="5.0457799434661865e-01" purity="4.9966633319854736e-01" nType="0">
        <Node pos="l" depth="1" NCoef="0" IVar="4" Cut="1.1623423099517822e+00" cType="1" res="7.2536781430244446e-02" rms="1.2997338175773621e-01" purity="6.3908517360687256e-01" nType="0">
          <Node pos="l" depth="2" NCoef="0" IVar="7" Cut="6.2558478116989136e-01" cType="1" res="6.5820686519145966e-02" rms="5.7890981435775757e-01" purity="4.4480165839195251e-01" nType="0">
            <Node pos="l" depth="3" NCoef="0" IVar="-1" Cut="0.0000000000000000e+00" cType="1" res="8.5378084331750870e-03" rms="4.9582940340042114e-01" purity="5.6444543600082397e-01" nType="-99"/>
            <Node pos="r" depth="3" NCoef="0" IVar="-1" Cut="0.0000000000000000e+00" cType="1" res="-1.8941802904009819e-02" rms="4.8433622717857361e-01" purity="3.7582910060882568e-01" nType="-99"/>
          </Node>
          <Node pos="r" depth="2" NCoef="0" IVar="5" Cut="1.4561260938644409e+00" cType="1" res="9.8145101219415665e-03" rms="6.5756835043430328e-02" purity="7.1799081563949585e-01" nType="0">
            <Node pos="l" depth="3" NCoef="0" IVar="-1" Cut="0.0000000000000000e+00" cType="1" res="1.2630139477550983e-02" rms="4.9074652791023254e-01" purity="5.9574884176254272e-01" nType="-99"/>
            <Node pos="r" depth="3" NCoef="0" IVar="-1" Cut="0.0000000000000000e+00" cType="1" res="3.2251499593257904e-02" rms="4.1389510035514832e-01" purity="7.8051888942718506e-01" nType="-99"/>
          </Node>
        </Node>
        <Node pos="r" depth="1" NCoef="0" IVar="2" Cut="2.8605849742889404e+00" cType="1" res="3.2595199346542358e-01" rms="-nan" purity="3.2778936624526978e-01" nType="0">
          <Node pos="l" depth="2" NCoef="0" IVar="2" Cut="1.6043272018432617e+00" cType="1" res="2.2694119811058044e-01" rms="-nan" purity="2.2756637632846832e-01" nType="0">
            <Node pos="l" depth="3" NCoef="0" IVar="-1" Cut="0.0000000000000000e+00" cType="1" res="-6.4912520349025726e-02" rms="3.7312409281730652e-01" purity="1.6716609895229340e-01" nType="-99"/>
            <Node pos="r" depth="3" NCoef="0" IVar="-1" Cut="0.0000000000000000e+00" cType="1" res="-3.6105219274759293e-02" rms="4.5087417960166931e-01" purity="2.8386932611465454e-01" nType="-99"/>
          </Node>
          <Node pos="r" depth="2" NCoef="0" IVar="10" Cut="3.7029827117919922e+01" cType="1" res="5.0479966402053833e-01" rms="-nan" purity="4.7070306539535522e-01" nType="0">
            <Node pos="l" depth="3" NCoef="0" IVar="-1" Cut="0.0000000000000000e+00" cType="1" res="-2.0151726901531219e-02" rms="4.8353847861289978e-01" purity="3.7275797128677368e-01" nType="-99"/>
            <Node pos="r" depth="3" NCoef="0" IVar="-1" Cut="0.0000000000000000e+00" cType="1" res="8.6033837869763374e-03" rms="4.9588534235954285e-01" purity="5.6401348114013672e-01" nType="-99"/>
          </Node>
        </Node>
      </Node>
    </BinaryTree>
    <BinaryTree type="DecisionTree" boostWeight="1.0000000000000000e+00" itree="1">
      <Node pos="s" depth="0" NCoef="0" IVar="7" Cut="9.8640495538711548e-01" cType="1" res="4.9571636319160461e-01" rms="5.0457799434661865e-01" purity="4.9966633319854736e-01" nType="0">
        <Node pos="l" depth="1" NCoef="0" IVar="2" Cut="2.4039402008056641e+00" cType="1" res="6.7203171551227570e-02" rms="1.3610672950744629e-01" purity="6.6635710000991821e-01" nType="0">
          <Node pos="l" depth="2" NCoef="0" IVar="5" Cut="1.3034653663635254e+00" cType="1" res="4.8187097907066345e-01" rms="1.4655748009681702e-01" purity="5.0610911846160889e-01" nType="0">
            <Node pos="l" depth="3" NCoef="0" IVar="-1" Cut="0.0000000000000000e+00" cType="1" res="-2.2235225886106491e-02" rms="4.7802999615669250e-01" purity="3.5662218928337097e-01" nType="-99"/>
            <Node pos="r" depth="3" NCoef="0" IVar="-1" Cut="0.0000000000000000e+00" cType="1" res="1.1737173423171043e-02" rms="4.8881268501281738e-01" purity="5.9429675340652466e-01" nType="-99"/>
          </Node>
          <Node pos="r" depth="2" NCoef="0" IVar="5" Cut="9.2191255092620850e-01" cType="1" res="2.2687751054763794e-01" rms="5.7428014278411865e-01" purity="7.6092422008514404e-01" nType="0">
            <Node pos="l" depth="3" NCoef="0" IVar="-1" Cut="0.0000000000000000e+00" cType="1" res="1.4540012925863266e-02" rms="4.8543944954872131e-01" purity="6.1783641576766968e-01" nType="-99"/>
            <Node pos="r" depth="3" NCoef="0" IVar="-1" Cut="0.0000000000000000e+00" cType="1" res="3.3268701285123825e-02" rms="3.9262264966964722e-01" purity="8.0885738134384155e-01" nType="-99"/>
          </Node>
        </Node>
        <Node pos="r" depth="1" NCoef="0" IVar="2" Cut="2.7461814880371094e+00" cType="1" res="3.5633215308189392e-01" rms="-nan" purity="3.5815796256065369e-01" nType="0">
          <Node pos="l" depth="2" NCoef="0" IVar="7" Cut="1.1577901840209961e+00" cType="1" res="2.5102648138999939e-01" rms="-nan" purity="2.5158682465553284e-01" nType="0">
            <Node pos="l" depth="3" NCoef="0" IVar="-1" Cut="0.0000000000000000e+00" cType="1" res="-1.4460852369666100e-02" rms="4.8840561509132385e-01" purity="4.0134736895561218e-01" nType="-99"/>
            <Node pos="r" depth="3" NCoef="0" IVar="-1" Cut="0.0000000000000000e+00" cType="1" res="-4.6324446797370911e-02" rms="4.1310396790504456e-01" purity="2.1961887180805206e-01" nType="-99"/>
          </Node>
          <Node pos="r" depth="2" NCoef="0" IVar="9" Cut="1.2816013097763062e+00" cType="1" res="4.9389177560806274e-01" rms="-nan" purity="4.8482021689414978e-01" nType="0">
            <Node pos="l" depth="3" NCoef="0" IVar="-1" Cut="0.0000000000000000e+00" cType="1" res="-9.6457302570343018e-03" rms="4.9360379576683044e-01" purity="4.3429049849510193e-01" nType="-99"/>
            <Node pos="r" depth="3" NCoef="0" IVar="-1" Cut="0.0000000000000000e+00" cType="1" res="1.8072925508022308e-02" rms="4.7633302211761475e-01" purity="6.4400696754455566e-01" nType="-99"/>
          </Node>
        </Node>
      </Node>
    </BinaryTree>
    <BinaryTree type="DecisionTree" boostWeight="1.0000000000000000e+00" itree="2">
      <Node pos="s" depth="0" NCoef="0" IVar="7" Cut="1.1504698991775513e+00" cType="1" res="1.0522570260480000e+13" rms="-nan" purity="4.9966633319854736e-01" nType="0">
        <Node pos="l" depth="1" NCoef="0" IVar="3" Cut="1.9943234920501709e+00" cType="1" res="7.2536781430244446e-02" rms="1.2997338175773621e-01" purity="6.3908517360687256e-01" nType="0">
          <Node pos="l" depth="2" NCoef="0" IVar="5" Cut="1.6864066123962402e+00" cType="1" res="5.3250003606081009e-02" rms="5.3038662672042847e-01" purity="4.7281271219253540e-01" nType="0">
            <Node pos="l" depth="3" NCoef="0" IVar="-1" Cut="0.0000000000000000e+00" cType="1" res="-2.0976150408387184e-02" rms="4.7686991095542908e-01" purity="3.5997724533081055e-01" nType="-99"/>
            <Node pos="r" depth="3" NCoef="0" IVar="-1" Cut="0.0000000000000000e+00" cType="1" res="8.0881388857960701e-03" rms="4.9084377288818359e-01" purity="5.6938046216964722e-01" nType="-99"/>
          </Node>
          <Node pos="r" depth="2" NCoef="0" IVar="7" Cut="4.5448714494705200e-01" cType="1" res="1.1483786627650261e-02" rms="7.6103314757347107e-02" purity="7.2587567567825317e-01" nType="0">
            <Node pos="l" depth="3" NCoef="0" IVar="-1" Cut="0.0000000000000000e+00" cType="1" res="3.7192739546298981e-02" rms="3.3773747086524963e-01" purity="8.6639320850372314e-01" nType="-99"/>
            <Node pos="r" depth="3" NCoef="0" IVar="-1" Cut="0.0000000000000000e+00" cType="1" res="2.0076375454664230e-02" rms="4.6234586834907532e-01" purity="6.8192565441131592e-01" nType="-99"/>
          </Node>
        </Node>
        <Node pos="r" depth="1" NCoef="0" IVar="2" Cut="3.0893919467926025e+00" cType="1" res="3.2595199346542358e-01" rms="-nan" purity="3.2778936624526978e-01" nType="0">
          <Node pos="l" depth="2" NCoef="0" IVar="9" Cut="5.1391005516052246e-01" cType="1" res="2.3747017979621887e-01" rms="-nan" purity="2.3804795742034912e-01" nType="0">
            <Node pos="l" depth="3" NCoef="0" IVar="-1" Cut="0.0000000000000000e+00" cType="1" res="-4.6144764870405197e-02" rms="4.0320441126823425e-01" purity="2.0633557438850403e-01" nType="-99"/>
            <Node pos="r" depth="3" NCoef="0" IVar="-1" Cut="0.0000000000000000e+00" cType="1" res="-1.3113412074744701e-02" rms="4.8093730211257935e-01" purity="3.7762957811355591e-01" nType="-99"/>
          </Node>
          <Node pos="r" depth="2" NCoef="0" IVar="10" Cut="3.7029827117919922e+01" cType="1" res="4.9043849110603333e-01" rms="4.2616140097379684e-02" purity="4.8459592461585999e-01" nType="0">
            <Node pos="l" depth="3" NCoef="0" IVar="-1" Cut="0.0000000000000000e+00" cType="1" res="-1.6251789405941963e-02" rms="4.8563608527183533e-01" purity="3.8467395305633545e-01" nType="-99"/>
            <Node pos="r" depth="3" NCoef="0" IVar="-1" Cut="0.0000000000000000e+00" cType="1" res="1.0263118892908096e-02" rms="4.9273246526718140e-01" purity="5.7989352941513062e-01" nType="-99"/>
          </Node>
        </Node>
      </Node>
    </BinaryTree>
    <BinaryTree type="DecisionTree" boostWeight="1.0000000000000000e+00" itree="3">
      <Node pos="s" depth="0" NCoef="0" IVar="7" Cut="9.0437245368957520e-01" cType="1" res="4.9571636319160461e-01" rms="5.0457799434661865e-01" purity="4.9966633319854736e-01" nType="0">
        <Node pos="l" depth="1" NCoef="0" IVar="2" Cut="2.4039402008056641e+00" cType="1" res="6.5573342144489288e-02" rms="1.3874451816082001e-01" purity="6.8136948347091675e-01" nType="0">
          <Node pos="l" depth="2" NCoef="0" IVar="5" Cut="1.7610875368118286e+00" cType="1" res="4.6418467164039612e-01" rms="2.1604311466217041e-01" purity="5.2309489250183105e-01" nType="0">
            <Node pos="l" depth="3" NCoef="0" IVar="-1" Cut="0.0000000000000000e+00" cType="1" res="-1.4885630458593369e-02" rms="4.8429825901985168e-01" purity="3.9187392592430115e-01" nType="-99"/>
            <Node pos="r" depth="3" NCoef="0" IVar="-1" Cut="0.0000000000000000e+00" cType="1" res="1.4996740035712719e-02" rms="4.7810766100883484e-01" purity="6.3738387823104858e-01" nType="-99"/>
          </Node>
          <Node pos="r" depth="2" NCoef="0" IVar="10" Cut="3.3248542785644531e+01" cType="1" res="2.1571908891201019e-01" rms="5.8364576101303101e-01" purity="7.7223652601242065e-01" nType="0">
            <Node pos="l" depth="3" NCoef="0" IVar="-1" Cut="0.0000000000000000e+00" cType="1" res="1.5599892474710941e-02" rms="4.7071945667266846e-01" purity="6.5920358896255493e-01" nType="-99"/>
            <Node pos="r" depth="3" NCoef="0" IVar="-1" Cut="0.0000000000000000e+00" cType="1" res="3.2226588577032089e-02" rms="3.7694635987281799e-01" purity="8.2488065958023071e-01" nType="-99"/>
          </Node>
        </Node>
        <Node pos="r" depth="1" NCoef="0" IVar="2" Cut="2.7461814880371094e+00" cType="1" res="3.7111711502075195e-01" rms="6.9942849874496460e-01" purity="3.7307184934616089e-01" nType="0">
          <Node pos="l" depth="2" NCoef="0" IVar="9" Cut="9.0760618448257446e-01" cType="1" res="2.6262089610099792e-01" rms="-nan" purity="2.6313784718513489e-01" nType="0">
            <Node pos="l" depth="3" NCoef="0" IVar="-1" Cut="0.0000000000000000e+00" cType="1" res="-3.7813968956470490e-02" rms="4.1832473874092102e-01" purity="2.3392009735107422e-01" nType="-99"/>
            <Node pos="r" depth="3" NCoef="0" IVar="-1" Cut="0.0000000000000000e+00" cType="1" res="-6.6873077303171158e-03" rms="4.8742869496345520e-01" purity="4.1886729001998901e-01" nType="-99"/>
          </Node>
          <Node pos="r" depth="2" NCoef="0" IVar="7" Cut="1.4452260732650757e+00" cType="1" res="4.7697842121124268e-01" rms="1.5420992672443390e-01" purity="5.0220668315887451e-01" nType="0">
            <Node pos="l" depth="3" NCoef="0" IVar="-1" Cut="0.0000000000000000e+00" cType="1" res="1.2171105481684208e-02" rms="4.8564130067825317e-01" purity="5.9747081995010376e-01" nType="-99"/>
            <Node pos="r" depth="3" NCoef="0" IVar="-1" Cut="0.0000000000000000e+00" cType="1" res="-1.4295093715190887e-02" rms="4.8414286971092224e-01" purity="3.9585086703300476e-01" nType="-99"/>
          </Node>
        </Node>
      </Node>
    </BinaryTree>
    <BinaryTree type="DecisionTree" boostWeight="1.0000000000000000e+00" itree="4">
      <Node pos="s" depth="0" NCoef="0" IVar="7" Cut="9.8640495538711548e-01" cType="1" res="0.0000000000000000e+00" rms="0.0000000000000000e+00" purity="4.9966633319854736e-01" nType="0">
        <Node pos="l" depth="1" NCoef="0" IVar="2" Cut="2.6326868534088135e+00" cType="1" res="6.7203171551227570e-02" rms="1.3610672950744629e-01" purity="6.6635710000991821e-01" nType="0">
          <Node pos="l" depth="2" NCoef="0" IVar="5" Cut="1.3800536394119263e+00" cType="1" res="2.5032356381416321e-01" rms="7.9529631137847900e-01" purity="5.2583193778991699e-01" nType="0">
            <Node pos="l" depth="3" NCoef="0" IVar="-1" Cut="0.0000000000000000e+00" cType="1" res="-1.4782798476517200e-02" rms="4.8163333535194397e-01" purity="3.8727867603302002e-01" nType="-99"/>
            <Node pos="r" depth="3" NCoef="0" IVar="-1" Cut="0.0000000000000000e+00" cType="1" res="1.1506711132824421e-02" rms="4.8172610998153687e-01" purity="6.1274617910385132e-01" nType="-99"/>
          </Node>
          <Node pos="r" depth="2" NCoef="0" IVar="10" Cut="4.1494400024414062e+01" cType="1" res="3.6838048696517944e-01" rms="4.5462119579315186e-01" purity="7.7331608533859253e-01" nType="0">
            <Node pos="l" depth="3" NCoef="0" IVar="-1" Cut="0.0000000000000000e+00" cType="1" res="1.8427727743983269e-02" rms="4.5587846636772156e-01" purity="6.9657331705093384e-01" nType="-99"/>
            <Node pos="r" depth="3" NCoef="0" IVar="-1" Cut="0.0000000000000000e+00" cType="1" res="3.3455185592174530e-02" rms="3.5124894976615906e-01" purity="8.5326343774795532e-01" nType="-99"/>
          </Node>
        </Node>
        <Node pos="r" depth="1" NCoef="0" IVar="4" Cut="1.3121941089630127e+00" cType="1" res="3.5633215308189392e-01" rms="-nan" purity="3.5815796256065369e-01" nType="0">
          <Node pos="l" depth="2" NCoef="0" IVar="2" Cut="1.6787739992141724e+00" cType="1" res="7.6536440849304199e-01" rms="-nan" purity="2.3403003811836243e-01" nType="0">
            <Node pos="l" depth="3" NCoef="0" IVar="-1" Cut="0.0000000000000000e+00" cType="1" res="-4.6270795166492462e-02" rms="3.8238948583602905e-01" purity="1.8129269778728485e-01" nType="-99"/>
            <Node pos="r" depth="3" NCoef="0" IVar="-1" Cut="0.0000000000000000e+00" cType="1" res="-2.2221386432647705e-02" rms="4.5996439456939697e-01" purity="3.1044346094131470e-01" nType="-99"/>
          </Node>
          <Node pos="r" depth="2" NCoef="0" IVar="9" Cut="1.6618682146072388e+00" cType="1" res="4.6713736653327942e-01" rms="9.1545864939689636e-02" purity="4.5446035265922546e-01" nType="0">
            <Node pos="l" depth="3" NCoef="0" IVar="-1" Cut="0.0000000000000000e+00" cType="1" res="-1.0506089776754379e-02" rms="4.8270726203918457e-01" purity="4.0561172366142273e-01" nType="-99"/>
            <Node pos="r" depth="3" NCoef="0" IVar="-1" Cut="0.0000000000000000e+00" cType="1" res="1.7316849902272224e-02" rms="4.7242400050163269e-01" purity="6.3679176568984985e-01" nType="-99"/>
          </Node>
        </Node>
      </Node>
    </BinaryTree>
    <BinaryTree type="DecisionTree" boostWeight="1.0000000000000000e+00" itree="5">
      <Node pos="s" depth="0" NCoef="0" IVar="7" Cut="1.1504698991775513e+00" cType="1" res="4.9571636319160461e-01" rms="5.0457799434661865e-01" purity="4.9966633319854736e-01" nType="0">
        <Node pos="l" depth="1" NCoef="0" IVar="4" Cut="1.1623423099517822e+00" cType="1" res="7.2536781430244446e-02" rms="1.2997338175773621e-01" purity="6.3908517360687256e-01" nType="0">
          <Node pos="l" depth="2" NCoef="0" IVar="6" Cut="2.4067636489868164e+01" cType="1" res="6.5820686519145966e-02" rms="5.7890981435775757e-01" purity="4.4480165839195251e-01" nType="0">
            <Node pos="l" depth="3" NCoef="0" IVar="-1" Cut="0.0000000000000000e+00" cType="1" res="-2.0387612283229828e-02" rms="4.7325554490089417e-01" purity="3.5157039761543274e-01" nType="-99"/>
            <Node pos="r" depth="3" NCoef="0" IVar="-1" Cut="0.0000000000000000e+00" cType="1" res="4.4521782547235489e-03" rms="4.8882448673248291e-01" purity="5.3033900260925293e-01" nType="-99"/>
          </Node>
          <Node pos="r" depth="2" NCoef="0" IVar="5" Cut="1.0733205080032349e+00" cType="1" res="9.8145101219415665e-03" rms="6.5756835043430328e-02" purity="7.1799081563949585e-01" nType="0">
            <Node pos="l" depth="3" NCoef="0" IVar="-1" Cut="0.0000000000000000e+00" cType="1" res="6.1414628289639950e-03" rms="4.8675462603569031e-01" purity="5.7419842481613159e-01" nType="-99"/>
            <Node pos="r" depth="3" NCoef="0" IVar="-1" Cut="0.0000000000000000e+00" cType="1" res="2.5240881368517876e-02" rms="4.1452878713607788e-01" purity="7.7041250467300415e-01" nType="-99"/>
          </Node>
        </Node>
        <Node pos="r" depth="1" NCoef="0" IVar="2" Cut="3.0893919467926025e+00" cType="1" res="3.2595199346542358e-01" rms="-nan" purity="3.2778936624526978e-01" nType="0">
          <Node pos="l" depth="2" NCoef="0" IVar="9" Cut="2.1112805604934692e-01" cType="1" res="2.3747017979621887e-01" rms="-nan" purity="2.3804795742034912e-01" nType="0">
            <Node pos="l" depth="3" NCoef="0" IVar="-1" Cut="0.0000000000000000e+00" cType="1" res="-3.8011375814676285e-02" rms="4.0088221430778503e-01" purity="2.0446847379207611e-01" nType="-99"/>
            <Node pos="r" depth="3" NCoef="0" IVar="-1" Cut="0.0000000000000000e+00" cType="1" res="-1.0826522484421730e-02" rms="4.7494775056838989e-01" purity="3.6751443147659302e-01" nType="-99"/>
          </Node>
          <Node pos="r" depth="2" NCoef="0" IVar="10" Cut="3.7029827117919922e+01" cType="1" res="4.9043849110603333e-01" rms="4.2616140097379684e-02" purity="4.8459592461585999e-01" nType="0">
            <Node pos="l" depth="3" NCoef="0" IVar="-1" Cut="0.0000000000000000e+00" cType="1" res="-1.4270236715674400e-02" rms="4.8349848389625549e-01" purity="3.8467395305633545e-01" nType="-99"/>
            <Node pos="r" depth="3" NCoef="0" IVar="-1" Cut="0.0000000000000000e+00" cType="1" res="1.0227640159428120e-02" rms="4.9104055762290955e-01" purity="5.7989352941513062e-01" nType="-99"/>
          </Node>
        </Node>
      </Node>
    </BinaryTree>
    <BinaryTree type="DecisionTree" boostWeight="1.0000000000000000e+00" itree="6">
      <Node pos="s" depth="0" NCoef="0" IVar="7" Cut="8.2234001159667969e-01" cType="1" res="4.9571636319160461e-01" rms="5.0457799434661865e-01" purity="4.9966633319854736e-01" nType="0">
        <Node pos="l" depth="1" NCoef="0" IVar="2" Cut="1.7177004814147949e+00" cType="1" res="6.1953485012054443e-02" rms="1.4099068939685822e-01" purity="6.9647186994552612e-01" nType="0">
          <Node pos="l" depth="2" NCoef="0" IVar="-1" Cut="0.0000000000000000e+00" cType="1" res="-2.8066905215382576e-03" rms="4.9032986164093018e-01" purity="4.8164367675781250e-01" nType="-99"/>
          <Node pos="r" depth="2" NCoef="0" IVar="5" Cut="7.6890850067138672e-01" cType="1" res="2.3266308009624481e-01" rms="5.7092726230621338e-01" purity="7.5804221630096436e-01" nType="0">
            <Node pos="l" depth="3" NCoef="0" IVar="-1" Cut="0.0000000000000000e+00" cType="1" res="8.7151797488331795e-03" rms="4.8279500007629395e-01" purity="6.0048270225524902e-01" nType="-99"/>
            <Node pos="r" depth="3" NCoef="0" IVar="-1" Cut="0.0000000000000000e+00" cType="1" res="2.6859326288104057e-02" rms="3.9235848188400269e-01" purity="8.0326348543167114e-01" nType="-99"/>
          </Node>
        </Node>
        <Node pos="r" depth="1" NCoef="0" IVar="9" Cut="2.0421350002288818e+00" cType="1" res="3.8767027854919434e-01" rms="6.7841309309005737e-01" purity="3.8946741819381714e-01" nType="0">
          <Node pos="l" depth="2" NCoef="0" IVar="2" Cut="3.0895614624023438e+00" cType="1" res="1.4382018148899078e-01" rms="-nan" purity="3.4456595778465271e-01" nType="0">
            <Node pos="l" depth="3" NCoef="0" IVar="-1" Cut="0.0000000000000000e+00" cType="1" res="-2.7061915025115013e-02" rms="4.3095725774765015e-01" purity="2.6487573981285095e-01" nType="-99"/>
            <Node pos="r" depth="3" NCoef="0" IVar="-1" Cut="0.0000000000000000e+00" cType="1" res="-1.6083676018752158e-04" rms="4.9076792597770691e-01" purity="5.0141036510467529e-01" nType="-99"/>
          </Node>
          <Node pos="r" depth="2" NCoef="0" IVar="-1" Cut="0.0000000000000000e+00" cType="1" res="1.5567609108984470e-02" rms="4.6896281838417053e-01" purity="6.2868094444274902e-01" nType="-99"/>
        </Node>
      </Node>
    </BinaryTree>
    <BinaryTree type="DecisionTree" boostWeight="1.0000000000000000e+00" itree="7">
      <Node pos="s" depth="0" NCoef="0" IVar="7" Cut="9.0437245368957520e-01" cType="1" res="4.9571636319160461e-01" rms="5.0457799434661865e-01" purity="4.9966633319854736e-01" nType="0">
        <Node pos="l" depth="1" NCoef="0" IVar="3" Cut="1.9955564737319946e+00" cType="1" res="0.0000000000000000e+00" rms="6.7706350819207728e-05" purity="6.8136948347091675e-01" nType="0">
          <Node pos="l" depth="2" NCoef="0" IVar="5" Cut="1.6858094930648804e+00" cType="1" res="5.8744199573993683e-02" rms="5.0838011503219604e-01" purity="5.1664245128631592e-01" nType="0">
            <Node pos="l" depth="3" NCoef="0" IVar="-1" Cut="0.0000000000000000e+00" cType="1" res="-1.6549549996852875e-02" rms="4.7549757361412048e-01" purity="3.7547492980957031e-01" nType="-99"/>
            <Node pos="r" depth="3" NCoef="0" IVar="-1" Cut="0.0000000000000000e+00" cType="1" res="1.2786971405148506e-02" rms="4.7335654497146606e-01" purity="6.4048397541046143e-01" nType="-99"/>
          </Node>
          <Node pos="r" depth="2" NCoef="0" IVar="7" Cut="4.4573470950126648e-01" cType="1" res="1.1661893688142300e-02" rms="7.8503496944904327e-02" purity="7.6211327314376831e-01" nType="0">
            <Node pos="l" depth="3" NCoef="0" IVar="-1" Cut="0.0000000000000000e+00" cType="1" res="3.1987104564905167e-02" rms="3.2892504334449768e-01" purity="8.7110531330108643e-01" nType="-99"/>
            <Node pos="r" depth="3" NCoef="0" IVar="-1" Cut="0.0000000000000000e+00" cType="1" res="1.7841946333646774e-02" rms="4.4305288791656494e-01" purity="7.1548563241958618e-01" nType="-99"/>
          </Node>
        </Node>
        <Node pos="r" depth="1" NCoef="0" IVar="9" Cut="2.0421350002288818e+00" cType="1" res="3.7111711502075195e-01" rms="6.9942849874496460e-01" purity="3.7307184934616089e-01" nType="0">
          <Node pos="l" depth="2" NCoef="0" IVar="2" Cut="3.0895614624023438e+00" cType="1" res="1.4617666602134705e-01" rms="-nan" purity="3.3161219954490662e-01" nType="0">
            <Node pos="l" depth="3" NCoef="0" IVar="-1" Cut="0.0000000000000000e+00" cType="1" res="-2.5458810850977898e-02" rms="4.2796960473060608e-01" purity="2.5655341148376465e-01" nType="-99"/>
            <Node pos="r" depth="3" NCoef="0" IVar="-1" Cut="0.0000000000000000e+00" cType="1" res="-1.9543697126209736e-03" rms="4.9234881997108459e-01" purity="4.8269012570381165e-01" nType="-99"/>
          </Node>
          <Node pos="r" depth="2" NCoef="0" IVar="-1" Cut="0.0000000000000000e+00" cType="1" res="1.2711455114185810e-02" rms="4.7585555911064148e-01" purity="6.0585403442382812e-01" nType="-99"/>
        </Node>
      </Node>
    </BinaryTree>
    <BinaryTree type="DecisionTree" boostWeight="1.0000000000000000e+00" itree="8">
      <Node pos="s" depth="0" NCoef="0" IVar="7" Cut="1.1504698991775513e+00" cType="1" res="4.9571636319160461e-01" rms="5.0457799434661865e-01" purity="4.9966633319854736e-01" nType="0">
        <Node pos="l" depth="1" NCoef="0" IVar="3" Cut="1.8281543254852295e+00" cType="1" res="7.2536781430244446e-02" rms="1.2997338175773621e-01" purity="6.3908517360687256e-01" nType="0">
          <Node pos="l" depth="2" NCoef="0" IVar="5" Cut="2.3757009506225586e+00" cType="1" res="5.7165957987308502e-02" rms="5.5069035291671753e-01" purity="4.5729440450668335e-01" nType="0">
            <Node pos="l" depth="3" NCoef="0" IVar="-1" Cut="0.0000000000000000e+00" cType="1" res="-1.4235008507966995e-02" rms="4.7510087490081787e-01" purity="3.8332629203796387e-01" nType="-99"/>
            <Node pos="r" depth="3" NCoef="0" IVar="-1" Cut="0.0000000000000000e+00" cType="1" res="9.6760988235473633e-03" rms="4.7585210204124451e-01" purity="5.9480994939804077e-01" nType="-99"/>
          </Node>
          <Node pos="r" depth="2" NCoef="0" IVar="7" Cut="4.5180732011795044e-01" cType="1" res="1.4741771854460239e-02" rms="8.1625550985336304e-02" purity="7.1839624643325806e-01" nType="0">
            <Node pos="l" depth="3" NCoef="0" IVar="-1" Cut="0.0000000000000000e+00" cType="1" res="3.0753923580050468e-02" rms="3.3169937133789062e-01" purity="8.6873406171798706e-01" nType="-99"/>
            <Node pos="r" depth="3" NCoef="0" IVar="-1" Cut="0.0000000000000000e+00" cType="1" res="1.4485636726021767e-02" rms="4.5780524611473083e-01" purity="6.7282629013061523e-01" nType="-99"/>
          </Node>
        </Node>
        <Node pos="r" depth="1" NCoef="0" IVar="2" Cut="3.5470056533813477e+00" cType="1" res="3.2595199346542358e-01" rms="-nan" purity="3.2778936624526978e-01" nType="0">
          <Node pos="l" depth="2" NCoef="0" IVar="2" Cut="1.7303640842437744e+00" cType="1" res="2.7537244558334351e-01" rms="-nan" purity="2.7629804611206055e-01" nType="0">
            <Node pos="l" depth="3" NCoef="0" IVar="-1" Cut="0.0000000000000000e+00" cType="1" res="-3.8051255047321320e-02" rms="3.7493714690208435e-01" purity="1.7189614474773407e-01" nType="-99"/>
            <Node pos="r" depth="3" NCoef="0" IVar="-1" Cut="0.0000000000000000e+00" cType="1" res="-1.3612472452223301e-02" rms="4.6530455350875854e-01" purity="3.4315800666809082e-01" nType="-99"/>
          </Node>
          <Node pos="r" depth="2" NCoef="0" IVar="-1" Cut="0.0000000000000000e+00" cType="1" res="4.8184059560298920e-03" rms="4.9096843600273132e-01" purity="5.2626925706863403e-01" nType="-99"/>
        </Node>
      </Node>
    </BinaryTree>
    <BinaryTree type="DecisionTree" boostWeight="1.0000000000000000e+00" itree="9">
      <Node pos="s" depth="0" NCoef="0" IVar="7" Cut="6.5827500820159912e-01" cType="1" res="4.9571636319160461e-01" rms="5.0457799434661865e-01" purity="4.9966633319854736e-01" nType="0">
        <Node pos="l" depth="1" NCoef="0" IVar="6" Cut="3.0698080062866211e+01" cType="1" res="5.1846697926521301e-02" rms="1.4955285191535950e-01" purity="7.3344165086746216e-01" nType="0">
          <Node pos="l" depth="2" NCoef="0" IVar="2" Cut="2.5147330760955811e+00" cType="1" res="3.2882302999496460e-01" rms="4.5900183916091919e-01" purity="6.4103132486343384e-01" nType="0">
            <Node pos="l" depth="3" NCoef="0" IVar="-1" Cut="0.0000000000000000e+00" cType="1" res="-3.0824567656964064e-03" rms="4.8658269643783569e-01" purity="4.9767699837684631e-01" nType="-99"/>
            <Node pos="r" depth="3" NCoef="0" IVar="-1" Cut="0.0000000000000000e+00" cType="1" res="1.8980367109179497e-02" rms="4.2837414145469666e-01" purity="7.4962216615676880e-01" nType="-99"/>
          </Node>
          <Node pos="r" depth="2" NCoef="0" IVar="-1" Cut="0.0000000000000000e+00" cType="1" res="2.8205577284097672e-02" rms="3.5691696405410767e-01" purity="8.3458232879638672e-01" nType="-99"/>
        </Node>
        <Node pos="r" depth="1" NCoef="0" IVar="4" Cut="1.1664202213287354e+00" cType="1" res="4.1829866170883179e-01" rms="6.3636672496795654e-01" purity="4.2006361484527588e-01" nType="0">
          <Node pos="l" depth="2" NCoef="0" IVar="10" Cut="8.2370750427246094e+01" cType="1" res="2.6195472478866577e-01" rms="-nan" purity="2.6195469498634338e-01" nType="0">
            <Node pos="l" depth="3" NCoef="0" IVar="-1" Cut="0.0000000000000000e+00" cType="1" res="-2.9061779379844666e-02" rms="4.1040334105491638e-01" purity="2.3493337631225586e-01" nType="-99"/>
            <Node pos="r" depth="3" NCoef="0" IVar="-1" Cut="0.0000000000000000e+00" cType="1" res="-6.0108094476163387e-03" rms="4.6729892492294312e-01" purity="3.5651049017906189e-01" nType="-99"/>
          </Node>
          <Node pos="r" depth="2" NCoef="0" IVar="7" Cut="1.3847798109054565e+00" cType="1" res="1.4004937373101711e-02" rms="5.2993740886449814e-02" purity="5.1416242122650146e-01" nType="0">
            <Node pos="l" depth="3" NCoef="0" IVar="-1" Cut="0.0000000000000000e+00" cType="1" res="9.7771426662802696e-03" rms="4.7204548120498657e-01" purity="6.0197180509567261e-01" nType="-99"/>
            <Node pos="r" depth="3" NCoef="0" IVar="-1" Cut="0.0000000000000000e+00" cType="1" res="-1.0832937434315681e-02" rms="4.7246423363685608e-01" purity="3.7729507684707642e-01" nType="-99"/>
          </Node>
        </Node>
      </Node>
    </BinaryTree>
    <BinaryTree type="DecisionTree" boostWeight="1.0000000000000000e+00" itree="10">
      <Node pos="s" depth="0" NCoef="0" IVar="7" Cut="1.1504698991775513e+00" cType="1" res="4.9824079871177673e-01" rms="5.0190415233373642e-02" purity="4.9966633319854736e-01" nType="0">
        <Node pos="l" depth="1" NCoef="0" IVar="3" Cut="2.1604926586151123e+00" cType="1" res="0.0000000000000000e+00" rms="0.0000000000000000e+00" purity="6.3908517360687256e-01" nType="0">
          <Node pos="l" depth="2" NCoef="0" IVar="5" Cut="2.5288774967193604e+00" cType="1" res="4.9936823546886444e-02" rms="5.0929337739944458e-01" purity="4.8622721433639526e-01" nType="0">
            <Node pos="l" depth="3" NCoef="0" IVar="-1" Cut="0.0000000000000000e+00" cType="1" res="-9.2271575704216957e-03" rms="4.7732368111610413e-01" purity="4.2285177111625671e-01" nType="-99"/>
            <Node pos="r" depth="3" NCoef="0" IVar="-1" Cut="0.0000000000000000e+00" cType="1" res="1.3920166529715061e-02" rms="4.5975089073181152e-01" purity="6.4358454942703247e-01" nType="-99"/>
          </Node>
          <Node pos="r" depth="2" NCoef="0" IVar="5" Cut="1.4552842378616333e+00" cType="1" res="9.7495177760720253e-03" rms="7.0576004683971405e-02" purity="7.3305219411849976e-01" nType="0">
            <Node pos="l" depth="3" NCoef="0" IVar="-1" Cut="0.0000000000000000e+00" cType="1" res="8.2081332802772522e-03" rms="4.7374647855758667e-01" purity="6.2554287910461426e-01" nType="-99"/>
            <Node pos="r" depth="3" NCoef="0" IVar="-1" Cut="0.0000000000000000e+00" cType="1" res="2.2528860718011856e-02" rms="3.9965260028839111e-01" purity="7.8639608621597290e-01" nType="-99"/>
          </Node>
        </Node>
        <Node pos="r" depth="1" NCoef="0" IVar="2" Cut="3.5470056533813477e+00" cType="1" res="3.2595199346542358e-01" rms="-nan" purity="3.2778936624526978e-01" nType="0">
          <Node pos="l" depth="2" NCoef="0" IVar="10" Cut="4.4125045776367188e+01" cType="1" res="2.7537244558334351e-01" rms="-nan" purity="2.7629804611206055e-01" nType="0">
            <Node pos="l" depth="3" NCoef="0" IVar="-1" Cut="0.0000000000000000e+00" cType="1" res="-2.8109254315495491e-02" rms="4.1370582580566406e-01" purity="2.3320418596267700e-01" nType="-99"/>
            <Node pos="r" depth="3" NCoef="0" IVar="-1" Cut="0.0000000000000000e+00" cType="1" res="-9.7852367907762527e-03" rms="4.5016524195671082e-01" purity="3.2448473572731018e-01" nType="-99"/>
          </Node>
          <Node pos="r" depth="2" NCoef="0" IVar="-1" Cut="0.0000000000000000e+00" cType="1" res="4.7866278328001499e-03" rms="4.9035260081291199e-01" purity="5.2626925706863403e-01" nType="-99"/>
        </Node>
      </Node>
    </BinaryTree>
    <BinaryTree type="DecisionTree" boostWeight="1.0000000000000000e+00" itree="11">
      <Node pos="s" depth="0" NCoef="0" IVar="7" Cut="6.5827500820159912e-01" cType="1" res="4.9571636319160461e-01" rms="5.0457799434661865e-01" purity="4.9966633319854736e-01" nType="0">
        <Node pos="l" depth="1" NCoef="0" IVar="6" Cut="3.0698080062866211e+01" cType="1" res="5.1846697926521301e-02" rms="1.4955285191535950e-01" purity="7.3344165086746216e-01" nType="0">
          <Node pos="l" depth="2" NCoef="0" IVar="2" Cut="2.5147330760955811e+00" cType="1" res="3.2882302999496460e-01" rms="4.5900183916091919e-01" purity="6.4103132486343384e-01" nType="0">
            <Node pos="l" depth="3" NCoef="0" IVar="-1" Cut="0.0000000000000000e+00" cType="1" res="-3.0630002729594707e-03" rms="4.8580661416053772e-01" purity="4.9767699837684631e-01" nType="-99"/>
            <Node pos="r" depth="3" NCoef="0" IVar="-1" Cut="0.0000000000000000e+00" cType="1" res="1.7396008595824242e-02" rms="4.2809650301933289e-01" purity="7.4962216615676880e-01" nType="-99"/>
          </Node>
          <Node pos="r" depth="2" NCoef="0" IVar="-1" Cut="0.0000000000000000e+00" cType="1" res="2.6408379897475243e-02" rms="3.5581928491592407e-01" purity="8.3458232879638672e-01" nType="-99"/>
        </Node>
        <Node pos="r" depth="1" NCoef="0" IVar="9" Cut="1.4717347621917725e+00" cType="1" res="4.1829866170883179e-01" rms="6.3636672496795654e-01" purity="4.2006361484527588e-01" nType="0">
          <Node pos="l" depth="2" NCoef="0" IVar="3" Cut="2.1252787113189697e+00" cType="1" res="1.3816496729850769e-01" rms="-nan" purity="3.7200257182121277e-01" nType="0">
            <Node pos="l" depth="3" NCoef="0" IVar="-1" Cut="0.0000000000000000e+00" cType="1" res="-2.4251503869891167e-02" rms="4.2073619365692139e-01" purity="2.5443321466445923e-01" nType="-99"/>
            <Node pos="r" depth="3" NCoef="0" IVar="-1" Cut="0.0000000000000000e+00" cType="1" res="-1.4390432043001056e-03" rms="4.7479400038719177e-01" purity="4.6652933955192566e-01" nType="-99"/>
          </Node>
          <Node pos="r" depth="2" NCoef="0" IVar="7" Cut="1.3858503103256226e+00" cType="1" res="3.2088491320610046e-01" rms="4.5826035737991333e-01" purity="6.2671530246734619e-01" nType="0">
            <Node pos="l" depth="3" NCoef="0" IVar="-1" Cut="0.0000000000000000e+00" cType="1" res="2.0175123587250710e-02" rms="4.3699100613594055e-01" purity="7.1281594038009644e-01" nType="-99"/>
            <Node pos="r" depth="3" NCoef="0" IVar="-1" Cut="0.0000000000000000e+00" cType="1" res="1.7226281343027949e-03" rms="4.8468846082687378e-01" purity="4.7383055090904236e-01" nType="-99"/>
          </Node>
        </Node>
      </Node>
    </BinaryTree>
    <BinaryTree type="DecisionTree" boostWeight="1.0000000000000000e+00" itree="12">
      <Node pos="s" depth="0" NCoef="0" IVar="7" Cut="8.2234001159667969e-01" cType="1" res="4.9824079871177673e-01" rms="5.0190415233373642e-02" purity="4.9966633319854736e-01" nType="0">
        <Node pos="l" depth="1" NCoef="0" IVar="2" Cut="1.7177004814147949e+00" cType="1" res="6.1953485012054443e-02" rms="1.4099068939685822e-01" purity="6.9647186994552612e-01" nType="0">
          <Node pos="l" depth="2" NCoef="0" IVar="-1" Cut="0.0000000000000000e+00" cType="1" res="-3.1866016797721386e-03" rms="4.8201382160186768e-01" purity="4.8164367675781250e-01" nType="-99"/>
          <Node pos="r" depth="2" NCoef="0" IVar="6" Cut="2.1031496047973633e+01" cType="1" res="2.3266308009624481e-01" rms="5.7092726230621338e-01" purity="7.5804221630096436e-01" nType="0">
            <Node pos="l" depth="3" NCoef="0" IVar="-1" Cut="0.0000000000000000e+00" cType="1" res="6.7911189980804920e-03" rms="4.6696215867996216e-01" purity="6.4513152837753296e-01" nType="-99"/>
            <Node pos="r" depth="3" NCoef="0" IVar="-1" Cut="0.0000000000000000e+00" cType="1" res="2.2699249908328056e-02" rms="3.8342204689979553e-01" purity="8.0516159534454346e-01" nType="-99"/>
          </Node>
        </Node>
        <Node pos="r" depth="1" NCoef="0" IVar="9" Cut="2.0421350002288818e+00" cType="1" res="3.8767027854919434e-01" rms="6.7841309309005737e-01" purity="3.8946741819381714e-01" nType="0">
          <Node pos="l" depth="2" NCoef="0" IVar="5" Cut="1.0727359056472778e+00" cType="1" res="1.4382018148899078e-01" rms="-nan" purity="3.4456595778465271e-01" nType="0">
            <Node pos="l" depth="3" NCoef="0" IVar="-1" Cut="0.0000000000000000e+00" cType="1" res="-2.8723776340484619e-02" rms="4.1856694221496582e-01" purity="2.5206241011619568e-01" nType="-99"/>
            <Node pos="r" depth="3" NCoef="0" IVar="-1" Cut="0.0000000000000000e+00" cType="1" res="-6.9221206940710545e-03" rms="4.5694032311439514e-01" purity="3.6976951360702515e-01" nType="-99"/>
          </Node>
          <Node pos="r" depth="2" NCoef="0" IVar="-1" Cut="0.0000000000000000e+00" cType="1" res="1.3576344586908817e-02" rms="4.6315729618072510e-01" purity="6.2868094444274902e-01" nType="-99"/>
        </Node>
      </Node>
    </BinaryTree>
    <BinaryTree type="DecisionTree" boostWeight="1.0000000000000000e+00" itree="13">
      <Node pos="s" depth="0" NCoef="0" IVar="7" Cut="1.2325024604797363e+00" cType="1" res="4.9571636319160461e-01" rms="5.0457799434661865e-01" purity="4.9966633319854736e-01" nType="0">
        <Node pos="l" depth="1" NCoef="0" IVar="4" Cut="1.1623423099517822e+00" cType="1" res="7.5728975236415863e-02" rms="1.2561039626598358e-01" purity="6.2142449617385864e-01" nType="0">
          <Node pos="l" depth="2" NCoef="0" IVar="8" Cut="0.0000000000000000e+00" cType="1" res="-3.9440885186195374e-02" rms="4.7055920958518982e-01" purity="4.2201161384582520e-01" nType="0">
            <Node pos="l" depth="3" NCoef="0" IVar="-1" Cut="0.0000000000000000e+00" cType="1" res="-2.0496681332588196e-02" rms="4.4846889376640320e-01" purity="3.3313953876495361e-01" nType="-99"/>
            <Node pos="r" depth="3" NCoef="0" IVar="-1" Cut="0.0000000000000000e+00" cType="1" res="3.5835155285894871e-03" rms="4.7669479250907898e-01" purity="4.8951125144958496e-01" nType="-99"/>
          </Node>
          <Node pos="r" depth="2" NCoef="0" IVar="5" Cut="1.3030039072036743e+00" cType="1" res="1.0208366438746452e-02" rms="6.3143275678157806e-02" purity="7.0373326539993286e-01" nType="0">
            <Node pos="l" depth="3" NCoef="0" IVar="-1" Cut="0.0000000000000000e+00" cType="1" res="3.0903273727744818e-03" rms="4.7709271311759949e-01" purity="5.7558435201644897e-01" nType="-99"/>
            <Node pos="r" depth="3" NCoef="0" IVar="-1" Cut="0.0000000000000000e+00" cType="1" res="1.9662013277411461e-02" rms="4.0940484404563904e-01" purity="7.6204717159271240e-01" nType="-99"/>
          </Node>
        </Node>
        <Node pos="r" depth="1" NCoef="0" IVar="2" Cut="3.0895614624023438e+00" cType="1" res="3.1588605046272278e-01" rms="-nan" purity="3.1752914190292358e-01" nType="0">
          <Node pos="l" depth="2" NCoef="0" IVar="6" Cut="3.0628553390502930e+01" cType="1" res="2.2658056020736694e-01" rms="-nan" purity="2.2722426056861877e-01" nType="0">
            <Node pos="l" depth="3" NCoef="0" IVar="-1" Cut="0.0000000000000000e+00" cType="1" res="-1.6575703397393227e-02" rms="4.2433890700340271e-01" purity="2.5076174736022949e-01" nType="-99"/>
            <Node pos="r" depth="3" NCoef="0" IVar="-1" Cut="0.0000000000000000e+00" cType="1" res="-4.6046383678913116e-02" rms="3.3272290229797363e-01" purity="1.3100381195545197e-01" nType="-99"/>
          </Node>
          <Node pos="r" depth="2" NCoef="0" IVar="10" Cut="3.7037956237792969e+01" cType="1" res="4.9711057543754578e-01" rms="-nan" purity="4.7679004073143005e-01" nType="0">
            <Node pos="l" depth="3" NCoef="0" IVar="-1" Cut="0.0000000000000000e+00" cType="1" res="-1.2913126498460770e-02" rms="4.7883489727973938e-01" purity="3.7565958499908447e-01" nType="-99"/>
            <Node pos="r" depth="3" NCoef="0" IVar="-1" Cut="0.0000000000000000e+00" cType="1" res="1.0009459219872952e-02" rms="4.8884981870651245e-01" purity="5.7261443138122559e-01" nType="-99"/>
          </Node>
        </Node>
      </Node>
    </BinaryTree>
    <BinaryTree type="DecisionTree" boostWeight="1.0000000000000000e+00" itree="14">
      <Node pos="s" depth="0" NCoef="0" IVar="7" Cut="6.5827500820159912e-01" cType="1" res="4.9824079871177673e-01" rms="5.0190415233373642e-02" purity="4.9966633319854736e-01" nType="0">
        <Node pos="l" depth="1" NCoef="0" IVar="6" Cut="3.8970573425292969e+01" cType="1" res="5.1846697926521301e-02" rms="1.4955285191535950e-01" purity="7.3344165086746216e-01" nType="0">
          <Node pos="l" depth="2" NCoef="0" IVar="2" Cut="3.0852947235107422e+00" cType="1" res="3.0076709389686584e-01" rms="4.9186366796493530e-01" purity="6.6861432790756226e-01" nType="0">
            <Node pos="l" depth="3" NCoef="0" IVar="-1" Cut="0.0000000000000000e+00" cType="1" res="1.1846093693748116e-03" rms="4.7629320621490479e-01" purity="5.6291669607162476e-01" nType="-99"/>
            <Node pos="r" depth="3" NCoef="0" IVar="-1" Cut="0.0000000000000000e+00" cType="1" res="2.0214512944221497e-02" rms="3.9161509275436401e-01" purity="8.0438286066055298e-01" nType="-99"/>
          </Node>
          <Node pos="r" depth="2" NCoef="0" IVar="-1" Cut="0.0000000000000000e+00" cType="1" res="2.7014931663870811e-02" rms="3.2548773288726807e-01" purity="8.6715769767761230e-01" nType="-99"/>
        </Node>
        <Node pos="r" depth="1" NCoef="0" IVar="9" Cut="1.4717347621917725e+00" cType="1" res="4.1829866170883179e-01" rms="6.3636672496795654e-01" purity="4.2006361484527588e-01" nType="0">
          <Node pos="l" depth="2" NCoef="0" IVar="2" Cut="1.7169992923736572e+00" cType="1" res="1.3816496729850769e-01" rms="-nan" purity="3.7200257182121277e-01" nType="0">
            <Node pos="l" depth="3" NCoef="0" IVar="-1" Cut="0.0000000000000000e+00" cType="1" res="-2.5797791779041290e-02" rms="3.9806222915649414e-01" purity="2.1590328216552734e-01" nType="-99"/>
            <Node pos="r" depth="3" NCoef="0" IVar="-1" Cut="0.0000000000000000e+00" cType="1" res="-2.4281688965857029e-03" rms="4.7207191586494446e-01" purity="4.4585815072059631e-01" nType="-99"/>
          </Node>
          <Node pos="r" depth="2" NCoef="0" IVar="10" Cut="3.8910202026367188e+01" cType="1" res="3.2088491320610046e-01" rms="4.5826035737991333e-01" purity="6.2671530246734619e-01" nType="0">
            <Node pos="l" depth="3" NCoef="0" IVar="-1" Cut="0.0000000000000000e+00" cType="1" res="3.3169067464768887e-03" rms="4.7416672110557556e-01" purity="5.4649811983108521e-01" nType="-99"/>
            <Node pos="r" depth="3" NCoef="0" IVar="-1" Cut="0.0000000000000000e+00" cType="1" res="1.9783988595008850e-02" rms="4.3505713343620300e-01" purity="6.9103896617889404e-01" nType="-99"/>
          </Node>
        </Node>
      </Node>
    </BinaryTree>
    <BinaryTree type="DecisionTree" boostWeight="1.0000000000000000e+00" itree="15">
      <Node pos="s" depth="0" NCoef="0" IVar="7" Cut="4.9421003460884094e-01" cType="1" res="4.9571636319160461e-01" rms="5.0457799434661865e-01" purity="4.9966633319854736e-01" nType="0">
        <Node pos="l" depth="1" NCoef="0" IVar="5" Cut="1.9153553247451782e+00" cType="1" res="3.7957742810249329e-02" rms="1.6098265349864960e-01" purity="7.8708833456039429e-01" nType="0">
          <Node pos="l" depth="2" NCoef="0" IVar="-1" Cut="0.0000000000000000e+00" cType="1" res="1.1076133698225021e-02" rms="4.5017671585083008e-01" purity="6.7170161008834839e-01" nType="-99"/>
          <Node pos="r" depth="2" NCoef="0" IVar="-1" Cut="0.0000000000000000e+00" cType="1" res="2.6591666042804718e-02" rms="3.1915330886840820e-01" purity="8.7191992998123169e-01" nType="-99"/>
        </Node>
        <Node pos="r" depth="1" NCoef="0" IVar="9" Cut="1.6618682146072388e+00" cType="1" res="4.4759649038314819e-01" rms="5.9155380725860596e-01" purity="4.4972145557403564e-01" nType="0">
          <Node pos="l" depth="2" NCoef="0" IVar="8" Cut="0.0000000000000000e+00" cType="1" res="-3.8859140127897263e-02" rms="4.5374697446823120e-01" purity="4.0073096752166748e-01" nType="0">
            <Node pos="l" depth="3" NCoef="0" IVar="-1" Cut="0.0000000000000000e+00" cType="1" res="-1.6422908753156662e-02" rms="4.3912765383720398e-01" purity="3.3655458688735962e-01" nType="-99"/>
            <Node pos="r" depth="3" NCoef="0" IVar="-1" Cut="0.0000000000000000e+00" cType="1" res="1.0722255101427436e-03" rms="4.6095991134643555e-01" purity="4.5315316319465637e-01" nType="-99"/>
          </Node>
          <Node pos="r" depth="2" NCoef="0" IVar="7" Cut="1.3347349166870117e+00" cType="1" res="2.8834763169288635e-01" rms="4.9775576591491699e-01" purity="6.6305965185165405e-01" nType="0">
            <Node pos="l" depth="3" NCoef="0" IVar="-1" Cut="0.0000000000000000e+00" cType="1" res="1.8980352208018303e-02" rms="4.1885414719581604e-01" purity="7.4337685108184814e-01" nType="-99"/>
            <Node pos="r" depth="3" NCoef="0" IVar="-1" Cut="0.0000000000000000e+00" cType="1" res="2.5556057225912809e-03" rms="4.8456180095672607e-01" purity="4.9203443527221680e-01" nType="-99"/>
          </Node>
        </Node>
      </Node>
    </BinaryTree>
    <BinaryTree type="DecisionTree" boostWeight="1.0000000000000000e+00" itree="16">
      <Node pos="s" depth="0" NCoef="0" IVar="7" Cut="1.6426649093627930e+00" cType="1" res="4.9571636319160461e-01" rms="5.0457799434661865e-01" purity="4.9966633319854736e-01" nType="0">
        <Node pos="l" depth="1" NCoef="0" IVar="2" Cut="2.7463958263397217e+00" cType="1" res="5.5370211601257324e-01" rms="3.6739289760589600e-01" purity="5.5843639373779297e-01" nType="0">
          <Node pos="l" depth="2" NCoef="0" IVar="9" Cut="1.7391149699687958e-01" cType="1" res="5.7478266954421997e-01" rms="-nan" purity="4.2431265115737915e-01" nType="0">
            <Node pos="l" depth="3" NCoef="0" IVar="-1" Cut="0.0000000000000000e+00" cType="1" res="-8.4348153322935104e-03" rms="4.5055791735649109e-01" purity="3.7464419007301331e-01" nType="-99"/>
            <Node pos="r" depth="3" NCoef="0" IVar="-1" Cut="0.0000000000000000e+00" cType="1" res="1.0428797453641891e-02" rms="4.6485489606857300e-01" purity="5.6888544559478760e-01" nType="-99"/>
          </Node>
          <Node pos="r" depth="2" NCoef="0" IVar="10" Cut="4.1491897583007812e+01" cType="1" res="3.2982051372528076e-01" rms="6.0433477163314819e-01" purity="6.8929529190063477e-01" nType="0">
            <Node pos="l" depth="3" NCoef="0" IVar="-1" Cut="0.0000000000000000e+00" cType="1" res="5.9587303549051285e-03" rms="4.6127375960350037e-01" purity="6.1205846071243286e-01" nType="-99"/>
            <Node pos="r" depth="3" NCoef="0" IVar="-1" Cut="0.0000000000000000e+00" cType="1" res="2.2246519103646278e-02" rms="3.9166611433029175e-01" purity="7.7882301807403564e-01" nType="-99"/>
          </Node>
        </Node>
        <Node pos="r" depth="1" NCoef="0" IVar="10" Cut="6.3253005981445312e+01" cType="1" res="6.7028605937957764e-01" rms="-nan" purity="2.6522204279899597e-01" nType="0">
          <Node pos="l" depth="2" NCoef="0" IVar="10" Cut="3.8998165130615234e+01" cType="1" res="1.0325362533330917e-01" rms="1.0628008842468262e+00" purity="2.3969040811061859e-01" nType="0">
            <Node pos="l" depth="3" NCoef="0" IVar="-1" Cut="0.0000000000000000e+00" cType="1" res="-3.2481789588928223e-02" rms="3.9508336782455444e-01" purity="2.0503222942352295e-01" nType="-99"/>
            <Node pos="r" depth="3" NCoef="0" IVar="-1" Cut="0.0000000000000000e+00" cType="1" res="-1.6361536458134651e-02" rms="4.2863330245018005e-01" purity="2.9805415868759155e-01" nType="-99"/>
          </Node>
          <Node pos="r" depth="2" NCoef="0" IVar="-1" Cut="0.0000000000000000e+00" cType="1" res="-3.5498004872351885e-03" rms="4.4683423638343811e-01" purity="3.4053221344947815e-01" nType="-99"/>
        </Node>
      </Node>
    </BinaryTree>
    <BinaryTree type="DecisionTree" boostWeight="1.0000000000000000e+00" itree="17">
      <Node pos="s" depth="0" NCoef="0" IVar="7" Cut="4.9421003460884094e-01" cType="1" res="4.9571636319160461e-01" rms="5.0457799434661865e-01" purity="4.9966633319854736e-01" nType="0">
        <Node pos="l" depth="1" NCoef="0" IVar="5" Cut="1.9153553247451782e+00" cType="1" res="3.7957742810249329e-02" rms="1.6098265349864960e-01" purity="7.8708833456039429e-01" nType="0">
          <Node pos="l" depth="2" NCoef="0" IVar="-1" Cut="0.0000000000000000e+00" cType="1" res="1.0107568465173244e-02" rms="4.4907766580581665e-01" purity="6.7170161008834839e-01" nType="-99"/>
          <Node pos="r" depth="2" NCoef="0" IVar="-1" Cut="0.0000000000000000e+00" cType="1" res="2.5389401242136955e-02" rms="3.1851014494895935e-01" purity="8.7191992998123169e-01" nType="-99"/>
        </Node>
        <Node pos="r" depth="1" NCoef="0" IVar="4" Cut="1.1664202213287354e+00" cType="1" res="4.4759649038314819e-01" rms="5.9155380725860596e-01" purity="4.4972145557403564e-01" nType="0">
          <Node pos="l" depth="2" NCoef="0" IVar="8" Cut="0.0000000000000000e+00" cType="1" res="-8.0002516508102417e-02" rms="4.2655208706855774e-01" purity="2.7877154946327209e-01" nType="0">
            <Node pos="l" depth="3" NCoef="0" IVar="-1" Cut="0.0000000000000000e+00" cType="1" res="-2.5994054973125458e-02" rms="3.9445382356643677e-01" purity="2.2151452302932739e-01" nType="-99"/>
            <Node pos="r" depth="3" NCoef="0" IVar="-1" Cut="0.0000000000000000e+00" cType="1" res="-7.2712241671979427e-03" rms="4.4808596372604370e-01" purity="3.2703971862792969e-01" nType="-99"/>
          </Node>
          <Node pos="r" depth="2" NCoef="0" IVar="10" Cut="3.8010154724121094e+01" cType="1" res="1.3330864720046520e-02" rms="5.8840684592723846e-02" purity="5.4602384567260742e-01" nType="0">
            <Node pos="l" depth="3" NCoef="0" IVar="-1" Cut="0.0000000000000000e+00" cType="1" res="-5.2318000234663486e-03" rms="4.7001293301582336e-01" purity="4.6438610553741455e-01" nType="-99"/>
            <Node pos="r" depth="3" NCoef="0" IVar="-1" Cut="0.0000000000000000e+00" cType="1" res="1.1748523451387882e-02" rms="4.5077079534530640e-01" purity="6.1550658941268921e-01" nType="-99"/>
          </Node>
        </Node>
      </Node>
    </BinaryTree>
    <BinaryTree type="DecisionTree" boostWeight="1.0000000000000000e+00" itree="18">
      <Node pos="s" depth="0" NCoef="0" IVar="7" Cut="1.2325024604797363e+00" cType="1" res="4.9571636319160461e-01" rms="5.0457799434661865e-01" purity="4.9966633319854736e-01" nType="0">
        <Node pos="l" depth="1" NCoef="0" IVar="2" Cut="2.7463958263397217e+00" cType="1" res="7.5728975236415863e-02" rms="1.2561039626598358e-01" purity="6.2142449617385864e-01" nType="0">
          <Node pos="l" depth="2" NCoef="0" IVar="6" Cut="1.8276374816894531e+01" cType="1" res="7.1851164102554321e-01" rms="-nan" purity="4.9014896154403687e-01" nType="0">
            <Node pos="l" depth="3" NCoef="0" IVar="-1" Cut="0.0000000000000000e+00" cType="1" res="-1.6397194936871529e-02" rms="4.5363205671310425e-01" purity="3.5951277613639832e-01" nType="-99"/>
            <Node pos="r" depth="3" NCoef="0" IVar="-1" Cut="0.0000000000000000e+00" cType="1" res="5.0367843359708786e-03" rms="4.6578118205070496e-01" purity="5.4055833816528320e-01" nType="-99"/>
          </Node>
          <Node pos="r" depth="2" NCoef="0" IVar="10" Cut="3.3245979309082031e+01" cType="1" res="3.7729299068450928e-01" rms="-nan" purity="7.4131053686141968e-01" nType="0">
            <Node pos="l" depth="3" NCoef="0" IVar="-1" Cut="0.0000000000000000e+00" cType="1" res="2.8329840861260891e-03" rms="4.6513789892196655e-01" purity="6.2517923116683960e-01" nType="-99"/>
            <Node pos="r" depth="3" NCoef="0" IVar="-1" Cut="0.0000000000000000e+00" cType="1" res="2.0577361807227135e-02" rms="3.8191279768943787e-01" purity="8.0122870206832886e-01" nType="-99"/>
          </Node>
        </Node>
        <Node pos="r" depth="1" NCoef="0" IVar="5" Cut="1.0727359056472778e+00" cType="1" res="1.5863534808158875e-01" rms="-nan" purity="3.1752914190292358e-01" nType="0">
          <Node pos="l" depth="2" NCoef="0" IVar="-1" Cut="0.0000000000000000e+00" cType="1" res="-2.8486527502536774e-02" rms="3.9043077826499939e-01" purity="2.0979805290699005e-01" nType="-99"/>
          <Node pos="r" depth="2" NCoef="0" IVar="2" Cut="3.0895614624023438e+00" cType="1" res="1.6972577571868896e-01" rms="-nan" purity="3.3995521068572998e-01" nType="0">
            <Node pos="l" depth="3" NCoef="0" IVar="-1" Cut="0.0000000000000000e+00" cType="1" res="-1.4311114326119423e-02" rms="4.1825553774833679e-01" purity="2.4363565444946289e-01" nType="-99"/>
            <Node pos="r" depth="3" NCoef="0" IVar="-1" Cut="0.0000000000000000e+00" cType="1" res="4.1560335084795952e-03" rms="4.8652833700180054e-01" purity="5.0499641895294189e-01" nType="-99"/>
          </Node>
        </Node>
      </Node>
    </BinaryTree>
    <BinaryTree type="DecisionTree" boostWeight="1.0000000000000000e+00" itree="19">
      <Node pos="s" depth="0" NCoef="0" IVar="9" Cut="1.6687067747116089e+00" cType="1" res="4.9571636319160461e-01" rms="5.0457799434661865e-01" purity="4.9966633319854736e-01" nType="0">
        <Node pos="l" depth="1" NCoef="0" IVar="7" Cut="4.9421003460884094e-01" cType="1" res="1.2132178246974945e-01" rms="7.6607719063758850e-02" purity="4.4951823353767395e-01" nType="0">
          <Node pos="l" depth="2" NCoef="0" IVar="-1" Cut="0.0000000000000000e+00" cType="1" res="1.5126546844840050e-02" rms="4.0040016174316406e-01" purity="7.5652790069580078e-01" nType="-99"/>
          <Node pos="r" depth="2" NCoef="0" IVar="3" Cut="2.1252787113189697e+00" cType="1" res="1.3256852328777313e-01" rms="2.9978241771459579e-02" purity="4.0107491612434387e-01" nType="0">
            <Node pos="l" depth="3" NCoef="0" IVar="-1" Cut="0.0000000000000000e+00" cType="1" res="-1.5633076429367065e-02" rms="4.2480757832527161e-01" purity="2.7970612049102783e-01" nType="-99"/>
            <Node pos="r" depth="3" NCoef="0" IVar="-1" Cut="0.0000000000000000e+00" cType="1" res="1.1553153162822127e-03" rms="4.6595147252082825e-01" purity="4.9624568223953247e-01" nType="-99"/>
          </Node>
        </Node>
        <Node pos="r" depth="1" NCoef="0" IVar="7" Cut="1.2334841489791870e+00" cType="1" res="1.0127601772546768e-01" rms="4.2585366964340210e-01" purity="7.0396745204925537e-01" nType="0">
          <Node pos="l" depth="2" NCoef="0" IVar="-1" Cut="0.0000000000000000e+00" cType="1" res="1.9774843007326126e-02" rms="3.8941070437431335e-01" purity="7.9082220792770386e-01" nType="-99"/>
          <Node pos="r" depth="2" NCoef="0" IVar="-1" Cut="0.0000000000000000e+00" cType="1" res="4.5842537656426430e-03" rms="4.8003014922142029e-01" purity="5.0523275136947632e-01" nType="-99"/>
        </Node>
      </Node>
    </BinaryTree>
    <BinaryTree type="DecisionTree" boostWeight="1.0000000000000000e+00" itree="20">
      <Node pos="s" depth="0" NCoef="0" IVar="7" Cut="1.6426649093627930e+00" cType="1" res="4.9571636319160461e-01" rms="5.0457799434661865e-01" purity="4.9966633319854736e-01" nType="0">
        <Node pos="l" depth="1" NCoef="0" IVar="5" Cut="1.4558558464050293e+00" cType="1" res="5.5370211601257324e-01" rms="3.6739289760589600e-01" purity="5.5843639373779297e-01" nType="0">
          <Node pos="l" depth="2" NCoef="0" IVar="9" Cut="3.3093410730361938e-01" cType="1" res="4.4453811645507812e-01" rms="5.9530144929885864e-01" purity="4.4800204038619995e-01" nType="0">
            <Node pos="l" depth="3" NCoef="0" IVar="-1" Cut="0.0000000000000000e+00" cType="1" res="-1.0531037114560604e-02" rms="4.5279926061630249e-01" purity="3.9514231681823730e-01" nType="-99"/>
            <Node pos="r" depth="3" NCoef="0" IVar="-1" Cut="0.0000000000000000e+00" cType="1" res="7.1730930358171463e-03" rms="4.6556270122528076e-01" purity="5.9236949682235718e-01" nType="-99"/>
          </Node>
          <Node pos="r" depth="2" NCoef="0" IVar="2" Cut="1.7177004814147949e+00" cType="1" res="8.1807389855384827e-02" rms="1.2632760405540466e-01" purity="6.1962729692459106e-01" nType="0">
            <Node pos="l" depth="3" NCoef="0" IVar="-1" Cut="0.0000000000000000e+00" cType="1" res="-3.2913438044488430e-03" rms="4.4876649975776672e-01" purity="3.9275345206260681e-01" nType="-99"/>
            <Node pos="r" depth="3" NCoef="0" IVar="-1" Cut="0.0000000000000000e+00" cType="1" res="1.5021204017102718e-02" rms="4.2471975088119507e-01" purity="6.9234204292297363e-01" nType="-99"/>
          </Node>
        </Node>
        <Node pos="r" depth="1" NCoef="0" IVar="10" Cut="6.3253005981445312e+01" cType="1" res="-7.9686723649501801e-02" rms="4.2051419615745544e-01" purity="2.6522204279899597e-01" nType="0">
          <Node pos="l" depth="2" NCoef="0" IVar="6" Cut="2.4399541854858398e+01" cType="1" res="-1.0230894386768341e-01" rms="4.0968099236488342e-01" purity="2.3969040811061859e-01" nType="0">
            <Node pos="l" depth="3" NCoef="0" IVar="-1" Cut="0.0000000000000000e+00" cType="1" res="-1.8227474763989449e-02" rms="4.1956645250320435e-01" purity="2.5925481319427490e-01" nType="-99"/>
            <Node pos="r" depth="3" NCoef="0" IVar="-1" Cut="0.0000000000000000e+00" cType="1" res="-3.2329671084880829e-02" rms="3.8025864958763123e-01" purity="2.0070756971836090e-01" nType="-99"/>
          </Node>
          <Node pos="r" depth="2" NCoef="0" IVar="-1" Cut="0.0000000000000000e+00" cType="1" res="-1.5947964275255799e-03" rms="4.4490060210227966e-01" purity="3.4053221344947815e-01" nType="-99"/>
        </Node>
      </Node>
    </BinaryTree>
    <BinaryTree type="DecisionTree" boostWeight="1.0000000000000000e+00" itree="21">
      <Node pos="s" depth="0" NCoef="0" IVar="7" Cut="6.5827500820159912e-01" cType="1" res="4.9571636319160461e-01" rms="5.0457799434661865e-01" purity="4.9966633319854736e-01" nType="0">
        <Node pos="l" depth="1" NCoef="0" IVar="5" Cut="2.2201194763183594e+00" cType="1" res="5.1846697926521301e-02" rms="1.4955285191535950e-01" purity="7.3344165086746216e-01" nType="0">
          <Node pos="l" depth="2" NCoef="0" IVar="8" Cut="0.0000000000000000e+00" cType="1" res="3.7338119000196457e-02" rms="4.5089644193649292e-01" purity="6.4097052812576294e-01" nType="0">
            <Node pos="l" depth="3" NCoef="0" IVar="-1" Cut="0.0000000000000000e+00" cType="1" res="-4.9659679643809795e-03" rms="4.6808928251266479e-01" purity="5.5812555551528931e-01" nType="-99"/>
            <Node pos="r" depth="3" NCoef="0" IVar="-1" Cut="0.0000000000000000e+00" cType="1" res="1.1439448222517967e-02" rms="4.3213552236557007e-01" purity="6.9773674011230469e-01" nType="-99"/>
          </Node>
          <Node pos="r" depth="2" NCoef="0" IVar="-1" Cut="0.0000000000000000e+00" cType="1" res="2.1114898845553398e-02" rms="3.4632748365402222e-01" purity="8.4058624505996704e-01" nType="-99"/>
        </Node>
        <Node pos="r" depth="1" NCoef="0" IVar="9" Cut="1.4717347621917725e+00" cType="1" res="4.1829866170883179e-01" rms="6.3636672496795654e-01" purity="4.2006361484527588e-01" nType="0">
          <Node pos="l" depth="2" NCoef="0" IVar="8" Cut="0.0000000000000000e+00" cType="1" res="-3.5135485231876373e-02" rms="4.4711446762084961e-01" purity="3.7200257182121277e-01" nType="0">
            <Node pos="l" depth="3" NCoef="0" IVar="-1" Cut="0.0000000000000000e+00" cType="1" res="-1.4976352453231812e-02" rms="4.3111944198608398e-01" purity="3.1141817569732666e-01" nType="-99"/>
            <Node pos="r" depth="3" NCoef="0" IVar="-1" Cut="0.0000000000000000e+00" cType="1" res="6.3900672830641270e-04" rms="4.5701709389686584e-01" purity="4.2256987094879150e-01" nType="-99"/>
          </Node>
          <Node pos="r" depth="2" NCoef="0" IVar="10" Cut="3.8910202026367188e+01" cType="1" res="6.6220238804817200e-02" rms="4.5177227258682251e-01" purity="6.2671530246734619e-01" nType="0">
            <Node pos="l" depth="3" NCoef="0" IVar="-1" Cut="0.0000000000000000e+00" cType="1" res="2.1299035288393497e-03" rms="4.6899080276489258e-01" purity="5.4649811983108521e-01" nType="-99"/>
            <Node pos="r" depth="3" NCoef="0" IVar="-1" Cut="0.0000000000000000e+00" cType="1" res="1.6327742487192154e-02" rms="4.3097400665283203e-01" purity="6.9103896617889404e-01" nType="-99"/>
          </Node>
        </Node>
      </Node>
    </BinaryTree>
    <BinaryTree type="DecisionTree" boostWeight="1.0000000000000000e+00" itree="22">
      <Node pos="s" depth="0" NCoef="0" IVar="7" Cut="1.5606323480606079e+00" cType="1" res="4.9571636319160461e-01" rms="5.0457799434661865e-01" purity="4.9966633319854736e-01" nType="0">
        <Node pos="l" depth="1" NCoef="0" IVar="2" Cut="2.7463958263397217e+00" cType="1" res="0.0000000000000000e+00" rms="6.5715914964675903e-01" purity="5.6814181804656982e-01" nType="0">
          <Node pos="l" depth="2" NCoef="0" IVar="9" Cut="1.7391149699687958e-01" cType="1" res="-1.2240812182426453e-02" rms="8.4006916731595993e-03" purity="4.3318873643875122e-01" nType="0">
            <Node pos="l" depth="3" NCoef="0" IVar="-1" Cut="0.0000000000000000e+00" cType="1" res="-6.7819287069141865e-03" rms="4.4865995645523071e-01" purity="3.8196370005607605e-01" nType="-99"/>
            <Node pos="r" depth="3" NCoef="0" IVar="-1" Cut="0.0000000000000000e+00" cType="1" res="9.6588470041751862e-03" rms="4.6139776706695557e-01" purity="5.7897287607192993e-01" nType="-99"/>
          </Node>
          <Node pos="r" depth="2" NCoef="0" IVar="10" Cut="3.3245979309082031e+01" cType="1" res="1.8293312191963196e-01" rms="-nan" purity="6.9797664880752563e-01" nType="0">
            <Node pos="l" depth="3" NCoef="0" IVar="-1" Cut="0.0000000000000000e+00" cType="1" res="1.1691942345350981e-03" rms="4.6722784638404846e-01" purity="5.8421534299850464e-01" nType="-99"/>
            <Node pos="r" depth="3" NCoef="0" IVar="-1" Cut="0.0000000000000000e+00" cType="1" res="1.7185345292091370e-02" rms="4.0008980035781860e-01" purity="7.5918340682983398e-01" nType="-99"/>
          </Node>
        </Node>
        <Node pos="r" depth="1" NCoef="0" IVar="6" Cut="2.8968996047973633e+01" cType="1" res="1.6379456222057343e-01" rms="-nan" purity="2.7705317735671997e-01" nType="0">
          <Node pos="l" depth="2" NCoef="0" IVar="7" Cut="2.0979566574096680e+00" cType="1" res="1.7008501291275024e-01" rms="-nan" purity="2.9976144433021545e-01" nType="0">
            <Node pos="l" depth="3" NCoef="0" IVar="-1" Cut="0.0000000000000000e+00" cType="1" res="-4.3040411546826363e-03" rms="4.4221141934394836e-01" purity="3.2498875260353088e-01" nType="-99"/>
            <Node pos="r" depth="3" NCoef="0" IVar="-1" Cut="0.0000000000000000e+00" cType="1" res="-2.0547216758131981e-02" rms="4.1312074661254883e-01" purity="2.4147149920463562e-01" nType="-99"/>
          </Node>
          <Node pos="r" depth="2" NCoef="0" IVar="-1" Cut="0.0000000000000000e+00" cType="1" res="-3.1993612647056580e-02" rms="3.7234997749328613e-01" purity="1.9337841868400574e-01" nType="-99"/>
        </Node>
      </Node>
    </BinaryTree>
    <BinaryTree type="DecisionTree" boostWeight="1.0000000000000000e+00" itree="23">
      <Node pos="s" depth="0" NCoef="0" IVar="7" Cut="4.1217753291130066e-01" cType="1" res="0.0000000000000000e+00" rms="5.0076240301132202e-01" purity="4.9966633319854736e-01" nType="0">
        <Node pos="l" depth="1" NCoef="0" IVar="-1" Cut="0.0000000000000000e+00" cType="1" res="2.0193930715322495e-02" rms="3.5064551234245300e-01" purity="8.3032131195068359e-01" nType="-99"/>
        <Node pos="r" depth="1" NCoef="0" IVar="9" Cut="1.4717347621917725e+00" cType="1" res="4.6283581852912903e-01" rms="5.6604248285293579e-01" purity="4.6537888050079346e-01" nType="0">
          <Node pos="l" depth="2" NCoef="0" IVar="8" Cut="0.0000000000000000e+00" cType="1" res="-2.3326693102717400e-02" rms="4.4719785451889038e-01" purity="4.1422909498214722e-01" nType="0">
            <Node pos="l" depth="3" NCoef="0" IVar="-1" Cut="0.0000000000000000e+00" cType="1" res="-1.2385769747197628e-02" rms="4.3643516302108765e-01" purity="3.4833285212516785e-01" nType="-99"/>
            <Node pos="r" depth="3" NCoef="0" IVar="-1" Cut="0.0000000000000000e+00" cType="1" res="2.3261646274477243e-03" rms="4.5284876227378845e-01" purity="4.6802395582199097e-01" nType="-99"/>
          </Node>
          <Node pos="r" depth="2" NCoef="0" IVar="10" Cut="3.8908775329589844e+01" cType="1" res="1.3643476413562894e-03" rms="1.2766698002815247e-01" purity="6.6923505067825317e-01" nType="0">
            <Node pos="l" depth="3" NCoef="0" IVar="-1" Cut="0.0000000000000000e+00" cType="1" res="4.1969902813434601e-03" rms="4.5718947052955627e-01" purity="5.8787828683853149e-01" nType="-99"/>
            <Node pos="r" depth="3" NCoef="0" IVar="-1" Cut="0.0000000000000000e+00" cType="1" res="1.6966778784990311e-02" rms="4.1197568178176880e-01" purity="7.3017114400863647e-01" nType="-99"/>
          </Node>
        </Node>
      </Node>
    </BinaryTree>
    <BinaryTree type="DecisionTree" boostWeight="1.0000000000000000e+00" itree="24">
      <Node pos="s" depth="0" NCoef="0" IVar="4" Cut="1.1664202213287354e+00" cType="1" res="4.9571636319160461e-01" rms="5.0457799434661865e-01" purity="4.9966633319854736e-01" nType="0">
        <Node pos="l" depth="1" NCoef="0" IVar="10" Cut="1.0149359893798828e+02" cType="1" res="-4.6997535973787308e-02" rms="-nan" purity="3.1553697586059570e-01" nType="0">
          <Node pos="l" depth="2" NCoef="0" IVar="8" Cut="0.0000000000000000e+00" cType="1" res="-6.5402053296566010e-02" rms="4.1927036643028259e-01" purity="2.9145926237106323e-01" nType="0">
            <Node pos="l" depth="3" NCoef="0" IVar="-1" Cut="0.0000000000000000e+00" cType="1" res="-2.2576976567506790e-02" rms="3.8926967978477478e-01" purity="2.2830803692340851e-01" nType="-99"/>
            <Node pos="r" depth="3" NCoef="0" IVar="-1" Cut="0.0000000000000000e+00" cType="1" res="-5.8330232277512550e-03" rms="4.3960675597190857e-01" purity="3.4309247136116028e-01" nType="-99"/>
          </Node>
          <Node pos="r" depth="2" NCoef="0" IVar="-1" Cut="0.0000000000000000e+00" cType="1" res="7.5125652365386486e-03" rms="4.6352869272232056e-01" purity="4.3925431370735168e-01" nType="-99"/>
        </Node>
        <Node pos="r" depth="1" NCoef="0" IVar="10" Cut="3.9466518402099609e+01" cType="1" res="1.2171547859907150e-02" rms="5.8073859661817551e-02" purity="5.9565979242324829e-01" nType="0">
          <Node pos="l" depth="2" NCoef="0" IVar="7" Cut="1.6426649093627930e+00" cType="1" res="1.0468481108546257e-02" rms="4.7374416142702103e-02" purity="5.1872813701629639e-01" nType="0">
            <Node pos="l" depth="3" NCoef="0" IVar="-1" Cut="0.0000000000000000e+00" cType="1" res="2.5422244798392057e-03" rms="4.6054390072822571e-01" purity="5.7774102687835693e-01" nType="-99"/>
            <Node pos="r" depth="3" NCoef="0" IVar="-1" Cut="0.0000000000000000e+00" cType="1" res="-2.2461179643869400e-02" rms="4.2300060391426086e-01" purity="2.5092908740043640e-01" nType="-99"/>
          </Node>
          <Node pos="r" depth="2" NCoef="0" IVar="7" Cut="9.3573600053787231e-01" cType="1" res="1.6465550661087036e-01" rms="-nan" purity="6.6688865423202515e-01" nType="0">
            <Node pos="l" depth="3" NCoef="0" IVar="-1" Cut="0.0000000000000000e+00" cType="1" res="1.8448518589138985e-02" rms="3.6925435066223145e-01" purity="8.1088387966156006e-01" nType="-99"/>
            <Node pos="r" depth="3" NCoef="0" IVar="-1" Cut="0.0000000000000000e+00" cType="1" res="6.5387114882469177e-03" rms="4.6926814317703247e-01" purity="5.2040928602218628e-01" nType="-99"/>
          </Node>
        </Node>
      </Node>
    </BinaryTree>
    <BinaryTree type="DecisionTree" boostWeight="1.0000000000000000e+00" itree="25">
      <Node pos="s" depth="0" NCoef="0" IVar="2" Cut="1.7166845798492432e+00" cType="1" res="4.9571636319160461e-01" rms="5.0457799434661865e-01" purity="4.9966633319854736e-01" nType="0">
        <Node pos="l" depth="1" NCoef="0" IVar="9" Cut="4.5307588577270508e-01" cType="1" res="1.0469919443130493e+00" rms="-nan" purity="2.9731172323226929e-01" nType="0">
          <Node pos="l" depth="2" NCoef="0" IVar="8" Cut="0.0000000000000000e+00" cType="1" res="-7.6441831886768341e-02" rms="4.0490922331809998e-01" purity="2.5688254833221436e-01" nType="0">
            <Node pos="l" depth="3" NCoef="0" IVar="-1" Cut="0.0000000000000000e+00" cType="1" res="-2.7031434699892998e-02" rms="3.6448329687118530e-01" purity="1.9218650460243225e-01" nType="-99"/>
            <Node pos="r" depth="3" NCoef="0" IVar="-1" Cut="0.0000000000000000e+00" cType="1" res="-7.6360260136425495e-03" rms="4.3351235985755920e-01" purity="3.1262597441673279e-01" nType="-99"/>
          </Node>
          <Node pos="r" depth="2" NCoef="0" IVar="-1" Cut="0.0000000000000000e+00" cType="1" res="3.9882375858724117e-03" rms="4.5847940444946289e-01" purity="4.5520776510238647e-01" nType="-99"/>
        </Node>
        <Node pos="r" depth="1" NCoef="0" IVar="10" Cut="3.7095710754394531e+01" cType="1" res="4.5262440107762814e-04" rms="2.1122036874294281e-01" purity="5.7435220479965210e-01" nType="0">
          <Node pos="l" depth="2" NCoef="0" IVar="5" Cut="1.5326049327850342e+00" cType="1" res="1.0778814321383834e-03" rms="1.6863580048084259e-01" purity="4.8400291800498962e-01" nType="0">
            <Node pos="l" depth="3" NCoef="0" IVar="-1" Cut="0.0000000000000000e+00" cType="1" res="-1.5887657180428505e-02" rms="4.5306974649429321e-01" purity="3.8834580779075623e-01" nType="-99"/>
            <Node pos="r" depth="3" NCoef="0" IVar="-1" Cut="0.0000000000000000e+00" cType="1" res="2.4976094719022512e-03" rms="4.4940096139907837e-01" purity="5.3541499376296997e-01" nType="-99"/>
          </Node>
          <Node pos="r" depth="2" NCoef="0" IVar="8" Cut="0.0000000000000000e+00" cType="1" res="8.1842161715030670e-02" rms="4.3205073475837708e-01" purity="6.3975608348846436e-01" nType="0">
            <Node pos="l" depth="3" NCoef="0" IVar="-1" Cut="0.0000000000000000e+00" cType="1" res="4.3739359825849533e-03" rms="4.4901499152183533e-01" purity="5.6433302164077759e-01" nType="-99"/>
            <Node pos="r" depth="3" NCoef="0" IVar="-1" Cut="0.0000000000000000e+00" cType="1" res="1.6257356852293015e-02" rms="4.1596239805221558e-01" purity="6.9297009706497192e-01" nType="-99"/>
          </Node>
        </Node>
      </Node>
    </BinaryTree>
    <BinaryTree type="DecisionTree" boostWeight="1.0000000000000000e+00" itree="26">
      <Node pos="s" depth="0" NCoef="0" IVar="7" Cut="4.9421003460884094e-01" cType="1" res="4.9571636319160461e-01" rms="5.0457799434661865e-01" purity="4.9966633319854736e-01" nType="0">
        <Node pos="l" depth="1" NCoef="0" IVar="6" Cut="2.9858604431152344e+01" cType="1" res="3.7957742810249329e-02" rms="1.6098265349864960e-01" purity="7.8708833456039429e-01" nType="0">
          <Node pos="l" depth="2" NCoef="0" IVar="-1" Cut="0.0000000000000000e+00" cType="1" res="6.6988258622586727e-03" rms="4.3640080094337463e-01" purity="6.8330401182174683e-01" nType="-99"/>
          <Node pos="r" depth="2" NCoef="0" IVar="-1" Cut="0.0000000000000000e+00" cType="1" res="2.1657075732946396e-02" rms="3.1984806060791016e-01" purity="8.6627113819122314e-01" nType="-99"/>
        </Node>
        <Node pos="r" depth="1" NCoef="0" IVar="2" Cut="3.5472824573516846e+00" cType="1" res="4.4759649038314819e-01" rms="5.9155380725860596e-01" purity="4.4972145557403564e-01" nType="0">
          <Node pos="l" depth="2" NCoef="0" IVar="5" Cut="1.0727359056472778e+00" cType="1" res="6.2087998958304524e-04" rms="1.7928878962993622e-01" purity="3.9587625861167908e-01" nType="0">
            <Node pos="l" depth="3" NCoef="0" IVar="-1" Cut="0.0000000000000000e+00" cType="1" res="-1.6924675554037094e-02" rms="4.3163424730300903e-01" purity="3.1178331375122070e-01" nType="-99"/>
            <Node pos="r" depth="3" NCoef="0" IVar="-1" Cut="0.0000000000000000e+00" cType="1" res="-8.4910762961953878e-04" rms="4.4455915689468384e-01" purity="4.2224532365798950e-01" nType="-99"/>
          </Node>
          <Node pos="r" depth="2" NCoef="0" IVar="10" Cut="3.2886104583740234e+01" cType="1" res="0.0000000000000000e+00" rms="0.0000000000000000e+00" purity="6.4203089475631714e-01" nType="0">
            <Node pos="l" depth="3" NCoef="0" IVar="-1" Cut="0.0000000000000000e+00" cType="1" res="-1.7842585220932961e-03" rms="4.6730810403823853e-01" purity="5.1572346687316895e-01" nType="-99"/>
            <Node pos="r" depth="3" NCoef="0" IVar="-1" Cut="0.0000000000000000e+00" cType="1" res="1.5783753246068954e-02" rms="4.2861747741699219e-01" purity="7.1455168724060059e-01" nType="-99"/>
          </Node>
        </Node>
      </Node>
    </BinaryTree>
    <BinaryTree type="DecisionTree" boostWeight="1.0000000000000000e+00" itree="27">
      <Node pos="s" depth="0" NCoef="0" IVar="7" Cut="1.6426649093627930e+00" cType="1" res="4.9571636319160461e-01" rms="5.0457799434661865e-01" purity="4.9966633319854736e-01" nType="0">
        <Node pos="l" depth="1" NCoef="0" IVar="5" Cut="1.4558558464050293e+00" cType="1" res="5.5370211601257324e-01" rms="3.6739289760589600e-01" purity="5.5843639373779297e-01" nType="0">
          <Node pos="l" depth="2" NCoef="0" IVar="9" Cut="3.3093410730361938e-01" cType="1" res="4.4453811645507812e-01" rms="5.9530144929885864e-01" purity="4.4800204038619995e-01" nType="0">
            <Node pos="l" depth="3" NCoef="0" IVar="-1" Cut="0.0000000000000000e+00" cType="1" res="-9.0043265372514725e-03" rms="4.4889295101165771e-01" purity="3.9514231681823730e-01" nType="-99"/>
            <Node pos="r" depth="3" NCoef="0" IVar="-1" Cut="0.0000000000000000e+00" cType="1" res="5.1336786709725857e-03" rms="4.6256044507026672e-01" purity="5.9236949682235718e-01" nType="-99"/>
          </Node>
          <Node pos="r" depth="2" NCoef="0" IVar="3" Cut="8.3094936609268188e-01" cType="1" res="8.1807389855384827e-02" rms="1.2632760405540466e-01" purity="6.1962729692459106e-01" nType="0">
            <Node pos="l" depth="3" NCoef="0" IVar="-1" Cut="0.0000000000000000e+00" cType="1" res="-1.0969207622110844e-02" rms="4.3009877204895020e-01" purity="3.3690491318702698e-01" nType="-99"/>
            <Node pos="r" depth="3" NCoef="0" IVar="-1" Cut="0.0000000000000000e+00" cType="1" res="1.1830809526145458e-02" rms="4.2648789286613464e-01" purity="6.5598291158676147e-01" nType="-99"/>
          </Node>
        </Node>
        <Node pos="r" depth="1" NCoef="0" IVar="10" Cut="6.3253005981445312e+01" cType="1" res="1.5724356472492218e-01" rms="-nan" purity="2.6522204279899597e-01" nType="0">
          <Node pos="l" depth="2" NCoef="0" IVar="6" Cut="2.4399541854858398e+01" cType="1" res="1.4981549978256226e-01" rms="-nan" purity="2.3969040811061859e-01" nType="0">
            <Node pos="l" depth="3" NCoef="0" IVar="-1" Cut="0.0000000000000000e+00" cType="1" res="-1.4513190835714340e-02" rms="4.1778931021690369e-01" purity="2.5925481319427490e-01" nType="-99"/>
            <Node pos="r" depth="3" NCoef="0" IVar="-1" Cut="0.0000000000000000e+00" cType="1" res="-2.6893530040979385e-02" rms="3.7798559665679932e-01" purity="2.0070756971836090e-01" nType="-99"/>
          </Node>
          <Node pos="r" depth="2" NCoef="0" IVar="-1" Cut="0.0000000000000000e+00" cType="1" res="-2.8880609897896647e-04" rms="4.4096902012825012e-01" purity="3.4053221344947815e-01" nType="-99"/>
        </Node>
      </Node>
    </BinaryTree>
    <BinaryTree type="DecisionTree" boostWeight="1.0000000000000000e+00" itree="28">
      <Node pos="s" depth="0" NCoef="0" IVar="7" Cut="4.1217753291130066e-01" cType="1" res="4.9571636319160461e-01" rms="-nan" purity="4.9966633319854736e-01" nType="0">
        <Node pos="l" depth="1" NCoef="0" IVar="-1" Cut="0.0000000000000000e+00" cType="1" res="1.8229376524686813e-02" rms="3.4913468360900879e-01" purity="8.3032131195068359e-01" nType="-99"/>
        <Node pos="r" depth="1" NCoef="0" IVar="2" Cut="3.5472824573516846e+00" cType="1" res="4.6283581852912903e-01" rms="5.6604248285293579e-01" purity="4.6537888050079346e-01" nType="0">
          <Node pos="l" depth="2" NCoef="0" IVar="10" Cut="4.4124095916748047e+01" cType="1" res="2.0627647638320923e-01" rms="-nan" purity="4.1168388724327087e-01" nType="0">
            <Node pos="l" depth="3" NCoef="0" IVar="-1" Cut="0.0000000000000000e+00" cType="1" res="-1.0210832580924034e-02" rms="4.3804770708084106e-01" purity="3.5759270191192627e-01" nType="-99"/>
            <Node pos="r" depth="3" NCoef="0" IVar="-1" Cut="0.0000000000000000e+00" cType="1" res="2.6738380547612906e-03" rms="4.4320052862167358e-01" purity="4.6693539619445801e-01" nType="-99"/>
          </Node>
          <Node pos="r" depth="2" NCoef="0" IVar="10" Cut="3.2886104583740234e+01" cType="1" res="1.4435631036758423e-01" rms="4.5257231593132019e-01" purity="6.5585446357727051e-01" nType="0">
            <Node pos="l" depth="3" NCoef="0" IVar="-1" Cut="0.0000000000000000e+00" cType="1" res="-1.2109441449865699e-03" rms="4.6383383870124817e-01" purity="5.2738285064697266e-01" nType="-99"/>
            <Node pos="r" depth="3" NCoef="0" IVar="-1" Cut="0.0000000000000000e+00" cType="1" res="1.5424881130456924e-02" rms="4.2022526264190674e-01" purity="7.2770386934280396e-01" nType="-99"/>
          </Node>
        </Node>
      </Node>
    </BinaryTree>
    <BinaryTree type="DecisionTree" boostWeight="1.0000000000000000e+00" itree="29">
      <Node pos="s" depth="0" NCoef="0" IVar="9" Cut="2.0499505996704102e+00" cType="1" res="4.9571636319160461e-01" rms="5.0457799434661865e-01" purity="4.9966633319854736e-01" nType="0">
        <Node pos="l" depth="1" NCoef="0" IVar="8" Cut="0.0000000000000000e+00" cType="1" res="-6.3120340928435326e-03" rms="4.3914982676506042e-01" purity="4.5228922367095947e-01" nType="0">
          <Node pos="l" depth="2" NCoef="0" IVar="5" Cut="8.4296399354934692e-01" cType="1" res="1.3821938633918762e-01" rms="-nan" purity="3.7809857726097107e-01" nType="0">
            <Node pos="l" depth="3" NCoef="0" IVar="-1" Cut="0.0000000000000000e+00" cType="1" res="-2.2457232698798180e-02" rms="4.2235141992568970e-01" purity="2.9488927125930786e-01" nType="-99"/>
            <Node pos="r" depth="3" NCoef="0" IVar="-1" Cut="0.0000000000000000e+00" cType="1" res="-6.0398485511541367e-03" rms="4.3336284160614014e-01" purity="3.9792239665985107e-01" nType="-99"/>
          </Node>
          <Node pos="r" depth="2" NCoef="0" IVar="7" Cut="8.2234001159667969e-01" cType="1" res="2.2595779597759247e-01" rms="8.2171177864074707e-01" purity="5.1084327697753906e-01" nType="0">
            <Node pos="l" depth="3" NCoef="0" IVar="-1" Cut="0.0000000000000000e+00" cType="1" res="1.1596271768212318e-02" rms="4.1165274381637573e-01" purity="7.1910655498504639e-01" nType="-99"/>
            <Node pos="r" depth="3" NCoef="0" IVar="-1" Cut="0.0000000000000000e+00" cType="1" res="-4.8635562416166067e-04" rms="4.5490598678588867e-01" purity="3.9130932092666626e-01" nType="-99"/>
          </Node>
        </Node>
        <Node pos="r" depth="1" NCoef="0" IVar="5" Cut="1.5323488712310791e+00" cType="1" res="3.0137175321578979e-01" rms="5.7070910930633545e-01" purity="7.1847116947174072e-01" nType="0">
          <Node pos="l" depth="2" NCoef="0" IVar="-1" Cut="0.0000000000000000e+00" cType="1" res="5.1107560284435749e-03" rms="4.4977170228958130e-01" purity="6.3416916131973267e-01" nType="-99"/>
          <Node pos="r" depth="2" NCoef="0" IVar="-1" Cut="0.0000000000000000e+00" cType="1" res="1.6355955973267555e-02" rms="3.9123797416687012e-01" purity="7.5882005691528320e-01" nType="-99"/>
        </Node>
      </Node>
    </BinaryTree>
    <BinaryTree type="DecisionTree" boostWeight="1.0000000000000000e+00" itree="30">
      <Node pos="s" depth="0" NCoef="0" IVar="3" Cut="2.1603448390960693e+00" cType="1" res="4.9571636319160461e-01" rms="5.0457799434661865e-01" purity="4.9966633319854736e-01" nType="0">
        <Node pos="l" depth="1" NCoef="0" IVar="9" Cut="1.3149094581604004e-01" cType="1" res="6.3985848426818848e-01" rms="-nan" purity="3.5897049307823181e-01" nType="0">
          <Node pos="l" depth="2" NCoef="0" IVar="5" Cut="1.9156950712203979e+00" cType="1" res="3.3280212432146072e-02" rms="6.1426430940628052e-01" purity="3.1104114651679993e-01" nType="0">
            <Node pos="l" depth="3" NCoef="0" IVar="-1" Cut="0.0000000000000000e+00" cType="1" res="-1.9000204280018806e-02" rms="4.0524235367774963e-01" purity="2.4584309756755829e-01" nType="-99"/>
            <Node pos="r" depth="3" NCoef="0" IVar="-1" Cut="0.0000000000000000e+00" cType="1" res="-3.0959136784076691e-03" rms="4.2872953414916992e-01" purity="3.7796086072921753e-01" nType="-99"/>
          </Node>
          <Node pos="r" depth="2" NCoef="0" IVar="-1" Cut="0.0000000000000000e+00" cType="1" res="5.4998793639242649e-03" rms="4.5571374893188477e-01" purity="5.0848579406738281e-01" nType="-99"/>
        </Node>
        <Node pos="r" depth="1" NCoef="0" IVar="7" Cut="1.1551089286804199e+00" cType="1" res="1.4372598379850388e-02" rms="6.0776956379413605e-02" purity="5.9609997272491455e-01" nType="0">
          <Node pos="l" depth="2" NCoef="0" IVar="10" Cut="4.8468231201171875e+01" cType="1" res="9.6986051648855209e-03" rms="7.0395000278949738e-02" purity="7.3257577419281006e-01" nType="0">
            <Node pos="l" depth="3" NCoef="0" IVar="-1" Cut="0.0000000000000000e+00" cType="1" res="6.1962171457707882e-03" rms="4.3871036171913147e-01" purity="6.8503826856613159e-01" nType="-99"/>
            <Node pos="r" depth="3" NCoef="0" IVar="-1" Cut="0.0000000000000000e+00" cType="1" res="1.7027387395501137e-02" rms="3.7567469477653503e-01" purity="7.9920780658721924e-01" nType="-99"/>
          </Node>
          <Node pos="r" depth="2" NCoef="0" IVar="5" Cut="1.5324798822402954e+00" cType="1" res="1.7384564876556396e-01" rms="9.1904038190841675e-01" purity="4.0815550088882446e-01" nType="0">
            <Node pos="l" depth="3" NCoef="0" IVar="-1" Cut="0.0000000000000000e+00" cType="1" res="-1.0941736400127411e-02" rms="4.4891884922981262e-01" purity="3.3377358317375183e-01" nType="-99"/>
            <Node pos="r" depth="3" NCoef="0" IVar="-1" Cut="0.0000000000000000e+00" cType="1" res="3.0403987038880587e-03" rms="4.6483942866325378e-01" purity="4.4348320364952087e-01" nType="-99"/>
          </Node>
        </Node>
      </Node>
    </BinaryTree>
    <BinaryTree type="DecisionTree" boostWeight="1.0000000000000000e+00" itree="31">
      <Node pos="s" depth="0" NCoef="0" IVar="7" Cut="4.1217753291130066e-01" cType="1" res="4.9571636319160461e-01" rms="-nan" purity="4.9966633319854736e-01" nType="0">
        <Node pos="l" depth="1" NCoef="0" IVar="-1" Cut="0.0000000000000000e+00" cType="1" res="1.7083367332816124e-02" rms="3.4803783893585205e-01" purity="8.3032131195068359e-01" nType="-99"/>
        <Node pos="r" depth="1" NCoef="0" IVar="2" Cut="3.5472824573516846e+00" cType="1" res="4.6283581852912903e-01" rms="5.6604248285293579e-01" purity="4.6537888050079346e-01" nType="0">
          <Node pos="l" depth="2" NCoef="0" IVar="5" Cut="8.4286391735076904e-01" cType="1" res="5.8636534214019775e-01" rms="-nan" purity="4.1168388724327087e-01" nType="0">
            <Node pos="l" depth="3" NCoef="0" IVar="-1" Cut="0.0000000000000000e+00" cType="1" res="-1.6250226646661758e-02" rms="4.3003368377685547e-01" purity="3.1587085127830505e-01" nType="-99"/>
            <Node pos="r" depth="3" NCoef="0" IVar="-1" Cut="0.0000000000000000e+00" cType="1" res="-4.2738646152429283e-04" rms="4.4175127148628235e-01" purity="4.3333113193511963e-01" nType="-99"/>
          </Node>
          <Node pos="r" depth="2" NCoef="0" IVar="10" Cut="3.6829132080078125e+01" cType="1" res="1.4435631036758423e-01" rms="4.5257231593132019e-01" purity="6.5585446357727051e-01" nType="0">
            <Node pos="l" depth="3" NCoef="0" IVar="-1" Cut="0.0000000000000000e+00" cType="1" res="7.4023468187078834e-04" rms="4.6235170960426331e-01" purity="5.4848086833953857e-01" nType="-99"/>
            <Node pos="r" depth="3" NCoef="0" IVar="-1" Cut="0.0000000000000000e+00" cType="1" res="1.5728663653135300e-02" rms="4.0986689925193787e-01" purity="7.5045013427734375e-01" nType="-99"/>
          </Node>
        </Node>
      </Node>
    </BinaryTree>
    <BinaryTree type="DecisionTree" boostWeight="1.0000000000000000e+00" itree="32">
      <Node pos="s" depth="0" NCoef="0" IVar="7" Cut="1.4785999059677124e+00" cType="1" res="4.9571636319160461e-01" rms="5.0457799434661865e-01" purity="4.9966633319854736e-01" nType="0">
        <Node pos="l" depth="1" NCoef="0" IVar="5" Cut="1.4561178684234619e+00" cType="1" res="5.7418417930603027e-01" rms="3.0228391289710999e-01" purity="5.7893699407577515e-01" nType="0">
          <Node pos="l" depth="2" NCoef="0" IVar="3" Cut="2.1033651828765869e+00" cType="1" res="4.5875152945518494e-01" rms="5.7188779115676880e-01" purity="4.6249136328697205e-01" nType="0">
            <Node pos="l" depth="3" NCoef="0" IVar="-1" Cut="0.0000000000000000e+00" cType="1" res="-1.2143818661570549e-02" rms="4.3660232424736023e-01" purity="3.1404954195022583e-01" nType="-99"/>
            <Node pos="r" depth="3" NCoef="0" IVar="-1" Cut="0.0000000000000000e+00" cType="1" res="1.5869589988142252e-03" rms="4.6206080913543701e-01" purity="5.6771326065063477e-01" nType="-99"/>
          </Node>
          <Node pos="r" depth="2" NCoef="0" IVar="2" Cut="2.6326868534088135e+00" cType="1" res="7.5758948922157288e-02" rms="1.3480994105339050e-01" purity="6.4532440900802612e-01" nType="0">
