<?xml version="1.0"?>
<MethodSetup Method="BDT::BDTG">
  <GeneralInfo>
    <Info name="TMVA Release" value="4.2.0 [262656]"/>
    <Info name="ROOT Release" value="6.02/13 [393741]"/>
    <Info name="Creator" value="peruzzi"/>
    <Info name="Date" value="Wed Jun  8 18:13:25 2016"/>
    <Info name="Host" value="Linux vocms0301.cern.ch 2.6.32-573.7.1.el6.x86_64 #1 SMP Wed Sep 23 10:12:03 CEST 2015 x86_64 x86_64 x86_64 GNU/Linux"/>
    <Info name="Dir" value="/data/peruzzi/train_soft_030616"/>
    <Info name="Training events" value="50318"/>
    <Info name="TrainingTime" value="4.21239440e+01"/>
    <Info name="AnalysisType" value="Classification"/>
  </GeneralInfo>
  <Options>
    <Option name="V" modified="Yes">False</Option>
    <Option name="VerbosityLevel" modified="No">Default</Option>
    <Option name="VarTransform" modified="No">None</Option>
    <Option name="H" modified="Yes">False</Option>
    <Option name="CreateMVAPdfs" modified="Yes">True</Option>
    <Option name="IgnoreNegWeightsInTraining" modified="No">False</Option>
    <Option name="NTrees" modified="Yes">500</Option>
    <Option name="MaxDepth" modified="Yes">2</Option>
    <Option name="MinNodeSize" modified="No">0.1987363.2</Option>
    <Option name="nCuts" modified="Yes">2000</Option>
    <Option name="BoostType" modified="Yes">Grad</Option>
    <Option name="AdaBoostR2Loss" modified="No">quadratic</Option>
    <Option name="UseBaggedBoost" modified="No">False</Option>
    <Option name="Shrinkage" modified="Yes">1.000000e-01</Option>
    <Option name="AdaBoostBeta" modified="No">5.000000e-01</Option>
    <Option name="UseRandomisedTrees" modified="No">False</Option>
    <Option name="UseNvars" modified="Yes">9</Option>
    <Option name="UsePoissonNvars" modified="No">True</Option>
    <Option name="BaggedSampleFraction" modified="No">6.000000e-01</Option>
    <Option name="UseYesNoLeaf" modified="No">True</Option>
    <Option name="NegWeightTreatment" modified="No">ignorenegweightsintraining</Option>
    <Option name="Css" modified="No">1.000000e+00</Option>
    <Option name="Cts_sb" modified="No">1.000000e+00</Option>
    <Option name="Ctb_ss" modified="No">1.000000e+00</Option>
    <Option name="Cbb" modified="No">1.000000e+00</Option>
    <Option name="NodePurityLimit" modified="No">5.000000e-01</Option>
    <Option name="SeparationType" modified="No">giniindex</Option>
    <Option name="DoBoostMonitor" modified="No">False</Option>
    <Option name="UseFisherCuts" modified="No">False</Option>
    <Option name="MinLinCorrForFisher" modified="No">8.000000e-01</Option>
    <Option name="UseExclusiveVars" modified="No">False</Option>
    <Option name="DoPreselection" modified="No">False</Option>
    <Option name="SigToBkgFraction" modified="No">1.000000e+00</Option>
    <Option name="PruneMethod" modified="No">nopruning</Option>
    <Option name="PruneStrength" modified="No">0.000000e+00</Option>
    <Option name="PruningValFraction" modified="No">5.000000e-01</Option>
    <Option name="nEventsMin" modified="Yes">100</Option>
    <Option name="UseBaggedGrad" modified="Yes">False</Option>
    <Option name="GradBaggingFraction" modified="No">6.000000e-01</Option>
    <Option name="UseNTrainEvents" modified="No">0</Option>
    <Option name="NNodesMax" modified="Yes">9</Option>
  </Options>
  <Variables NVar="11">
    <Variable VarIndex="0" Expression="LepGood_pt" Label="LepGood_pt" Title="LepGood_pt" Unit="" Internal="LepGood_pt" Type="D" Min="5.00012636e+00" Max="2.99966908e+01"/>
    <Variable VarIndex="1" Expression="LepGood_eta" Label="LepGood_eta" Title="LepGood_eta" Unit="" Internal="LepGood_eta" Type="D" Min="-2.49987078e+00" Max="2.49994326e+00"/>
    <Variable VarIndex="2" Expression="min(LepGood_miniRelIsoCharged,4)" Label="LepGood_miniRelIsoCharged" Title="LepGood_miniRelIsoCharged" Unit="" Internal="LepGood_miniRelIsoCharged" Type="D" Min="0.00000000e+00" Max="1.84972012e+00"/>
    <Variable VarIndex="3" Expression="min(LepGood_miniRelIsoNeutral,4)" Label="LepGood_miniRelIsoNeutral" Title="LepGood_miniRelIsoNeutral" Unit="" Internal="LepGood_miniRelIsoNeutral" Type="D" Min="0.00000000e+00" Max="1.85701978e+00"/>
    <Variable VarIndex="4" Expression="LepGood_isoRelH04" Label="LepGood_isoRelH04" Title="LepGood_isoRelH04" Unit="" Internal="LepGood_isoRelH04" Type="D" Min="0.00000000e+00" Max="3.77686858e+00"/>
    <Variable VarIndex="5" Expression="min(LepGood_RelIsoChargedFix04,4)" Label="LepGood_RelIsoChargedFix04" Title="LepGood_RelIsoChargedFix04" Unit="" Internal="LepGood_RelIsoChargedFix04" Type="D" Min="0.00000000e+00" Max="1.93940222e+00"/>
    <Variable VarIndex="6" Expression="min(LepGood_RelIsoNeutralFix04,4)" Label="LepGood_RelIsoNeutralFix04" Title="LepGood_RelIsoNeutralFix04" Unit="" Internal="LepGood_RelIsoNeutralFix04" Type="D" Min="0.00000000e+00" Max="1.93446493e+00"/>
    <Variable VarIndex="7" Expression="LepGood_sip3d" Label="LepGood_sip3d" Title="LepGood_sip3d" Unit="" Internal="LepGood_sip3d" Type="D" Min="4.73864330e-03" Max="7.99629021e+00"/>
    <Variable VarIndex="8" Expression="log(abs(LepGood_dxy))" Label="LepGood_dxy" Title="LepGood_dxy" Unit="" Internal="LepGood_dxy" Type="D" Min="-1.68865585e+01" Max="-2.99595356e+00"/>
    <Variable VarIndex="9" Expression="log(abs(LepGood_dz))" Label="LepGood_dz" Title="LepGood_dz" Unit="" Internal="LepGood_dz" Type="D" Min="-1.46979809e+01" Max="-2.30317783e+00"/>
    <Variable VarIndex="10" Expression="LepGood_mvaIdSpring15" Label="LepGood_mvaIdSpring15" Title="LepGood_mvaIdSpring15" Unit="" Internal="LepGood_mvaIdSpring15" Type="D" Min="-9.19987559e-01" Max="9.99518752e-01"/>
  </Variables>
  <Spectators NSpec="1">
    <Spectator SpecIndex="0" Expression="LepGood_mcMatchAny" Label="LepGood_mcMatchAny" Title="D" Unit="" Internal="LepGood_mcMatchAny" Type="F" Min="0.00000000e+00" Max="5.00000000e+00"/>
  </Spectators>
  <Classes NClass="2">
    <Class Name="Signal" Index="0"/>
    <Class Name="Background" Index="1"/>
  </Classes>
  <Transformations NTransformations="0"/>
  <MVAPdfs>
    <PDF Name="BDTG_PDFSig" MinNSmooth="0" MaxNSmooth="0" InterpolMethod="2" KDE_type="1" KDE_iter="1" KDE_border="1" KDE_finefactor="1.0000000000000000e+00">
      <Histogram Name="BDT_tr_S_original" NBins="1006" XMin="-9.9918156862258911e-01" XMax="9.7153276205062866e-01" HasEquidistantBins="1">
        0.00000000e+00 3.43808963e-02 0.00000000e+00 0.00000000e+00 3.25576685e-02 7.42761697e-02 3.25576685e-02 0.00000000e+00 1.01422691e-01 2.23352864e-01 6.75917702e-02 1.17936762e-01 0.00000000e+00 0.00000000e+00 0.00000000e+00 4.14513303e-02 6.76096406e-02 3.50341018e-02 9.92134289e-02 1.09310271e-01 1.09310271e-01 1.00769486e-01 3.28248394e-02 1.09060971e-01 2.13185950e-01 3.25576685e-02 1.42220816e-01 6.75917702e-02 0.00000000e+00 7.64854321e-02 6.63885895e-02 0.00000000e+00 4.14513303e-02 0.00000000e+00 1.15512944e-01 0.00000000e+00 7.64854321e-02 7.00682035e-02 7.42761697e-02 1.81901534e-01 6.63885895e-02 4.14513303e-02 6.63885895e-02 0.00000000e+00 6.63885895e-02 1.31771097e-01 0.00000000e+00 6.63885895e-02 1.07839920e-01 1.48070613e-01 1.49291250e-01 3.43808963e-02 2.23352864e-01 0.00000000e+00 0.00000000e+00 1.52988735e-01 3.50341018e-02 0.00000000e+00 3.50341018e-02 7.58322266e-02 4.14513303e-02 6.63885895e-02 4.14513303e-02 3.50519722e-02 3.25576685e-02 6.78768115e-02 8.29026607e-02 6.63885895e-02 7.58322266e-02 6.63885895e-02 3.28248394e-02 0.00000000e+00 0.00000000e+00 0.00000000e+00 1.15512944e-01 1.15512944e-01 1.99165769e-01 3.25576685e-02 3.50341018e-02 0.00000000e+00 4.14513303e-02 6.53825078e-02 0.00000000e+00 9.89462580e-02 0.00000000e+00 1.36474663e-01 4.14513303e-02 1.07839920e-01 4.14513303e-02 9.89462580e-02 2.14726373e-01 4.14513303e-02 0.00000000e+00 6.63885895e-02 6.63885895e-02 3.50341018e-02 3.50341018e-02 1.43864079e-01 3.50341018e-02 9.89462580e-02 6.63885895e-02 3.22299122e-01 6.63885895e-02 1.85581148e-01 3.28248394e-02 9.92134289e-02 1.15512944e-01 0.00000000e+00 0.00000000e+00 1.33998230e-01 0.00000000e+00 1.97892516e-01 1.70004519e-01 1.15512944e-01 1.40664759e-01 1.01440562e-01 3.28248394e-02 0.00000000e+00 6.63885895e-02 1.15512944e-01 6.63885895e-02 2.16935635e-01 2.09262611e-01 4.14513303e-02 0.00000000e+00 1.84875327e-01 0.00000000e+00 7.64854321e-02 4.14513303e-02 0.00000000e+00 6.63885895e-02 6.63885895e-02 1.73222428e-01 3.43808963e-02 1.50547046e-01 0.00000000e+00 0.00000000e+00 1.74228509e-01 3.43808963e-02 3.50341018e-02 1.65334847e-01 2.04333605e-01 4.14513303e-02 1.49291250e-01 3.64017623e-01 1.01990537e-01 1.15512944e-01 9.92134289e-02 9.89462580e-02 2.44296713e-01 6.63885895e-02 1.33980360e-01 1.15512944e-01 3.50341018e-02 0.00000000e+00 8.29026607e-02 0.00000000e+00 1.70289560e-01 2.97414478e-01 2.16282430e-01 3.13405460e-01 0.00000000e+00 1.81901534e-01 7.74754894e-02 1.84343222e-01 0.00000000e+00 1.67829151e-01 0.00000000e+00 1.01422691e-01 0.00000000e+00 8.29026607e-02 1.56964275e-01 1.32777179e-01 6.63885895e-02 0.00000000e+00 0.00000000e+00 1.37996826e-01 0.00000000e+00 3.18376197e-01 6.63885895e-02 0.00000000e+00 3.22566293e-01 2.00636120e-01 7.00860739e-02 4.14513303e-02 0.00000000e+00 2.89741454e-01 3.25576685e-02 9.89462580e-02 1.15512944e-01 9.92134289e-02 1.81901534e-01 0.00000000e+00 7.64854321e-02 6.63885895e-02 1.15512944e-01 4.14513303e-02 1.85616889e-01 1.17954633e-01 1.74228509e-01 3.50341018e-02 1.09043101e-01 1.81901534e-01 7.40089988e-02 3.50519722e-02 1.07839920e-01 6.63885895e-02 6.75917702e-02 0.00000000e+00 0.00000000e+00 1.15512944e-01 6.63885895e-02 0.00000000e+00 1.15512944e-01 2.15662383e-01 0.00000000e+00 1.56964275e-01 9.92134289e-02 6.63885895e-02 6.63885895e-02 0.00000000e+00 1.81901534e-01 1.74228509e-01 1.40397588e-01 0.00000000e+00 2.09262611e-01 0.00000000e+00 6.63885895e-02 0.00000000e+00 6.63885895e-02 7.64854321e-02 1.42891892e-01 0.00000000e+00 3.50341018e-02 0.00000000e+00 0.00000000e+00 3.07529191e-01 1.07839920e-01 4.14513303e-02 1.40397588e-01 1.01972667e-01 3.50341018e-02 1.15512944e-01 1.73222428e-01 0.00000000e+00 0.00000000e+00 3.50341018e-02 2.40617099e-01 0.00000000e+00 0.00000000e+00 0.00000000e+00 1.07839920e-01 1.81901534e-01 4.37812066e-01 3.14678713e-01 7.64854321e-02 1.15512944e-01 3.43808963e-02 9.89462580e-02 2.97414478e-01 7.64854321e-02 6.63885895e-02 7.64854321e-02 2.99856167e-01 2.63583557e-01 2.55910533e-01 1.00769486e-01 1.05102305e-01 1.33594325e-01 6.63885895e-02 0.00000000e+00 7.64854321e-02 1.49291250e-01 1.09310271e-01 4.14513303e-02 1.50547046e-01 3.48962651e-01 1.51537103e-01 2.33467577e-01 2.48290123e-01 6.63885895e-02 9.89462580e-02 1.32777179e-01 4.14513303e-02 4.14513303e-02 3.28248394e-02 6.63885895e-02 0.00000000e+00 2.52786883e-01 1.01422691e-01 1.81901534e-01 3.50341018e-02 1.34247531e-01 1.15512944e-01 6.63885895e-02 6.63885895e-02 1.56964275e-01 3.50341018e-02 1.74228509e-01 6.78589411e-02 1.42891892e-01 2.98884830e-01 1.50547046e-01 1.69014461e-01 1.15727500e-01 1.09310271e-01 1.81901534e-01 2.72477219e-01 4.14513303e-02 6.63885895e-02 6.63885895e-02 3.29972146e-01 2.31025888e-01 1.32777179e-01 1.17954633e-01 0.00000000e+00 0.00000000e+00 1.15512944e-01 3.50341018e-02 1.40664759e-01 4.14513303e-02 2.23352864e-01 1.17936762e-01 1.81901534e-01 8.29026607e-02 7.64854321e-02 3.43808963e-02 1.48337784e-01 1.11537404e-01 9.89462580e-02 6.63885895e-02 1.74228509e-01 4.14513303e-02 6.63885895e-02 3.25576685e-02 4.14513303e-02 1.65602018e-01 0.00000000e+00 9.92134289e-02 1.32777179e-01 3.55379879e-01 0.00000000e+00 1.01422691e-01 2.14459202e-01 1.15512944e-01 2.55910533e-01 9.89462580e-02 0.00000000e+00 1.81901534e-01 1.32777179e-01 2.00386820e-01 0.00000000e+00 2.48290123e-01 1.81901534e-01 0.00000000e+00 1.15512944e-01 1.32777179e-01 7.74754894e-02 6.63885895e-02 1.15512944e-01 0.00000000e+00 1.15512944e-01 1.32777179e-01 6.63885895e-02 6.63885895e-02 0.00000000e+00 3.50341018e-02 1.50547046e-01 3.84014623e-01 1.33594325e-01 1.89521943e-01 6.63885895e-02 1.15512944e-01 1.33980360e-01 3.60241591e-02 2.09262611e-01 1.48070613e-01 2.23352864e-01 1.07839920e-01 1.01422691e-01 2.34199870e-01 1.56964275e-01 2.23352864e-01 4.14513303e-02 1.42874022e-01 1.84927942e-01 2.48290123e-01 2.51969737e-01 1.67811281e-01 4.14513303e-02 1.15512944e-01 2.48290123e-01 1.56964275e-01 3.14678713e-01 2.83324225e-01 1.51537103e-01 1.67158075e-01 3.81572934e-01 2.99838296e-01 4.14513303e-02 2.14459202e-01 2.63583557e-01 1.83389756e-01 1.24353991e-01 1.56964275e-01 2.48290123e-01 7.00860739e-02 6.63885895e-02 1.67811281e-01 0.00000000e+00 6.63885895e-02 7.42761697e-02 1.65602018e-01 1.32777179e-01 7.65033025e-02 1.15512944e-01 1.09043101e-01 6.63885895e-02 1.07839920e-01 6.63885895e-02 1.40397588e-01 1.69014461e-01 1.18926820e-01 1.74228509e-01 2.46276828e-01 6.63885895e-02 1.01422691e-01 1.56964275e-01 2.22613953e-01 1.74228509e-01 2.23352864e-01 1.74228509e-01 1.44095073e-01 2.48290123e-01 2.66757539e-01 1.42874022e-01 4.31394838e-01 2.56177703e-01 1.56964275e-01 2.31025888e-01 1.74228509e-01 3.06255525e-01 4.14513303e-02 1.07839920e-01 7.00860739e-02 1.15512944e-01 3.81067302e-01 1.72955257e-01 1.56964275e-01 2.12960096e-01 1.65602018e-01 2.81114963e-01 3.56130043e-01 1.81848919e-01 3.40068989e-01 1.65334847e-01 6.63885895e-02 1.56964275e-01 1.05102305e-01 3.31942948e-01 2.45517764e-01 2.34199870e-01 1.65602018e-01 3.42545422e-01 6.63885895e-02 2.82068429e-01 0.00000000e+00 1.85528533e-01 3.60241591e-02 2.82671020e-01 6.63885895e-02 1.36456793e-01 1.43691168e-01 4.30191657e-01 1.07839920e-01 1.15512944e-01 3.50341018e-02 7.40089988e-02 6.63885895e-02 2.97414478e-01 1.74228509e-01 2.15679840e-01 1.07839920e-01 4.14513303e-02 0.00000000e+00 3.28248394e-02 2.31990608e-01 1.41600769e-01 2.55910533e-01 1.64328766e-01 1.32777179e-01 6.63885895e-02 3.22299122e-01 6.63885895e-02 1.65334847e-01 7.74754894e-02 2.34749846e-01 3.32395965e-01 1.73222428e-01 1.37945015e-01 0.00000000e+00 2.64804194e-01 1.01422691e-01 2.82068429e-01 7.64854321e-02 3.65006248e-01 3.65220804e-01 3.71690648e-01 2.66274546e-01 1.81901534e-01 4.87203592e-01 2.72477219e-01 3.50341018e-02 3.54856791e-01 1.89521943e-01 4.06724749e-01 2.23352864e-01 4.14513303e-02 0.00000000e+00 1.17283557e-01 1.48070613e-01 2.75669071e-01 1.89521943e-01 4.97783427e-01 5.10356703e-01 3.25576685e-02 1.74228509e-01 1.56964275e-01 1.73222428e-01 1.32777179e-01 3.28248394e-02 1.65334847e-01 1.15512944e-01 7.40089988e-02 1.89521943e-01 2.48290123e-01 1.02910913e-01 1.67829151e-01 1.75698861e-01 7.00860739e-02 3.60241591e-02 1.75431690e-01 2.64804194e-01 4.99004065e-01 3.50341018e-02 2.89741454e-01 1.32777179e-01 1.74228509e-01 1.00416610e-01 3.81067302e-01 2.68580767e-01 2.93421068e-01 7.64854321e-02 1.78898181e-01 3.72644114e-01 1.83104714e-01 3.18358327e-01 3.82837915e-01 2.76854381e-01 9.92134289e-02 1.84343222e-01 1.74778485e-01 1.75431690e-01 2.49760475e-01 1.67811281e-01 3.14678713e-01 0.00000000e+00 3.76093148e-01 3.50519722e-02 2.49760475e-01 6.63885895e-02 3.83491120e-01 1.43423997e-01 2.00368949e-01 0.00000000e+00 2.93757919e-01 1.33998230e-01 6.53825078e-02 4.06724749e-01 1.81901534e-01 2.02106472e-01 3.31942948e-01 1.49291250e-01 3.63803067e-01 3.25765613e-01 2.68483808e-01 1.31771097e-01 1.07839920e-01 1.01422691e-01 1.89521943e-01 2.89741454e-01 4.64519938e-01 4.72460133e-01 1.32777179e-01 2.05780096e-01 3.56130043e-01 3.26546168e-01 1.31503926e-01 5.36758324e-01 1.67811281e-01 4.14513303e-02 2.48290123e-01 5.29608389e-01 1.74228509e-01 3.60241591e-02 2.97414478e-01 2.82068429e-01 6.63885895e-02 1.71510611e-01 2.95862756e-01 2.02192177e-01 1.42220816e-01 4.14513303e-02 1.48337784e-01 3.25576685e-02 1.44077202e-01 2.81114963e-01 2.66059990e-01 2.48313179e-01 2.58386966e-01 4.26198247e-01 7.00860739e-02 1.99165769e-01 3.10685302e-01 5.29405086e-01 1.07839920e-01 3.17705121e-01 3.68180230e-01 2.14726373e-01 1.49291250e-01 9.89462580e-02 2.64548276e-01 1.81901534e-01 1.49841225e-01 2.75651201e-01 3.10685302e-01 6.78768115e-02 2.50731812e-01 3.49712815e-01 1.09043101e-01 1.07839920e-01 9.92134289e-02 4.47455892e-01 1.32777179e-01 5.94776341e-01 1.81901534e-01 2.84794577e-01 1.84325352e-01 2.83538781e-01 1.49893841e-01 1.50547046e-01 2.55910533e-01 2.48237508e-01 1.01422691e-01 5.49384215e-01 1.64061595e-01 1.74778485e-01 2.23352864e-01 3.60241591e-02 3.63803067e-01 1.74228509e-01 3.47706855e-01 1.99165769e-01 3.08476040e-01 9.89462580e-02 1.07839920e-01 2.04048563e-01 6.77731617e-01 3.05999607e-01 2.09262611e-01 3.14678713e-01 3.24122350e-01 2.23300249e-01 1.74228509e-01 3.66994920e-01 2.49107269e-01 1.89521943e-01 1.50494431e-01 3.13672631e-01 6.63885895e-02 3.57333224e-01 6.86049574e-01 4.05254398e-01 8.29026607e-02 2.57131170e-01 1.50547046e-01 3.50341018e-02 7.74754894e-02 4.15351240e-01 3.27819834e-01 3.52154503e-01 2.72424604e-01 2.63583557e-01 2.44296713e-01 3.07005688e-01 1.75999536e-01 2.16935635e-01 1.42874022e-01 3.57600395e-01 6.03670003e-01 5.72315515e-01 1.11537404e-01 3.24775555e-01 6.78589411e-02 3.87990163e-01 2.02210047e-01 2.93438938e-01 2.75124694e-01 6.36280286e-01 2.66059990e-01 6.89678573e-01 1.42220816e-01 1.32777179e-01 1.73222428e-01 6.25381886e-01 4.10801583e-01 1.99165769e-01 3.71423477e-01 3.97581373e-01 1.42874022e-01 6.94943236e-01 2.92147815e-01 1.06833838e-01 3.64971090e-01 5.64172017e-01 2.40617099e-01 7.54967212e-01 2.25776682e-01 1.02239837e-01 1.49291250e-01 4.66961627e-01 3.97528758e-01 3.29972146e-01 2.82532699e-01 3.05999607e-01 3.07005688e-01 2.75891094e-01 5.87155932e-01 6.05623347e-01 3.30186702e-01 5.99676592e-01 8.75891303e-01 4.88907222e-01 2.32926618e-01 5.72006982e-01 4.74066806e-01 3.66238139e-01 2.34199870e-01 1.81901534e-01 2.00368949e-01 3.59845398e-01 4.37063123e-01 5.30358552e-01 6.22207904e-01 4.02534654e-01 5.42731640e-01 5.90277298e-01 5.73013064e-01 2.92165272e-01 5.70803801e-01 4.15448199e-01 5.78209655e-01 2.15679840e-01 3.73591377e-01 2.53740350e-01 5.91825603e-01 3.56130043e-01 4.41973407e-01 8.91441876e-01 4.64422980e-01 5.57572057e-01 3.73899910e-01 5.95567430e-01 5.03251524e-01 3.79794050e-01 3.39320046e-01 4.82687093e-01 5.90782930e-01 8.18129205e-01 1.34247531e-01 5.05635849e-01 3.93587963e-01 4.08428380e-01 8.53181177e-01 5.58225262e-01 5.43732950e-01 5.56033870e-01 4.84199389e-01 2.48237508e-01 3.91164145e-01 2.15679840e-01 7.21486885e-01 9.22287228e-01 2.40617099e-01 2.56177703e-01 3.06255525e-01 4.57570605e-01 5.14564669e-01 4.95306994e-01 6.90511176e-01 8.25372268e-01 7.99592525e-01 1.26947306e+00 9.41460464e-01 8.80508360e-01 3.97581373e-01 5.51284944e-01 5.64874917e-01 1.16906307e+00 6.04350094e-01 5.33299256e-01 5.23941324e-01 1.82116090e-01 6.55014873e-01 8.21381422e-01 6.83879392e-01 3.99051725e-01 2.48237508e-01 5.07486049e-01 5.58975426e-01 1.06960768e+00 6.41388890e-01 9.11878872e-01 7.11509923e-01 4.33871271e-01 4.16669250e-01 5.69056244e-01 6.05837903e-01 7.24429871e-01 5.31828904e-01 3.75818510e-01 8.13148804e-01 5.36231404e-01 7.19603290e-01 4.38490892e-01 9.98728317e-01 8.99336923e-01 7.13463267e-01 7.57391444e-01 8.25215227e-01 5.80918514e-01 2.73645241e-01 7.03366424e-01 1.01426628e+00 7.53882459e-01 9.18061805e-01 4.06672134e-01 4.95254379e-01 8.65480664e-01 1.26978160e+00 8.31169449e-01 8.33407421e-01 8.07806922e-01 8.11273327e-01 7.79851856e-01 9.33865393e-01 6.85540525e-01 5.96542987e-01 4.36242474e-01 1.01527236e+00 1.10902388e+00 1.10977139e+00 7.88222429e-01 6.42172144e-01 4.26412802e-01 4.08246062e-01 1.37949370e+00 1.01356873e+00 6.47891824e-01 7.80669003e-01 4.36011894e-01 1.05399539e+00 8.02312682e-01 6.18824834e-01 7.13677823e-01 6.53759077e-01 1.15549114e+00 9.71464198e-01 9.69855526e-01 1.04343313e+00 1.43372091e+00 1.33415419e+00 8.44716213e-01 1.74259261e+00 1.40356919e+00 1.51477579e+00 1.14954295e+00 7.28204443e-01 1.12957945e+00 1.22953403e+00 1.18432734e+00 4.00238881e-01 1.42250801e+00 1.01134822e+00 9.21244642e-01 9.80108560e-01 8.58221993e-01 1.24833645e+00 1.27470457e+00 8.51655928e-01 1.21318752e+00 9.29392821e-01 1.35079004e+00 1.37562609e+00 1.53751006e+00 1.16956601e+00 8.92627186e-01 1.22097537e+00 7.00519749e-01 1.38047571e+00 1.21620056e+00 1.66013819e+00 6.71295231e-01 1.24433043e+00 1.17684004e+00 8.13975982e-01 1.59070966e+00 1.40312238e+00 9.14989768e-01 1.14974148e+00 1.51669210e+00 1.37755161e+00 1.48858942e+00 1.43503651e+00 1.22695921e+00 1.73048018e+00 1.60528911e+00 2.15560301e+00 1.54861402e+00 1.56509231e+00 1.39617180e+00 1.92642399e+00 1.57520082e+00 1.50167181e+00 2.41968543e+00 2.73815148e+00 1.67336881e+00 1.80574763e+00 2.27727840e+00 1.28634578e+00 1.59918104e+00 1.82029040e+00 2.71599733e+00 1.80984667e+00 2.35849261e+00 1.52725578e+00 2.40207171e+00 2.51986278e+00 2.28908085e+00 2.80871744e+00 2.51150688e+00 2.18557541e+00 2.57319690e+00 1.98249219e+00 2.45656001e+00 3.35085110e+00 3.69285737e+00 2.94217979e+00 2.45578813e+00 2.54601164e+00 2.53123009e+00 3.17616494e+00 3.42810335e+00 3.96218950e+00 3.75543961e+00 3.60315402e+00 4.17535120e+00 3.66319523e+00 2.30666061e+00 3.29516804e+00 2.93789371e+00 4.23891923e+00 3.18389368e+00 3.35515330e+00 4.30147561e+00 3.93082092e+00 4.86662638e+00 4.49712203e+00 4.58680261e+00 4.32360802e+00 4.71020319e+00 5.61082007e+00 5.15254557e+00 5.07252113e+00 4.98388975e+00 5.51089083e+00 4.65466127e+00 5.02360817e+00 6.50131767e+00 6.17613222e+00 7.42900024e+00 6.34383654e+00 5.72562083e+00 5.00999278e+00 5.38243846e+00 3.86938157e+00 4.50184149e+00 3.25942616e+00 2.64546110e+00 2.23608762e+00 1.19559955e+00 1.27163547e+00 6.72847654e-01 4.18978239e-01 4.14513303e-02 4.14513303e-02 
      </Histogram>
    </PDF>
    <PDF Name="BDTG_PDFBkg" MinNSmooth="0" MaxNSmooth="0" InterpolMethod="2" KDE_type="1" KDE_iter="1" KDE_border="1" KDE_finefactor="1.0000000000000000e+00">
      <Histogram Name="BDT_tr_B_original" NBins="1006" XMin="-9.9918156862258911e-01" XMax="9.7153276205062866e-01" HasEquidistantBins="1">
        2.54148192e+00 6.82319039e+00 7.97499501e+00 8.17530885e+00 8.61349539e+00 8.28798539e+00 8.63853462e+00 8.33806385e+00 7.74964193e+00 6.81067077e+00 7.13618077e+00 6.18469000e+00 5.82162116e+00 5.50863077e+00 5.73398385e+00 5.08296385e+00 4.75745385e+00 4.66981654e+00 4.88265000e+00 4.41942423e+00 4.50706154e+00 4.23163000e+00 4.03131616e+00 3.95619846e+00 3.50549231e+00 3.41785500e+00 3.50549231e+00 3.49297269e+00 3.17998231e+00 3.16746269e+00 3.16746269e+00 3.34273731e+00 2.85447231e+00 3.00470769e+00 2.85447231e+00 3.06730577e+00 3.04226654e+00 2.77935462e+00 2.40376616e+00 2.55400154e+00 2.46636423e+00 2.65415846e+00 2.44132500e+00 2.01565808e+00 1.89046192e+00 2.22849154e+00 2.20345231e+00 2.11581500e+00 1.80282462e+00 2.12833462e+00 2.01565808e+00 1.80282462e+00 1.97809923e+00 1.95306000e+00 1.74022654e+00 1.71518731e+00 1.77778539e+00 1.74022654e+00 1.76526577e+00 1.76526577e+00 1.58999116e+00 1.52739308e+00 1.45227539e+00 1.57747154e+00 1.42723615e+00 1.48983423e+00 1.60251077e+00 1.64006962e+00 1.55243231e+00 1.31455962e+00 1.22692231e+00 1.26448115e+00 1.23944192e+00 1.40219692e+00 1.27700077e+00 1.40219692e+00 1.45227539e+00 1.20188308e+00 1.32707923e+00 1.06416731e+00 1.11424577e+00 1.10172615e+00 1.07668692e+00 1.11424577e+00 1.32707923e+00 1.15180462e+00 1.20188308e+00 1.18936346e+00 1.21440269e+00 1.12676539e+00 1.03912808e+00 1.02660846e+00 1.16432423e+00 9.01412308e-01 1.30204000e+00 1.03912808e+00 9.89049616e-01 9.76530001e-01 1.06416731e+00 9.38971155e-01 1.11424577e+00 9.01412308e-01 1.00156923e+00 1.06416731e+00 7.76216154e-01 1.03912808e+00 1.07668692e+00 8.38814231e-01 8.51333847e-01 1.05164769e+00 8.63853462e-01 8.26294616e-01 7.01098462e-01 8.26294616e-01 8.13775001e-01 9.13931924e-01 8.01255385e-01 7.88735770e-01 9.76530001e-01 8.01255385e-01 7.63696539e-01 9.64010385e-01 6.88578847e-01 8.13775001e-01 7.26137693e-01 8.88892693e-01 6.13461154e-01 6.88578847e-01 8.51333847e-01 9.01412308e-01 7.88735770e-01 6.00941539e-01 8.38814231e-01 7.38657308e-01 7.76216154e-01 7.13618077e-01 6.25980770e-01 6.13461154e-01 7.26137693e-01 7.38657308e-01 8.01255385e-01 8.01255385e-01 7.13618077e-01 8.01255385e-01 8.13775001e-01 6.88578847e-01 5.13304231e-01 7.63696539e-01 7.38657308e-01 6.00941539e-01 5.13304231e-01 6.51020000e-01 8.13775001e-01 5.50863077e-01 4.88265000e-01 6.38500385e-01 6.51020000e-01 6.00941539e-01 5.63382693e-01 6.51020000e-01 5.88421924e-01 6.63539616e-01 5.88421924e-01 7.26137693e-01 6.76059231e-01 6.00941539e-01 4.38186539e-01 5.88421924e-01 5.38343462e-01 6.13461154e-01 6.51020000e-01 5.25823847e-01 5.13304231e-01 6.13461154e-01 4.50706154e-01 6.76059231e-01 5.50863077e-01 5.38343462e-01 5.63382693e-01 5.38343462e-01 6.25980770e-01 4.75745385e-01 6.13461154e-01 4.50706154e-01 4.50706154e-01 4.75745385e-01 4.13147308e-01 4.88265000e-01 5.00784616e-01 5.13304231e-01 4.13147308e-01 4.88265000e-01 6.25980770e-01 5.13304231e-01 5.13304231e-01 5.63382693e-01 6.13461154e-01 5.13304231e-01 3.63068846e-01 4.13147308e-01 5.25823847e-01 4.75745385e-01 4.25666923e-01 4.63225770e-01 4.88265000e-01 4.13147308e-01 5.75902308e-01 4.63225770e-01 5.00784616e-01 5.00784616e-01 5.88421924e-01 5.75902308e-01 4.88265000e-01 4.38186539e-01 3.88108077e-01 3.88108077e-01 4.38186539e-01 4.88265000e-01 3.75588462e-01 4.50706154e-01 3.88108077e-01 4.25666923e-01 4.00627693e-01 3.63068846e-01 5.38343462e-01 3.75588462e-01 4.00627693e-01 2.87951154e-01 4.88265000e-01 2.87951154e-01 4.50706154e-01 5.13304231e-01 4.63225770e-01 3.38029616e-01 4.00627693e-01 4.63225770e-01 4.88265000e-01 3.38029616e-01 5.13304231e-01 3.75588462e-01 3.25510000e-01 3.38029616e-01 3.38029616e-01 2.87951154e-01 3.38029616e-01 2.50392308e-01 2.50392308e-01 3.50549231e-01 3.38029616e-01 4.00627693e-01 4.13147308e-01 2.25353077e-01 2.00313846e-01 4.25666923e-01 3.88108077e-01 4.00627693e-01 4.00627693e-01 3.63068846e-01 5.00784616e-01 3.38029616e-01 4.00627693e-01 3.12990385e-01 3.75588462e-01 2.75431539e-01 2.50392308e-01 4.00627693e-01 3.75588462e-01 3.00470769e-01 3.63068846e-01 3.12990385e-01 3.75588462e-01 3.75588462e-01 3.00470769e-01 3.63068846e-01 3.25510000e-01 3.88108077e-01 3.63068846e-01 2.37872692e-01 2.75431539e-01 3.50549231e-01 2.62911923e-01 4.13147308e-01 3.38029616e-01 2.87951154e-01 4.00627693e-01 2.62911923e-01 3.75588462e-01 2.37872692e-01 3.12990385e-01 4.13147308e-01 3.00470769e-01 2.75431539e-01 3.25510000e-01 3.38029616e-01 2.62911923e-01 2.50392308e-01 2.87951154e-01 4.88265000e-01 3.38029616e-01 3.88108077e-01 3.50549231e-01 4.75745385e-01 3.00470769e-01 4.00627693e-01 3.50549231e-01 2.75431539e-01 2.62911923e-01 2.00313846e-01 4.25666923e-01 3.25510000e-01 3.25510000e-01 2.62911923e-01 1.75274616e-01 3.38029616e-01 2.12833462e-01 3.12990385e-01 3.12990385e-01 4.63225770e-01 2.12833462e-01 2.87951154e-01 3.12990385e-01 3.00470769e-01 1.87794231e-01 2.37872692e-01 3.25510000e-01 4.00627693e-01 2.50392308e-01 2.37872692e-01 2.62911923e-01 2.75431539e-01 2.12833462e-01 3.00470769e-01 3.00470769e-01 2.75431539e-01 3.12990385e-01 2.00313846e-01 3.12990385e-01 2.50392308e-01 3.00470769e-01 3.00470769e-01 3.38029616e-01 2.25353077e-01 2.00313846e-01 2.12833462e-01 2.12833462e-01 1.62755000e-01 2.62911923e-01 3.38029616e-01 2.50392308e-01 2.25353077e-01 2.50392308e-01 2.37872692e-01 2.12833462e-01 2.37872692e-01 2.25353077e-01 2.00313846e-01 1.87794231e-01 2.50392308e-01 2.25353077e-01 1.50235385e-01 4.38186539e-01 2.62911923e-01 1.25196154e-01 2.50392308e-01 2.75431539e-01 2.37872692e-01 1.62755000e-01 1.87794231e-01 3.38029616e-01 1.00156923e-01 2.00313846e-01 2.87951154e-01 2.50392308e-01 2.25353077e-01 3.88108077e-01 2.12833462e-01 2.37872692e-01 2.25353077e-01 1.87794231e-01 2.37872692e-01 3.25510000e-01 2.12833462e-01 2.12833462e-01 2.50392308e-01 1.87794231e-01 2.75431539e-01 1.25196154e-01 2.75431539e-01 1.62755000e-01 2.62911923e-01 2.50392308e-01 2.50392308e-01 2.75431539e-01 2.75431539e-01 2.12833462e-01 1.87794231e-01 2.12833462e-01 2.25353077e-01 2.50392308e-01 2.12833462e-01 2.25353077e-01 1.62755000e-01 1.75274616e-01 1.87794231e-01 1.37715769e-01 2.12833462e-01 1.50235385e-01 2.00313846e-01 2.25353077e-01 2.25353077e-01 2.12833462e-01 2.00313846e-01 1.75274616e-01 2.50392308e-01 3.00470769e-01 2.50392308e-01 2.37872692e-01 2.12833462e-01 1.37715769e-01 2.37872692e-01 2.12833462e-01 2.37872692e-01 2.12833462e-01 1.25196154e-01 5.00784616e-02 2.25353077e-01 1.75274616e-01 2.25353077e-01 2.12833462e-01 2.00313846e-01 2.12833462e-01 2.50392308e-01 2.25353077e-01 2.25353077e-01 1.12676539e-01 2.00313846e-01 2.50392308e-01 2.00313846e-01 1.12676539e-01 1.12676539e-01 1.62755000e-01 1.50235385e-01 2.12833462e-01 1.87794231e-01 2.87951154e-01 2.25353077e-01 2.25353077e-01 1.87794231e-01 1.37715769e-01 2.00313846e-01 2.12833462e-01 2.12833462e-01 2.00313846e-01 2.87951154e-01 2.25353077e-01 2.00313846e-01 1.75274616e-01 1.25196154e-01 2.00313846e-01 1.37715769e-01 1.25196154e-01 1.75274616e-01 2.00313846e-01 1.87794231e-01 1.37715769e-01 2.00313846e-01 1.87794231e-01 1.62755000e-01 2.50392308e-01 1.50235385e-01 8.76373078e-02 2.12833462e-01 2.25353077e-01 1.62755000e-01 2.50392308e-01 2.75431539e-01 2.50392308e-01 2.75431539e-01 2.75431539e-01 1.62755000e-01 2.00313846e-01 1.87794231e-01 1.75274616e-01 1.75274616e-01 1.87794231e-01 2.87951154e-01 1.50235385e-01 2.00313846e-01 3.12990385e-01 1.50235385e-01 1.50235385e-01 2.00313846e-01 1.37715769e-01 2.87951154e-01 2.37872692e-01 1.87794231e-01 1.12676539e-01 2.25353077e-01 2.12833462e-01 2.37872692e-01 7.51176924e-02 1.62755000e-01 2.25353077e-01 2.62911923e-01 2.25353077e-01 1.50235385e-01 1.75274616e-01 6.25980770e-02 2.25353077e-01 2.37872692e-01 6.25980770e-02 2.25353077e-01 1.75274616e-01 1.75274616e-01 1.00156923e-01 1.87794231e-01 2.25353077e-01 1.37715769e-01 1.37715769e-01 1.75274616e-01 2.87951154e-01 1.62755000e-01 2.00313846e-01 1.75274616e-01 2.00313846e-01 1.62755000e-01 1.37715769e-01 1.25196154e-01 1.75274616e-01 2.12833462e-01 1.62755000e-01 1.37715769e-01 2.12833462e-01 2.12833462e-01 1.75274616e-01 1.37715769e-01 1.00156923e-01 1.00156923e-01 1.75274616e-01 1.50235385e-01 2.25353077e-01 1.25196154e-01 2.12833462e-01 6.25980770e-02 2.12833462e-01 1.37715769e-01 1.25196154e-01 2.37872692e-01 2.37872692e-01 2.50392308e-01 1.37715769e-01 1.50235385e-01 1.75274616e-01 1.62755000e-01 2.37872692e-01 1.50235385e-01 2.50392308e-01 1.50235385e-01 2.75431539e-01 2.00313846e-01 1.62755000e-01 1.37715769e-01 2.37872692e-01 1.25196154e-01 1.75274616e-01 1.00156923e-01 1.62755000e-01 1.00156923e-01 1.87794231e-01 1.25196154e-01 1.50235385e-01 1.87794231e-01 1.25196154e-01 1.62755000e-01 1.62755000e-01 1.12676539e-01 1.50235385e-01 2.00313846e-01 1.50235385e-01 2.00313846e-01 1.25196154e-01 1.37715769e-01 1.62755000e-01 1.62755000e-01 2.37872692e-01 1.62755000e-01 2.00313846e-01 2.12833462e-01 2.00313846e-01 1.62755000e-01 1.50235385e-01 1.62755000e-01 1.62755000e-01 1.37715769e-01 1.50235385e-01 2.37872692e-01 1.25196154e-01 2.37872692e-01 1.50235385e-01 1.50235385e-01 2.50392308e-02 1.37715769e-01 1.87794231e-01 1.50235385e-01 1.50235385e-01 1.87794231e-01 1.12676539e-01 2.12833462e-01 1.37715769e-01 1.25196154e-01 2.00313846e-01 1.37715769e-01 1.62755000e-01 1.00156923e-01 1.87794231e-01 1.62755000e-01 1.87794231e-01 2.37872692e-01 2.62911923e-01 1.62755000e-01 1.50235385e-01 1.00156923e-01 1.12676539e-01 1.75274616e-01 1.50235385e-01 1.00156923e-01 8.76373078e-02 1.75274616e-01 1.50235385e-01 1.00156923e-01 1.87794231e-01 1.37715769e-01 1.87794231e-01 1.00156923e-01 1.50235385e-01 1.62755000e-01 2.50392308e-01 2.00313846e-01 1.25196154e-01 1.62755000e-01 1.75274616e-01 7.51176924e-02 2.12833462e-01 1.25196154e-01 6.25980770e-02 1.12676539e-01 1.37715769e-01 1.75274616e-01 2.25353077e-01 2.37872692e-01 1.12676539e-01 2.25353077e-01 2.37872692e-01 7.51176924e-02 1.62755000e-01 2.00313846e-01 2.25353077e-01 1.75274616e-01 2.00313846e-01 2.00313846e-01 1.25196154e-01 1.37715769e-01 1.50235385e-01 2.12833462e-01 1.37715769e-01 1.75274616e-01 1.12676539e-01 1.62755000e-01 8.76373078e-02 1.00156923e-01 2.12833462e-01 1.37715769e-01 1.25196154e-01 1.25196154e-01 8.76373078e-02 8.76373078e-02 2.37872692e-01 1.25196154e-01 2.37872692e-01 1.37715769e-01 1.50235385e-01 2.37872692e-01 1.12676539e-01 1.12676539e-01 2.25353077e-01 1.12676539e-01 1.12676539e-01 1.25196154e-01 1.12676539e-01 1.75274616e-01 1.37715769e-01 1.75274616e-01 8.76373078e-02 1.62755000e-01 1.87794231e-01 1.62755000e-01 1.25196154e-01 1.62755000e-01 1.00156923e-01 1.12676539e-01 1.25196154e-01 1.87794231e-01 1.12676539e-01 1.37715769e-01 1.87794231e-01 1.50235385e-01 1.12676539e-01 1.00156923e-01 2.62911923e-01 1.50235385e-01 1.37715769e-01 1.37715769e-01 1.12676539e-01 1.00156923e-01 1.12676539e-01 8.76373078e-02 1.00156923e-01 2.00313846e-01 1.00156923e-01 1.00156923e-01 7.51176924e-02 1.50235385e-01 1.25196154e-01 1.37715769e-01 1.87794231e-01 1.00156923e-01 1.37715769e-01 2.50392308e-01 2.00313846e-01 2.25353077e-01 2.00313846e-01 1.25196154e-01 1.50235385e-01 1.12676539e-01 1.37715769e-01 1.62755000e-01 1.25196154e-01 1.62755000e-01 6.25980770e-02 1.37715769e-01 1.25196154e-01 1.37715769e-01 1.25196154e-01 1.50235385e-01 1.37715769e-01 1.50235385e-01 1.25196154e-01 1.25196154e-01 1.12676539e-01 7.51176924e-02 1.87794231e-01 6.25980770e-02 2.12833462e-01 1.75274616e-01 1.50235385e-01 1.25196154e-01 1.62755000e-01 2.00313846e-01 1.87794231e-01 1.87794231e-01 1.12676539e-01 1.62755000e-01 1.37715769e-01 1.37715769e-01 1.62755000e-01 1.37715769e-01 1.62755000e-01 1.25196154e-01 1.37715769e-01 1.12676539e-01 1.87794231e-01 1.00156923e-01 1.00156923e-01 1.87794231e-01 1.12676539e-01 1.37715769e-01 1.75274616e-01 1.50235385e-01 8.76373078e-02 1.50235385e-01 2.12833462e-01 1.12676539e-01 1.75274616e-01 1.75274616e-01 1.87794231e-01 1.87794231e-01 1.12676539e-01 1.62755000e-01 1.50235385e-01 1.00156923e-01 1.37715769e-01 1.00156923e-01 1.37715769e-01 2.00313846e-01 2.00313846e-01 1.87794231e-01 1.75274616e-01 8.76373078e-02 6.25980770e-02 1.25196154e-01 1.25196154e-01 1.12676539e-01 1.37715769e-01 1.75274616e-01 1.12676539e-01 1.37715769e-01 6.25980770e-02 1.37715769e-01 1.50235385e-01 8.76373078e-02 1.25196154e-01 1.75274616e-01 1.50235385e-01 7.51176924e-02 1.50235385e-01 1.25196154e-01 1.25196154e-01 1.62755000e-01 8.76373078e-02 1.50235385e-01 1.12676539e-01 1.25196154e-01 1.37715769e-01 2.12833462e-01 2.12833462e-01 1.25196154e-01 1.25196154e-01 8.76373078e-02 1.50235385e-01 1.37715769e-01 1.37715769e-01 1.75274616e-01 1.62755000e-01 1.25196154e-01 1.12676539e-01 1.37715769e-01 2.12833462e-01 2.12833462e-01 8.76373078e-02 1.25196154e-01 1.62755000e-01 1.50235385e-01 1.37715769e-01 1.50235385e-01 1.37715769e-01 1.12676539e-01 1.50235385e-01 1.37715769e-01 1.62755000e-01 1.12676539e-01 1.00156923e-01 1.87794231e-01 1.62755000e-01 1.25196154e-01 1.12676539e-01 1.37715769e-01 1.50235385e-01 7.51176924e-02 1.62755000e-01 1.00156923e-01 1.00156923e-01 1.37715769e-01 1.50235385e-01 2.37872692e-01 1.87794231e-01 1.62755000e-01 1.12676539e-01 8.76373078e-02 2.00313846e-01 1.37715769e-01 1.25196154e-01 2.50392308e-01 2.25353077e-01 1.12676539e-01 1.87794231e-01 1.12676539e-01 1.25196154e-01 1.87794231e-01 1.50235385e-01 1.25196154e-01 1.87794231e-01 1.75274616e-01 1.75274616e-01 1.50235385e-01 2.25353077e-01 1.00156923e-01 1.37715769e-01 8.76373078e-02 1.25196154e-01 1.25196154e-01 1.37715769e-01 1.12676539e-01 2.12833462e-01 1.50235385e-01 1.12676539e-01 1.75274616e-01 1.37715769e-01 1.62755000e-01 1.37715769e-01 1.62755000e-01 1.37715769e-01 8.76373078e-02 1.25196154e-01 1.50235385e-01 2.12833462e-01 1.12676539e-01 1.75274616e-01 1.00156923e-01 1.00156923e-01 8.76373078e-02 6.25980770e-02 2.00313846e-01 1.00156923e-01 1.87794231e-01 1.37715769e-01 8.76373078e-02 8.76373078e-02 1.62755000e-01 2.25353077e-01 1.00156923e-01 2.00313846e-01 1.12676539e-01 1.62755000e-01 1.00156923e-01 1.37715769e-01 1.87794231e-01 1.50235385e-01 2.12833462e-01 8.76373078e-02 8.76373078e-02 1.00156923e-01 1.75274616e-01 1.37715769e-01 1.25196154e-01 1.62755000e-01 1.87794231e-01 2.00313846e-01 2.12833462e-01 1.12676539e-01 1.37715769e-01 1.50235385e-01 1.75274616e-01 1.62755000e-01 1.00156923e-01 2.62911923e-01 1.50235385e-01 1.62755000e-01 1.87794231e-01 1.37715769e-01 1.62755000e-01 1.12676539e-01 1.25196154e-01 1.12676539e-01 1.25196154e-01 1.50235385e-01 1.50235385e-01 1.12676539e-01 1.00156923e-01 1.37715769e-01 2.12833462e-01 1.12676539e-01 2.12833462e-01 1.00156923e-01 6.25980770e-02 1.25196154e-01 1.37715769e-01 1.87794231e-01 2.37872692e-01 1.37715769e-01 1.12676539e-01 1.25196154e-01 1.25196154e-01 8.76373078e-02 1.12676539e-01 1.25196154e-01 1.37715769e-01 1.25196154e-01 1.50235385e-01 1.00156923e-01 1.25196154e-01 1.12676539e-01 7.51176924e-02 1.62755000e-01 1.37715769e-01 1.12676539e-01 1.37715769e-01 1.25196154e-01 1.25196154e-01 1.12676539e-01 7.51176924e-02 1.12676539e-01 1.00156923e-01 7.51176924e-02 3.75588462e-02 2.50392308e-02 6.25980770e-02 5.00784616e-02 5.00784616e-02 2.50392308e-02 5.00784616e-02 0.00000000e+00 1.25196154e-02 0.00000000e+00 0.00000000e+00 1.25196154e-02 0.00000000e+00 
      </Histogram>
    </PDF>
  </MVAPdfs>
  <Weights NTrees="500" AnalysisType="1">
    <BinaryTree type="DecisionTree" boostWeight="1.0000000000000000e+00" itree="0">
      <Node pos="s" depth="0" NCoef="0" IVar="10" Cut="2.5856129825115204e-02" cType="1" res="1.8385072381599948e-13" rms="5.0000000000000000e-01" purity="5.0000000000000000e-01" nType="0">
        <Node pos="l" depth="1" NCoef="0" IVar="10" Cut="-4.7094234824180603e-01" cType="1" res="-3.3437311649322510e-01" rms="3.7174537777900696e-01" purity="1.6562688350677490e-01" nType="0">
          <Node pos="l" depth="2" NCoef="0" IVar="-1" Cut="0.0000000000000000e+00" cType="1" res="-9.0320490300655365e-02" rms="2.7657410502433777e-01" purity="8.3458565175533295e-02" nType="-99"/>
          <Node pos="r" depth="2" NCoef="0" IVar="-1" Cut="0.0000000000000000e+00" cType="1" res="-2.0216569304466248e-02" rms="4.6669584512710571e-01" purity="3.2057037949562073e-01" nType="-99"/>
        </Node>
        <Node pos="r" depth="1" NCoef="0" IVar="5" Cut="2.4327334761619568e-01" cType="1" res="2.3350682854652405e-01" rms="4.4212505221366882e-01" purity="7.3350685834884644e-01" nType="0">
          <Node pos="l" depth="2" NCoef="0" IVar="-1" Cut="0.0000000000000000e+00" cType="1" res="2.5157580152153969e-02" rms="3.8365060091018677e-01" purity="8.2064342498779297e-01" nType="-99"/>
          <Node pos="r" depth="2" NCoef="0" IVar="-1" Cut="0.0000000000000000e+00" cType="1" res="-1.0655865073204041e-02" rms="4.8989987373352051e-01" purity="4.0000942349433899e-01" nType="-99"/>
        </Node>
      </Node>
    </BinaryTree>
    <BinaryTree type="DecisionTree" boostWeight="1.0000000000000000e+00" itree="1">
      <Node pos="s" depth="0" NCoef="0" IVar="10" Cut="2.3018139600753784e-01" cType="1" res="8.3205839619040489e-03" rms="4.8587480187416077e-01" purity="5.0000000000000000e-01" nType="0">
        <Node pos="l" depth="1" NCoef="0" IVar="10" Cut="-3.1589731574058533e-01" cType="1" res="-2.6707476377487183e-01" rms="3.9621806144714355e-01" purity="2.0493514835834503e-01" nType="0">
          <Node pos="l" depth="2" NCoef="0" IVar="-1" Cut="0.0000000000000000e+00" cType="1" res="-7.0314288139343262e-02" rms="3.0738186836242676e-01" purity="1.0723480582237244e-01" nType="-99"/>
          <Node pos="r" depth="2" NCoef="0" IVar="-1" Cut="0.0000000000000000e+00" cType="1" res="-8.7837493047118187e-03" rms="4.8937264084815979e-01" purity="4.0742027759552002e-01" nType="-99"/>
        </Node>
        <Node pos="r" depth="1" NCoef="0" IVar="5" Cut="3.1014928221702576e-01" cType="1" res="2.5216290354728699e-01" rms="4.2365863919258118e-01" purity="7.6125824451446533e-01" nType="0">
          <Node pos="l" depth="2" NCoef="0" IVar="-1" Cut="0.0000000000000000e+00" cType="1" res="2.4985013529658318e-02" rms="3.7651520967483521e-01" purity="8.2835555076599121e-01" nType="-99"/>
          <Node pos="r" depth="2" NCoef="0" IVar="-1" Cut="0.0000000000000000e+00" cType="1" res="-1.3761628419160843e-02" rms="4.8270839452743530e-01" purity="3.6964431405067444e-01" nType="-99"/>
        </Node>
      </Node>
    </BinaryTree>
    <BinaryTree type="DecisionTree" boostWeight="1.0000000000000000e+00" itree="2">
      <Node pos="s" depth="0" NCoef="0" IVar="10" Cut="2.3018139600753784e-01" cType="1" res="1.4856459572911263e-02" rms="4.7413158416748047e-01" purity="5.0000000000000000e-01" nType="0">
        <Node pos="l" depth="1" NCoef="0" IVar="5" Cut="1.1722952127456665e-01" cType="1" res="-2.4226509034633636e-01" rms="3.9203172922134399e-01" purity="2.0493514835834503e-01" nType="0">
          <Node pos="l" depth="2" NCoef="0" IVar="-1" Cut="0.0000000000000000e+00" cType="1" res="-1.0649014264345169e-02" rms="4.6508523821830750e-01" purity="3.5644116997718811e-01" nType="-99"/>
          <Node pos="r" depth="2" NCoef="0" IVar="-1" Cut="0.0000000000000000e+00" cType="1" res="-6.7823722958564758e-02" rms="2.9936751723289490e-01" purity="1.0529582202434540e-01" nType="-99"/>
        </Node>
        <Node pos="r" depth="1" NCoef="0" IVar="2" Cut="1.0808640718460083e-01" cType="1" res="2.4251867830753326e-01" rms="4.2118656635284424e-01" purity="7.6125824451446533e-01" nType="0">
          <Node pos="l" depth="2" NCoef="0" IVar="-1" Cut="0.0000000000000000e+00" cType="1" res="2.3874763399362564e-02" rms="3.7779659032821655e-01" purity="8.2511055469512939e-01" nType="-99"/>
          <Node pos="r" depth="2" NCoef="0" IVar="-1" Cut="0.0000000000000000e+00" cType="1" res="-1.5417509712278843e-02" rms="4.7681176662445068e-01" purity="3.6828002333641052e-01" nType="-99"/>
        </Node>
      </Node>
    </BinaryTree>
    <BinaryTree type="DecisionTree" boostWeight="1.0000000000000000e+00" itree="3">
      <Node pos="s" depth="0" NCoef="0" IVar="10" Cut="2.5856129825115204e-02" cType="1" res="2.0336771383881569e-02" rms="4.6374422311782837e-01" purity="5.0000000000000000e-01" nType="0">
        <Node pos="l" depth="1" NCoef="0" IVar="5" Cut="8.5257835686206818e-02" cType="1" res="-2.5129106640815735e-01" rms="3.6052143573760986e-01" purity="1.6562688350677490e-01" nType="0">
          <Node pos="l" depth="2" NCoef="0" IVar="-1" Cut="0.0000000000000000e+00" cType="1" res="-1.4515741728246212e-02" rms="4.5472574234008789e-01" purity="3.1444755196571350e-01" nType="-99"/>
          <Node pos="r" depth="2" NCoef="0" IVar="-1" Cut="0.0000000000000000e+00" cType="1" res="-6.7379102110862732e-02" rms="2.8288200497627258e-01" purity="9.2095710337162018e-02" nType="-99"/>
        </Node>
        <Node pos="r" depth="1" NCoef="0" IVar="5" Cut="2.0450468361377716e-01" cType="1" res="2.1002592146396637e-01" rms="4.3239903450012207e-01" purity="7.3350685834884644e-01" nType="0">
          <Node pos="l" depth="2" NCoef="0" IVar="-1" Cut="0.0000000000000000e+00" cType="1" res="2.3292070254683495e-02" rms="3.7405160069465637e-01" purity="8.2925665378570557e-01" nType="-99"/>
          <Node pos="r" depth="2" NCoef="0" IVar="-1" Cut="0.0000000000000000e+00" cType="1" res="-6.2587186694145203e-03" rms="4.8799908161163330e-01" purity="4.3248197436332703e-01" nType="-99"/>
        </Node>
      </Node>
    </BinaryTree>
    <BinaryTree type="DecisionTree" boostWeight="1.0000000000000000e+00" itree="4">
      <Node pos="s" depth="0" NCoef="0" IVar="10" Cut="3.1363818049430847e-01" cType="1" res="2.5374671444296837e-02" rms="4.5422235131263733e-01" purity="5.0000000000000000e-01" nType="0">
        <Node pos="l" depth="1" NCoef="0" IVar="10" Cut="-4.2555138468742371e-01" cType="1" res="-1.8916359543800354e-01" rms="3.9275124669075012e-01" purity="2.2247377038002014e-01" nType="0">
          <Node pos="l" depth="2" NCoef="0" IVar="-1" Cut="0.0000000000000000e+00" cType="1" res="-6.3907720148563385e-02" rms="2.8111445903778076e-01" purity="8.9898236095905304e-02" nType="-99"/>
          <Node pos="r" depth="2" NCoef="0" IVar="-1" Cut="0.0000000000000000e+00" cType="1" res="-6.2584974803030491e-03" rms="4.7549110651016235e-01" purity="3.9921507239341736e-01" nType="-99"/>
        </Node>
        <Node pos="r" depth="1" NCoef="0" IVar="2" Cut="1.0808640718460083e-01" cType="1" res="2.3613184690475464e-01" rms="4.0967142581939697e-01" purity="7.7263504266738892e-01" nType="0">
          <Node pos="l" depth="2" NCoef="0" IVar="-1" Cut="0.0000000000000000e+00" cType="1" res="2.3087754845619202e-02" rms="3.6890003085136414e-01" purity="8.3428519964218140e-01" nType="-99"/>
          <Node pos="r" depth="2" NCoef="0" IVar="-1" Cut="0.0000000000000000e+00" cType="1" res="-1.2905308976769447e-02" rms="4.7854110598564148e-01" purity="3.7990865111351013e-01" nType="-99"/>
        </Node>
      </Node>
    </BinaryTree>
    <BinaryTree type="DecisionTree" boostWeight="1.0000000000000000e+00" itree="5">
      <Node pos="s" depth="0" NCoef="0" IVar="10" Cut="3.1363818049430847e-01" cType="1" res="2.9803222045302391e-02" rms="4.4563475251197815e-01" purity="5.0000000000000000e-01" nType="0">
        <Node pos="l" depth="1" NCoef="0" IVar="10" Cut="-2.6402735710144043e-01" cType="1" res="-1.7106617987155914e-01" rms="3.8935279846191406e-01" purity="2.2247377038002014e-01" nType="0">
          <Node pos="l" depth="2" NCoef="0" IVar="-1" Cut="0.0000000000000000e+00" cType="1" res="-4.9968551844358444e-02" rms="3.1063184142112732e-01" purity="1.1571095883846283e-01" nType="-99"/>
          <Node pos="r" depth="2" NCoef="0" IVar="-1" Cut="0.0000000000000000e+00" cType="1" res="-3.0097293201833963e-03" rms="4.8372617363929749e-01" purity="4.3847516179084778e-01" nType="-99"/>
        </Node>
        <Node pos="r" depth="1" NCoef="0" IVar="5" Cut="3.0918005108833313e-01" cType="1" res="2.2713243961334229e-01" rms="4.0765255689620972e-01" purity="7.7263504266738892e-01" nType="0">
          <Node pos="l" depth="2" NCoef="0" IVar="-1" Cut="0.0000000000000000e+00" cType="1" res="2.2560868412256241e-02" rms="3.6643001437187195e-01" purity="8.3722829818725586e-01" nType="-99"/>
          <Node pos="r" depth="2" NCoef="0" IVar="-1" Cut="0.0000000000000000e+00" cType="1" res="-1.1433713138103485e-02" rms="4.8028191924095154e-01" purity="3.8189041614532471e-01" nType="-99"/>
        </Node>
      </Node>
    </BinaryTree>
    <BinaryTree type="DecisionTree" boostWeight="1.0000000000000000e+00" itree="6">
      <Node pos="s" depth="0" NCoef="0" IVar="10" Cut="3.1363818049430847e-01" cType="1" res="3.3090285956859589e-02" rms="4.3848001956939697e-01" purity="5.0000000000000000e-01" nType="0">
        <Node pos="l" depth="1" NCoef="0" IVar="5" Cut="9.6883904188871384e-04" cType="1" res="-1.5555618703365326e-01" rms="3.8709205389022827e-01" purity="2.2247377038002014e-01" nType="0">
          <Node pos="l" depth="2" NCoef="0" IVar="-1" Cut="0.0000000000000000e+00" cType="1" res="1.7144926823675632e-03" rms="4.6996426582336426e-01" purity="4.4279068708419800e-01" nType="-99"/>
          <Node pos="r" depth="2" NCoef="0" IVar="-1" Cut="0.0000000000000000e+00" cType="1" res="-3.9152082055807114e-02" rms="3.3957496285438538e-01" purity="1.5368115901947021e-01" nType="-99"/>
        </Node>
        <Node pos="r" depth="1" NCoef="0" IVar="5" Cut="2.4327334761619568e-01" cType="1" res="2.1841199696063995e-01" rms="4.0575492382049561e-01" purity="7.7263504266738892e-01" nType="0">
          <Node pos="l" depth="2" NCoef="0" IVar="-1" Cut="0.0000000000000000e+00" cType="1" res="2.2554378956556320e-02" rms="3.5630640387535095e-01" purity="8.4947723150253296e-01" nType="-99"/>
          <Node pos="r" depth="2" NCoef="0" IVar="-1" Cut="0.0000000000000000e+00" cType="1" res="-5.0891367718577385e-03" rms="4.8771661520004272e-01" purity="4.4175311923027039e-01" nType="-99"/>
        </Node>
      </Node>
    </BinaryTree>
    <BinaryTree type="DecisionTree" boostWeight="1.0000000000000000e+00" itree="7">
      <Node pos="s" depth="0" NCoef="0" IVar="10" Cut="4.4409939646720886e-01" cType="1" res="3.5351417958736420e-02" rms="4.3243077397346497e-01" purity="5.0000000000000000e-01" nType="0">
        <Node pos="l" depth="1" NCoef="0" IVar="5" Cut="1.2982442975044250e-01" cType="1" res="-1.2666910886764526e-01" rms="3.9709654450416565e-01" purity="2.5427165627479553e-01" nType="0">
          <Node pos="l" depth="2" NCoef="0" IVar="-1" Cut="0.0000000000000000e+00" cType="1" res="-1.2731448514387012e-03" rms="4.5754307508468628e-01" purity="4.1577968001365662e-01" nType="-99"/>
          <Node pos="r" depth="2" NCoef="0" IVar="-1" Cut="0.0000000000000000e+00" cType="1" res="-4.3394289910793304e-02" rms="3.1623423099517822e-01" purity="1.2971259653568268e-01" nType="-99"/>
        </Node>
        <Node pos="r" depth="1" NCoef="0" IVar="2" Cut="1.4739055931568146e-01" cType="1" res="2.2725959122180939e-01" rms="3.9216339588165283e-01" purity="7.9105740785598755e-01" nType="0">
          <Node pos="l" depth="2" NCoef="0" IVar="-1" Cut="0.0000000000000000e+00" cType="1" res="2.1833037957549095e-02" rms="3.6104923486709595e-01" purity="8.4042024612426758e-01" nType="-99"/>
          <Node pos="r" depth="2" NCoef="0" IVar="-1" Cut="0.0000000000000000e+00" cType="1" res="-1.7428841441869736e-02" rms="4.6608993411064148e-01" purity="3.4051299095153809e-01" nType="-99"/>
        </Node>
      </Node>
    </BinaryTree>
    <BinaryTree type="DecisionTree" boostWeight="1.0000000000000000e+00" itree="8">
      <Node pos="s" depth="0" NCoef="0" IVar="10" Cut="-2.9781734570860863e-02" cType="1" res="3.7276823073625565e-02" rms="4.2676261067390442e-01" purity="5.0000000000000000e-01" nType="0">
        <Node pos="l" depth="1" NCoef="0" IVar="0" Cut="8.8555059432983398e+00" cType="1" res="-1.7031703889369965e-01" rms="3.4282505512237549e-01" purity="1.5540196001529694e-01" nType="0">
          <Node pos="l" depth="2" NCoef="0" IVar="-1" Cut="0.0000000000000000e+00" cType="1" res="-1.7658209428191185e-02" rms="3.8179427385330200e-01" purity="2.0901806652545929e-01" nType="-99"/>
          <Node pos="r" depth="2" NCoef="0" IVar="-1" Cut="0.0000000000000000e+00" cType="1" res="-8.7432079017162323e-02" rms="2.3011353611946106e-01" purity="6.0470476746559143e-02" nType="-99"/>
        </Node>
        <Node pos="r" depth="1" NCoef="0" IVar="5" Cut="3.2177987694740295e-01" cType="1" res="1.7326073348522186e-01" rms="4.2156800627708435e-01" purity="7.2572821378707886e-01" nType="0">
          <Node pos="l" depth="2" NCoef="0" IVar="-1" Cut="0.0000000000000000e+00" cType="1" res="1.8593378365039825e-02" rms="3.8956525921821594e-01" purity="7.9858362674713135e-01" nType="-99"/>
          <Node pos="r" depth="2" NCoef="0" IVar="-1" Cut="0.0000000000000000e+00" cType="1" res="-1.5608977526426315e-02" rms="4.5868888497352600e-01" purity="3.2639613747596741e-01" nType="-99"/>
        </Node>
      </Node>
    </BinaryTree>
    <BinaryTree type="DecisionTree" boostWeight="1.0000000000000000e+00" itree="9">
      <Node pos="s" depth="0" NCoef="0" IVar="10" Cut="4.4409939646720886e-01" cType="1" res="4.0553882718086243e-02" rms="4.2028144001960754e-01" purity="5.0000000000000000e-01" nType="0">
        <Node pos="l" depth="1" NCoef="0" IVar="10" Cut="-4.2576190829277039e-01" cType="1" res="-1.0390828549861908e-01" rms="3.9054179191589355e-01" purity="2.5427165627479553e-01" nType="0">
          <Node pos="l" depth="2" NCoef="0" IVar="-1" Cut="0.0000000000000000e+00" cType="1" res="-4.8990897834300995e-02" rms="2.7758345007896423e-01" purity="8.9906021952629089e-02" nType="-99"/>
          <Node pos="r" depth="2" NCoef="0" IVar="-1" Cut="0.0000000000000000e+00" cType="1" res="-8.7724084733054042e-04" rms="4.6659389138221741e-01" purity="4.3388864398002625e-01" nType="-99"/>
        </Node>
        <Node pos="r" depth="1" NCoef="0" IVar="7" Cut="2.4277946949005127e+00" cType="1" res="2.1166473627090454e-01" rms="3.8884487748146057e-01" purity="7.9105740785598755e-01" nType="0">
          <Node pos="l" depth="2" NCoef="0" IVar="-1" Cut="0.0000000000000000e+00" cType="1" res="2.0412152633070946e-02" rms="3.5854136943817139e-01" purity="8.3137828111648560e-01" nType="-99"/>
          <Node pos="r" depth="2" NCoef="0" IVar="-1" Cut="0.0000000000000000e+00" cType="1" res="-2.0671369507908821e-02" rms="4.7044923901557922e-01" purity="4.2579278349876404e-01" nType="-99"/>
        </Node>
      </Node>
    </BinaryTree>
    <BinaryTree type="DecisionTree" boostWeight="1.0000000000000000e+00" itree="10">
      <Node pos="s" depth="0" NCoef="0" IVar="10" Cut="4.4409939646720886e-01" cType="1" res="4.2517215013504028e-02" rms="4.1525930166244507e-01" purity="5.0000000000000000e-01" nType="0">
        <Node pos="l" depth="1" NCoef="0" IVar="5" Cut="1.2982442975044250e-01" cType="1" res="-9.3662768602371216e-02" rms="3.8855817914009094e-01" purity="2.5427165627479553e-01" nType="0">
          <Node pos="l" depth="2" NCoef="0" IVar="-1" Cut="0.0000000000000000e+00" cType="1" res="8.9593057055026293e-04" rms="4.4823342561721802e-01" purity="4.1577968001365662e-01" nType="-99"/>
          <Node pos="r" depth="2" NCoef="0" IVar="-1" Cut="0.0000000000000000e+00" cType="1" res="-3.6937542259693146e-02" rms="3.1335338950157166e-01" purity="1.2971259653568268e-01" nType="-99"/>
        </Node>
        <Node pos="r" depth="1" NCoef="0" IVar="2" Cut="7.5928464531898499e-02" cType="1" res="2.0381808280944824e-01" rms="3.8714134693145752e-01" purity="7.9105740785598755e-01" nType="0">
          <Node pos="l" depth="2" NCoef="0" IVar="-1" Cut="0.0000000000000000e+00" cType="1" res="2.0985959097743034e-02" rms="3.4674715995788574e-01" purity="8.5460019111633301e-01" nType="-99"/>
          <Node pos="r" depth="2" NCoef="0" IVar="-1" Cut="0.0000000000000000e+00" cType="1" res="-6.3786534592509270e-03" rms="4.7652336955070496e-01" purity="4.4925892353057861e-01" nType="-99"/>
        </Node>
      </Node>
    </BinaryTree>
    <BinaryTree type="DecisionTree" boostWeight="1.0000000000000000e+00" itree="11">
      <Node pos="s" depth="0" NCoef="0" IVar="10" Cut="2.3209993541240692e-01" cType="1" res="4.3324925005435944e-02" rms="4.1108101606369019e-01" purity="5.0000000000000000e-01" nType="0">
        <Node pos="l" depth="1" NCoef="0" IVar="4" Cut="2.8943321108818054e-01" cType="1" res="-1.0604208707809448e-01" rms="3.6814093589782715e-01" purity="2.0530276000499725e-01" nType="0">
          <Node pos="l" depth="2" NCoef="0" IVar="-1" Cut="0.0000000000000000e+00" cType="1" res="1.4777909964323044e-03" rms="4.4137105345726013e-01" purity="3.6529365181922913e-01" nType="-99"/>
          <Node pos="r" depth="2" NCoef="0" IVar="-1" Cut="0.0000000000000000e+00" cType="1" res="-3.4251030534505844e-02" rms="3.1759664416313171e-01" purity="1.3569018244743347e-01" nType="-99"/>
        </Node>
        <Node pos="r" depth="1" NCoef="0" IVar="8" Cut="-4.6280431747436523e+00" cType="1" res="1.7586612701416016e-01" rms="4.0163895487785339e-01" purity="7.6150035858154297e-01" nType="0">
          <Node pos="l" depth="2" NCoef="0" IVar="-1" Cut="0.0000000000000000e+00" cType="1" res="1.8702095374464989e-02" rms="3.6355143785476685e-01" purity="8.1818360090255737e-01" nType="-99"/>
          <Node pos="r" depth="2" NCoef="0" IVar="-1" Cut="0.0000000000000000e+00" cType="1" res="-9.1628301888704300e-03" rms="4.7391185164451599e-01" purity="4.8484241962432861e-01" nType="-99"/>
        </Node>
      </Node>
    </BinaryTree>
    <BinaryTree type="DecisionTree" boostWeight="1.0000000000000000e+00" itree="12">
      <Node pos="s" depth="0" NCoef="0" IVar="10" Cut="5.4098600149154663e-01" cType="1" res="4.4162776321172714e-02" rms="4.0722855925559998e-01" purity="5.0000000000000000e-01" nType="0">
        <Node pos="l" depth="1" NCoef="0" IVar="0" Cut="9.9410009384155273e+00" cType="1" res="-6.9010414183139801e-02" rms="3.9135751128196716e-01" purity="2.8091743588447571e-01" nType="0">
          <Node pos="l" depth="2" NCoef="0" IVar="-1" Cut="0.0000000000000000e+00" cType="1" res="-1.6403519548475742e-03" rms="4.1083130240440369e-01" purity="3.4519752860069275e-01" nType="-99"/>
          <Node pos="r" depth="2" NCoef="0" IVar="-1" Cut="0.0000000000000000e+00" cType="1" res="-7.0466704666614532e-02" rms="2.8258457779884338e-01" purity="1.0561134666204453e-01" nType="-99"/>
        </Node>
        <Node pos="r" depth="1" NCoef="0" IVar="7" Cut="2.6221392154693604e+00" cType="1" res="2.0161373913288116e-01" rms="3.7531080842018127e-01" purity="8.0479615926742554e-01" nType="0">
          <Node pos="l" depth="2" NCoef="0" IVar="-1" Cut="0.0000000000000000e+00" cType="1" res="1.9852144643664360e-02" rms="3.4872451424598694e-01" purity="8.4088087081909180e-01" nType="-99"/>
          <Node pos="r" depth="2" NCoef="0" IVar="-1" Cut="0.0000000000000000e+00" cType="1" res="-2.2774295881390572e-02" rms="4.6640774607658386e-01" purity="4.1558820009231567e-01" nType="-99"/>
        </Node>
      </Node>
    </BinaryTree>
    <BinaryTree type="DecisionTree" boostWeight="1.0000000000000000e+00" itree="13">
      <Node pos="s" depth="0" NCoef="0" IVar="10" Cut="-2.9781734570860863e-02" cType="1" res="4.5643635094165802e-02" rms="4.0269342064857483e-01" purity="5.0000000000000000e-01" nType="0">
        <Node pos="l" depth="1" NCoef="0" IVar="10" Cut="-7.0913279056549072e-01" cType="1" res="-1.1270402371883392e-01" rms="3.3509707450866699e-01" purity="1.5540196001529694e-01" nType="0">
          <Node pos="l" depth="2" NCoef="0" IVar="-1" Cut="0.0000000000000000e+00" cType="1" res="-6.7760482430458069e-02" rms="1.9803583621978760e-01" purity="4.3471984565258026e-02" nType="-99"/>
          <Node pos="r" depth="2" NCoef="0" IVar="-1" Cut="0.0000000000000000e+00" cType="1" res="-8.9903725311160088e-03" rms="3.9729347825050354e-01" purity="2.3639546334743500e-01" nType="-99"/>
        </Node>
        <Node pos="r" depth="1" NCoef="0" IVar="2" Cut="7.5928464531898499e-02" cType="1" res="1.4936894178390503e-01" rms="4.0944707393646240e-01" purity="7.2572821378707886e-01" nType="0">
          <Node pos="l" depth="2" NCoef="0" IVar="-1" Cut="0.0000000000000000e+00" cType="1" res="1.7109600827097893e-02" rms="3.7628433108329773e-01" purity="8.0443030595779419e-01" nType="-99"/>
          <Node pos="r" depth="2" NCoef="0" IVar="-1" Cut="0.0000000000000000e+00" cType="1" res="-1.1386484839022160e-02" rms="4.5520263910293579e-01" purity="3.7984129786491394e-01" nType="-99"/>
        </Node>
      </Node>
    </BinaryTree>
    <BinaryTree type="DecisionTree" boostWeight="1.0000000000000000e+00" itree="14">
      <Node pos="s" depth="0" NCoef="0" IVar="10" Cut="-2.9781734570860863e-02" cType="1" res="4.6973403543233871e-02" rms="3.9864748716354370e-01" purity="5.0000000000000000e-01" nType="0">
        <Node pos="l" depth="1" NCoef="0" IVar="5" Cut="1.8795476853847504e-01" cType="1" res="-1.0090354830026627e-01" rms="3.3347603678703308e-01" purity="1.5540196001529694e-01" nType="0">
          <Node pos="l" depth="2" NCoef="0" IVar="-1" Cut="0.0000000000000000e+00" cType="1" res="-5.6045399978756905e-03" rms="4.0569391846656799e-01" purity="2.5800189375877380e-01" nType="-99"/>
          <Node pos="r" depth="2" NCoef="0" IVar="-1" Cut="0.0000000000000000e+00" cType="1" res="-5.1236562430858612e-02" rms="2.3920740187168121e-01" purity="6.4551293849945068e-02" nType="-99"/>
        </Node>
        <Node pos="r" depth="1" NCoef="0" IVar="5" Cut="3.2177987694740295e-01" cType="1" res="1.4383988082408905e-01" rms="4.0800374746322632e-01" purity="7.2572821378707886e-01" nType="0">
          <Node pos="l" depth="2" NCoef="0" IVar="-1" Cut="0.0000000000000000e+00" cType="1" res="1.6257038339972496e-02" rms="3.8034316897392273e-01" purity="7.9858362674713135e-01" nType="-99"/>
          <Node pos="r" depth="2" NCoef="0" IVar="-1" Cut="0.0000000000000000e+00" cType="1" res="-1.4958869665861130e-02" rms="4.4829607009887695e-01" purity="3.2639613747596741e-01" nType="-99"/>
        </Node>
      </Node>
    </BinaryTree>
    <BinaryTree type="DecisionTree" boostWeight="1.0000000000000000e+00" itree="15">
      <Node pos="s" depth="0" NCoef="0" IVar="10" Cut="5.4098600149154663e-01" cType="1" res="4.7742180526256561e-02" rms="3.9519485831260681e-01" purity="5.0000000000000000e-01" nType="0">
        <Node pos="l" depth="1" NCoef="0" IVar="2" Cut="9.2439784202724695e-04" cType="1" res="-4.9043450504541397e-02" rms="3.8329774141311646e-01" purity="2.8091743588447571e-01" nType="0">
          <Node pos="l" depth="2" NCoef="0" IVar="-1" Cut="0.0000000000000000e+00" cType="1" res="2.6011976879090071e-03" rms="4.2455264925956726e-01" purity="4.0235805511474609e-01" nType="-99"/>
          <Node pos="r" depth="2" NCoef="0" IVar="-1" Cut="0.0000000000000000e+00" cType="1" res="-3.4024298191070557e-02" rms="2.9851704835891724e-01" purity="1.2602281570434570e-01" nType="-99"/>
        </Node>
        <Node pos="r" depth="1" NCoef="0" IVar="9" Cut="-4.4470791816711426e+00" cType="1" res="1.8239414691925049e-01" rms="3.7135007977485657e-01" purity="8.0479615926742554e-01" nType="0">
          <Node pos="l" depth="2" NCoef="0" IVar="-1" Cut="0.0000000000000000e+00" cType="1" res="1.9607558846473694e-02" rms="3.3505979180335999e-01" purity="8.5097581148147583e-01" nType="-99"/>
          <Node pos="r" depth="2" NCoef="0" IVar="-1" Cut="0.0000000000000000e+00" cType="1" res="-7.8283175826072693e-03" rms="4.6847689151763916e-01" purity="5.2553349733352661e-01" nType="-99"/>
        </Node>
      </Node>
    </BinaryTree>
    <BinaryTree type="DecisionTree" boostWeight="1.0000000000000000e+00" itree="16">
      <Node pos="s" depth="0" NCoef="0" IVar="5" Cut="1.3859796524047852e-01" cType="1" res="4.7500282526016235e-02" rms="3.9233407378196716e-01" purity="5.0000000000000000e-01" nType="0">
        <Node pos="l" depth="1" NCoef="0" IVar="10" Cut="-2.6283779740333557e-01" cType="1" res="1.4208014309406281e-01" rms="3.8496187329292297e-01" purity="6.8168359994888306e-01" nType="0">
          <Node pos="l" depth="2" NCoef="0" IVar="-1" Cut="0.0000000000000000e+00" cType="1" res="-1.2119523249566555e-02" rms="3.8628679513931274e-01" purity="2.0838865637779236e-01" nType="-99"/>
          <Node pos="r" depth="2" NCoef="0" IVar="-1" Cut="0.0000000000000000e+00" cType="1" res="1.7134170979261398e-02" rms="3.6244881153106689e-01" purity="8.1861394643783569e-01" nType="-99"/>
        </Node>
        <Node pos="r" depth="1" NCoef="0" IVar="8" Cut="-5.1548633575439453e+00" cType="1" res="-7.9339005053043365e-02" rms="3.6541247367858887e-01" purity="2.5634753704071045e-01" nType="0">
          <Node pos="l" depth="2" NCoef="0" IVar="-1" Cut="0.0000000000000000e+00" cType="1" res="-1.3247103197500110e-03" rms="3.9453947544097900e-01" purity="3.6183521151542664e-01" nType="-99"/>
          <Node pos="r" depth="2" NCoef="0" IVar="-1" Cut="0.0000000000000000e+00" cType="1" res="-3.4533549100160599e-02" rms="3.1605017185211182e-01" purity="1.4538270235061646e-01" nType="-99"/>
        </Node>
      </Node>
    </BinaryTree>
    <BinaryTree type="DecisionTree" boostWeight="1.0000000000000000e+00" itree="17">
      <Node pos="s" depth="0" NCoef="0" IVar="10" Cut="5.4961949586868286e-01" cType="1" res="4.7384675592184067e-02" rms="3.8950780034065247e-01" purity="5.0000000000000000e-01" nType="0">
        <Node pos="l" depth="1" NCoef="0" IVar="0" Cut="9.9410009384155273e+00" cType="1" res="-4.0863912552595139e-02" rms="3.8064646720886230e-01" purity="2.8386738896369934e-01" nType="0">
          <Node pos="l" depth="2" NCoef="0" IVar="-1" Cut="0.0000000000000000e+00" cType="1" res="8.6690363241359591e-04" rms="3.9997637271881104e-01" purity="3.4839177131652832e-01" nType="-99"/>
          <Node pos="r" depth="2" NCoef="0" IVar="-1" Cut="0.0000000000000000e+00" cType="1" res="-6.0995440930128098e-02" rms="2.8270205855369568e-01" purity="1.0721746087074280e-01" nType="-99"/>
        </Node>
        <Node pos="r" depth="1" NCoef="0" IVar="7" Cut="3.0879287719726562e+00" cType="1" res="1.7242111265659332e-01" rms="3.6703875660896301e-01" purity="8.0623102188110352e-01" nType="0">
          <Node pos="l" depth="2" NCoef="0" IVar="-1" Cut="0.0000000000000000e+00" cType="1" res="1.7592053860425949e-02" rms="3.4808674454689026e-01" purity="8.3558714389801025e-01" nType="-99"/>
          <Node pos="r" depth="2" NCoef="0" IVar="-1" Cut="0.0000000000000000e+00" cType="1" res="-3.7495136260986328e-02" rms="4.3952888250350952e-01" purity="3.4133076667785645e-01" nType="-99"/>
        </Node>
      </Node>
    </BinaryTree>
    <BinaryTree type="DecisionTree" boostWeight="1.0000000000000000e+00" itree="18">
      <Node pos="s" depth="0" NCoef="0" IVar="5" Cut="1.4538247883319855e-01" cType="1" res="4.7971617430448532e-02" rms="3.8622123003005981e-01" purity="5.0000000000000000e-01" nType="0">
        <Node pos="l" depth="1" NCoef="0" IVar="10" Cut="-4.2494893074035645e-01" cType="1" res="1.3540488481521606e-01" rms="3.8029876351356506e-01" purity="6.7819070816040039e-01" nType="0">
          <Node pos="l" depth="2" NCoef="0" IVar="-1" Cut="0.0000000000000000e+00" cType="1" res="-1.7822613939642906e-02" rms="3.5465136170387268e-01" purity="1.6263861954212189e-01" nType="-99"/>
          <Node pos="r" depth="2" NCoef="0" IVar="-1" Cut="0.0000000000000000e+00" cType="1" res="1.6062114387750626e-02" rms="3.6811316013336182e-01" purity="7.9659920930862427e-01" nType="-99"/>
        </Node>
        <Node pos="r" depth="1" NCoef="0" IVar="2" Cut="2.4404104053974152e-01" cType="1" res="-7.3968529701232910e-02" rms="3.6050954461097717e-01" purity="2.5148352980613708e-01" nType="0">
          <Node pos="l" depth="2" NCoef="0" IVar="-1" Cut="0.0000000000000000e+00" cType="1" res="-3.7041285540908575e-03" rms="3.9031153917312622e-01" purity="3.3220791816711426e-01" nType="-99"/>
          <Node pos="r" depth="2" NCoef="0" IVar="-1" Cut="0.0000000000000000e+00" cType="1" res="-4.8836719244718552e-02" rms="2.6360797882080078e-01" purity="8.5135109722614288e-02" nType="-99"/>
        </Node>
      </Node>
    </BinaryTree>
    <BinaryTree type="DecisionTree" boostWeight="1.0000000000000000e+00" itree="19">
      <Node pos="s" depth="0" NCoef="0" IVar="5" Cut="1.2987500429153442e-01" cType="1" res="4.7957517206668854e-02" rms="3.8345360755920410e-01" purity="5.0000000000000000e-01" nType="0">
        <Node pos="l" depth="1" NCoef="0" IVar="9" Cut="-4.2729668617248535e+00" cType="1" res="1.3471294939517975e-01" rms="3.7781873345375061e-01" purity="6.8599319458007812e-01" nType="0">
          <Node pos="l" depth="2" NCoef="0" IVar="-1" Cut="0.0000000000000000e+00" cType="1" res="1.6750577837228775e-02" rms="3.5075861215591431e-01" purity="7.5782638788223267e-01" nType="-99"/>
          <Node pos="r" depth="2" NCoef="0" IVar="-1" Cut="0.0000000000000000e+00" cType="1" res="-1.2156604789197445e-02" rms="4.1641891002655029e-01" purity="3.5751837491989136e-01" nType="-99"/>
        </Node>
        <Node pos="r" depth="1" NCoef="0" IVar="9" Cut="-4.8462791442871094e+00" cType="1" res="-6.2271244823932648e-02" rms="3.6162644624710083e-01" purity="2.6368275284767151e-01" nType="0">
          <Node pos="l" depth="2" NCoef="0" IVar="-1" Cut="0.0000000000000000e+00" cType="1" res="-4.3341150740161538e-04" rms="3.9021754264831543e-01" purity="3.5944098234176636e-01" nType="-99"/>
          <Node pos="r" depth="2" NCoef="0" IVar="-1" Cut="0.0000000000000000e+00" cType="1" res="-3.2910019159317017e-02" rms="3.0407923460006714e-01" purity="1.3937950134277344e-01" nType="-99"/>
        </Node>
      </Node>
    </BinaryTree>
    <BinaryTree type="DecisionTree" boostWeight="1.0000000000000000e+00" itree="20">
      <Node pos="s" depth="0" NCoef="0" IVar="10" Cut="-1.4489455521106720e-01" cType="1" res="4.7388721257448196e-02" rms="3.8101145625114441e-01" purity="5.0000000000000000e-01" nType="0">
        <Node pos="l" depth="1" NCoef="0" IVar="0" Cut="5.9733290672302246e+00" cType="1" res="-7.8216731548309326e-02" rms="3.1390181183815002e-01" purity="1.3710156083106995e-01" nType="0">
          <Node pos="l" depth="2" NCoef="0" IVar="-1" Cut="0.0000000000000000e+00" cType="1" res="7.7293394133448601e-04" rms="3.9076414704322815e-01" purity="2.4250899255275726e-01" nType="-99"/>
          <Node pos="r" depth="2" NCoef="0" IVar="-1" Cut="0.0000000000000000e+00" cType="1" res="-3.8438022136688232e-02" rms="2.7156400680541992e-01" purity="9.6220999956130981e-02" nType="-99"/>
        </Node>
        <Node pos="r" depth="1" NCoef="0" IVar="8" Cut="-4.8093466758728027e+00" cType="1" res="1.1977238953113556e-01" rms="3.9713159203529358e-01" purity="7.0913040637969971e-01" nType="0">
          <Node pos="l" depth="2" NCoef="0" IVar="-1" Cut="0.0000000000000000e+00" cType="1" res="1.5295805409550667e-02" rms="3.6161130666732788e-01" purity="7.8487807512283325e-01" nType="-99"/>
          <Node pos="r" depth="2" NCoef="0" IVar="-1" Cut="0.0000000000000000e+00" cType="1" res="-6.9630374200642109e-03" rms="4.4952464103698730e-01" purity="4.6630683541297913e-01" nType="-99"/>
        </Node>
      </Node>
    </BinaryTree>
    <BinaryTree type="DecisionTree" boostWeight="1.0000000000000000e+00" itree="21">
      <Node pos="s" depth="0" NCoef="0" IVar="5" Cut="1.8027426302433014e-01" cType="1" res="4.7668084502220154e-02" rms="3.7864300608634949e-01" purity="5.0000000000000000e-01" nType="0">
        <Node pos="l" depth="1" NCoef="0" IVar="9" Cut="-4.1428861618041992e+00" cType="1" res="1.1915799230337143e-01" rms="3.7749060988426208e-01" purity="6.6307264566421509e-01" nType="0">
          <Node pos="l" depth="2" NCoef="0" IVar="-1" Cut="0.0000000000000000e+00" cType="1" res="1.5200274065136909e-02" rms="3.5810983180999756e-01" purity="7.2912299633026123e-01" nType="-99"/>
          <Node pos="r" depth="2" NCoef="0" IVar="-1" Cut="0.0000000000000000e+00" cType="1" res="-1.5682227909564972e-02" rms="4.0126308798789978e-01" purity="3.1088235974311829e-01" nType="-99"/>
        </Node>
        <Node pos="r" depth="1" NCoef="0" IVar="5" Cut="5.0555121898651123e-01" cType="1" res="-7.0756584405899048e-02" rms="3.4974765777587891e-01" purity="2.2986640036106110e-01" nType="0">
          <Node pos="l" depth="2" NCoef="0" IVar="-1" Cut="0.0000000000000000e+00" cType="1" res="-3.4048452507704496e-03" rms="3.7879851460456848e-01" purity="3.0717825889587402e-01" nType="-99"/>
          <Node pos="r" depth="2" NCoef="0" IVar="-1" Cut="0.0000000000000000e+00" cType="1" res="-3.8880415260791779e-02" rms="2.8026273846626282e-01" purity="1.0549773275852203e-01" nType="-99"/>
        </Node>
      </Node>
    </BinaryTree>
    <BinaryTree type="DecisionTree" boostWeight="1.0000000000000000e+00" itree="22">
      <Node pos="s" depth="0" NCoef="0" IVar="10" Cut="5.8415329456329346e-01" cType="1" res="4.7113470733165741e-02" rms="3.7632974982261658e-01" purity="5.0000000000000000e-01" nType="0">
        <Node pos="l" depth="1" NCoef="0" IVar="0" Cut="9.9410009384155273e+00" cType="1" res="-2.4346800521016121e-02" rms="3.7300047278404236e-01" purity="2.9523730278015137e-01" nType="0">
          <Node pos="l" depth="2" NCoef="0" IVar="-1" Cut="0.0000000000000000e+00" cType="1" res="2.3356906604021788e-03" rms="3.9049789309501648e-01" purity="3.6167490482330322e-01" nType="-99"/>
          <Node pos="r" depth="2" NCoef="0" IVar="-1" Cut="0.0000000000000000e+00" cType="1" res="-5.5174462497234344e-02" rms="2.8600257635116577e-01" purity="1.1054152995347977e-01" nType="-99"/>
        </Node>
        <Node pos="r" depth="1" NCoef="0" IVar="8" Cut="-4.8302321434020996e+00" cType="1" res="1.5570430457592010e-01" rms="3.5477200150489807e-01" purity="8.1115692853927612e-01" nType="0">
          <Node pos="l" depth="2" NCoef="0" IVar="-1" Cut="0.0000000000000000e+00" cType="1" res="1.8336500972509384e-02" rms="3.1622505187988281e-01" purity="8.6382073163986206e-01" nType="-99"/>
          <Node pos="r" depth="2" NCoef="0" IVar="-1" Cut="0.0000000000000000e+00" cType="1" res="-3.3483405131846666e-03" rms="4.4912755489349365e-01" purity="5.7240319252014160e-01" nType="-99"/>
        </Node>
      </Node>
    </BinaryTree>
    <BinaryTree type="DecisionTree" boostWeight="1.0000000000000000e+00" itree="23">
      <Node pos="s" depth="0" NCoef="0" IVar="5" Cut="1.0176773369312286e-01" cType="1" res="4.7120366245508194e-02" rms="3.7386101484298706e-01" purity="5.0000000000000000e-01" nType="0">
        <Node pos="l" depth="1" NCoef="0" IVar="9" Cut="-4.2729668617248535e+00" cType="1" res="1.3147737085819244e-01" rms="3.6601492762565613e-01" purity="6.9875442981719971e-01" nType="0">
          <Node pos="l" depth="2" NCoef="0" IVar="-1" Cut="0.0000000000000000e+00" cType="1" res="1.6230316832661629e-02" rms="3.4063360095024109e-01" purity="7.6982814073562622e-01" nType="-99"/>
          <Node pos="r" depth="2" NCoef="0" IVar="-1" Cut="0.0000000000000000e+00" cType="1" res="-8.8410181924700737e-03" rms="4.1409337520599365e-01" purity="3.6847263574600220e-01" nType="-99"/>
        </Node>
        <Node pos="r" depth="1" NCoef="0" IVar="9" Cut="-4.8462791442871094e+00" cType="1" res="-4.3018814176321030e-02" rms="3.6089634895324707e-01" purity="2.8762212395668030e-01" nType="0">
          <Node pos="l" depth="2" NCoef="0" IVar="-1" Cut="0.0000000000000000e+00" cType="1" res="1.5030406648293138e-03" rms="3.8583806157112122e-01" purity="3.8847243785858154e-01" nType="-99"/>
          <Node pos="r" depth="2" NCoef="0" IVar="-1" Cut="0.0000000000000000e+00" cType="1" res="-2.7447357773780823e-02" rms="3.0972683429718018e-01" purity="1.5221992135047913e-01" nType="-99"/>
        </Node>
      </Node>
    </BinaryTree>
    <BinaryTree type="DecisionTree" boostWeight="1.0000000000000000e+00" itree="24">
      <Node pos="s" depth="0" NCoef="0" IVar="5" Cut="1.8415114283561707e-01" cType="1" res="4.6284753829240799e-02" rms="3.7196585536003113e-01" purity="5.0000000000000000e-01" nType="0">
        <Node pos="l" depth="1" NCoef="0" IVar="10" Cut="-4.2494893074035645e-01" cType="1" res="1.1039671301841736e-01" rms="3.7193968892097473e-01" purity="6.6156077384948730e-01" nType="0">
          <Node pos="l" depth="2" NCoef="0" IVar="-1" Cut="0.0000000000000000e+00" cType="1" res="-1.6100328415632248e-02" rms="3.3926042914390564e-01" purity="1.5120077133178711e-01" nType="-99"/>
          <Node pos="r" depth="2" NCoef="0" IVar="-1" Cut="0.0000000000000000e+00" cType="1" res="1.3959490694105625e-02" rms="3.6652067303657532e-01" purity="7.8491002321243286e-01" nType="-99"/>
        </Node>
        <Node pos="r" depth="1" NCoef="0" IVar="2" Cut="1.5160125494003296e-01" cType="1" res="-6.1876859515905380e-02" rms="3.4606078267097473e-01" purity="2.2743500769138336e-01" nType="0">
          <Node pos="l" depth="2" NCoef="0" IVar="-1" Cut="0.0000000000000000e+00" cType="1" res="-5.9471570421010256e-04" rms="3.8907504081726074e-01" purity="3.4091982245445251e-01" nType="-99"/>
          <Node pos="r" depth="2" NCoef="0" IVar="-1" Cut="0.0000000000000000e+00" cType="1" res="-3.1538739800453186e-02" rms="2.8770917654037476e-01" purity="1.1743539571762085e-01" nType="-99"/>
        </Node>
      </Node>
    </BinaryTree>
    <BinaryTree type="DecisionTree" boostWeight="1.0000000000000000e+00" itree="25">
      <Node pos="s" depth="0" NCoef="0" IVar="10" Cut="-2.6384446024894714e-01" cType="1" res="4.5827042311429977e-02" rms="3.7014734745025635e-01" purity="5.0000000000000000e-01" nType="0">
        <Node pos="l" depth="1" NCoef="0" IVar="10" Cut="-7.2293835878372192e-01" cType="1" res="-6.7919425666332245e-02" rms="2.9377681016921997e-01" purity="1.1569384485483170e-01" nType="0">
          <Node pos="l" depth="2" NCoef="0" IVar="-1" Cut="0.0000000000000000e+00" cType="1" res="-5.5543623864650726e-02" rms="1.9122549891471863e-01" purity="4.0763445198535919e-02" nType="-99"/>
          <Node pos="r" depth="2" NCoef="0" IVar="-1" Cut="0.0000000000000000e+00" cType="1" res="-5.1328693516552448e-03" rms="3.5779729485511780e-01" purity="1.8458367884159088e-01" nType="-99"/>
        </Node>
        <Node pos="r" depth="1" NCoef="0" IVar="8" Cut="-4.4114441871643066e+00" cType="1" res="1.0227969288825989e-01" rms="3.9059635996818542e-01" purity="6.9073212146759033e-01" nType="0">
          <Node pos="l" depth="2" NCoef="0" IVar="-1" Cut="0.0000000000000000e+00" cType="1" res="1.3018702156841755e-02" rms="3.6911368370056152e-01" purity="7.5028485059738159e-01" nType="-99"/>
          <Node pos="r" depth="2" NCoef="0" IVar="-1" Cut="0.0000000000000000e+00" cType="1" res="-1.4370486140251160e-02" rms="4.3278855085372925e-01" purity="3.7478536367416382e-01" nType="-99"/>
        </Node>
      </Node>
    </BinaryTree>
    <BinaryTree type="DecisionTree" boostWeight="1.0000000000000000e+00" itree="26">
      <Node pos="s" depth="0" NCoef="0" IVar="5" Cut="1.0176773369312286e-01" cType="1" res="4.5819759368896484e-02" rms="3.6813876032829285e-01" purity="5.0000000000000000e-01" nType="0">
        <Node pos="l" depth="1" NCoef="0" IVar="9" Cut="-4.2729668617248535e+00" cType="1" res="1.2147916853427887e-01" rms="3.6192417144775391e-01" purity="6.9875442981719971e-01" nType="0">
          <Node pos="l" depth="2" NCoef="0" IVar="-1" Cut="0.0000000000000000e+00" cType="1" res="1.5388896688818932e-02" rms="3.3797907829284668e-01" purity="7.6982814073562622e-01" nType="-99"/>
          <Node pos="r" depth="2" NCoef="0" IVar="-1" Cut="0.0000000000000000e+00" cType="1" res="-8.2332352176308632e-03" rms="4.1218298673629761e-01" purity="3.6847263574600220e-01" nType="-99"/>
        </Node>
        <Node pos="r" depth="1" NCoef="0" IVar="5" Cut="3.9289107918739319e-01" cType="1" res="-3.5025656223297119e-02" rms="3.5738137364387512e-01" purity="2.8762212395668030e-01" nType="0">
          <Node pos="l" depth="2" NCoef="0" IVar="-1" Cut="0.0000000000000000e+00" cType="1" res="1.8920800648629665e-03" rms="3.8488245010375977e-01" purity="3.9567327499389648e-01" nType="-99"/>
          <Node pos="r" depth="2" NCoef="0" IVar="-1" Cut="0.0000000000000000e+00" cType="1" res="-2.5881575420498848e-02" rms="3.0036920309066772e-01" purity="1.3332475721836090e-01" nType="-99"/>
        </Node>
      </Node>
    </BinaryTree>
    <BinaryTree type="DecisionTree" boostWeight="1.0000000000000000e+00" itree="27">
      <Node pos="s" depth="0" NCoef="0" IVar="9" Cut="-4.5579047203063965e+00" cType="1" res="4.4897258281707764e-02" rms="3.6656799912452698e-01" purity="5.0000000000000000e-01" nType="0">
        <Node pos="l" depth="1" NCoef="0" IVar="2" Cut="7.6821744441986084e-02" cType="1" res="9.2909507453441620e-02" rms="3.6085623502731323e-01" purity="5.9906601905822754e-01" nType="0">
          <Node pos="l" depth="2" NCoef="0" IVar="-1" Cut="0.0000000000000000e+00" cType="1" res="1.3809145428240299e-02" rms="3.5187342762947083e-01" purity="7.1278208494186401e-01" nType="-99"/>
          <Node pos="r" depth="2" NCoef="0" IVar="-1" Cut="0.0000000000000000e+00" cType="1" res="-8.7892217561602592e-03" rms="3.5106959939002991e-01" purity="2.4619829654693604e-01" nType="-99"/>
        </Node>
        <Node pos="r" depth="1" NCoef="0" IVar="4" Cut="3.1521090865135193e-01" cType="1" res="-7.4849016964435577e-02" rms="3.5305276513099670e-01" purity="2.5292167067527771e-01" nType="0">
          <Node pos="l" depth="2" NCoef="0" IVar="-1" Cut="0.0000000000000000e+00" cType="1" res="-8.8316184701398015e-04" rms="4.0626373887062073e-01" purity="4.0672668814659119e-01" nType="-99"/>
          <Node pos="r" depth="2" NCoef="0" IVar="-1" Cut="0.0000000000000000e+00" cType="1" res="-2.7480848133563995e-02" rms="3.1346324086189270e-01" purity="1.6771952807903290e-01" nType="-99"/>
        </Node>
      </Node>
    </BinaryTree>
    <BinaryTree type="DecisionTree" boostWeight="1.0000000000000000e+00" itree="28">
      <Node pos="s" depth="0" NCoef="0" IVar="10" Cut="5.8415329456329346e-01" cType="1" res="4.4114317744970322e-02" rms="3.6492183804512024e-01" purity="5.0000000000000000e-01" nType="0">
        <Node pos="l" depth="1" NCoef="0" IVar="0" Cut="9.9410009384155273e+00" cType="1" res="-1.5145569108426571e-02" rms="3.6409091949462891e-01" purity="2.9523730278015137e-01" nType="0">
          <Node pos="l" depth="2" NCoef="0" IVar="-1" Cut="0.0000000000000000e+00" cType="1" res="3.0051313806325197e-03" rms="3.8099437952041626e-01" purity="3.6167490482330322e-01" nType="-99"/>
          <Node pos="r" depth="2" NCoef="0" IVar="-1" Cut="0.0000000000000000e+00" cType="1" res="-5.0421625375747681e-02" rms="2.8480029106140137e-01" purity="1.1054152995347977e-01" nType="-99"/>
        </Node>
        <Node pos="r" depth="1" NCoef="0" IVar="8" Cut="-4.8302321434020996e+00" cType="1" res="1.3416548073291779e-01" rms="3.4733673930168152e-01" purity="8.1115692853927612e-01" nType="0">
          <Node pos="l" depth="2" NCoef="0" IVar="-1" Cut="0.0000000000000000e+00" cType="1" res="1.6816658899188042e-02" rms="3.1187823414802551e-01" purity="8.6382073163986206e-01" nType="-99"/>
          <Node pos="r" depth="2" NCoef="0" IVar="-1" Cut="0.0000000000000000e+00" cType="1" res="-3.4694278147071600e-03" rms="4.4065850973129272e-01" purity="5.7240319252014160e-01" nType="-99"/>
        </Node>
      </Node>
    </BinaryTree>
    <BinaryTree type="DecisionTree" boostWeight="1.0000000000000000e+00" itree="29">
      <Node pos="s" depth="0" NCoef="0" IVar="5" Cut="1.0176773369312286e-01" cType="1" res="4.3926887214183807e-02" rms="3.6300686001777649e-01" purity="5.0000000000000000e-01" nType="0">
        <Node pos="l" depth="1" NCoef="0" IVar="9" Cut="-4.0685544013977051e+00" cType="1" res="1.1344973742961884e-01" rms="3.5741367936134338e-01" purity="6.9875442981719971e-01" nType="0">
          <Node pos="l" depth="2" NCoef="0" IVar="-1" Cut="0.0000000000000000e+00" cType="1" res="1.4272765256464481e-02" rms="3.3971783518791199e-01" purity="7.5922811031341553e-01" nType="-99"/>
          <Node pos="r" depth="2" NCoef="0" IVar="-1" Cut="0.0000000000000000e+00" cType="1" res="-1.1013126000761986e-02" rms="4.0364390611648560e-01" purity="3.2986915111541748e-01" nType="-99"/>
        </Node>
        <Node pos="r" depth="1" NCoef="0" IVar="8" Cut="-5.2242813110351562e+00" cType="1" res="-3.0361345037817955e-02" rms="3.5411316156387329e-01" purity="2.8762212395668030e-01" nType="0">
          <Node pos="l" depth="2" NCoef="0" IVar="-1" Cut="0.0000000000000000e+00" cType="1" res="3.2024886459112167e-03" rms="3.7705016136169434e-01" purity="4.0129953622817993e-01" nType="-99"/>
          <Node pos="r" depth="2" NCoef="0" IVar="-1" Cut="0.0000000000000000e+00" cType="1" res="-1.9342178478837013e-02" rms="3.2076475024223328e-01" purity="1.7492781579494476e-01" nType="-99"/>
        </Node>
      </Node>
    </BinaryTree>
    <BinaryTree type="DecisionTree" boostWeight="1.0000000000000000e+00" itree="30">
      <Node pos="s" depth="0" NCoef="0" IVar="5" Cut="2.5975000858306885e-01" cType="1" res="4.2923040688037872e-02" rms="3.6169531941413879e-01" purity="5.0000000000000000e-01" nType="0">
        <Node pos="l" depth="1" NCoef="0" IVar="10" Cut="-4.0866911411285400e-01" cType="1" res="8.8099226355552673e-02" rms="3.6676302552223206e-01" purity="6.3219201564788818e-01" nType="0">
          <Node pos="l" depth="2" NCoef="0" IVar="-1" Cut="0.0000000000000000e+00" cType="1" res="-1.3492546044290066e-02" rms="3.2375431060791016e-01" purity="1.4070360362529755e-01" nType="-99"/>
          <Node pos="r" depth="2" NCoef="0" IVar="-1" Cut="0.0000000000000000e+00" cType="1" res="1.2039665132761002e-02" rms="3.6854234337806702e-01" purity="7.6594769954681396e-01" nType="-99"/>
        </Node>
        <Node pos="r" depth="1" NCoef="0" IVar="5" Cut="6.0307079553604126e-01" cType="1" res="-6.4029872417449951e-02" rms="3.2528918981552124e-01" purity="1.8704037368297577e-01" nType="0">
          <Node pos="l" depth="2" NCoef="0" IVar="-1" Cut="0.0000000000000000e+00" cType="1" res="-5.0520673394203186e-03" rms="3.5330224037170410e-01" purity="2.4633400142192841e-01" nType="-99"/>
          <Node pos="r" depth="2" NCoef="0" IVar="-1" Cut="0.0000000000000000e+00" cType="1" res="-4.1112240403890610e-02" rms="2.5708574056625366e-01" purity="8.2022465765476227e-02" nType="-99"/>
        </Node>
      </Node>
    </BinaryTree>
    <BinaryTree type="DecisionTree" boostWeight="1.0000000000000000e+00" itree="31">
      <Node pos="s" depth="0" NCoef="0" IVar="9" Cut="-4.5579047203063965e+00" cType="1" res="4.2366713285446167e-02" rms="3.6032056808471680e-01" purity="5.0000000000000000e-01" nType="0">
        <Node pos="l" depth="1" NCoef="0" IVar="10" Cut="-3.1372669339179993e-01" cType="1" res="8.5236251354217529e-02" rms="3.5547420382499695e-01" purity="5.9906601905822754e-01" nType="0">
          <Node pos="l" depth="2" NCoef="0" IVar="-1" Cut="0.0000000000000000e+00" cType="1" res="-1.1234535835683346e-02" rms="3.0697828531265259e-01" purity="1.3416890799999237e-01" nType="-99"/>
          <Node pos="r" depth="2" NCoef="0" IVar="-1" Cut="0.0000000000000000e+00" cType="1" res="1.2224341742694378e-02" rms="3.6044436693191528e-01" purity="7.5244820117950439e-01" nType="-99"/>
        </Node>
        <Node pos="r" depth="1" NCoef="0" IVar="7" Cut="3.6308462619781494e+00" cType="1" res="-6.4553253352642059e-02" rms="3.4995344281196594e-01" purity="2.5292167067527771e-01" nType="0">
          <Node pos="l" depth="2" NCoef="0" IVar="-1" Cut="0.0000000000000000e+00" cType="1" res="-8.5039250552654266e-03" rms="3.5001966357231140e-01" purity="2.6976478099822998e-01" nType="-99"/>
          <Node pos="r" depth="2" NCoef="0" IVar="-1" Cut="0.0000000000000000e+00" cType="1" res="-5.1404785364866257e-02" rms="3.2445457577705383e-01" purity="1.4097703993320465e-01" nType="-99"/>
        </Node>
      </Node>
    </BinaryTree>
    <BinaryTree type="DecisionTree" boostWeight="1.0000000000000000e+00" itree="32">
      <Node pos="s" depth="0" NCoef="0" IVar="2" Cut="5.6388270109891891e-02" cType="1" res="4.1619278490543365e-02" rms="3.5901200771331787e-01" purity="5.0000000000000000e-01" nType="0">
        <Node pos="l" depth="1" NCoef="0" IVar="8" Cut="-5.0259494781494141e+00" cType="1" res="8.5173629224300385e-02" rms="3.6463347077369690e-01" purity="6.2532699108123779e-01" nType="0">
          <Node pos="l" depth="2" NCoef="0" IVar="-1" Cut="0.0000000000000000e+00" cType="1" res="1.3927138410508633e-02" rms="3.3141973614692688e-01" purity="7.3603409528732300e-01" nType="-99"/>
          <Node pos="r" depth="2" NCoef="0" IVar="-1" Cut="0.0000000000000000e+00" cType="1" res="-1.4074640348553658e-03" rms="4.0230748057365417e-01" purity="4.1972756385803223e-01" nType="-99"/>
        </Node>
        <Node pos="r" depth="1" NCoef="0" IVar="4" Cut="3.2858502864837646e-01" cType="1" res="-5.8865323662757874e-02" rms="3.2408452033996582e-01" purity="2.1085713803768158e-01" nType="0">
          <Node pos="l" depth="2" NCoef="0" IVar="-1" Cut="0.0000000000000000e+00" cType="1" res="1.6598401125520468e-03" rms="3.7927508354187012e-01" purity="3.5753530263900757e-01" nType="-99"/>
          <Node pos="r" depth="2" NCoef="0" IVar="-1" Cut="0.0000000000000000e+00" cType="1" res="-2.2550808265805244e-02" rms="2.9602000117301941e-01" purity="1.5501944720745087e-01" nType="-99"/>
        </Node>
      </Node>
    </BinaryTree>
    <BinaryTree type="DecisionTree" boostWeight="1.0000000000000000e+00" itree="33">
      <Node pos="s" depth="0" NCoef="0" IVar="8" Cut="-4.9466080665588379e+00" cType="1" res="4.0745109319686890e-02" rms="3.5781496763229370e-01" purity="5.0000000000000000e-01" nType="0">
        <Node pos="l" depth="1" NCoef="0" IVar="10" Cut="-5.3052252531051636e-01" cType="1" res="8.8411465287208557e-02" rms="3.4498599171638489e-01" purity="6.1253845691680908e-01" nType="0">
          <Node pos="l" depth="2" NCoef="0" IVar="-1" Cut="0.0000000000000000e+00" cType="1" res="-2.5284962728619576e-02" rms="2.5108170509338379e-01" purity="8.0718889832496643e-02" nType="-99"/>
          <Node pos="r" depth="2" NCoef="0" IVar="-1" Cut="0.0000000000000000e+00" cType="1" res="1.2311108410358429e-02" rms="3.5375109314918518e-01" purity="7.3484861850738525e-01" nType="-99"/>
        </Node>
        <Node pos="r" depth="1" NCoef="0" IVar="4" Cut="5.7353943586349487e-01" cType="1" res="-4.4522162526845932e-02" rms="3.6445194482803345e-01" purity="2.9868727922439575e-01" nType="0">
          <Node pos="l" depth="2" NCoef="0" IVar="-1" Cut="0.0000000000000000e+00" cType="1" res="-9.8516501020640135e-04" rms="3.9206749200820923e-01" purity="3.9077228307723999e-01" nType="-99"/>
          <Node pos="r" depth="2" NCoef="0" IVar="-1" Cut="0.0000000000000000e+00" cType="1" res="-2.8232706710696220e-02" rms="3.0659589171409607e-01" purity="1.5297131240367889e-01" nType="-99"/>
        </Node>
      </Node>
    </BinaryTree>
    <BinaryTree type="DecisionTree" boostWeight="1.0000000000000000e+00" itree="34">
      <Node pos="s" depth="0" NCoef="0" IVar="9" Cut="-4.5579047203063965e+00" cType="1" res="4.0181666612625122e-02" rms="3.5654833912849426e-01" purity="5.0000000000000000e-01" nType="0">
        <Node pos="l" depth="1" NCoef="0" IVar="2" Cut="7.6821744441986084e-02" cType="1" res="7.9380325973033905e-02" rms="3.5247236490249634e-01" purity="5.9906601905822754e-01" nType="0">
          <Node pos="l" depth="2" NCoef="0" IVar="-1" Cut="0.0000000000000000e+00" cType="1" res="1.2286072596907616e-02" rms="3.4601747989654541e-01" purity="7.1278208494186401e-01" nType="-99"/>
          <Node pos="r" depth="2" NCoef="0" IVar="-1" Cut="0.0000000000000000e+00" cType="1" res="-6.9170217029750347e-03" rms="3.4645187854766846e-01" purity="2.4619829654693604e-01" nType="-99"/>
        </Node>
        <Node pos="r" depth="1" NCoef="0" IVar="6" Cut="9.4567202031612396e-02" cType="1" res="-5.7582840323448181e-02" rms="3.4777054190635681e-01" purity="2.5292167067527771e-01" nType="0">
          <Node pos="l" depth="2" NCoef="0" IVar="-1" Cut="0.0000000000000000e+00" cType="1" res="-1.4346080133691430e-03" rms="3.8094371557235718e-01" purity="3.5424640774726868e-01" nType="-99"/>
          <Node pos="r" depth="2" NCoef="0" IVar="-1" Cut="0.0000000000000000e+00" cType="1" res="-2.1953037008643150e-02" rms="3.1580695509910583e-01" purity="1.7697098851203918e-01" nType="-99"/>
        </Node>
      </Node>
    </BinaryTree>
    <BinaryTree type="DecisionTree" boostWeight="1.0000000000000000e+00" itree="35">
      <Node pos="s" depth="0" NCoef="0" IVar="5" Cut="3.1014928221702576e-01" cType="1" res="3.9227437227964401e-02" rms="3.5547754168510437e-01" purity="5.0000000000000000e-01" nType="0">
        <Node pos="l" depth="1" NCoef="0" IVar="9" Cut="-4.0685544013977051e+00" cType="1" res="7.4439100921154022e-02" rms="3.6288276314735413e-01" purity="6.1543214321136475e-01" nType="0">
          <Node pos="l" depth="2" NCoef="0" IVar="-1" Cut="0.0000000000000000e+00" cType="1" res="1.1046842671930790e-02" rms="3.5381513833999634e-01" purity="6.8050825595855713e-01" nType="-99"/>
          <Node pos="r" depth="2" NCoef="0" IVar="-1" Cut="0.0000000000000000e+00" cType="1" res="-1.3511165045201778e-02" rms="3.7489032745361328e-01" purity="2.6334011554718018e-01" nType="-99"/>
        </Node>
        <Node pos="r" depth="1" NCoef="0" IVar="5" Cut="6.4318394660949707e-01" cType="1" res="-6.4257249236106873e-02" rms="3.1044694781303406e-01" purity="1.6075260937213898e-01" nType="0">
          <Node pos="l" depth="2" NCoef="0" IVar="-1" Cut="0.0000000000000000e+00" cType="1" res="-7.1405619382858276e-03" rms="3.3921024203300476e-01" purity="2.1131403744220734e-01" nType="-99"/>
          <Node pos="r" depth="2" NCoef="0" IVar="-1" Cut="0.0000000000000000e+00" cType="1" res="-4.0111385285854340e-02" rms="2.4731642007827759e-01" purity="7.4995025992393494e-02" nType="-99"/>
        </Node>
      </Node>
    </BinaryTree>
    <BinaryTree type="DecisionTree" boostWeight="1.0000000000000000e+00" itree="36">
      <Node pos="s" depth="0" NCoef="0" IVar="10" Cut="6.8391776084899902e-01" cType="1" res="3.8521558046340942e-02" rms="3.5428285598754883e-01" purity="5.0000000000000000e-01" nType="0">
        <Node pos="l" depth="1" NCoef="0" IVar="0" Cut="9.9410009384155273e+00" cType="1" res="-3.3710650168359280e-03" rms="3.5891219973564148e-01" purity="3.3589622378349304e-01" nType="0">
          <Node pos="l" depth="2" NCoef="0" IVar="-1" Cut="0.0000000000000000e+00" cType="1" res="4.2350203730165958e-03" rms="3.6942985653877258e-01" purity="4.0599751472473145e-01" nType="-99"/>
          <Node pos="r" depth="2" NCoef="0" IVar="-1" Cut="0.0000000000000000e+00" cType="1" res="-4.6847939491271973e-02" rms="2.9883366823196411e-01" purity="1.3166552782058716e-01" nType="-99"/>
        </Node>
        <Node pos="r" depth="1" NCoef="0" IVar="7" Cut="3.2750408649444580e+00" cType="1" res="1.2215922027826309e-01" rms="3.2928052544593811e-01" purity="8.2762938737869263e-01" nType="0">
          <Node pos="l" depth="2" NCoef="0" IVar="-1" Cut="0.0000000000000000e+00" cType="1" res="1.5289918519556522e-02" rms="3.1796729564666748e-01" purity="8.5245549678802490e-01" nType="-99"/>
          <Node pos="r" depth="2" NCoef="0" IVar="-1" Cut="0.0000000000000000e+00" cType="1" res="-2.6456734165549278e-02" rms="4.1844460368156433e-01" purity="3.5494229197502136e-01" nType="-99"/>
        </Node>
      </Node>
    </BinaryTree>
    <BinaryTree type="DecisionTree" boostWeight="1.0000000000000000e+00" itree="37">
      <Node pos="s" depth="0" NCoef="0" IVar="5" Cut="1.0176773369312286e-01" cType="1" res="3.8431648164987564e-02" rms="3.5258024930953979e-01" purity="5.0000000000000000e-01" nType="0">
        <Node pos="l" depth="1" NCoef="0" IVar="8" Cut="-4.8293437957763672e+00" cType="1" res="9.4414472579956055e-02" rms="3.4958317875862122e-01" purity="6.9875442981719971e-01" nType="0">
          <Node pos="l" depth="2" NCoef="0" IVar="-1" Cut="0.0000000000000000e+00" cType="1" res="1.4018204994499683e-02" rms="3.1099119782447815e-01" purity="7.8907120227813721e-01" nType="-99"/>
          <Node pos="r" depth="2" NCoef="0" IVar="-1" Cut="0.0000000000000000e+00" cType="1" res="-9.9048938136547804e-04" rms="4.1869717836380005e-01" purity="4.5969134569168091e-01" nType="-99"/>
        </Node>
        <Node pos="r" depth="1" NCoef="0" IVar="3" Cut="1.2115506827831268e-01" cType="1" res="-2.1388472989201546e-02" rms="3.4588173031806946e-01" purity="2.8762212395668030e-01" nType="0">
          <Node pos="l" depth="2" NCoef="0" IVar="-1" Cut="0.0000000000000000e+00" cType="1" res="7.9736032057553530e-04" rms="3.5794368386268616e-01" purity="3.3365237712860107e-01" nType="-99"/>
          <Node pos="r" depth="2" NCoef="0" IVar="-1" Cut="0.0000000000000000e+00" cType="1" res="-2.3433322086930275e-02" rms="2.9550272226333618e-01" purity="1.5478810667991638e-01" nType="-99"/>
        </Node>
      </Node>
    </BinaryTree>
    <BinaryTree type="DecisionTree" boostWeight="1.0000000000000000e+00" itree="38">
      <Node pos="s" depth="0" NCoef="0" IVar="8" Cut="-5.1201539039611816e+00" cType="1" res="3.7325903773307800e-02" rms="3.5171648859977722e-01" purity="5.0000000000000000e-01" nType="0">
        <Node pos="l" depth="1" NCoef="0" IVar="10" Cut="-5.3052252531051636e-01" cType="1" res="8.4731057286262512e-02" rms="3.3761942386627197e-01" purity="6.2476772069931030e-01" nType="0">
          <Node pos="l" depth="2" NCoef="0" IVar="-1" Cut="0.0000000000000000e+00" cType="1" res="-2.1319935098290443e-02" rms="2.5488722324371338e-01" purity="8.4558658301830292e-02" nType="-99"/>
          <Node pos="r" depth="2" NCoef="0" IVar="-1" Cut="0.0000000000000000e+00" cType="1" res="1.1858467943966389e-02" rms="3.4570139646530151e-01" purity="7.4347120523452759e-01" nType="-99"/>
        </Node>
        <Node pos="r" depth="1" NCoef="0" IVar="4" Cut="2.8410622477531433e-01" cType="1" res="-2.9816888272762299e-02" rms="3.6024582386016846e-01" purity="3.2328391075134277e-01" nType="0">
          <Node pos="l" depth="2" NCoef="0" IVar="-1" Cut="0.0000000000000000e+00" cType="1" res="3.5207960754632950e-03" rms="4.0116047859191895e-01" purity="4.9747407436370850e-01" nType="-99"/>
          <Node pos="r" depth="2" NCoef="0" IVar="-1" Cut="0.0000000000000000e+00" cType="1" res="-1.3156074099242687e-02" rms="3.3236536383628845e-01" purity="2.3107892274856567e-01" nType="-99"/>
        </Node>
      </Node>
    </BinaryTree>
    <BinaryTree type="DecisionTree" boostWeight="1.0000000000000000e+00" itree="39">
      <Node pos="s" depth="0" NCoef="0" IVar="2" Cut="5.6388270109891891e-02" cType="1" res="3.6562070250511169e-02" rms="3.5084730386734009e-01" purity="5.0000000000000000e-01" nType="0">
        <Node pos="l" depth="1" NCoef="0" IVar="9" Cut="-4.1059594154357910e+00" cType="1" res="7.2812199592590332e-02" rms="3.5764971375465393e-01" purity="6.2532699108123779e-01" nType="0">
          <Node pos="l" depth="2" NCoef="0" IVar="-1" Cut="0.0000000000000000e+00" cType="1" res="1.0821562260389328e-02" rms="3.4874397516250610e-01" purity="6.9245105981826782e-01" nType="-99"/>
          <Node pos="r" depth="2" NCoef="0" IVar="-1" Cut="0.0000000000000000e+00" cType="1" res="-1.1333782225847244e-02" rms="3.7264463305473328e-01" purity="2.7231356501579285e-01" nType="-99"/>
        </Node>
        <Node pos="r" depth="1" NCoef="0" IVar="3" Cut="4.3366204947233200e-02" cType="1" res="-4.7070905566215515e-02" rms="3.1929391622543335e-01" purity="2.1085713803768158e-01" nType="0">
          <Node pos="l" depth="2" NCoef="0" IVar="-1" Cut="0.0000000000000000e+00" cType="1" res="-2.7339712250977755e-03" rms="3.4169998764991760e-01" purity="2.7066335082054138e-01" nType="-99"/>
          <Node pos="r" depth="2" NCoef="0" IVar="-1" Cut="0.0000000000000000e+00" cType="1" res="-2.5569017976522446e-02" rms="2.8104332089424133e-01" purity="1.3132755458354950e-01" nType="-99"/>
        </Node>
      </Node>
    </BinaryTree>
    <BinaryTree type="DecisionTree" boostWeight="1.0000000000000000e+00" itree="40">
      <Node pos="s" depth="0" NCoef="0" IVar="9" Cut="-4.9047856330871582e+00" cType="1" res="3.5724829882383347e-02" rms="3.4993666410446167e-01" purity="5.0000000000000000e-01" nType="0">
        <Node pos="l" depth="1" NCoef="0" IVar="10" Cut="-3.1372368335723877e-01" cType="1" res="7.8319609165191650e-02" rms="3.4334465861320496e-01" purity="6.2121975421905518e-01" nType="0">
          <Node pos="l" depth="2" NCoef="0" IVar="-1" Cut="0.0000000000000000e+00" cType="1" res="-7.3034679517149925e-03" rms="3.1051719188690186e-01" purity="1.4202147722244263e-01" nType="-99"/>
          <Node pos="r" depth="2" NCoef="0" IVar="-1" Cut="0.0000000000000000e+00" cType="1" res="1.1272853240370750e-02" rms="3.4638541936874390e-01" purity="7.6674938201904297e-01" nType="-99"/>
        </Node>
        <Node pos="r" depth="1" NCoef="0" IVar="4" Cut="2.8501108288764954e-01" cType="1" res="-3.1534716486930847e-02" rms="3.4969046711921692e-01" purity="3.0858722329139709e-01" nType="0">
          <Node pos="l" depth="2" NCoef="0" IVar="-1" Cut="0.0000000000000000e+00" cType="1" res="3.2641668803989887e-03" rms="3.9266067743301392e-01" purity="4.8689615726470947e-01" nType="-99"/>
          <Node pos="r" depth="2" NCoef="0" IVar="-1" Cut="0.0000000000000000e+00" cType="1" res="-1.4143661595880985e-02" rms="3.2096189260482788e-01" purity="2.1567128598690033e-01" nType="-99"/>
        </Node>
      </Node>
    </BinaryTree>
    <BinaryTree type="DecisionTree" boostWeight="1.0000000000000000e+00" itree="41">
      <Node pos="s" depth="0" NCoef="0" IVar="8" Cut="-4.6897606849670410e+00" cType="1" res="3.4874405711889267e-02" rms="3.4922841191291809e-01" purity="5.0000000000000000e-01" nType="0">
        <Node pos="l" depth="1" NCoef="0" IVar="10" Cut="-5.3052252531051636e-01" cType="1" res="6.8114489316940308e-02" rms="3.4005120396614075e-01" purity="5.9375584125518799e-01" nType="0">
          <Node pos="l" depth="2" NCoef="0" IVar="-1" Cut="0.0000000000000000e+00" cType="1" res="-2.3126866668462753e-02" rms="2.4518173933029175e-01" purity="7.6576791703701019e-02" nType="-99"/>
          <Node pos="r" depth="2" NCoef="0" IVar="-1" Cut="0.0000000000000000e+00" cType="1" res="1.0363046079874039e-02" rms="3.5317248106002808e-01" purity="7.2182023525238037e-01" nType="-99"/>
        </Node>
